{"learner":{"attributes":{"scikit_learn":"{\"_estimator_type\": \"regressor\"}"},"feature_names":["ShotConv_A","ShotConvRec_A","PointsPerGame_A","xGDiff_A","CornersConv_A","CornersConvRec_A","NumMatches_A","Elo_H","Elo_A","EloDiff","GFvsMid_A","GAvsMid_A","GFvsHigh_A","GAvsHigh_A","GFvsSim_A","GAvsSim_A","Possession_A","PossessionRec_A","CornersFor_A","CornersAgainst_A","Availability_A","xGpp_A","xGppRec_A","xGCorners_A","xGCornersRec_A"],"feature_types":["float","float","float","float","float","float","float","float","float","float","float","float","float","float","float","float","float","float","float","float","float","float","float","float","float"],"gradient_booster":{"model":{"gbtree_model_param":{"num_parallel_tree":"1","num_trees":"220"},"iteration_indptr":[0,1,2,3,4,5,6,7,8,9,10,11,12,13,14,15,16,17,18,19,20,21,22,23,24,25,26,27,28,29,30,31,32,33,34,35,36,37,38,39,40,41,42,43,44,45,46,47,48,49,50,51,52,53,54,55,56,57,58,59,60,61,62,63,64,65,66,67,68,69,70,71,72,73,74,75,76,77,78,79,80,81,82,83,84,85,86,87,88,89,90,91,92,93,94,95,96,97,98,99,100,101,102,103,104,105,106,107,108,109,110,111,112,113,114,115,116,117,118,119,120,121,122,123,124,125,126,127,128,129,130,131,132,133,134,135,136,137,138,139,140,141,142,143,144,145,146,147,148,149,150,151,152,153,154,155,156,157,158,159,160,161,162,163,164,165,166,167,168,169,170,171,172,173,174,175,176,177,178,179,180,181,182,183,184,185,186,187,188,189,190,191,192,193,194,195,196,197,198,199,200,201,202,203,204,205,206,207,208,209,210,211,212,213,214,215,216,217,218,219,220],"tree_info":[0,0,0,0,0,0,0,0,0,0,0,0,0,0,0,0,0,0,0,0,0,0,0,0,0,0,0,0,0,0,0,0,0,0,0,0,0,0,0,0,0,0,0,0,0,0,0,0,0,0,0,0,0,0,0,0,0,0,0,0,0,0,0,0,0,0,0,0,0,0,0,0,0,0,0,0,0,0,0,0,0,0,0,0,0,0,0,0,0,0,0,0,0,0,0,0,0,0,0,0,0,0,0,0,0,0,0,0,0,0,0,0,0,0,0,0,0,0,0,0,0,0,0,0,0,0,0,0,0,0,0,0,0,0,0,0,0,0,0,0,0,0,0,0,0,0,0,0,0,0,0,0,0,0,0,0,0,0,0,0,0,0,0,0,0,0,0,0,0,0,0,0,0,0,0,0,0,0,0,0,0,0,0,0,0,0,0,0,0,0,0,0,0,0,0,0,0,0,0,0,0,0,0,0,0,0,0,0,0,0,0,0,0,0,0,0,0,0,0,0],"trees":[{"base_weights":[-1.7074775E-2,1.5594076E-2,-8.6720747E-1,-1.852237E-1,1.1056272E-1,-9.3753946E-1,1.6182965E-2,-2.6755822E-1,7.8661555E-1,6.125562E-1,1.2062185E-2,-9.905363E-1,-1.8422714E-2,1.3618296E-1,-2.97231E-1,-3.842271E-2,1.0778128E0,7.7905846E-1,-3.1451106E-1,-2.810936E-1,1.0439253E-1,-1.0567824E0,-1.8422714E-2,-1.9263672E-2,1.0618296E-1,9.582018E-2,1.8927441E-3,1.7258387E-2,6.6160575E-2,-5.302839E-2,2.5892744E-2,-3.6353312E-2,1.19670285E-2,3.1866445E-4,2.313422E-2,-1.8422714E-2,-6.851735E-2],"categories":[],"categories_nodes":[],"categories_segments":[],"categories_sizes":[],"default_left":[0,0,0,0,0,0,0,0,0,0,0,0,0,0,0,0,0,0,0,0,0,0,0,0,0,0,0,0,0,0,0,0,0,0,0,0,0],"id":0,"left_children":[1,3,5,7,9,11,-1,13,15,17,19,21,-1,-1,23,-1,25,27,29,31,33,35,-1,-1,-1,-1,-1,-1,-1,-1,-1,-1,-1,-1,-1,-1,-1],"loss_changes":[1.5760733E1,1.045253E1,1.9320736E0,1.4293266E1,1.8386755E1,3.641472E-1,0E0,1.294657E1,6.507724E0,9.660906E0,8.474302E0,4.9053383E-1,0E0,0E0,8.547624E0,0E0,6.4681616E0,7.952484E0,4.6286707E0,1.1826717E1,6.6285143E0,6.71093E-1,0E0,0E0,0E0,0E0,0E0,0E0,0E0,0E0,0E0,0E0,0E0,0E0,0E0,0E0,0E0],"parents":[2147483647,0,0,1,1,2,2,3,3,4,4,5,5,7,7,8,8,9,9,10,10,11,11,14,14,16,16,17,17,18,18,19,19,20,20,21,21],"right_children":[2,4,6,8,10,12,-1,14,16,18,20,22,-1,-1,24,-1,26,28,30,32,34,36,-1,-1,-1,-1,-1,-1,-1,-1,-1,-1,-1,-1,-1,-1,-1],"split_conditions":[2.0806414E-1,8.7247086E-1,1.6617479E3,2.4683867E0,1.4777211E3,2.811961E0,1.6182965E-2,3.4679189E0,6.902563E-2,2.4002848E0,1E0,1.2253846E0,-1.8422714E-2,1.3618296E-1,5.0251718E0,-3.842271E-2,9.70364E-2,3.7746155E0,4.1294494E0,8.339839E-2,4.65782E0,5.03706E-1,-1.8422714E-2,-1.9263672E-2,1.0618296E-1,9.582018E-2,1.8927441E-3,1.7258387E-2,6.6160575E-2,-5.302839E-2,2.5892744E-2,-3.6353312E-2,1.19670285E-2,3.1866445E-4,2.313422E-2,-1.8422714E-2,-6.851735E-2],"split_indices":[23,2,7,1,8,0,0,19,23,15,10,10,0,0,15,0,23,18,18,23,18,14,0,0,0,0,0,0,0,0,0,0,0,0,0,0,0],"split_type":[0,0,0,0,0,0,0,0,0,0,0,0,0,0,0,0,0,0,0,0,0,0,0,0,0,0,0,0,0,0,0,0,0,0,0,0,0],"sum_hessian":[5.66E2,5.46E2,2E1,1.75E2,3.71E2,1.9E1,1E0,1.62E2,1.3E1,6E1,3.11E2,1.7E1,2E0,1E0,1.61E2,2E0,1.1E1,5.1E1,9E0,7.4E1,2.37E2,1.5E1,2E0,1.6E2,1E0,7E0,4E0,2.1E1,3E1,5E0,4E0,4.4E1,3E1,1.76E2,6.1E1,2E0,1.3E1],"tree_param":{"num_deleted":"0","num_feature":"25","num_nodes":"37","size_leaf_vector":"1"}},{"base_weights":[-1.7358191E-2,1.0001624E-2,-7.226754E-1,-2.5159256E-3,1.3548896E0,4.8238482E-2,-8.3920664E-1,-8.261685E-1,1.6243745E-2,9.4962545E-2,1.3308359E-2,-9.1091484E-1,1.5697474E-2,-1.0396541E0,4.5665212E-2,1.1706827E0,7.018723E-4,-9.660642E-1,-1.7685805E-2,-7.035725E-2,-1.7652167E-2,8.636083E-2,-1.3239126E-2,-1.2517128E-3,4.0956702E-2,-1.7685805E-2,-6.2155206E-2],"categories":[],"categories_nodes":[],"categories_segments":[],"categories_sizes":[],"default_left":[0,0,0,0,0,0,0,0,0,0,0,0,0,0,0,0,0,0,0,0,0,0,0,0,0,0,0],"id":1,"left_children":[1,3,5,7,9,-1,11,13,15,-1,-1,17,-1,19,-1,21,23,25,-1,-1,-1,-1,-1,-1,-1,-1,-1],"loss_changes":[1.0852338E1,9.127817E0,4.410652E0,8.326301E0,9.3963814E-1,0E0,1.817091E0,4.857543E0,9.454687E0,0E0,0E0,3.608675E-1,0E0,7.453327E-1,0E0,2.9342108E0,7.6753044E0,4.9185276E-1,0E0,0E0,0E0,0E0,0E0,0E0,0E0,0E0,0E0],"parents":[2147483647,0,0,1,1,2,2,3,3,4,4,6,6,7,7,8,8,11,11,13,13,15,15,16,16,17,17],"right_children":[2,4,6,8,10,-1,12,14,16,-1,-1,18,-1,20,-1,22,24,26,-1,-1,-1,-1,-1,-1,-1,-1,-1],"split_conditions":[2.0806414E-1,2.7236745E0,4.4230328E0,1.3930713E3,6.5090027E0,4.8238482E-2,1.6617479E3,8.03753E-1,4.5444682E-1,9.4962545E-2,1.3308359E-2,2.811961E0,1.5697474E-2,4.1293697E0,4.5665212E-2,-9.4453317E-1,3.303421E0,5.03706E-1,-1.7685805E-2,-7.035725E-2,-1.7652167E-2,8.636083E-2,-1.3239126E-2,-1.2517128E-3,4.0956702E-2,-1.7685805E-2,-6.2155206E-2],"split_indices":[23,1,18,8,19,0,7,2,2,0,0,0,0,18,0,3,15,14,0,0,0,0,0,0,0,0,0],"split_type":[0,0,0,0,0,0,0,0,0,0,0,0,0,0,0,0,0,0,0,0,0,0,0,0,0,0,0],"sum_hessian":[5.61E2,5.41E2,2E1,5.37E2,4E0,1E0,1.9E1,1.1E1,5.26E2,3E0,1E0,1.8E1,1E0,1E1,1E0,6E0,5.2E2,1.6E1,2E0,8E0,2E0,5E0,1E0,5.05E2,1.5E1,2E0,1.4E1],"tree_param":{"num_deleted":"0","num_feature":"25","num_nodes":"27","size_leaf_vector":"1"}},{"base_weights":[1.8444951E-3,-2.1958427E-1,1.0368552E-1,-2.6185203E-1,1.2952504E0,-5.141143E-1,1.5330254E-1,1.3086876E-1,-2.885812E-1,9.068923E-2,1.2909107E-2,-7.895821E-1,8.823258E-2,1.2085254E-1,8.894325E-1,-3.099816E-1,1.0176877E-1,-1.0739505E0,-4.5928508E-1,6.000141E-1,-5.4355174E-1,-1.9401683E-1,2.135635E-1,1.3694406E0,-5.881965E-2,-2.6087385E-2,-1.7520628E-3,-6.877694E-2,-1.2688884E-2,1.1637881E-2,-4.370996E-2,4.885641E-2,-1.4138496E-2,-3.5817955E-2,-9.896858E-3,3.3512883E-2,-1.7925264E-2,1.4463483E-2,-5.052602E-2,9.483589E-2,2.0992398E-2,2.3328805E-2,-3.816343E-2],"categories":[],"categories_nodes":[],"categories_segments":[],"categories_sizes":[],"default_left":[0,0,0,0,0,0,0,0,0,0,0,0,0,0,0,0,0,0,0,0,0,0,0,0,0,0,0,0,0,0,0,0,0,0,0,0,0,0,0,0,0,0,0],"id":2,"left_children":[1,3,5,7,9,11,13,-1,15,-1,-1,17,19,21,23,25,-1,27,29,31,33,35,37,39,41,-1,-1,-1,-1,-1,-1,-1,-1,-1,-1,-1,-1,-1,-1,-1,-1,-1,-1],"loss_changes":[1.2741268E1,1.1736266E1,1.1941675E1,1.1991512E1,8.4258556E-1,4.881554E0,8.468094E0,0E0,7.8737803E0,0E0,0E0,1.3852711E0,3.559494E0,1.0112619E1,6.908079E0,6.014818E0,0E0,3.8142395E-1,2.075809E0,1.2661595E0,2.6459694E-3,6.393793E0,7.952676E0,1.599886E0,1.7976514E0,0E0,0E0,0E0,0E0,0E0,0E0,0E0,0E0,0E0,0E0,0E0,0E0,0E0,0E0,0E0,0E0,0E0,0E0],"parents":[2147483647,0,0,1,1,2,2,3,3,4,4,5,5,6,6,8,8,11,11,12,12,13,13,14,14,15,15,17,17,18,18,19,19,20,20,21,21,22,22,23,23,24,24],"right_children":[2,4,6,8,10,12,14,-1,16,-1,-1,18,20,22,24,26,-1,28,30,32,34,36,38,40,42,-1,-1,-1,-1,-1,-1,-1,-1,-1,-1,-1,-1,-1,-1,-1,-1,-1,-1],"split_conditions":[8.7247086E-1,2.7236745E0,3.4679189E0,3.4679189E0,6.5090027E0,-1.0211527E2,2.0646038E0,1.3086876E-1,5.0251718E0,9.068923E-2,1.2909107E-2,2.122962E0,3.0977063E0,1E0,6.048963E0,1.2100394E0,1.0176877E-1,1.8602647E0,2.3473616E0,3.0340235E0,1.8407997E0,1.4565392E3,1.7032559E3,4.755637E0,1.512929E3,-2.6087385E-2,-1.7520628E-3,-6.877694E-2,-1.2688884E-2,1.1637881E-2,-4.370996E-2,4.885641E-2,-1.4138496E-2,-3.5817955E-2,-9.896858E-3,3.3512883E-2,-1.7925264E-2,1.4463483E-2,-5.052602E-2,9.483589E-2,2.0992398E-2,2.3328805E-2,-3.816343E-2],"split_indices":[2,1,19,19,19,9,1,0,15,0,0,0,19,10,19,14,0,1,0,0,2,8,8,18,7,0,0,0,0,0,0,0,0,0,0,0,0,0,0,0,0,0,0],"split_type":[0,0,0,0,0,0,0,0,0,0,0,0,0,0,0,0,0,0,0,0,0,0,0,0,0,0,0,0,0,0,0,0,0,0,0,0,0,0,0,0,0,0,0],"sum_hessian":[5.63E2,1.77E2,3.86E2,1.73E2,4E0,2.8E1,3.58E2,1E0,1.72E2,3E0,1E0,1.9E1,9E0,3.44E2,1.4E1,1.71E2,1E0,9E0,1E1,5E0,4E0,7.8E1,2.66E2,9E0,5E0,1.18E2,5.3E1,8E0,1E0,3E0,7E0,4E0,1E0,3E0,1E0,9E0,6.9E1,2.6E2,6E0,7E0,2E0,3E0,2E0],"tree_param":{"num_deleted":"0","num_feature":"25","num_nodes":"43","size_leaf_vector":"1"}},{"base_weights":[9.944902E-3,3.8506143E-2,-7.916951E-1,-1.6239016E-1,1.2700783E-1,-8.5750514E-1,1.3760858E-2,1.2694271E-1,-1.8808497E-1,4.252707E-1,3.740428E-2,-1.5229974E-2,-9.1359407E-1,2.9215914E-1,-2.9233664E-1,6.307591E-1,-1.3422951E-1,-3.0912983E-1,1.457219E-1,-9.7545326E-1,-1.7986007E-2,3.4898233E-2,-3.67677E-2,-1.9075708E-2,9.871571E-2,3.7974308E-3,5.256652E-2,-4.1281797E-2,1.6850365E-2,-2.3131417E-2,3.5727344E-2,8.500738E-4,2.1238782E-2,-6.10004E-2,-1.1951158E-2],"categories":[],"categories_nodes":[],"categories_segments":[],"categories_sizes":[],"default_left":[0,0,0,0,0,0,0,0,0,0,0,0,0,0,0,0,0,0,0,0,0,0,0,0,0,0,0,0,0,0,0,0,0,0,0],"id":3,"left_children":[1,3,5,7,9,11,-1,-1,13,15,17,-1,19,21,23,25,27,29,31,33,-1,-1,-1,-1,-1,-1,-1,-1,-1,-1,-1,-1,-1,-1,-1],"loss_changes":[1.3310068E1,9.995015E0,1.5405645E0,1.0466025E1,1.0407003E1,4.1142654E-1,0E0,0E0,8.646736E0,1.0432041E1,1.13433075E1,0E0,3.5309505E-1,8.477321E0,7.5148067E0,9.13361E0,5.9398603E0,5.2051015E0,6.296329E0,2.7746105E-1,0E0,0E0,0E0,0E0,0E0,0E0,0E0,0E0,0E0,0E0,0E0,0E0,0E0,0E0,0E0],"parents":[2147483647,0,0,1,1,2,2,3,3,4,4,5,5,8,8,9,9,10,10,12,12,13,13,14,14,15,15,16,16,17,17,18,18,19,19],"right_children":[2,4,6,8,10,12,-1,-1,14,16,18,-1,20,22,24,26,28,30,32,34,-1,-1,-1,-1,-1,-1,-1,-1,-1,-1,-1,-1,-1,-1,-1],"split_conditions":[2.0806414E-1,8.7247086E-1,2.5016537E0,3.4679189E0,1.4843596E3,2.6806257E0,1.3760858E-2,1.2694271E-1,5.6204396E-1,5.964437E0,1E0,-1.5229974E-2,1.2253846E0,1.06464475E-1,5.0251718E0,3.7455118E0,1.1698931E0,2.0470397E0,4.427629E0,2.0179443E0,-1.7986007E-2,3.4898233E-2,-3.67677E-2,-1.9075708E-2,9.871571E-2,3.7974308E-3,5.256652E-2,-4.1281797E-2,1.6850365E-2,-2.3131417E-2,3.5727344E-2,8.500738E-4,2.1238782E-2,-6.10004E-2,-1.1951158E-2],"split_indices":[23,2,15,19,8,19,0,0,2,19,10,0,10,23,15,18,14,1,18,1,0,0,0,0,0,0,0,0,0,0,0,0,0,0,0],"split_type":[0,0,0,0,0,0,0,0,0,0,0,0,0,0,0,0,0,0,0,0,0,0,0,0,0,0,0,0,0,0,0,0,0,0,0],"sum_hessian":[5.79E2,5.6E2,1.9E1,1.71E2,3.89E2,1.8E1,1E0,1E0,1.7E2,8.9E1,3E2,2E0,1.6E1,3E1,1.4E2,6.5E1,2.4E1,7.1E1,2.29E2,1.4E1,2E0,2.3E1,7E0,1.39E2,1E0,2E1,4.5E1,1E1,1.4E1,6.6E1,5E0,1.41E2,8.8E1,1.3E1,1E0],"tree_param":{"num_deleted":"0","num_feature":"25","num_nodes":"35","size_leaf_vector":"1"}},{"base_weights":[1.2763353E-2,-6.3425446E-1,4.3326445E-2,-7.6595855E-1,3.784778E-2,-1.5783525E-1,1.8840465E-1,-1.972223E-2,-8.6372536E-1,1.2313442E-1,-1.7636706E-1,6.157402E-1,9.344698E-2,-3.4772274E-1,-9.781445E-1,-2.0626596E-1,1.2103364E0,8.2518435E-1,-3.967859E-2,2.8822818E-1,-5.293529E-2,1.3423633E-2,-3.279102E-2,-6.131421E-2,-1.0965582E-2,-1.328211E-2,9.575424E-2,8.503779E-2,1.1474887E-2,9.882329E-3,6.7675054E-2,2.2879615E-2,-5.7477303E-2,2.1470334E-2,-4.9019817E-2,5.239793E-2,-8.350841E-3],"categories":[],"categories_nodes":[],"categories_segments":[],"categories_sizes":[],"default_left":[0,0,0,0,0,0,0,0,0,0,0,0,0,0,0,0,0,0,0,0,0,0,0,0,0,0,0,0,0,0,0,0,0,0,0,0,0],"id":4,"left_children":[1,3,5,7,-1,9,11,-1,13,-1,15,17,19,21,23,25,27,29,31,33,35,-1,-1,-1,-1,-1,-1,-1,-1,-1,-1,-1,-1,-1,-1,-1,-1],"loss_changes":[1.1398026E1,4.8150864E0,1.6081034E1,7.420654E-1,0E0,9.822945E0,1.2927671E1,0E0,7.816477E-1,0E0,9.785658E0,7.9946117E0,7.5140495E0,6.902757E-1,3.3531475E-1,6.504409E0,7.834983E-1,8.611979E0,6.1642866E0,8.986068E0,1.2183942E1,0E0,0E0,0E0,0E0,0E0,0E0,0E0,0E0,0E0,0E0,0E0,0E0,0E0,0E0,0E0,0E0],"parents":[2147483647,0,0,1,1,2,2,3,3,5,5,6,6,8,8,10,10,11,11,12,12,13,13,14,14,15,15,16,16,17,17,18,18,19,19,20,20],"right_children":[2,4,6,8,-1,10,12,-1,14,-1,16,18,20,22,24,26,28,30,32,34,36,-1,-1,-1,-1,-1,-1,-1,-1,-1,-1,-1,-1,-1,-1,-1,-1],"split_conditions":[3.2713943E0,1.5124588E0,9.960771E-1,5.724589E0,3.784778E-2,3.4679189E0,1.4820618E3,-1.972223E-2,1.5813953E3,1.2313442E-1,2.7236745E0,6.0716305E0,4.9372215E0,1.3336385E0,3.3364797E0,5.0251718E0,6.5090027E0,1.4860812E0,1.8918947E0,1.7032559E3,1.0374511E0,1.3423633E-2,-3.279102E-2,-6.131421E-2,-1.0965582E-2,-1.328211E-2,9.575424E-2,8.503779E-2,1.1474887E-2,9.882329E-3,6.7675054E-2,2.2879615E-2,-5.7477303E-2,2.1470334E-2,-4.9019817E-2,5.239793E-2,-8.350841E-3],"split_indices":[19,9,2,18,0,19,8,0,8,0,1,19,19,1,0,15,19,15,1,8,15,0,0,0,0,0,0,0,0,0,0,0,0,0,0,0,0],"split_type":[0,0,0,0,0,0,0,0,0,0,0,0,0,0,0,0,0,0,0,0,0,0,0,0,0,0,0,0,0,0,0,0,0,0,0,0,0],"sum_hessian":[5.74E2,2.5E1,5.49E2,2.3E1,2E0,2.3E2,3.19E2,5E0,1.8E1,1E0,2.29E2,5.7E1,2.62E2,4E0,1.4E1,2.25E2,4E0,4.3E1,1.4E1,1.12E2,1.5E2,1E0,3E0,1.3E1,1E0,2.24E2,1E0,3E0,1E0,1.4E1,2.9E1,1E1,4E0,1.06E2,6E0,1.2E1,1.38E2],"tree_param":{"num_deleted":"0","num_feature":"25","num_nodes":"37","size_leaf_vector":"1"}},{"base_weights":[5.9861736E-3,-1.8868299E-1,9.807775E-2,1.194404E-1,-2.113462E-1,2.3077533E-1,-1.0984902E-1,-2.586507E-1,4.882391E-1,1.7034744E0,1.8554069E-1,-3.8512596E-1,4.8572987E-2,-1.6302264E-1,-5.830388E-1,-1.9693759E-1,8.921244E-2,2.0335844E-2,1.3089034E-1,1.01895474E-1,6.721143E-1,-5.435458E-1,5.025715E-1,-1.9982399E-1,3.01048E-1,-1.6304905E-2,1.819447E-2,2.4249E-2,-3.8839396E-2,-3.3715215E-2,3.592042E-2,1.4423612E-2,-1.9104393E-2,5.6855522E-2,-3.154879E-2,-3.5382945E-2,4.879334E-2,6.374996E-2,-9.4722435E-3,-5.3241476E-2,-4.0358175E-3,5.200714E-2,2.9992585E-3],"categories":[],"categories_nodes":[],"categories_segments":[],"categories_sizes":[],"default_left":[0,0,0,0,0,0,0,0,0,0,0,0,0,0,0,0,0,0,0,0,0,0,0,0,0,0,0,0,0,0,0,0,0,0,0,0,0,0,0,0,0,0,0],"id":5,"left_children":[1,3,5,-1,7,9,11,13,15,17,19,21,23,25,27,29,-1,-1,-1,31,33,35,37,39,41,-1,-1,-1,-1,-1,-1,-1,-1,-1,-1,-1,-1,-1,-1,-1,-1,-1,-1],"loss_changes":[1.0326756E1,9.558092E0,1.081358E1,0E0,6.2154922E0,1.5605398E1,6.6910253E0,5.271517E0,8.503717E0,3.826683E0,9.414511E0,8.148388E0,6.206132E0,6.9262166E0,2.7365923E0,2.6594813E0,0E0,0E0,0E0,1.1718744E1,1.1718337E1,3.4863844E0,3.4959376E0,4.4973006E0,6.9163513E0,0E0,0E0,0E0,0E0,0E0,0E0,0E0,0E0,0E0,0E0,0E0,0E0,0E0,0E0,0E0,0E0,0E0,0E0],"parents":[2147483647,0,0,1,1,2,2,4,4,5,5,6,6,7,7,8,8,9,9,10,10,11,11,12,12,13,13,14,14,15,15,19,19,20,20,21,21,22,22,23,23,24,24],"right_children":[2,4,6,-1,8,10,12,14,16,18,20,22,24,26,28,30,-1,-1,-1,32,34,36,38,40,42,-1,-1,-1,-1,-1,-1,-1,-1,-1,-1,-1,-1,-1,-1,-1,-1,-1,-1],"split_conditions":[8.82808E-1,3.4679189E0,1.4028015E0,1.194404E-1,2.4683867E0,3.7920244E0,1E0,9.2952225E1,1.1121844E0,3.6116517E0,1.3052053E0,1.5177977E0,1.4947637E3,1.5194436E3,6.806681E-2,1.0322556E0,8.921244E-2,2.0335844E-2,1.3089034E-1,1.1965437E0,1.709668E0,6.390121E0,1.515176E3,1.3391575E0,1.5112367E3,-1.6304905E-2,1.819447E-2,2.4249E-2,-3.8839396E-2,-3.3715215E-2,3.592042E-2,1.4423612E-2,-1.9104393E-2,5.6855522E-2,-3.154879E-2,-3.5382945E-2,4.879334E-2,6.374996E-2,-9.4722435E-3,-5.3241476E-2,-4.0358175E-3,5.200714E-2,2.9992585E-3],"split_indices":[2,19,2,0,1,19,10,9,0,19,2,11,7,7,23,14,0,0,0,2,1,19,8,14,7,0,0,0,0,0,0,0,0,0,0,0,0,0,0,0,0,0,0],"split_type":[0,0,0,0,0,0,0,0,0,0,0,0,0,0,0,0,0,0,0,0,0,0,0,0,0,0,0,0,0,0,0,0,0,0,0,0,0,0,0,0,0,0,0],"sum_hessian":[5.74E2,1.84E2,3.9E2,1E0,1.83E2,2.38E2,1.52E2,1.72E2,1.1E1,6E0,2.32E2,5.5E1,9.7E1,1.34E2,3.8E1,7E0,4E0,2E0,4E0,1.99E2,3.3E1,4.7E1,8E0,4.9E1,4.8E1,1.09E2,2.5E1,2E0,3.6E1,5E0,2E0,1.5E2,4.9E1,2.7E1,6E0,4.6E1,1E0,4E0,4E0,7E0,4.2E1,1.4E1,3.4E1],"tree_param":{"num_deleted":"0","num_feature":"25","num_nodes":"43","size_leaf_vector":"1"}},{"base_weights":[5.6379912E-3,3.1332295E-2,-6.1909044E-1,-1.3707247E-1,1.0653305E-1,3.603607E-1,-7.295315E-1,1.15857184E-1,-1.6032235E-1,7.5711586E-2,7.728995E-1,4.6877746E-2,-1.4445283E-2,-7.881316E-1,1.3274091E-2,2.9293478E-1,-2.581438E-1,-2.5391042E-1,1.8218806E-1,1.066909E0,-1.4610496E-1,-9.117407E-1,-3.477536E-1,3.3584602E-2,-3.2646473E-2,-2.4433311E-2,9.634535E-3,3.5183273E-2,-2.0518076E-2,1.2219447E-2,-5.0146077E-2,3.7613973E-2,9.873265E-2,1.8866323E-2,-3.347682E-2,-5.717919E-2,-1.002898E-2,-3.310262E-2,-1.179721E-2],"categories":[],"categories_nodes":[],"categories_segments":[],"categories_sizes":[],"default_left":[0,0,0,0,0,0,0,0,0,0,0,0,0,0,0,0,0,0,0,0,0,0,0,0,0,0,0,0,0,0,0,0,0,0,0,0,0,0,0],"id":6,"left_children":[1,3,5,7,9,11,13,-1,15,17,19,-1,-1,21,-1,23,25,27,29,31,33,35,37,-1,-1,-1,-1,-1,-1,-1,-1,-1,-1,-1,-1,-1,-1,-1,-1],"loss_changes":[9.345588E0,7.0938716E0,2.750844E0,8.627647E0,7.889839E0,9.471923E-1,1.3443766E0,0E0,7.7018037E0,1.3067242E1,4.7492123E0,0E0,0E0,7.7163315E-1,0E0,7.2277975E0,8.9292965E0,6.934033E0,6.311432E0,2.2782736E0,1.1237965E0,3.013773E-1,7.647067E-2,0E0,0E0,0E0,0E0,0E0,0E0,0E0,0E0,0E0,0E0,0E0,0E0,0E0,0E0,0E0,0E0],"parents":[2147483647,0,0,1,1,2,2,3,3,4,4,5,5,6,6,8,8,9,9,10,10,13,13,15,15,16,16,17,17,18,18,19,19,20,20,21,21,22,22],"right_children":[2,4,6,8,10,12,14,-1,16,18,20,-1,-1,22,-1,24,26,28,30,32,34,36,38,-1,-1,-1,-1,-1,-1,-1,-1,-1,-1,-1,-1,-1,-1,-1,-1],"split_conditions":[2.0806414E-1,8.7247086E-1,4.4230328E0,3.4679189E0,2.0646038E0,1.3311816E0,2.5016537E0,1.15857184E-1,5.6204396E-1,1E0,6.048963E0,4.6877746E-2,-1.4445283E-2,2.5072997E0,1.3274091E-2,1.06464475E-1,8.898388E-2,1.4619718E3,1.7032559E3,1.0572357E-1,1.5056747E3,2.0179443E0,1.076906E0,3.3584602E-2,-3.2646473E-2,-2.4433311E-2,9.634535E-3,3.5183273E-2,-2.0518076E-2,1.2219447E-2,-5.0146077E-2,3.7613973E-2,9.873265E-2,1.8866323E-2,-3.347682E-2,-5.717919E-2,-1.002898E-2,-3.310262E-2,-1.179721E-2],"split_indices":[23,2,18,19,1,1,15,0,2,10,19,0,0,14,0,23,24,8,8,24,7,1,1,0,0,0,0,0,0,0,0,0,0,0,0,0,0,0,0],"split_type":[0,0,0,0,0,0,0,0,0,0,0,0,0,0,0,0,0,0,0,0,0,0,0,0,0,0,0,0,0,0,0,0,0,0,0,0,0,0,0],"sum_hessian":[5.8E2,5.58E2,2.2E1,1.72E2,3.86E2,2E0,2E1,1E0,1.71E2,3.7E2,1.6E1,1E0,1E0,1.9E1,1E0,3E1,1.41E2,9E1,2.8E2,1.2E1,4E0,1.4E1,5E0,2.3E1,7E0,1.04E2,3.7E1,8E0,8.2E1,2.75E2,5E0,8E0,4E0,2E0,2E0,1.3E1,1E0,1E0,4E0],"tree_param":{"num_deleted":"0","num_feature":"25","num_nodes":"39","size_leaf_vector":"1"}},{"base_weights":[-1.9498914E-2,3.540431E-3,-5.998324E-1,3.187471E-2,-3.9400095E-1,3.495499E-1,-7.1224815E-1,-1.3099752E-1,1.1158611E-1,-4.6092397E-1,6.0456812E-2,-1.4011924E-2,4.5471415E-2,-7.7232414E-1,1.2875869E-2,-3.6247307E-1,6.247152E-2,-1.1508357E-1,1.9438049E-1,-7.472864E-2,-8.429677E-1,-8.299859E-1,-1.1287972E-2,-1.3280105E-2,-6.306824E-2,-5.5834698E-3,2.3842165E-2,-5.409561E-2,-1.8861722E-3,2.8108077E-3,2.9754937E-2,-2.4460249E-2,3.3256087E-2,-5.8834996E-2,-6.970038E-3,-5.173434E-2,-9.418094E-3],"categories":[],"categories_nodes":[],"categories_segments":[],"categories_sizes":[],"default_left":[0,0,0,0,0,0,0,0,0,0,0,0,0,0,0,0,0,0,0,0,0,0,0,0,0,0,0,0,0,0,0,0,0,0,0,0,0],"id":7,"left_children":[1,3,5,7,9,11,13,15,17,19,-1,-1,-1,21,-1,23,25,27,29,31,33,35,-1,-1,-1,-1,-1,-1,-1,-1,-1,-1,-1,-1,-1,-1,-1],"loss_changes":[7.7035346E0,6.2641063E0,2.5969262E0,6.752677E0,3.9350424E0,8.912133E-1,1.2793646E0,7.6805983E0,6.572045E0,5.2485723E0,0E0,0E0,0E0,4.8387623E-1,0E0,7.348687E0,4.933105E0,6.155869E0,1.1365335E1,4.204931E0,1.6864309E0,2.336731E-1,0E0,0E0,0E0,0E0,0E0,0E0,0E0,0E0,0E0,0E0,0E0,0E0,0E0,0E0,0E0],"parents":[2147483647,0,0,1,1,2,2,3,3,4,4,5,5,6,6,7,7,8,8,9,9,13,13,15,15,16,16,17,17,18,18,19,19,20,20,21,21],"right_children":[2,4,6,8,10,12,14,16,18,20,-1,-1,-1,22,-1,24,26,28,30,32,34,36,-1,-1,-1,-1,-1,-1,-1,-1,-1,-1,-1,-1,-1,-1,-1],"split_conditions":[2.0806414E-1,1.4193289E2,4.4230328E0,3.770277E0,2.5522614E0,1.7656972E0,2.5016537E0,1.6842631E0,-6.6964874E1,1.8408495E0,6.0456812E-2,-1.4011924E-2,4.5471415E-2,2.811961E0,1.2875869E-2,1.5133588E-1,8.3455995E-2,1.5639534E0,8.379746E-2,1.0186074E0,4.485937E0,1.2253846E0,-1.1287972E-2,-1.3280105E-2,-6.306824E-2,-5.5834698E-3,2.3842165E-2,-5.409561E-2,-1.8861722E-3,2.8108077E-3,2.9754937E-2,-2.4460249E-2,3.3256087E-2,-5.8834996E-2,-6.970038E-3,-5.173434E-2,-9.418094E-3],"split_indices":[23,9,18,18,1,0,15,15,9,1,0,0,0,0,0,24,24,14,24,14,18,10,0,0,0,0,0,0,0,0,0,0,0,0,0,0,0],"split_type":[0,0,0,0,0,0,0,0,0,0,0,0,0,0,0,0,0,0,0,0,0,0,0,0,0,0,0,0,0,0,0,0,0,0,0,0,0],"sum_hessian":[5.75E2,5.54E2,2.1E1,5.18E2,3.6E1,2E0,1.9E1,1.7E2,3.48E2,3.5E1,1E0,1E0,1E0,1.8E1,1E0,7.7E1,9.3E1,9.3E1,2.55E2,1.8E1,1.7E1,1.6E1,2E0,6.5E1,1.2E1,6.4E1,2.9E1,8E0,8.5E1,1.72E2,8.3E1,1.2E1,6E0,1.4E1,3E0,1.5E1,1E0],"tree_param":{"num_deleted":"0","num_feature":"25","num_nodes":"37","size_leaf_vector":"1"}},{"base_weights":[-8.3874E-3,2.0185549E-2,-6.87562E-1,1.0307776E-2,1.0888746E0,-3.4440678E-1,-7.637492E-1,-9.056185E-2,1.18838035E-1,7.705909E-2,9.212998E-3,-4.4959897E-1,-5.3608967E-3,-8.3563894E-1,-1.8193513E-2,3.781008E-1,-1.4371404E-1,-2.0361225E-1,2.2845706E-1,-3.1053174E-2,-7.372112E-3,-8.758606E-1,-8.176081E-3,3.644185E-2,-5.063018E-2,-9.3939705E-3,9.323629E-2,4.733479E-2,-1.6749129E-2,2.3924379E-2,8.9656434E-4,-3.4856852E-2,-6.1465614E-2],"categories":[],"categories_nodes":[],"categories_segments":[],"categories_sizes":[],"default_left":[0,0,0,0,0,0,0,0,0,0,0,0,0,0,0,0,0,0,0,0,0,0,0,0,0,0,0,0,0,0,0,0,0],"id":8,"left_children":[1,3,5,7,9,11,13,15,17,-1,-1,19,-1,21,-1,23,25,27,29,-1,-1,31,-1,-1,-1,-1,-1,-1,-1,-1,-1,-1,-1],"loss_changes":[1.1055904E1,5.7630544E0,3.382721E-1,5.9552035E0,7.1680975E-1,1.2081003E-1,3.4253883E-1,7.0790844E0,9.307348E0,0E0,0E0,2.521956E-2,0E0,3.025961E-1,0E0,8.636734E0,5.785183E0,5.2435713E0,7.120167E0,0E0,0E0,1.8259048E-2,0E0,0E0,0E0,0E0,0E0,0E0,0E0,0E0,0E0,0E0,0E0],"parents":[2147483647,0,0,1,1,2,2,3,3,4,4,5,5,6,6,7,7,8,8,11,11,13,13,15,15,16,16,17,17,18,18,21,21],"right_children":[2,4,6,8,10,12,14,16,18,-1,-1,20,-1,22,-1,24,26,28,30,-1,-1,32,-1,-1,-1,-1,-1,-1,-1,-1,-1,-1,-1],"split_conditions":[1.8913417E-1,2.7236745E0,1.4567665E3,4.0379343E0,6.5090027E0,1.4124904E3,1.2253846E0,-7.964755E1,-8.696251E1,7.705909E-2,9.212998E-3,1.6413653E0,-5.3608967E-3,2.0179443E0,-1.8193513E-2,1.6077311E-1,5.0251718E0,-5.022865E-1,1.5136864E3,-3.1053174E-2,-7.372112E-3,7.654329E-2,-8.176081E-3,3.644185E-2,-5.063018E-2,-9.3939705E-3,9.323629E-2,4.733479E-2,-1.6749129E-2,2.3924379E-2,8.9656434E-4,-3.4856852E-2,-6.1465614E-2],"split_indices":[23,1,7,18,19,7,10,9,9,0,0,1,0,1,0,24,15,3,7,0,0,24,0,0,0,0,0,0,0,0,0,0,0],"split_type":[0,0,0,0,0,0,0,0,0,0,0,0,0,0,0,0,0,0,0,0,0,0,0,0,0,0,0,0,0,0,0,0,0],"sum_hessian":[5.68E2,5.46E2,2.2E1,5.42E2,4E0,5E0,1.7E1,2.81E2,2.61E2,3E0,1E0,3E0,2E0,1.4E1,3E0,2.8E1,2.53E2,6.6E1,1.95E2,2E0,1E0,1.3E1,1E0,2.4E1,4E0,2.52E2,1E0,4E0,6.2E1,1.08E2,8.7E1,6E0,7E0],"tree_param":{"num_deleted":"0","num_feature":"25","num_nodes":"33","size_leaf_vector":"1"}},{"base_weights":[-6.504976E-3,-2.1329205E-2,8.213376E-1,3.2192096E-2,-2.52542E-1,-2.522727E-2,1.6729479E0,-3.3386614E-2,4.8051202E-1,-7.6761776E-1,-4.589969E-2,1.5534873E-2,-4.3378092E-2,1.5597796E-2,1.1767218E-1,-5.028504E-1,6.3593355E-3,-4.8512268E-1,6.44716E-1,-5.3739274E-1,-7.470594E-2,-2.2078608E-1,5.2988905E-1,-4.509597E-2,-1.1244686E-2,-9.237766E-3,1.2213934E-2,1.7101828E-2,-3.7021235E-2,2.5473481E-2,7.431968E-2,4.1741583E-2,-4.1729156E-2,-4.1826278E-2,4.876261E-3,4.4731062E-2,-1.0790949E-2],"categories":[],"categories_nodes":[],"categories_segments":[],"categories_sizes":[],"default_left":[0,0,0,0,0,0,0,0,0,0,0,0,0,0,0,0,0,0,0,0,0,0,0,0,0,0,0,0,0,0,0,0,0,0,0,0,0],"id":9,"left_children":[1,3,5,7,9,11,13,15,17,19,21,-1,-1,-1,-1,23,25,27,29,31,-1,33,35,-1,-1,-1,-1,-1,-1,-1,-1,-1,-1,-1,-1,-1,-1],"loss_changes":[6.9758153E0,6.913273E0,7.251637E0,1.3363752E1,1.11405945E1,1.3767313E0,1.52666E0,7.4109335E0,9.509311E0,2.6287365E0,7.770011E0,0E0,0E0,0E0,0E0,2.2915616E0,1.16346035E1,1.0901043E0,6.012207E0,4.77258E0,0E0,8.545302E0,2.8887992E0,0E0,0E0,0E0,0E0,0E0,0E0,0E0,0E0,0E0,0E0,0E0,0E0,0E0,0E0],"parents":[2147483647,0,0,1,1,2,2,3,3,4,4,5,5,6,6,7,7,8,8,9,9,10,10,15,15,16,16,17,17,18,18,19,19,21,21,22,22],"right_children":[2,4,6,8,10,12,14,16,18,20,22,-1,-1,-1,-1,24,26,28,30,32,-1,34,36,-1,-1,-1,-1,-1,-1,-1,-1,-1,-1,-1,-1,-1,-1],"split_conditions":[2.1497259E-1,1.2554458E-1,1.3050662E0,9.907474E-2,1.4613565E0,1.5283653E0,1.4220349E0,-1.3065384E2,7.179754E-2,1.7581499E0,1.5269333E3,1.5534873E-2,-4.3378092E-2,1.5597796E-2,1.1767218E-1,2.3393302E0,-2.2755377E-1,5.8376485E-1,1.7455821E0,-1.0561802E2,-7.470594E-2,1.523644E-1,1.9088792E0,-4.509597E-2,-1.1244686E-2,-9.237766E-3,1.2213934E-2,1.7101828E-2,-3.7021235E-2,2.5473481E-2,7.431968E-2,4.1741583E-2,-4.1729156E-2,-4.1826278E-2,4.876261E-3,4.4731062E-2,-1.0790949E-2],"split_indices":[24,24,14,24,1,0,0,9,23,14,8,0,0,0,0,0,3,14,1,9,0,24,14,0,0,0,0,0,0,0,0,0,0,0,0,0,0],"split_type":[0,0,0,0,0,0,0,0,0,0,0,0,0,0,0,0,0,0,0,0,0,0,0,0,0,0,0,0,0,0,0,0,0,0,0,0,0],"sum_hessian":[5.66E2,5.57E2,9E0,4.53E2,1.04E2,5E0,4E0,3.96E2,5.7E1,2.9E1,7.5E1,4E0,1E0,1E0,3E0,3E1,3.66E2,8E0,4.9E1,2.1E1,8E0,5.8E1,1.7E1,1.6E1,1.4E1,2.02E2,1.64E2,1E0,7E0,3.7E1,1.2E1,2E0,1.9E1,2.2E1,3.6E1,1.3E1,4E0],"tree_param":{"num_deleted":"0","num_feature":"25","num_nodes":"37","size_leaf_vector":"1"}},{"base_weights":[-2.1342374E-2,1.42099615E-2,-3.7310907E-1,-7.501757E-3,1.1331136E0,-1.0650603E-1,-7.439358E-1,-3.0976562E-2,4.0273687E-1,4.458619E-1,1.731193E0,-3.263596E-1,9.00586E-1,8.953661E-2,-8.8024914E-1,2.1550419E-2,-3.6795327E-1,9.6800727E-1,-5.588636E-1,6.089572E-1,-1.1088435E-2,1.54670365E-2,1.22105956E-1,-5.2483207E-1,3.1568068E-1,7.982993E-2,2.717352E-2,1.677387E-2,-4.019651E-3,-9.869013E-1,1.752921E-2,-1.4485292E-3,4.165768E-2,7.2531015E-2,-2.464857E-2,-1.1811035E-3,7.001148E-2,-5.196031E-2,7.5376585E-2,2.0362208E-2,5.0619163E-2,-4.2902473E-2,4.1918526E-3,4.8009213E-2,-3.5820056E-2,-1.6850395E-2,1.9296011E-2,-6.460838E-2,1.3547391E-2,-1.43715795E-2,1.5949208E-2],"categories":[],"categories_nodes":[],"categories_segments":[],"categories_sizes":[],"default_left":[0,0,0,0,0,0,0,0,0,0,0,0,0,0,0,0,0,0,0,0,0,0,0,0,0,0,0,0,0,0,0,0,0,0,0,0,0,0,0,0,0,0,0,0,0,0,0,0,0,0,0],"id":10,"left_children":[1,3,5,7,9,11,13,15,17,19,21,23,25,27,29,31,33,35,37,39,-1,-1,-1,41,43,-1,45,-1,-1,47,49,-1,-1,-1,-1,-1,-1,-1,-1,-1,-1,-1,-1,-1,-1,-1,-1,-1,-1,-1,-1],"loss_changes":[7.2213373E0,1.2762494E1,5.1605334E0,4.9816957E0,3.338437E0,7.3791237E0,2.578311E0,8.663411E0,1.5760784E1,7.296947E-1,1.7142773E0,3.606217E0,2.2167935E0,1.3771006E-1,1.8365479E0,1.3050273E1,4.9566116E0,3.5582333E0,7.220498E0,3.004384E-2,0E0,0E0,0E0,2.4254065E0,3.5728786E0,0E0,3.623803E-1,0E0,0E0,2.096592E0,2.5514463E-1,0E0,0E0,0E0,0E0,0E0,0E0,0E0,0E0,0E0,0E0,0E0,0E0,0E0,0E0,0E0,0E0,0E0,0E0,0E0,0E0],"parents":[2147483647,0,0,1,1,2,2,3,3,4,4,5,5,6,6,7,7,8,8,9,9,10,10,11,11,12,12,13,13,14,14,15,15,16,16,17,17,18,18,19,19,23,23,24,24,26,26,29,29,30,30],"right_children":[2,4,6,8,10,12,14,16,18,20,22,24,26,28,30,32,34,36,38,40,-1,-1,-1,42,44,-1,46,-1,-1,48,50,-1,-1,-1,-1,-1,-1,-1,-1,-1,-1,-1,-1,-1,-1,-1,-1,-1,-1,-1,-1],"split_conditions":[1.8270792E0,1.753886E0,1.3206242E0,2.4195614E0,-6.766416E1,9.886316E-2,1.4669042E3,1.3359393E-1,1.5112367E3,2.3473616E0,3.021575E-1,1.5083148E3,2.4828432E0,1.6912943E0,1.1462066E0,3.3514313E-2,8.289612E-1,-1.2416002E2,1.4846199E0,1.7785964E0,-1.1088435E-2,1.54670365E-2,1.22105956E-1,4.25163E0,2.5544055E0,7.982993E-2,2.1659546E0,1.677387E-2,-4.019651E-3,2.5010846E0,1.8902807E0,-1.4485292E-3,4.165768E-2,7.2531015E-2,-2.464857E-2,-1.1811035E-3,7.001148E-2,-5.196031E-2,7.5376585E-2,2.0362208E-2,5.0619163E-2,-4.2902473E-2,4.1918526E-3,4.8009213E-2,-3.5820056E-2,-1.6850395E-2,1.9296011E-2,-6.460838E-2,1.3547391E-2,-1.43715795E-2,1.5949208E-2],"split_indices":[2,2,15,14,9,24,7,3,7,0,3,7,14,0,10,3,15,9,2,0,0,0,0,19,14,0,0,0,0,2,0,0,0,0,0,0,0,0,0,0,0,0,0,0,0,0,0,0,0,0,0],"split_type":[0,0,0,0,0,0,0,0,0,0,0,0,0,0,0,0,0,0,0,0,0,0,0,0,0,0,0,0,0,0,0,0,0,0,0,0,0,0,0,0,0,0,0,0,0,0,0,0,0,0,0],"sum_hessian":[5.76E2,5.24E2,5.2E1,5.15E2,9E0,3.1E1,2.1E1,4.88E2,2.7E1,5E0,4E0,2.6E1,5E0,3E0,1.8E1,4.23E2,6.5E1,1.7E1,1E1,4E0,1E0,1E0,3E0,2E1,6E0,3E0,2E0,1E0,2E0,1.6E1,2E0,3.97E2,2.6E1,1E0,6.4E1,3E0,1.4E1,9E0,1E0,3E0,1E0,1.5E1,5E0,4E0,2E0,1E0,1E0,1.5E1,1E0,1E0,1E0],"tree_param":{"num_deleted":"0","num_feature":"25","num_nodes":"51","size_leaf_vector":"1"}},{"base_weights":[4.02054E-3,-5.3280834E-3,1.0465227E0,1.26703745E-2,-5.165828E-1,7.386061E-2,9.257197E-3,-7.245819E-2,1.510461E-1,3.6748245E-1,-6.422071E-1,-9.8700106E-2,1.0125176E0,2.673378E-1,-2.2701791E-1,-1.2452591E-2,4.5526013E-2,-7.41513E-1,-2.555703E-1,-1.2919831E-2,4.566581E-3,9.12249E-2,7.4709747E-3,-2.8091993E-2,2.1915073E-2,-1.986978E-2,4.53415E-2,-4.686558E-2,-7.996577E-3,-2.6985964E-2,-5.6747887E-3],"categories":[],"categories_nodes":[],"categories_segments":[],"categories_sizes":[],"default_left":[0,0,0,0,0,0,0,0,0,0,0,0,0,0,0,0,0,0,0,0,0,0,0,0,0,0,0,0,0,0,0],"id":11,"left_children":[1,3,5,7,9,-1,-1,11,13,15,17,19,21,23,25,-1,-1,27,29,-1,-1,-1,-1,-1,-1,-1,-1,-1,-1,-1,-1],"loss_changes":[5.4828057E0,5.141148E0,6.331029E-1,6.371997E0,2.3461409E0,0E0,0E0,9.638001E0,9.117626E0,8.324727E-1,4.63212E-1,6.703698E0,3.4187927E0,1.1550016E1,5.265133E0,0E0,0E0,2.0886135E-1,1.13779575E-1,0E0,0E0,0E0,0E0,0E0,0E0,0E0,0E0,0E0,0E0,0E0,0E0],"parents":[2147483647,0,0,1,1,2,2,3,3,4,4,7,7,8,8,9,9,10,10,11,11,12,12,13,13,14,14,17,17,18,18],"right_children":[2,4,6,8,10,-1,-1,12,14,16,18,20,22,24,26,-1,-1,28,30,-1,-1,-1,-1,-1,-1,-1,-1,-1,-1,-1,-1],"split_conditions":[2.7236745E0,2.0806414E-1,6.5090027E0,8.379746E-2,4.4230328E0,7.386061E-2,9.257197E-3,1.1462066E0,1.2944944E-1,1.7656972E0,2.5072997E0,1.5501313E0,1.8737847E0,7.260252E-2,1.4422437E0,-1.2452591E-2,4.5526013E-2,1.2253846E0,2.122962E0,-1.2919831E-2,4.566581E-3,9.12249E-2,7.4709747E-3,-2.8091993E-2,2.1915073E-2,-1.986978E-2,4.53415E-2,-4.686558E-2,-7.996577E-3,-2.6985964E-2,-5.6747887E-3],"split_indices":[1,23,19,24,18,0,0,10,3,0,14,14,0,23,3,0,0,10,0,0,0,0,0,0,0,0,0,0,0,0,0],"split_type":[0,0,0,0,0,0,0,0,0,0,0,0,0,0,0,0,0,0,0,0,0,0,0,0,0,0,0,0,0,0,0],"sum_hessian":[5.61E2,5.57E2,4E0,5.39E2,1.8E1,3E0,1E0,3.34E2,2.05E2,2E0,1.6E1,3.27E2,7E0,1.57E2,4.8E1,1E0,1E0,1.2E1,4E0,1.96E2,1.31E2,4E0,3E0,1.8E1,1.39E2,4.4E1,4E0,1.1E1,1E0,1E0,3E0],"tree_param":{"num_deleted":"0","num_feature":"25","num_nodes":"31","size_leaf_vector":"1"}},{"base_weights":[4.1498154E-2,-2.3006912E-1,8.170733E-2,-5.072862E-1,-2.4864493E-2,6.416015E-2,8.431646E-1,2.3657992E-2,-6.6313064E-1,-6.459078E-1,2.3637511E-1,-4.2604712E-1,9.304488E-2,1.0692191E0,-4.2521395E-2,-1.7891819E-2,3.9568916E-2,-5.026002E-1,-9.213665E-1,-2.79747E-1,-9.1979605E-1,7.509956E-3,1.0199828E0,-8.699364E-1,-6.650219E-2,3.0536616E-1,1.8017432E-2,1.2344418E0,-1.2533544E-2,-3.724129E-2,-1.7529912E-2,-8.837671E-3,-6.0654372E-2,2.0036047E-2,-2.6260974E-2,-1.7755644E-2,-6.660949E-2,-3.414361E-2,2.5789643E-2,8.3755754E-2,2.334244E-2,-6.254338E-2,-1.586595E-2,3.7670676E-2,-2.6351469E-2,8.0547705E-3,4.7207735E-2,-2.3485083E-2,3.4626084E-3,2.6056416E-2,8.4061325E-2],"categories":[],"categories_nodes":[],"categories_segments":[],"categories_sizes":[],"default_left":[0,0,0,0,0,0,0,0,0,0,0,0,0,0,0,0,0,0,0,0,0,0,0,0,0,0,0,0,0,0,0,0,0,0,0,0,0,0,0,0,0,0,0,0,0,0,0,0,0,0,0],"id":12,"left_children":[1,3,5,7,9,11,13,15,17,19,21,23,25,27,-1,-1,-1,29,31,33,35,37,39,41,43,45,47,49,-1,-1,-1,-1,-1,-1,-1,-1,-1,-1,-1,-1,-1,-1,-1,-1,-1,-1,-1,-1,-1,-1,-1],"loss_changes":[6.177394E0,4.1400814E0,6.5197225E0,2.5807743E0,7.1290445E0,6.864523E0,4.6165857E0,1.8338002E0,5.318346E-1,1.046422E0,5.551895E0,4.251297E0,7.2585435E0,2.3695946E0,0E0,0E0,0E0,2.4110365E-1,4.0558004E-1,8.2461315E-1,5.0280046E-1,6.3319883E0,1.1173291E0,9.774122E-1,4.41615E0,9.697859E0,5.515631E0,5.912037E-1,0E0,0E0,0E0,0E0,0E0,0E0,0E0,0E0,0E0,0E0,0E0,0E0,0E0,0E0,0E0,0E0,0E0,0E0,0E0,0E0,0E0,0E0,0E0],"parents":[2147483647,0,0,1,1,2,2,3,3,4,4,5,5,6,6,7,7,8,8,9,9,10,10,11,11,12,12,13,13,17,17,18,18,19,19,20,20,21,21,22,22,23,23,24,24,25,25,26,26,27,27],"right_children":[2,4,6,8,10,12,14,16,18,20,22,24,26,28,-1,-1,-1,30,32,34,36,38,40,42,44,46,48,50,-1,-1,-1,-1,-1,-1,-1,-1,-1,-1,-1,-1,-1,-1,-1,-1,-1,-1,-1,-1,-1,-1,-1],"split_conditions":[8.851385E-1,1.4794783E3,2.4683867E0,1.2739936E0,4.656398E-1,6.4356923E-1,5.231579E0,5.6883135E0,6.1641674E0,4.0816164E0,5.8238926E0,3.8878016E0,1.4745131E3,1.4616172E3,-4.2521395E-2,-1.7891819E-2,3.9568916E-2,6.7306983E-1,6.782853E-1,4.263635E0,7.041583E-1,3.7011771E0,1.5078002E3,2.8396144E0,4.110621E0,1.053758E0,8.873077E-1,3.2178462E-1,-1.2533544E-2,-3.724129E-2,-1.7529912E-2,-8.837671E-3,-6.0654372E-2,2.0036047E-2,-2.6260974E-2,-1.7755644E-2,-6.660949E-2,-3.414361E-2,2.5789643E-2,8.3755754E-2,2.334244E-2,-6.254338E-2,-1.586595E-2,3.7670676E-2,-2.6351469E-2,8.0547705E-3,4.7207735E-2,-2.3485083E-2,3.4626084E-3,2.6056416E-2,8.4061325E-2],"split_indices":[0,7,1,15,14,2,18,19,19,18,19,18,8,8,0,0,0,2,14,19,0,18,7,15,18,2,2,2,0,0,0,0,0,0,0,0,0,0,0,0,0,0,0,0,0,0,0,0,0,0,0],"split_type":[0,0,0,0,0,0,0,0,0,0,0,0,0,0,0,0,0,0,0,0,0,0,0,0,0,0,0,0,0,0,0,0,0,0,0,0,0,0,0,0,0,0,0,0,0,0,0,0,0,0,0],"sum_hessian":[5.63E2,7.2E1,4.91E2,3E1,4.2E1,4.81E2,1E1,7E0,2.3E1,1.2E1,3E1,2.6E1,4.55E2,9E0,1E0,5E0,2E0,1.6E1,7E0,6E0,6E0,2.4E1,6E0,1.1E1,1.5E1,1.18E2,3.37E2,8E0,1E0,9E0,7E0,1E0,6E0,1E0,5E0,2E0,4E0,1E1,1.4E1,3E0,3E0,8E0,3E0,5E0,1E1,8.8E1,3E1,2.9E1,3.08E2,2E0,6E0],"tree_param":{"num_deleted":"0","num_feature":"25","num_nodes":"51","size_leaf_vector":"1"}},{"base_weights":[-3.0993617E-3,-4.98849E-1,1.9605475E-2,-6.271503E-1,3.9064627E-2,2.2404487E-1,-6.422306E-2,-8.951545E-2,-7.033197E-1,6.345921E-2,7.3371345E-1,-1.3219851E-1,1.8335713E-1,1.2116314E-2,-1.5238779E-2,-7.6382756E-1,-1.6219886E-2,1.2982011E-1,-6.271807E-2,5.120977E-1,1.390909E0,4.970492E-1,-1.733954E-1,7.4932396E-1,2.8569672E-2,-5.18042E-2,-2.11299E-2,1.12045966E-1,5.908313E-3,5.758404E-2,2.8746605E-5,9.8774776E-2,1.9889124E-2,-6.0721576E-2,4.4047106E-2,-2.4066575E-2,-5.007132E-3,2.3562877E-2,9.587792E-2,9.27255E-3,-2.5106339E-2],"categories":[],"categories_nodes":[],"categories_segments":[],"categories_sizes":[],"default_left":[0,0,0,0,0,0,0,0,0,0,0,0,0,0,0,0,0,0,0,0,0,0,0,0,0,0,0,0,0,0,0,0,0,0,0,0,0,0,0,0,0],"id":13,"left_children":[1,3,5,7,-1,9,11,13,15,17,19,21,23,-1,-1,25,-1,27,-1,29,31,33,35,37,39,-1,-1,-1,-1,-1,-1,-1,-1,-1,-1,-1,-1,-1,-1,-1,-1],"loss_changes":[6.425651E0,4.0967484E0,9.371657E0,8.7892246E-1,0E0,1.2966867E1,6.5540376E0,2.4302328E-1,3.174982E-1,9.112258E0,4.8222237E0,7.9927163E0,7.337376E0,0E0,0E0,3.9279652E-1,0E0,6.134755E0,0E0,6.870112E0,1.8888874E0,7.5403004E0,5.8446703E0,4.8198576E0,3.8375003E0,0E0,0E0,0E0,0E0,0E0,0E0,0E0,0E0,0E0,0E0,0E0,0E0,0E0,0E0,0E0,0E0],"parents":[2147483647,0,0,1,1,2,2,3,3,5,5,6,6,7,7,8,8,9,9,10,10,11,11,12,12,15,15,17,17,19,19,20,20,21,21,22,22,23,23,24,24],"right_children":[2,4,6,8,-1,10,12,14,16,18,20,22,24,-1,-1,26,-1,28,-1,30,32,34,36,38,40,-1,-1,-1,-1,-1,-1,-1,-1,-1,-1,-1,-1,-1,-1,-1,-1],"split_conditions":[3.2713943E0,1.5907233E3,4.753302E0,1.5813953E3,3.9064627E-2,4.4035397E0,2.001146E0,1.3336385E0,1.8703531E0,4.3568077E0,9.2072316E-2,1.0374511E0,8.873077E-1,1.2116314E-2,-1.5238779E-2,1.6732827E3,-1.6219886E-2,-8.6409056E-1,-6.271807E-2,1.479018E3,1.5235543E0,5.0829597E0,8.9628965E-1,1.4385948E0,1.4193289E2,-5.18042E-2,-2.11299E-2,1.12045966E-1,5.908313E-3,5.758404E-2,2.8746605E-5,9.8774776E-2,1.9889124E-2,-6.0721576E-2,4.4047106E-2,-2.4066575E-2,-5.007132E-3,2.3562877E-2,9.587792E-2,9.27255E-3,-2.5106339E-2],"split_indices":[19,7,19,8,0,19,1,1,1,19,24,15,10,0,0,8,0,3,0,8,2,19,2,11,9,0,0,0,0,0,0,0,0,0,0,0,0,0,0,0,0],"split_type":[0,0,0,0,0,0,0,0,0,0,0,0,0,0,0,0,0,0,0,0,0,0,0,0,0,0,0,0,0,0,0,0,0,0,0,0,0,0,0,0,0],"sum_hessian":[5.69E2,2.4E1,5.45E2,2.2E1,2E0,1.58E2,3.87E2,3E0,1.9E1,1.21E2,3.7E1,3.04E2,8.3E1,1E0,2E0,1.6E1,3E0,1.15E2,6E0,2.9E1,8E0,1.8E1,2.86E2,1.7E1,6.6E1,1.2E1,4E0,1E0,1.14E2,1.5E1,1.4E1,6E0,2E0,2E0,1.6E1,8E1,2.06E2,1.3E1,4E0,5.2E1,1.4E1],"tree_param":{"num_deleted":"0","num_feature":"25","num_nodes":"41","size_leaf_vector":"1"}},{"base_weights":[1.7886234E-2,5.6279153E-2,-3.6491024E-1,3.8430523E-2,1.1893253E0,-8.147267E-2,-7.7943844E-1,1.9507837E-1,-5.2582525E-2,2.075397E-2,1.1677657E-1,-4.9905092E-1,6.5607864E-1,1.2732966E-1,-8.8158923E-1,3.401787E-2,4.6000883E-1,-1.5969883E-1,1.2375956E-1,-6.7213506E-1,4.5682013E-2,-4.3948185E-2,8.488985E-1,1.602892E-2,-4.56925E-3,-4.4954827E-1,-1.1549329E0,1.0027677E-2,-2.1720558E-2,9.5247235E-3,5.670463E-2,-7.073237E-3,-4.5510363E-2,9.003978E-2,4.6098866E-3,-5.005466E-2,1.850518E-2,2.0206416E-2,-2.1460047E-2,2.4183646E-2,7.8197494E-2,9.617991E-3,-3.880143E-2,-7.340192E-2,-1.4118222E-2],"categories":[],"categories_nodes":[],"categories_segments":[],"categories_sizes":[],"default_left":[0,0,0,0,0,0,0,0,0,0,0,0,0,0,0,0,0,0,0,0,0,0,0,0,0,0,0,0,0,0,0,0,0,0,0,0,0,0,0,0,0,0,0,0,0],"id":14,"left_children":[1,3,5,7,9,11,13,15,17,-1,-1,19,21,23,25,27,29,31,33,35,37,-1,39,-1,-1,41,43,-1,-1,-1,-1,-1,-1,-1,-1,-1,-1,-1,-1,-1,-1,-1,-1,-1,-1],"loss_changes":[8.382944E0,1.0429974E1,6.046126E0,7.2955837E0,4.4342384E0,1.018295E1,2.0574207E0,8.006281E0,6.1398363E0,0E0,0E0,2.010682E0,3.8346686E0,1.056972E-1,1.7246189E0,6.280897E0,1.0225442E1,4.9680667E0,7.832405E0,2.800609E0,8.2492274E-1,0E0,1.703136E0,0E0,0E0,1.1857063E0,4.04397E-1,0E0,0E0,0E0,0E0,0E0,0E0,0E0,0E0,0E0,0E0,0E0,0E0,0E0,0E0,0E0,0E0,0E0,0E0],"parents":[2147483647,0,0,1,1,2,2,3,3,4,4,5,5,6,6,7,7,8,8,11,11,12,12,13,13,14,14,15,15,16,16,17,17,18,18,19,19,20,20,22,22,25,25,26,26],"right_children":[2,4,6,8,10,12,14,16,18,-1,-1,20,22,24,26,28,30,32,34,36,38,-1,40,-1,-1,42,44,-1,-1,-1,-1,-1,-1,-1,-1,-1,-1,-1,-1,-1,-1,-1,-1,-1,-1],"split_conditions":[1.8233572E0,1.753886E0,1.3206242E0,5.196172E0,1.4875005E3,1.5083148E3,1.4669042E3,1.9142958E0,4.096475E0,2.075397E-2,1.1677657E-1,4.25163E0,1.8537934E0,1.6912943E0,3.6116517E0,1.597741E0,9.6997064E-1,1.6065662E3,1.0288037E0,2.5810714E0,1.8845239E0,-4.3948185E-2,5.7162356E0,1.602892E-2,-4.56925E-3,2.0026696E0,1.1462066E0,1.0027677E-2,-2.1720558E-2,9.5247235E-3,5.670463E-2,-7.073237E-3,-4.5510363E-2,9.003978E-2,4.6098866E-3,-5.005466E-2,1.850518E-2,2.0206416E-2,-2.1460047E-2,2.4183646E-2,7.8197494E-2,9.617991E-3,-3.880143E-2,-7.340192E-2,-1.4118222E-2],"split_indices":[2,2,15,19,7,7,7,15,18,0,0,19,2,0,19,15,2,7,15,0,2,0,18,0,0,0,10,0,0,0,0,0,0,0,0,0,0,0,0,0,0,0,0,0,0],"split_type":[0,0,0,0,0,0,0,0,0,0,0,0,0,0,0,0,0,0,0,0,0,0,0,0,0,0,0,0,0,0,0,0,0,0,0,0,0,0,0,0,0,0,0,0,0],"sum_hessian":[5.68E2,5.17E2,5.1E1,5.1E2,7E0,3.1E1,2E1,1.87E2,3.23E2,4E0,3E0,2E1,1.1E1,2E0,1.8E1,1.17E2,7E1,2.01E2,1.22E2,1.5E1,5E0,1E0,1E1,1E0,1E0,8E0,1E1,8.8E1,2.9E1,4.4E1,2.6E1,1.89E2,1.2E1,3E0,1.19E2,1.3E1,2E0,3E0,2E0,6E0,4E0,2E0,6E0,9E0,1E0],"tree_param":{"num_deleted":"0","num_feature":"25","num_nodes":"45","size_leaf_vector":"1"}},{"base_weights":[8.770214E-3,-6.4144838E-3,6.2312406E-1,1.3269366E-1,-8.083881E-2,-4.992849E-2,9.350134E-1,1.145015E0,7.842961E-2,4.7345957E-1,-1.1894348E-1,-3.9216984E-2,1.138854E0,-8.944327E-2,1.6868461E0,-7.4950445E-1,1.3879523E-1,2.173124E-2,1.0053447E0,-5.160265E-1,-7.131964E-2,2.4926187E-2,1.2534539E0,1.4252625E-2,-1.665721E-2,1.7177116E-2,1.1235352E-1,-5.2112367E-2,2.0367486E-2,4.4242493E-3,6.683233E-2,2.9419355E-2,-4.108666E-2,6.9581226E-2,1.24321645E-2,4.236284E-3,-4.081743E-2,-1.5356407E-2,1.1215665E-3,1.9893747E-2,7.9634696E-2],"categories":[],"categories_nodes":[],"categories_segments":[],"categories_sizes":[],"default_left":[0,0,0,0,0,0,0,0,0,0,0,0,0,0,0,0,0,0,0,0,0,0,0,0,0,0,0,0,0,0,0,0,0,0,0,0,0,0,0,0,0],"id":15,"left_children":[1,3,5,7,9,-1,11,13,15,17,19,-1,21,23,25,27,29,31,33,35,37,-1,39,-1,-1,-1,-1,-1,-1,-1,-1,-1,-1,-1,-1,-1,-1,-1,-1,-1,-1],"loss_changes":[5.414688E0,5.8808947E0,7.1324096E0,1.0786863E1,7.871219E0,0E0,4.6303005E0,6.8395567E0,9.55001E0,5.744575E0,6.525182E0,0E0,3.9120865E-1,3.120726E-1,1.2846279E0,1.9799547E0,1.1146091E1,4.9706573E0,1.114768E0,3.6134405E0,5.1730237E0,0E0,1.7218208E-1,0E0,0E0,0E0,0E0,0E0,0E0,0E0,0E0,0E0,0E0,0E0,0E0,0E0,0E0,0E0,0E0,0E0,0E0],"parents":[2147483647,0,0,1,1,2,2,3,3,4,4,6,6,7,7,8,8,9,9,10,10,12,12,13,13,14,14,15,15,16,16,17,17,18,18,19,19,20,20,22,22],"right_children":[2,4,6,8,10,-1,12,14,16,18,20,-1,22,24,26,28,30,32,34,36,38,-1,40,-1,-1,-1,-1,-1,-1,-1,-1,-1,-1,-1,-1,-1,-1,-1,-1,-1,-1],"split_conditions":[2.436951E0,4.8608527E0,8.305926E-1,-7.9784536E-1,-1.0561802E2,-4.992849E-2,6.902563E-2,1.4509175E3,7.4690825E-1,1.4470111E3,-6.3331406E1,-3.9216984E-2,1.3890842E3,8.51832E-1,1.4808063E3,1.4804667E3,8.132128E1,1.3116273E0,4.4421186E0,1.0959351E0,3.5791514E0,2.4926187E-2,2.4683867E0,1.4252625E-2,-1.665721E-2,1.7177116E-2,1.1235352E-1,-5.2112367E-2,2.0367486E-2,4.4242493E-3,6.683233E-2,2.9419355E-2,-4.108666E-2,6.9581226E-2,1.24321645E-2,4.236284E-3,-4.081743E-2,-1.5356407E-2,1.1215665E-3,1.9893747E-2,7.9634696E-2],"split_indices":[1,19,0,3,9,0,23,8,2,7,9,0,8,0,7,8,9,2,18,11,18,0,1,0,0,0,0,0,0,0,0,0,0,0,0,0,0,0,0,0,0],"split_type":[0,0,0,0,0,0,0,0,0,0,0,0,0,0,0,0,0,0,0,0,0,0,0,0,0,0,0,0,0,0,0,0,0,0,0,0,0,0,0,0,0],"sum_hessian":[5.79E2,5.66E2,1.3E1,1.97E2,3.69E2,2E0,1.1E1,9E0,1.88E2,2.3E1,3.46E2,1E0,1E1,3E0,6E0,1.2E1,1.76E2,1.3E1,1E1,3.6E1,3.1E2,2E0,8E0,1E0,2E0,1E0,5E0,1.1E1,1E0,1.66E2,1E1,8E0,5E0,8E0,2E0,8E0,2.8E1,1.01E2,2.09E2,1E0,7E0],"tree_param":{"num_deleted":"0","num_feature":"25","num_nodes":"41","size_leaf_vector":"1"}},{"base_weights":[-1.1070057E-2,7.4219507E-1,-2.4921956E-2,2.3454934E-2,1.0468758E0,-3.0469498E-1,2.766626E-2,-3.3079118E-2,3.98819E-1,7.6520965E-2,-9.718981E-3,-1.3649784E-1,-7.877913E-1,5.5458415E-1,7.3375925E-3,2.8509686E-2,7.3840246E-3,-4.4868857E-1,9.71295E-2,-5.20847E-1,-6.693033E-2,-7.1399784E-1,8.77423E-1,-1.4397252E-1,7.0844926E-2,-3.7600048E-2,2.9720882E-2,1.0386288E-1,3.7106744E-4,4.530592E-2,-4.062487E-2,-5.2293636E-2,-7.239289E-3,2.4259698E-2,7.0902176E-2,-1.2147413E-2,1.7342238E-2,2.376746E-2,-2.9946154E-4],"categories":[],"categories_nodes":[],"categories_segments":[],"categories_sizes":[],"default_left":[0,0,0,0,0,0,0,0,0,0,0,0,0,0,0,0,0,0,0,0,0,0,0,0,0,0,0,0,0,0,0,0,0,0,0,0,0,0,0],"id":16,"left_children":[1,3,5,7,9,11,13,-1,15,-1,-1,17,19,21,23,-1,-1,25,27,29,-1,31,33,35,37,-1,-1,-1,-1,-1,-1,-1,-1,-1,-1,-1,-1,-1,-1],"loss_changes":[5.7781487E0,2.1653085E0,7.9974604E0,1.0828738E0,2.1399312E0,6.880435E0,4.901815E0,0E0,4.678011E-3,0E0,0E0,4.78444E0,1.3435841E0,7.588788E0,4.2575107E0,0E0,0E0,5.01494E0,5.635973E0,3.3021116E0,0E0,2.6879692E-1,1.537549E0,3.376001E0,7.6983542E0,0E0,0E0,0E0,0E0,0E0,0E0,0E0,0E0,0E0,0E0,0E0,0E0,0E0,0E0],"parents":[2147483647,0,0,1,1,2,2,3,3,4,4,5,5,6,6,8,8,11,11,12,12,13,13,14,14,17,17,18,18,19,19,21,21,22,22,23,23,24,24],"right_children":[2,4,6,8,10,12,14,-1,16,-1,-1,18,20,22,24,-1,-1,26,28,30,-1,32,34,36,38,-1,-1,-1,-1,-1,-1,-1,-1,-1,-1,-1,-1,-1,-1],"split_conditions":[4.5444682E-1,3.2178462E-1,7.514866E-1,2.7236745E0,-9.4453317E-1,1.4686587E3,7.731542E-1,-3.3079118E-2,2.8012976E-1,7.6520965E-2,-9.718981E-3,1.4381407E3,1.4839197E3,1.4447415E3,1.010665E0,2.8509686E-2,7.3840246E-3,1.9981514E-1,1.4393956E3,5.86731E-1,-6.693033E-2,1.4899211E3,1.0866621E1,1.9299886E0,1.1632196E0,-3.7600048E-2,2.9720882E-2,1.0386288E-1,3.7106744E-4,4.530592E-2,-4.062487E-2,-5.2293636E-2,-7.239289E-3,2.4259698E-2,7.0902176E-2,-1.2147413E-2,1.7342238E-2,2.376746E-2,-2.9946154E-4],"split_indices":[2,2,2,1,3,8,2,0,2,0,0,8,7,8,2,0,0,24,8,14,0,7,9,14,2,0,0,0,0,0,0,0,0,0,0,0,0,0,0],"split_type":[0,0,0,0,0,0,0,0,0,0,0,0,0,0,0,0,0,0,0,0,0,0,0,0,0,0,0,0,0,0,0,0,0,0,0,0,0,0,0],"sum_hessian":[5.51E2,9E0,5.42E2,3E0,6E0,8.5E1,4.57E2,1E0,2E0,5E0,1E0,6.4E1,2.1E1,1.6E1,4.41E2,1E0,1E0,2.7E1,3.7E1,1.3E1,8E0,3E0,1.3E1,1.3E2,3.11E2,2.3E1,4E0,1E0,3.6E1,1E0,1.2E1,2E0,1E0,6E0,7E0,1.15E2,1.5E1,5.8E1,2.53E2],"tree_param":{"num_deleted":"0","num_feature":"25","num_nodes":"39","size_leaf_vector":"1"}},{"base_weights":[2.4219178E-2,5.1292244E-2,-3.296898E-1,2.534467E-2,5.661162E-1,-1.1253772E-1,-7.720412E-1,1.2921402E-2,7.846546E-1,1.3350599E0,1.2572744E-1,3.3692002E-2,-7.919328E-1,-9.755365E-1,-7.029247E-2,2.000853E-1,-3.366485E-2,1.1790506E0,9.549606E-2,-7.158916E-3,1.5317712E0,-5.172071E-2,3.1489348E-1,-2.2438256E-1,8.4531283E-1,-8.226843E-3,-5.5281542E-2,-7.5421175E-3,-6.335974E-2,1.2402459E-2,-1.3891703E-2,8.226626E-3,9.874303E-2,-1.8959168E-2,2.3562282E-3,8.0290005E-2,1.627758E-2,-1.17209675E-2,1.5453663E-2,1.069643E-1,3.1154776E-2,4.6080563E-2,-2.9566921E-2,-2.5659362E-2,2.5818862E-2,-1.0564667E-2,6.5088384E-2],"categories":[],"categories_nodes":[],"categories_segments":[],"categories_sizes":[],"default_left":[0,0,0,0,0,0,0,0,0,0,0,0,0,0,0,0,0,0,0,0,0,0,0,0,0,0,0,0,0,0,0,0,0,0,0,0,0,0,0,0,0,0,0,0,0,0,0],"id":17,"left_children":[1,3,5,7,9,11,13,15,17,19,21,23,25,27,29,31,33,35,37,-1,39,-1,41,43,45,-1,-1,-1,-1,-1,-1,-1,-1,-1,-1,-1,-1,-1,-1,-1,-1,-1,-1,-1,-1,-1,-1],"loss_changes":[5.392076E0,6.958754E0,3.7554173E0,4.6875505E0,8.298001E0,2.8084192E0,1.7878604E0,4.2878942E0,2.0618157E0,2.7575912E0,3.4478362E0,5.216682E0,2.9742217E-1,5.5103016E-1,2.265082E-1,8.696127E0,8.1253395E0,3.5915947E-1,2.388579E-1,0E0,1.1072044E0,0E0,5.8680215E0,2.7125945E0,1.65871E0,0E0,0E0,0E0,0E0,0E0,0E0,0E0,0E0,0E0,0E0,0E0,0E0,0E0,0E0,0E0,0E0,0E0,0E0,0E0,0E0,0E0,0E0],"parents":[2147483647,0,0,1,1,2,2,3,3,4,4,5,5,6,6,7,7,8,8,9,9,10,10,11,11,12,12,13,13,14,14,15,15,16,16,17,17,18,18,20,20,22,22,23,23,24,24],"right_children":[2,4,6,8,10,12,14,16,18,20,22,24,26,28,30,32,34,36,38,-1,40,-1,42,44,46,-1,-1,-1,-1,-1,-1,-1,-1,-1,-1,-1,-1,-1,-1,-1,-1,-1,-1,-1,-1,-1,-1],"split_conditions":[1.4193289E2,2.986313E0,1.354834E0,1.6697334E3,-8.6409056E-1,2.4214665E2,1.67766E3,1.2007045E0,4.6103354E0,1.4693633E3,3.61725E0,8.112597E-2,8.914045E-1,2.8044686E0,1.5101899E0,1.195085E0,1.4373981E0,1.7581401E0,1.5101899E0,-7.158916E-3,1.3621336E2,-5.172071E-2,2.9066574E1,1.0186074E0,1E0,-8.226843E-3,-5.5281542E-2,-7.5421175E-3,-6.335974E-2,1.2402459E-2,-1.3891703E-2,8.226626E-3,9.874303E-2,-1.8959168E-2,2.3562282E-3,8.0290005E-2,1.627758E-2,-1.17209675E-2,1.5453663E-2,1.069643E-1,3.1154776E-2,4.6080563E-2,-2.9566921E-2,-2.5659362E-2,2.5818862E-2,-1.0564667E-2,6.5088384E-2],"split_indices":[9,15,0,7,3,9,7,15,19,7,18,23,0,18,0,15,15,0,0,0,9,0,9,14,0,0,0,0,0,0,0,0,0,0,0,0,0,0,0,0,0,0,0,0,0,0,0],"split_type":[0,0,0,0,0,0,0,0,0,0,0,0,0,0,0,0,0,0,0,0,0,0,0,0,0,0,0,0,0,0,0,0,0,0,0,0,0,0,0,0,0,0,0,0,0,0,0],"sum_hessian":[5.6E2,5.21E2,3.9E1,4.97E2,2.4E1,2.7E1,1.2E1,4.9E2,7E0,8E0,1.6E1,2.3E1,4E0,9E0,3E0,9.7E1,3.93E2,4E0,3E0,1E0,7E0,2E0,1.4E1,1.8E1,5E0,1E0,3E0,1E0,8E0,1E0,2E0,9.4E1,3E0,8E1,3.13E2,3E0,1E0,1E0,2E0,5E0,2E0,9E0,5E0,1.4E1,4E0,1E0,4E0],"tree_param":{"num_deleted":"0","num_feature":"25","num_nodes":"47","size_leaf_vector":"1"}},{"base_weights":[3.8471152E-3,-1.2318735E-1,8.2257085E-2,-4.6664292E-1,-6.5807262E-3,4.2693233E-1,4.336186E-3,-6.6743773E-1,-5.6628417E-3,8.3660716E-1,-7.181733E-2,5.235394E-1,-6.26395E-1,2.6843932E-1,-7.064652E-2,-1.9757645E-1,-8.449698E-1,-2.3822743E-1,6.4665055E-1,1.4648454E0,-3.3589548E-1,-1.09326355E-1,7.368487E-1,1.1405089E-1,9.1613954E-1,-8.865448E-3,-4.1554257E-2,8.6227393E-1,7.304344E-2,-5.8648115E-1,-2.6516E-2,-2.5476396E-2,1.2311227E-2,-5.4448437E-2,-1.4584584E-2,-4.3418206E-2,-2.403473E-3,9.546779E-3,4.3725397E-2,9.586972E-2,1.6018856E-2,-2.8981209E-2,7.578095E-3,-9.120265E-5,-2.3596013E-2,5.8153503E-2,-1.972228E-2,3.905066E-2,-1.8587476E-2,1.4654266E-2,7.346774E-2,5.9972912E-2,-3.590536E-2,7.4716754E-2,-1.0458231E-4,1.9070279E-2,-4.3163154E-2,-1.274226E-2,7.5724223E-3],"categories":[],"categories_nodes":[],"categories_segments":[],"categories_sizes":[],"default_left":[0,0,0,0,0,0,0,0,0,0,0,0,0,0,0,0,0,0,0,0,0,0,0,0,0,0,0,0,0,0,0,0,0,0,0,0,0,0,0,0,0,0,0,0,0,0,0,0,0,0,0,0,0,0,0,0,0,0,0],"id":18,"left_children":[1,3,5,7,9,11,13,15,17,19,21,23,25,27,29,31,33,35,37,39,41,43,45,47,49,-1,-1,51,53,55,57,-1,-1,-1,-1,-1,-1,-1,-1,-1,-1,-1,-1,-1,-1,-1,-1,-1,-1,-1,-1,-1,-1,-1,-1,-1,-1,-1,-1],"loss_changes":[5.767457E0,8.847801E0,9.6131E0,5.179717E0,9.191197E0,7.0440264E0,5.8212924E0,3.086256E0,2.8847396E0,9.331367E0,4.7820597E0,9.702196E0,8.771348E-2,7.4791512E0,5.1974163E0,1.1843976E0,8.32798E-1,1.3177197E0,8.419466E-2,8.477783E-1,4.0100908E-1,4.5603786E0,2.0518544E0,7.2546124E0,6.122984E0,0E0,0E0,3.8064184E0,4.3855405E0,2.3920383E0,6.0442824E0,0E0,0E0,0E0,0E0,0E0,0E0,0E0,0E0,0E0,0E0,0E0,0E0,0E0,0E0,0E0,0E0,0E0,0E0,0E0,0E0,0E0,0E0,0E0,0E0,0E0,0E0,0E0,0E0],"parents":[2147483647,0,0,1,1,2,2,3,3,4,4,5,5,6,6,7,7,8,8,9,9,10,10,11,11,12,12,13,13,14,14,15,15,16,16,17,17,18,18,19,19,20,20,21,21,22,22,23,23,24,24,27,27,28,28,29,29,30,30],"right_children":[2,4,6,8,10,12,14,16,18,20,22,24,26,28,30,32,34,36,38,40,42,44,46,48,50,-1,-1,52,54,56,58,-1,-1,-1,-1,-1,-1,-1,-1,-1,-1,-1,-1,-1,-1,-1,-1,-1,-1,-1,-1,-1,-1,-1,-1,-1,-1,-1,-1],"split_conditions":[9.960771E-1,1.6931436E0,1.4843596E3,9.6658416E-2,1.8269055E0,1.914899E-1,1.1686138E0,1.2373004E0,1.0693064E0,-6.069388E-1,-2.2755377E-1,3.8745906E0,1.3813503E0,1.4702919E3,1.2253846E0,1.8584719E1,1.4845637E0,5.8540475E-1,2.0100355E0,1.3168781E0,2.0060525E0,1.4742404E3,-1.08008094E-1,3.418898E0,1.065378E0,-8.865448E-3,-4.1554257E-2,1.6077311E-1,1.4881422E3,-9.5863144E1,1.4822435E3,-2.5476396E-2,1.2311227E-2,-5.4448437E-2,-1.4584584E-2,-4.3418206E-2,-2.403473E-3,9.546779E-3,4.3725397E-2,9.586972E-2,1.6018856E-2,-2.8981209E-2,7.578095E-3,-9.120265E-5,-2.3596013E-2,5.8153503E-2,-1.972228E-2,3.905066E-2,-1.8587476E-2,1.4654266E-2,7.346774E-2,5.9972912E-2,-3.590536E-2,7.4716754E-2,-1.0458231E-4,1.9070279E-2,-4.3163154E-2,-1.274226E-2,7.5724223E-3],"split_indices":[2,15,8,24,15,23,2,1,0,3,3,18,1,7,2,9,14,2,1,0,1,8,3,18,2,0,0,24,8,9,7,0,0,0,0,0,0,0,0,0,0,0,0,0,0,0,0,0,0,0,0,0,0,0,0,0,0,0,0],"split_type":[0,0,0,0,0,0,0,0,0,0,0,0,0,0,0,0,0,0,0,0,0,0,0,0,0,0,0,0,0,0,0,0,0,0,0,0,0,0,0,0,0,0,0,0,0,0,0,0,0,0,0,0,0,0,0,0,0,0,0],"sum_hessian":[5.77E2,2.2E2,3.57E2,5.5E1,1.65E2,6.5E1,2.92E2,3.8E1,1.7E1,1.1E1,1.54E2,6E1,5E0,6.4E1,2.28E2,1.1E1,2.7E1,1.3E1,4E0,7E0,4E0,1.48E2,6E0,3E1,3E1,1E0,4E0,1.5E1,4.9E1,1.7E1,2.11E2,7E0,4E0,2.4E1,3E0,3E0,1E1,1E0,3E0,6E0,1E0,3E0,1E0,1.08E2,4E1,5E0,1E0,1.3E1,1.7E1,1E1,2E1,1.4E1,1E0,2E0,4.7E1,2E0,1.5E1,9.5E1,1.16E2],"tree_param":{"num_deleted":"0","num_feature":"25","num_nodes":"59","size_leaf_vector":"1"}},{"base_weights":[3.4724255E-3,-1.6555698E-1,4.6757303E-2,-4.2696413E-1,2.455394E-3,1.3249928E-1,-1.0744262E-1,-1.19792804E-1,-7.7231264E-1,-5.700117E-1,1.4059477E-1,-7.0288205E-1,1.6808228E-1,-3.6369705E-1,-7.964907E-3,5.6964085E-2,-6.8901694E-1,-8.470855E-1,-1.4565404E-2,-2.445613E-1,-8.605248E-1,3.0464154E-1,-3.9674094E-1,4.3776352E-2,-8.5659134E-1,1.4943655E-1,1.0964775E-1,-4.193902E-1,6.260405E-2,3.102067E-1,-1.4203769E-1,5.9552938E-2,-6.127884E-3,-4.6832655E-2,-6.9414135E-3,-9.881873E-3,-5.5325415E-2,1.8572444E-2,-2.2076331E-2,-1.6243612E-2,-6.253791E-2,2.3256369E-2,-3.855882E-2,2.5473898E-2,-3.414034E-2,-1.0012321E-2,1.3952193E-2,-5.9838746E-2,-1.174828E-2,5.2608974E-2,6.956081E-3,2.6500834E-2,-2.9590085E-2,2.7123136E-2,-3.7876632E-2,-3.9186887E-2,-2.26759E-3],"categories":[],"categories_nodes":[],"categories_segments":[],"categories_sizes":[],"default_left":[0,0,0,0,0,0,0,0,0,0,0,0,0,0,0,0,0,0,0,0,0,0,0,0,0,0,0,0,0,0,0,0,0,0,0,0,0,0,0,0,0,0,0,0,0,0,0,0,0,0,0,0,0,0,0,0,0],"id":19,"left_children":[1,3,5,7,9,11,13,15,17,19,21,23,25,27,29,31,33,35,-1,37,39,41,43,45,47,49,-1,51,-1,53,55,-1,-1,-1,-1,-1,-1,-1,-1,-1,-1,-1,-1,-1,-1,-1,-1,-1,-1,-1,-1,-1,-1,-1,-1,-1,-1],"loss_changes":[4.1268835E0,5.0518064E0,5.950647E0,4.681135E0,5.694838E0,8.708778E0,4.101251E0,2.5546064E0,6.258888E-1,1.1132154E0,5.2334595E0,1.4147186E0,8.328333E0,3.9640493E0,5.035065E0,3.0783172E0,2.2454906E-1,7.6941586E-1,0E0,6.6080207E-1,4.6829033E-1,3.785707E0,2.222329E0,1.5808994E-1,7.3458815E-1,6.6240735E0,0E0,3.0130534E0,0E0,4.9594574E0,4.3973074E0,0E0,0E0,0E0,0E0,0E0,0E0,0E0,0E0,0E0,0E0,0E0,0E0,0E0,0E0,0E0,0E0,0E0,0E0,0E0,0E0,0E0,0E0,0E0,0E0,0E0,0E0],"parents":[2147483647,0,0,1,1,2,2,3,3,4,4,5,5,6,6,7,7,8,8,9,9,10,10,11,11,12,12,13,13,14,14,15,15,16,16,17,17,19,19,20,20,21,21,22,22,23,23,24,24,25,25,27,27,29,29,30,30],"right_children":[2,4,6,8,10,12,14,16,18,20,22,24,26,28,30,32,34,36,-1,38,40,42,44,46,48,50,-1,52,-1,54,56,-1,-1,-1,-1,-1,-1,-1,-1,-1,-1,-1,-1,-1,-1,-1,-1,-1,-1,-1,-1,-1,-1,-1,-1,-1,-1],"split_conditions":[9.7189915E-1,1.4794783E3,1.5557109E0,8.39848E-1,4.656398E-1,7.260252E-2,1.6942822E0,2.2068133E0,1.1130788E0,4.0816164E0,1.5456781E3,1.0060921E0,1.5502394E0,2.4828432E0,4.051796E0,4.6303985E-1,2.5453575E0,1.3798141E3,-1.4565404E-2,4.263635E0,7.041583E-1,4.5482454E0,2.8967195E0,9.9318755E-1,1.2584811E0,3.8543088E0,1.0964775E-1,8.705506E-1,6.260405E-2,1.6205145E3,4.40398E0,5.9552938E-2,-6.127884E-3,-4.6832655E-2,-6.9414135E-3,-9.881873E-3,-5.5325415E-2,1.8572444E-2,-2.2076331E-2,-1.6243612E-2,-6.253791E-2,2.3256369E-2,-3.855882E-2,2.5473898E-2,-3.414034E-2,-1.0012321E-2,1.3952193E-2,-5.9838746E-2,-1.174828E-2,5.2608974E-2,6.956081E-3,2.6500834E-2,-2.9590085E-2,2.7123136E-2,-3.7876632E-2,-3.9186887E-2,-2.26759E-3],"split_indices":[0,7,0,0,14,23,0,15,14,18,7,0,0,14,18,2,15,8,0,19,0,18,18,0,0,19,0,10,0,7,18,0,0,0,0,0,0,0,0,0,0,0,0,0,0,0,0,0,0,0,0,0,0,0,0,0,0],"split_type":[0,0,0,0,0,0,0,0,0,0,0,0,0,0,0,0,0,0,0,0,0,0,0,0,0,0,0,0,0,0,0,0,0,0,0,0,0,0,0,0,0,0,0,0,0,0,0,0,0,0,0,0,0,0,0,0,0],"sum_hessian":[5.62E2,1.14E2,4.48E2,4.4E1,7E1,2.88E2,1.6E2,2.4E1,2E1,1.3E1,5.7E1,1.1E1,2.77E2,4.4E1,1.16E2,1.9E1,5E0,1.7E1,3E0,7E0,6E0,4.4E1,1.3E1,2E0,9E0,2.75E2,2E0,4.3E1,1E0,3.4E1,8.2E1,2E0,1.7E1,4E0,1E0,2E0,1.5E1,1E0,6E0,2E0,4E0,4.1E1,3E0,2E0,1.1E1,1E0,1E0,7E0,2E0,1.1E1,2.64E2,3E0,4E1,3E1,4E0,1.3E1,6.9E1],"tree_param":{"num_deleted":"0","num_feature":"25","num_nodes":"57","size_leaf_vector":"1"}},{"base_weights":[-8.490993E-3,-1.3316914E-1,5.0053068E-2,4.8633173E-1,-1.7537054E-1,-9.184503E-3,3.18003E-1,-3.769891E-1,9.651158E-1,-2.66283E-1,1.1452988E-1,6.1554976E-2,-4.2439538E-1,-6.0392445E-1,4.282751E-1,-6.8608667E-3,-3.0838042E-2,-1.0749946E-2,1.1541797E0,-1.7768525E-1,-5.615926E-1,-4.4986573E-1,2.6056018E-1,-7.7517554E-2,1.5558267E-1,-4.927792E-1,4.456961E-2,-1.5303734E-1,-6.099313E-2,1.0445376E-1,3.351807E-1,9.742975E-2,2.3759112E-2,1.29519915E-2,-1.5813915E-2,-3.7568413E-2,3.9308663E-2,-4.0790375E-2,4.169776E-2,-3.0020423E-2,2.4540184E-2,5.2314155E-2,-8.369029E-3,5.2250218E-2,4.3759374E-3,-3.520879E-2,9.2879264E-4,2.071755E-3,-1.7375488E-2,7.848901E-2,1.3496916E-2],"categories":[],"categories_nodes":[],"categories_segments":[],"categories_sizes":[],"default_left":[0,0,0,0,0,0,0,0,0,0,0,0,0,0,0,0,0,0,0,0,0,0,0,0,0,0,0,0,0,0,0,0,0,0,0,0,0,0,0,0,0,0,0,0,0,0,0,0,0,0,0],"id":20,"left_children":[1,3,5,7,9,11,13,15,17,19,21,23,25,27,29,-1,-1,-1,31,33,35,37,39,41,43,45,-1,47,-1,-1,49,-1,-1,-1,-1,-1,-1,-1,-1,-1,-1,-1,-1,-1,-1,-1,-1,-1,-1,-1,-1],"loss_changes":[4.2036853E0,4.895748E0,6.22502E0,5.323969E0,4.59001E0,9.483843E0,7.4767118E0,1.2110978E-1,1.9375277E0,3.3538313E0,3.5788095E0,3.6212208E0,4.117547E0,1.3328178E0,7.237136E0,0E0,0E0,0E0,1.8495884E0,3.538112E0,2.7663364E0,2.841989E0,4.04495E0,6.7108016E0,9.690633E0,2.1597986E0,0E0,1.3806435E-1,0E0,0E0,6.248135E0,0E0,0E0,0E0,0E0,0E0,0E0,0E0,0E0,0E0,0E0,0E0,0E0,0E0,0E0,0E0,0E0,0E0,0E0,0E0,0E0],"parents":[2147483647,0,0,1,1,2,2,3,3,4,4,5,5,6,6,7,7,8,8,9,9,10,10,11,11,12,12,13,13,14,14,18,18,19,19,20,20,21,21,22,22,23,23,24,24,25,25,27,27,30,30],"right_children":[2,4,6,8,10,12,14,16,18,20,22,24,26,28,30,-1,-1,-1,32,34,36,38,40,42,44,46,-1,48,-1,-1,50,-1,-1,-1,-1,-1,-1,-1,-1,-1,-1,-1,-1,-1,-1,-1,-1,-1,-1,-1,-1],"split_conditions":[3.770277E0,5.445966E-1,1.3570032E0,4.1129917E-1,6.243615E0,1.2588989E0,1.3220477E0,8.677381E-1,3.0449607E0,5.970804E0,9.1865283E-1,9.822489E-1,1.6506716E3,1.2546718E0,4.709668E0,-6.8608667E-3,-3.0838042E-2,-1.0749946E-2,3.3547404E0,3.0555575E0,1.7975208E0,1.5344157E0,2.8967195E0,3.8089008E0,1.4820618E3,2.0179443E0,4.456961E-2,1.2830768E0,-6.099313E-2,1.0445376E-1,8.5596263E-1,9.742975E-2,2.3759112E-2,1.29519915E-2,-1.5813915E-2,-3.7568413E-2,3.9308663E-2,-4.0790375E-2,4.169776E-2,-3.0020423E-2,2.4540184E-2,5.2314155E-2,-8.369029E-3,5.2250218E-2,4.3759374E-3,-3.520879E-2,9.2879264E-4,2.071755E-3,-1.7375488E-2,7.848901E-2,1.3496916E-2],"split_indices":[18,14,11,14,19,11,1,2,18,19,10,2,8,14,19,0,0,0,18,18,0,2,18,19,8,1,0,1,0,0,10,0,0,0,0,0,0,0,0,0,0,0,0,0,0,0,0,0,0,0,0],"split_type":[0,0,0,0,0,0,0,0,0,0,0,0,0,0,0,0,0,0,0,0,0,0,0,0,0,0,0,0,0,0,0,0,0,0,0,0,0,0,0,0,0,0,0,0,0,0,0,0,0,0,0],"sum_hessian":[5.74E2,1.83E2,3.91E2,1.1E1,1.72E2,3.21E2,7E1,4E0,7E0,1.31E2,4.1E1,2.75E2,4.6E1,7E0,6.3E1,2E0,2E0,1E0,6E0,1.02E2,2.9E1,8E0,3.3E1,1.11E2,1.64E2,4.4E1,2E0,4E0,3E0,3E0,6E1,3E0,3E0,1.8E1,8.4E1,2.8E1,1E0,7E0,1E0,5E0,2.8E1,6E0,1.05E2,1.6E1,1.48E2,3.7E1,7E0,2E0,2E0,5E0,5.5E1],"tree_param":{"num_deleted":"0","num_feature":"25","num_nodes":"51","size_leaf_vector":"1"}},{"base_weights":[-8.934447E-3,3.4790687E-2,-2.0272575E-1,-4.8909504E-2,2.1903607E-1,-3.4966278E-1,1.329126E-1,5.077648E-1,-7.568759E-2,2.801854E-1,-4.9224278E-1,4.8721485E-2,-3.9321E-1,-2.3398195E-1,7.153644E-1,9.9430746E-1,-6.6418195E-1,-1.071325E-1,4.4037062E-1,2.3605411E-1,1.1970214E0,-9.823787E-1,7.3362374E-1,-1.4897244E-1,-6.07818E-1,2.9374268E-2,-8.9726824E-1,8.544542E-1,-2.8611412E-2,2.1634517E-2,7.1213104E-2,-4.519883E-2,-9.229624E-3,1.8041356E-2,-8.678153E-3,4.8158582E-2,-2.5076885E-2,-2.8430596E-2,1.8304603E-2,1.0234998E-2,1.0005568E-1,-1.86817E-2,-6.777706E-2,6.3740425E-2,-7.575792E-3,-2.3914693E-2,1.0340736E-2,-4.035084E-2,5.3578045E-2,-7.042982E-3,6.692202E-2,-1.6169177E-2,-5.813564E-2,2.8090045E-2,7.8097336E-2],"categories":[],"categories_nodes":[],"categories_segments":[],"categories_sizes":[],"default_left":[0,0,0,0,0,0,0,0,0,0,0,0,0,0,0,0,0,0,0,0,0,0,0,0,0,0,0,0,0,0,0,0,0,0,0,0,0,0,0,0,0,0,0,0,0,0,0,0,0,0,0,0,0,0,0],"id":21,"left_children":[1,3,5,7,9,11,13,15,17,19,21,-1,23,25,27,29,31,33,35,37,39,41,43,45,47,49,51,53,-1,-1,-1,-1,-1,-1,-1,-1,-1,-1,-1,-1,-1,-1,-1,-1,-1,-1,-1,-1,-1,-1,-1,-1,-1,-1,-1],"loss_changes":[4.879345E0,7.258759E0,5.274151E0,4.8681927E0,6.531571E0,4.062827E0,7.219429E0,9.213432E0,5.077674E0,5.2201576E0,7.930791E0,0E0,3.6833572E0,3.6946483E0,2.5631886E0,9.1450787E-1,1.11564636E-1,4.524837E0,5.932477E0,6.5634236E0,2.6136217E0,5.374794E-1,1.2647717E0,2.875793E0,4.2901373E0,2.6809628E0,8.804798E-3,1.4634438E0,0E0,0E0,0E0,0E0,0E0,0E0,0E0,0E0,0E0,0E0,0E0,0E0,0E0,0E0,0E0,0E0,0E0,0E0,0E0,0E0,0E0,0E0,0E0,0E0,0E0,0E0,0E0],"parents":[2147483647,0,0,1,1,2,2,3,3,4,4,5,5,6,6,7,7,8,8,9,9,10,10,12,12,13,13,14,14,15,15,16,16,17,17,18,18,19,19,20,20,21,21,22,22,23,23,24,24,25,25,26,26,27,27],"right_children":[2,4,6,8,10,12,14,16,18,20,22,-1,24,26,28,30,32,34,36,38,40,42,44,46,48,50,52,54,-1,-1,-1,-1,-1,-1,-1,-1,-1,-1,-1,-1,-1,-1,-1,-1,-1,-1,-1,-1,-1,-1,-1,-1,-1,-1,-1],"split_conditions":[1.5618712E3,1.5000953E3,4.5620103E0,5.3388786E-1,2.6103723E0,7.595628E-2,1.598756E3,1.0166038E-1,2.6158826E0,2.1497259E-1,4.870126E0,4.8721485E-2,3.7891076E0,2.2498372E0,1.1462066E0,-1.5350802E0,8.305926E-1,8.705506E-1,5.9399333E0,8.705506E-1,1.4220349E0,1.512322E3,3.0340235E0,3.5407586E0,1.7139105E3,1.1479018E0,1.5849948E0,1.1698931E0,-2.8611412E-2,2.1634517E-2,7.1213104E-2,-4.519883E-2,-9.229624E-3,1.8041356E-2,-8.678153E-3,4.8158582E-2,-2.5076885E-2,-2.8430596E-2,1.8304603E-2,1.0234998E-2,1.0005568E-1,-1.86817E-2,-6.777706E-2,6.3740425E-2,-7.575792E-3,-2.3914693E-2,1.0340736E-2,-4.035084E-2,5.3578045E-2,-7.042982E-3,6.692202E-2,-1.6169177E-2,-5.813564E-2,2.8090045E-2,7.8097336E-2],"split_indices":[7,7,18,2,14,24,7,23,14,24,18,0,18,14,10,3,0,10,18,10,0,7,0,18,7,3,0,14,0,0,0,0,0,0,0,0,0,0,0,0,0,0,0,0,0,0,0,0,0,0,0,0,0,0,0],"split_type":[0,0,0,0,0,0,0,0,0,0,0,0,0,0,0,0,0,0,0,0,0,0,0,0,0,0,0,0,0,0,0,0,0,0,0,0,0,0,0,0,0,0,0,0,0,0,0,0,0,0,0,0,0,0,0],"sum_hessian":[5.74E2,4.69E2,1.05E2,3.23E2,1.46E2,7.3E1,3.2E1,1.4E1,3.09E2,1.35E2,1.1E1,2E0,7.1E1,2E1,1.2E1,1E1,4E0,2.92E2,1.7E1,1.3E2,5E0,8E0,3E0,3.4E1,3.7E1,1.5E1,5E0,1.1E1,1E0,3E0,7E0,3E0,1E0,2.4E1,2.68E2,1.2E1,5E0,1.1E1,1.19E2,2E0,3E0,2E0,6E0,2E0,1E0,1.9E1,1.5E1,3.6E1,1E0,1.4E1,1E0,1E0,4E0,7E0,4E0],"tree_param":{"num_deleted":"0","num_feature":"25","num_nodes":"55","size_leaf_vector":"1"}},{"base_weights":[1.6057331E-2,3.4940965E-2,-3.9775887E-1,2.807888E-2,5.7566952E-2,1.276244E-1,-5.354859E-1,-9.6190445E-2,8.677902E-2,3.830069E-2,-1.723932E-2,-5.8726645E-1,1.345032E-2,9.980415E-2,-1.1586283E-1,2.9689705E-1,-1.0349276E-2,-2.3108551E-1,-6.396075E-1,-7.870785E-3,7.6018885E-2,7.4262775E-2,1.4093493E-2,5.415665E-3,-1.1129685E-2,-2.1708144E-2,-4.014745E-3,-4.0218633E-2,-5.371846E-3],"categories":[],"categories_nodes":[],"categories_segments":[],"categories_sizes":[],"default_left":[0,0,0,0,0,0,0,0,0,0,0,0,0,0,0,0,0,0,0,0,0,0,0,0,0,0,0,0,0],"id":22,"left_children":[1,3,5,7,-1,9,11,13,15,-1,-1,17,-1,-1,19,21,23,25,27,-1,-1,-1,-1,-1,-1,-1,-1,-1,-1],"loss_changes":[4.475894E0,3.443257E0,1.8773279E0,3.9766247E0,0E0,1.4549401E0,9.183588E-1,6.2504206E0,7.554183E0,0E0,0E0,2.0641088E-1,0E0,0E0,3.85168E0,6.5345516E0,4.492591E0,6.1631724E-2,2.1021128E-1,0E0,0E0,0E0,0E0,0E0,0E0,0E0,0E0,0E0,0E0],"parents":[2147483647,0,0,1,1,2,2,3,3,5,5,6,6,7,7,8,8,11,11,14,14,15,15,16,16,17,17,18,18],"right_children":[2,4,6,8,-1,10,12,14,16,-1,-1,18,-1,-1,20,22,24,26,28,-1,-1,-1,-1,-1,-1,-1,-1,-1,-1],"split_conditions":[1.914899E-1,2.7236745E0,4.4230328E0,8.7247086E-1,5.7566952E-2,1.00595646E-1,2.5016537E0,3.4679189E0,1.4968513E3,3.830069E-2,-1.723932E-2,1.4567665E3,1.345032E-2,9.980415E-2,5.0251718E0,4.232459E0,1.5649552E0,2.122962E0,2.0179443E0,-7.870785E-3,7.6018885E-2,7.4262775E-2,1.4093493E-2,5.415665E-3,-1.1129685E-2,-2.1708144E-2,-4.014745E-3,-4.0218633E-2,-5.371846E-3],"split_indices":[23,1,18,2,0,24,15,19,8,0,0,7,0,0,15,19,15,0,1,0,0,0,0,0,0,0,0,0,0],"split_type":[0,0,0,0,0,0,0,0,0,0,0,0,0,0,0,0,0,0,0,0,0,0,0,0,0,0,0,0,0],"sum_hessian":[5.7E2,5.46E2,2.4E1,5.43E2,3E0,5E0,1.9E1,1.74E2,3.69E2,2E0,3E0,1.8E1,1E0,1E0,1.73E2,1.16E2,2.53E2,3E0,1.5E1,1.72E2,1E0,6E0,1.1E2,1.61E2,9.2E1,1E0,2E0,1.4E1,1E0],"tree_param":{"num_deleted":"0","num_feature":"25","num_nodes":"29","size_leaf_vector":"1"}},{"base_weights":[2.0882025E-2,6.9192296E-1,7.5684767E-3,9.886853E-1,-2.5740294E-2,-1.08008236E-1,8.131135E-2,2.9762304E-1,6.8616845E-2,-1.181241E-2,-3.1861654E-1,4.4217128E-1,8.288201E-4,2.3012452E-2,3.7736213E-3,1.0419909E-1,-2.8482145E-1,-5.227224E-1,-8.368062E-3,5.0181365E-1,-3.2885775E-2,5.585724E-1,-3.7492607E-2,2.8741953E-3,9.166601E-2,-2.241992E-2,3.0039757E-2,-3.6851272E-2,1.5519991E-2,8.274868E-3,-5.523251E-2,1.0459531E-2,4.8754476E-2,-2.415779E-2,5.1717654E-2,1.2771536E-2,-6.9699525E-3],"categories":[],"categories_nodes":[],"categories_segments":[],"categories_sizes":[],"default_left":[0,0,0,0,0,0,0,0,0,0,0,0,0,0,0,0,0,0,0,0,0,0,0,0,0,0,0,0,0,0,0,0,0,0,0,0,0],"id":23,"left_children":[1,3,5,7,-1,9,11,13,-1,15,17,19,21,-1,-1,23,25,27,29,31,-1,33,35,-1,-1,-1,-1,-1,-1,-1,-1,-1,-1,-1,-1,-1,-1],"loss_changes":[5.051371E0,4.083291E0,4.747547E0,6.2322235E-1,0E0,4.392578E0,9.874227E0,3.6379993E-2,0E0,4.7805066E0,4.301626E0,3.9368792E0,5.984157E0,0E0,0E0,8.421755E0,3.327426E0,3.0891457E0,3.863139E0,5.862808E0,0E0,5.5961704E0,5.1850724E0,0E0,0E0,0E0,0E0,0E0,0E0,0E0,0E0,0E0,0E0,0E0,0E0,0E0,0E0],"parents":[2147483647,0,0,1,1,2,2,3,3,5,5,6,6,7,7,9,9,10,10,11,11,12,12,15,15,16,16,17,17,18,18,19,19,21,21,22,22],"right_children":[2,4,6,8,-1,10,12,14,-1,16,18,20,22,-1,-1,24,26,28,30,32,-1,34,36,-1,-1,-1,-1,-1,-1,-1,-1,-1,-1,-1,-1,-1,-1],"split_conditions":[4.5444682E-1,1.06464475E-1,9.960771E-1,1.3890842E3,-2.5740294E-2,1.4745131E3,1.4848461E3,9.2980236E-1,6.8616845E-2,9.632555E1,1.4904667E3,1.914899E-1,-5.022865E-1,2.3012452E-2,3.7736213E-3,3.303421E0,-3.4334022E-1,3.0361888E0,3.6073406E0,3.8745906E0,-3.2885775E-2,6.964404E-2,1.1023133E0,2.8741953E-3,9.166601E-2,-2.241992E-2,3.0039757E-2,-3.6851272E-2,1.5519991E-2,8.274868E-3,-5.523251E-2,1.0459531E-2,4.8754476E-2,-2.415779E-2,5.1717654E-2,1.2771536E-2,-6.9699525E-3],"split_indices":[2,23,2,8,0,8,8,0,0,9,8,23,3,0,0,15,3,15,15,18,0,23,15,0,0,0,0,0,0,0,0,0,0,0,0,0,0],"split_type":[0,0,0,0,0,0,0,0,0,0,0,0,0,0,0,0,0,0,0,0,0,0,0,0,0,0,0,0,0,0,0,0,0,0,0,0,0],"sum_hessian":[5.65E2,1E1,5.55E2,8E0,2E0,2.16E2,3.39E2,2E0,6E0,1.49E2,6.7E1,6.1E1,2.78E2,1E0,1E0,1.05E2,4.4E1,4E1,2.7E1,5.8E1,3E0,1.7E1,2.61E2,1.02E2,3E0,4E1,4E0,3.6E1,4E0,2.4E1,3E0,2.9E1,2.9E1,4E0,1.3E1,6.2E1,1.99E2],"tree_param":{"num_deleted":"0","num_feature":"25","num_nodes":"37","size_leaf_vector":"1"}},{"base_weights":[1.3071299E-2,5.625591E-2,-1.4584205E-1,-8.594389E-3,4.763291E-1,-6.9084704E-1,-4.06426E-2,1.9442853E-2,-5.101853E-1,-1.3242567E-1,5.707152E-1,-1.0266328E0,-5.883927E-2,-1.9628985E-1,2.631338E-1,1.707499E-1,-8.51344E-2,2.915896E-1,-6.0992944E-1,-3.5811815E-1,2.3921946E-1,9.078703E-1,3.5560292E-1,-6.493535E-2,-1.0774712E-2,2.5509354E-2,-2.9103032E-1,-2.5361863E-1,8.1303954E-1,5.3369516E-1,-3.2246354E-1,6.5867663E-3,9.938348E-2,-2.2123551E-2,3.2690263E-4,4.180386E-2,-1.5560796E-2,-4.2538717E-2,9.279541E-3,-2.3537168E-2,-5.618341E-3,-7.440784E-3,2.409808E-2,1.3578487E-2,8.060316E-2,-1.8217391E-3,3.76378E-2,-2.7845073E-3,-2.4104347E-2,-6.1268155E-3,-3.2340877E-2,5.5946715E-2,1.3644672E-2,8.266359E-3,8.146853E-2,6.4787013E-3,-5.680067E-2],"categories":[],"categories_nodes":[],"categories_segments":[],"categories_sizes":[],"default_left":[0,0,0,0,0,0,0,0,0,0,0,0,0,0,0,0,0,0,0,0,0,0,0,0,0,0,0,0,0,0,0,0,0,0,0,0,0,0,0,0,0,0,0,0,0,0,0,0,0,0,0,0,0,0,0,0,0],"id":24,"left_children":[1,3,5,7,9,11,13,15,17,19,21,23,25,27,29,31,33,35,37,39,41,43,45,-1,-1,-1,47,49,51,53,55,-1,-1,-1,-1,-1,-1,-1,-1,-1,-1,-1,-1,-1,-1,-1,-1,-1,-1,-1,-1,-1,-1,-1,-1,-1,-1],"loss_changes":[3.9816563E0,1.2426388E1,7.081366E0,5.5789566E0,3.580514E0,4.183978E0,5.016256E0,5.964089E0,1.8572683E0,8.4056646E-1,3.5210495E0,4.1815472E-1,1.022768E0,4.256655E0,5.8759384E0,1.3767519E1,5.730545E0,8.5031605E-1,1.5485559E0,1.748705E-2,2.8578588E-1,5.632601E0,3.5844345E0,0E0,0E0,0E0,1.4384669E-1,2.8419676E0,6.766105E-2,7.9700603E0,3.326477E0,0E0,0E0,0E0,0E0,0E0,0E0,0E0,0E0,0E0,0E0,0E0,0E0,0E0,0E0,0E0,0E0,0E0,0E0,0E0,0E0,0E0,0E0,0E0,0E0,0E0,0E0],"parents":[2147483647,0,0,1,1,2,2,3,3,4,4,5,5,6,6,7,7,8,8,9,9,10,10,11,11,12,12,13,13,14,14,15,15,16,16,17,17,18,18,19,19,20,20,21,21,22,22,26,26,27,27,28,28,29,29,30,30],"right_children":[2,4,6,8,10,12,14,16,18,20,22,24,26,28,30,32,34,36,38,40,42,44,46,-1,-1,-1,48,50,52,54,56,-1,-1,-1,-1,-1,-1,-1,-1,-1,-1,-1,-1,-1,-1,-1,-1,-1,-1,-1,-1,-1,-1,-1,-1,-1,-1],"split_conditions":[1.2554458E-1,9.8869726E-2,1.3501397E0,6.0977154E0,7.179754E-2,3.8004795E1,1.8040055E-1,1.4241794E0,8.3982056E-1,1.4879777E3,1.4745131E3,1.753886E0,1.3116273E0,1.5813953E3,1.515176E3,1.4036937E0,1.6564074E0,1.8206809E0,1.6016892E0,1.2472588E0,8.93547E-1,1.5177977E0,1.5297491E3,-6.493535E-2,-1.0774712E-2,2.5509354E-2,1.2830768E0,1.0788203E-1,1.6133692E0,-1.3782685E-1,1.7025748E0,6.5867663E-3,9.938348E-2,-2.2123551E-2,3.2690263E-4,4.180386E-2,-1.5560796E-2,-4.2538717E-2,9.279541E-3,-2.3537168E-2,-5.618341E-3,-7.440784E-3,2.409808E-2,1.3578487E-2,8.060316E-2,-1.8217391E-3,3.76378E-2,-2.7845073E-3,-2.4104347E-2,-6.1268155E-3,-3.2340877E-2,5.5946715E-2,1.3644672E-2,8.266359E-3,8.146853E-2,6.4787013E-3,-5.680067E-2],"split_indices":[24,24,1,18,23,9,24,1,1,8,8,2,2,8,8,1,15,0,3,0,0,1,8,0,0,0,1,23,0,3,14,0,0,0,0,0,0,0,0,0,0,0,0,0,0,0,0,0,0,0,0,0,0,0,0,0,0],"split_type":[0,0,0,0,0,0,0,0,0,0,0,0,0,0,0,0,0,0,0,0,0,0,0,0,0,0,0,0,0,0,0,0,0,0,0,0,0,0,0,0,0,0,0,0,0,0,0,0,0,0,0,0,0,0,0,0,0],"sum_hessian":[5.78E2,4.55E2,1.23E2,3.95E2,6E1,1.9E1,1.04E2,3.75E2,2E1,8E0,5.2E1,1.2E1,7E0,6.9E1,3.5E1,1.53E2,2.22E2,2E0,1.8E1,5E0,3E0,1.9E1,3.3E1,1.1E1,1E0,2E0,5E0,6.6E1,3E0,2.4E1,1.1E1,1.48E2,5E0,5.3E1,1.69E2,1E0,1E0,1.6E1,2E0,4E0,1E0,1E0,2E0,8E0,1.1E1,1.4E1,1.9E1,2E0,3E0,4.4E1,2.2E1,2E0,1E0,1.7E1,7E0,7E0,4E0],"tree_param":{"num_deleted":"0","num_feature":"25","num_nodes":"57","size_leaf_vector":"1"}},{"base_weights":[1.1071027E-2,2.6831394E-2,-4.2683268E-1,-3.8554278E-1,4.216843E-2,1.23942815E-1,-4.9491566E-1,-4.7697443E-1,4.0549744E-2,-7.87602E-2,1.0302273E-1,1.3058306E-2,-1.9034528E-3,-5.225042E-1,-7.773042E-4,-6.3653374E-1,2.8050655E-1,-5.1675014E-2,-8.5561794E-1,3.7301403E-1,5.2616984E-2,-5.477277E-1,-3.5678672E-3,-1.2813377E-3,-4.3373458E-2,-1.4583038E-2,3.216255E-2,-3.934165E-3,7.097854E-2,-9.185732E-3,-5.7930198E-2,-1.5560617E-3,4.173499E-2,4.878956E-2,1.7493662E-3,-3.5454664E-2,-9.817755E-3],"categories":[],"categories_nodes":[],"categories_segments":[],"categories_sizes":[],"default_left":[0,0,0,0,0,0,0,0,0,0,0,0,0,0,0,0,0,0,0,0,0,0,0,0,0,0,0,0,0,0,0,0,0,0,0,0,0],"id":25,"left_children":[1,3,5,7,9,11,13,15,-1,17,19,-1,-1,21,-1,23,25,27,29,31,33,35,-1,-1,-1,-1,-1,-1,-1,-1,-1,-1,-1,-1,-1,-1,-1],"loss_changes":[3.9729269E0,3.52641E0,8.113098E-1,2.2632124E0,3.9525523E0,5.0660364E-2,2.325697E-1,2.4749522E0,0E0,3.7432263E0,4.838827E0,0E0,0E0,1.6598034E-1,0E0,8.345628E-1,6.654361E-1,3.0796456E0,3.1536674E-1,7.224592E0,5.364876E0,1.6869688E-1,0E0,0E0,0E0,0E0,0E0,0E0,0E0,0E0,0E0,0E0,0E0,0E0,0E0,0E0,0E0],"parents":[2147483647,0,0,1,1,2,2,3,3,4,4,5,5,6,6,7,7,9,9,10,10,13,13,15,15,16,16,17,17,18,18,19,19,20,20,21,21],"right_children":[2,4,6,8,10,12,14,16,-1,18,20,-1,-1,22,-1,24,26,28,30,32,34,36,-1,-1,-1,-1,-1,-1,-1,-1,-1,-1,-1,-1,-1,-1,-1],"split_conditions":[2.136546E-1,9.059117E-1,2.8111231E0,6.6236606E0,3.770277E0,2.3393302E0,2.3917696E0,2.5072997E0,4.0549744E-2,2.1328108E0,1.0876722E0,1.3058306E-2,-1.9034528E-3,2.0179443E0,-7.773042E-4,7.4322253E-1,1.2599747E0,5.0251718E0,3.4872892E0,1.50829E3,3.791888E0,1.2253846E0,-3.5678672E-3,-1.2813377E-3,-4.3373458E-2,-1.4583038E-2,3.216255E-2,-3.934165E-3,7.097854E-2,-9.185732E-3,-5.7930198E-2,-1.5560617E-3,4.173499E-2,4.878956E-2,1.7493662E-3,-3.5454664E-2,-9.817755E-3],"split_indices":[23,1,19,18,18,0,0,14,0,14,15,0,0,1,0,1,0,15,18,8,18,10,0,0,0,0,0,0,0,0,0,0,0,0,0,0,0],"split_type":[0,0,0,0,0,0,0,0,0,0,0,0,0,0,0,0,0,0,0,0,0,0,0,0,0,0,0,0,0,0,0,0,0,0,0,0,0],"sum_hessian":[5.73E2,5.54E2,1.9E1,1.9E1,5.35E2,2E0,1.7E1,1.8E1,1E0,1.79E2,3.56E2,1E0,1E0,1.6E1,1E0,1.5E1,3E0,1.74E2,5E0,5.5E1,3.01E2,1.5E1,1E0,2E0,1.3E1,1E0,2E0,1.73E2,1E0,1E0,4E0,2.5E1,3E1,8E0,2.93E2,1.3E1,2E0],"tree_param":{"num_deleted":"0","num_feature":"25","num_nodes":"37","size_leaf_vector":"1"}},{"base_weights":[-1.2793734E-2,-3.7377033E-2,2.8879216E-1,-9.7826704E-2,8.795704E-2,7.497448E-1,-4.143629E-2,-7.9817854E-2,-5.9057653E-2,4.2059058E-1,-8.4966965E-2,-3.3681625E-1,1.0842491E0,5.8556855E-1,-3.526367E-1,-2.2989106E-1,2.0135075E-2,4.7858593E-1,-4.964918E-1,-2.3959607E-1,1.8581615E-1,-1.1003816E-2,-2.8514804E-2,2.8621462E-1,1.3748415E0,8.30899E-1,-1.8205877E-1,-8.226358E-1,2.1238744E-2,-1.5647966E-2,5.3171616E-2,-1.0163466E-3,4.1745063E-2,-1.3590505E-2,3.312925E-2,-1.2857691E-2,-4.0292475E-2,3.7090436E-2,-1.9538265E-2,-2.6407098E-2,2.0762369E-2,4.17277E-2,-1.3106238E-2,9.971416E-3,8.944023E-2,5.3940747E-2,1.2666557E-2,-3.80376E-2,2.1652315E-2,-5.408291E-2,-8.142407E-3,6.461023E-2,-1.9979237E-2],"categories":[],"categories_nodes":[],"categories_segments":[],"categories_sizes":[],"default_left":[0,0,0,0,0,0,0,0,0,0,0,0,0,0,0,0,0,0,0,0,0,0,0,0,0,0,0,0,0,0,0,0,0,0,0,0,0,0,0,0,0,0,0,0,0,0,0,0,0,0,0,0,0],"id":26,"left_children":[1,3,5,7,9,11,13,15,-1,17,19,21,23,25,27,29,31,33,35,37,39,-1,-1,41,43,45,47,49,51,-1,-1,-1,-1,-1,-1,-1,-1,-1,-1,-1,-1,-1,-1,-1,-1,-1,-1,-1,-1,-1,-1,-1,-1],"loss_changes":[4.2293468E0,4.0013695E0,6.5765123E0,5.6047134E0,9.929232E0,6.907462E0,5.279721E0,5.254719E0,0E0,3.375618E0,4.817809E0,1.903075E-2,2.853138E0,1.8461738E0,3.180452E0,5.060611E0,5.2968946E0,3.02993E0,5.3685784E-2,5.5889926E0,4.36445E0,0E0,0E0,1.1845515E0,1.1522331E0,1.0572195E-1,9.648316E-1,3.1042004E-1,4.471698E0,0E0,0E0,0E0,0E0,0E0,0E0,0E0,0E0,0E0,0E0,0E0,0E0,0E0,0E0,0E0,0E0,0E0,0E0,0E0,0E0,0E0,0E0,0E0,0E0],"parents":[2147483647,0,0,1,1,2,2,3,3,4,4,5,5,6,6,7,7,9,9,10,10,11,11,12,12,13,13,14,14,15,15,16,16,17,17,18,18,19,19,20,20,23,23,24,24,25,25,26,26,27,27,28,28],"right_children":[2,4,6,8,10,12,14,16,-1,18,20,22,24,26,28,30,32,34,36,38,40,-1,-1,42,44,46,48,50,52,-1,-1,-1,-1,-1,-1,-1,-1,-1,-1,-1,-1,-1,-1,-1,-1,-1,-1,-1,-1,-1,-1,-1,-1],"split_conditions":[2.9212873E0,9.907474E-2,-6.9078153E-1,9.8746225E-2,1.2554458E-1,3.1706858E0,3.0022552E0,9.822489E-1,-5.9057653E-2,7.1398244E0,1.7695032E-1,7.5597084E-1,5.220223E-1,4.5302167E0,8.7247086E-1,1.5357865E0,1.1462066E0,8.93547E-1,1.5957208E0,-1.3065384E2,-4.9289055E1,-1.1003816E-2,-2.8514804E-2,3.9561895E-1,1.0866621E1,1.2472588E0,1.0017662E0,1.6645441E0,2.9066574E1,-1.5647966E-2,5.3171616E-2,-1.0163466E-3,4.1745063E-2,-1.3590505E-2,3.312925E-2,-1.2857691E-2,-4.0292475E-2,3.7090436E-2,-1.9538265E-2,-2.6407098E-2,2.0762369E-2,4.17277E-2,-1.3106238E-2,9.971416E-3,8.944023E-2,5.3940747E-2,1.2666557E-2,-3.80376E-2,2.1652315E-2,-5.408291E-2,-8.142407E-3,6.461023E-2,-1.9979237E-2],"split_indices":[15,24,3,24,24,18,15,2,0,19,24,2,2,19,2,0,10,0,14,9,9,0,0,2,9,0,0,0,9,0,0,0,0,0,0,0,0,0,0,0,0,0,0,0,0,0,0,0,0,0,0,0,0],"split_type":[0,0,0,0,0,0,0,0,0,0,0,0,0,0,0,0,0,0,0,0,0,0,0,0,0,0,0,0,0,0,0,0,0,0,0,0,0,0,0,0,0,0,0,0,0,0,0,0,0,0,0,0,0],"sum_hessian":[5.68E2,5.26E2,4.2E1,3.55E2,1.71E2,1.7E1,2.5E1,3.49E2,6E0,5.8E1,1.13E2,4E0,1.3E1,8E0,1.7E1,1.39E2,2.1E2,5.5E1,3E0,7.2E1,4.1E1,3E0,1E0,4E0,9E0,6E0,2E0,7E0,1E1,1.36E2,3E0,2E2,1E1,5E0,5E1,2E0,1E0,6E0,6.6E1,8E0,3.3E1,2E0,2E0,1E0,8E0,5E0,1E0,1E0,1E0,6E0,1E0,2E0,8E0],"tree_param":{"num_deleted":"0","num_feature":"25","num_nodes":"53","size_leaf_vector":"1"}},{"base_weights":[-4.9381354E-3,1.1681055E-1,-7.709681E-2,1.9534945E-1,-3.531239E-1,-3.2709074E-1,-1.3682784E-2,1.4536592E-1,1.2768162E0,-5.1531875E-1,8.705211E-1,-5.1398337E-1,-5.7301257E-2,-4.5088246E-2,3.6951482E-1,-3.1867284E-1,1.9346091E-1,1.7378165E0,2.2881716E-2,2.330672E-2,-5.9977925E-1,-1.270101E-3,7.048842E-2,-6.176123E-1,1.0719558E-1,-2.2942586E-1,6.981222E-1,-1.5375724E-1,1.2507178E-1,1.5506474E0,-6.909165E-2,-2.8535271E-2,3.4327593E-2,4.50531E-2,8.611692E-3,1.1487758E-1,3.09173E-2,-4.678154E-2,-1.4036944E-2,-2.3593307E-2,-5.523021E-2,-2.2666607E-2,5.278506E-2,4.38145E-2,-2.318097E-2,7.3959686E-2,-1.4838256E-2,4.01062E-2,-1.1352624E-2,4.0669583E-2,1.955038E-3,9.672275E-3,1.0777769E-1,-1.9748902E-2,5.150279E-2],"categories":[],"categories_nodes":[],"categories_segments":[],"categories_sizes":[],"default_left":[0,0,0,0,0,0,0,0,0,0,0,0,0,0,0,0,0,0,0,0,0,0,0,0,0,0,0,0,0,0,0,0,0,0,0,0,0,0,0,0,0,0,0,0,0,0,0,0,0,0,0,0,0,0,0],"id":27,"left_children":[1,3,5,7,9,11,13,15,17,19,21,23,25,27,29,31,33,35,-1,-1,37,-1,-1,39,41,43,45,47,49,51,53,-1,-1,-1,-1,-1,-1,-1,-1,-1,-1,-1,-1,-1,-1,-1,-1,-1,-1,-1,-1,-1,-1,-1,-1],"loss_changes":[5.0517244E0,7.9673243E0,5.718501E0,9.760611E0,6.6011333E0,3.6513295E0,3.4946306E0,4.0119257E0,2.639699E0,2.3702884E0,1.1101828E0,2.8342066E0,4.191003E0,4.97485E0,1.1504289E1,2.648353E0,4.373452E0,9.41906E-2,0E0,0E0,1.5288496E0,0E0,0E0,2.1527767E0,2.9550261E0,4.1975865E0,3.3370485E0,4.906972E0,5.3458357E0,1.7583094E0,4.382853E0,0E0,0E0,0E0,0E0,0E0,0E0,0E0,0E0,0E0,0E0,0E0,0E0,0E0,0E0,0E0,0E0,0E0,0E0,0E0,0E0,0E0,0E0,0E0,0E0],"parents":[2147483647,0,0,1,1,2,2,3,3,4,4,5,5,6,6,7,7,8,8,9,9,10,10,11,11,12,12,13,13,14,14,15,15,16,16,17,17,20,20,23,23,24,24,25,25,26,26,27,27,28,28,29,29,30,30],"right_children":[2,4,6,8,10,12,14,16,18,20,22,24,26,28,30,32,34,36,-1,-1,38,-1,-1,40,42,44,46,48,50,52,54,-1,-1,-1,-1,-1,-1,-1,-1,-1,-1,-1,-1,-1,-1,-1,-1,-1,-1,-1,-1,-1,-1,-1,-1],"split_conditions":[1.4241794E0,1.2156168E-1,1.5493505E0,1.4036937E0,2.3127119E-1,1.8944191E0,3.0588453E0,9.0000725E-1,1.0959351E0,1.0392821E0,1.3810086E0,6.131736E0,1.1875638E-1,9.6658416E-2,4.7095003E0,6.6236606E0,1E0,1.76899E0,2.2881716E-2,2.330672E-2,1.3501397E0,-1.270101E-3,7.048842E-2,5.483896E0,1.4012016E0,1.4645353E3,1.5830197E3,7.928963E-2,1.2421417E0,1.4808063E3,8.112597E-2,-2.8535271E-2,3.4327593E-2,4.50531E-2,8.611692E-3,1.1487758E-1,3.09173E-2,-4.678154E-2,-1.4036944E-2,-2.3593307E-2,-5.523021E-2,-2.2666607E-2,5.278506E-2,4.38145E-2,-2.318097E-2,7.3959686E-2,-1.4838256E-2,4.01062E-2,-1.1352624E-2,4.0669583E-2,1.955038E-3,9.672275E-3,1.0777769E-1,-1.9748902E-2,5.150279E-2],"split_indices":[1,24,1,1,24,15,15,1,11,0,0,19,24,24,19,18,1,2,0,0,1,0,0,19,2,7,7,23,11,7,23,0,0,0,0,0,0,0,0,0,0,0,0,0,0,0,0,0,0,0,0,0,0,0,0],"split_type":[0,0,0,0,0,0,0,0,0,0,0,0,0,0,0,0,0,0,0,0,0,0,0,0,0,0,0,0,0,0,0,0,0,0,0,0,0,0,0,0,0,0,0,0,0,0,0,0,0,0,0,0,0,0,0],"sum_hessian":[5.73E2,2.13E2,3.6E2,1.83E2,3E1,7.2E1,2.88E2,1.76E2,7E0,2.7E1,3E0,4.2E1,3E1,2.67E2,2.1E1,1.6E1,1.6E2,4E0,3E0,2E0,2.5E1,1E0,2E0,3.6E1,6E0,2.5E1,5E0,1.63E2,1.04E2,5E0,1.6E1,1.4E1,2E0,1.2E1,1.48E2,3E0,1E0,1.6E1,9E0,2.2E1,1.4E1,4E0,2E0,3E0,2.2E1,3E0,2E0,6E0,1.57E2,1.4E1,9E1,1E0,4E0,1.3E1,3E0],"tree_param":{"num_deleted":"0","num_feature":"25","num_nodes":"55","size_leaf_vector":"1"}},{"base_weights":[-4.661297E-3,7.492501E-2,-9.137436E-3,-5.0897634E-1,1.824615E-3,-6.684722E-1,3.7364338E-2,8.65333E-1,-9.331074E-3,1.8887565E-2,-7.982779E-1,6.294078E-2,-7.1024178E-3,3.733093E-2,-1.2399478E-1,-5.075639E-2,-1.10796075E-2,7.8682386E-4,7.079726E-2,4.082358E-3,-1.699954E-2],"categories":[],"categories_nodes":[],"categories_segments":[],"categories_sizes":[],"default_left":[0,0,0,0,0,0,0,0,0,0,0,0,0,0,0,0,0,0,0,0,0],"id":28,"left_children":[1,-1,3,5,7,9,-1,11,13,-1,15,-1,-1,17,19,-1,-1,-1,-1,-1,-1],"loss_changes":[3.153259E0,0E0,3.0638347E0,2.5823302E0,5.2869754E0,1.6552601E0,0E0,1.3889861E0,2.9045665E0,0E0,1.362505E-1,0E0,0E0,1.06655855E1,4.823001E0,0E0,0E0,0E0,0E0,0E0,0E0],"parents":[2147483647,0,0,2,2,3,3,4,4,5,5,7,7,8,8,10,10,13,13,14,14],"right_children":[2,-1,4,6,8,10,-1,12,14,-1,16,-1,-1,18,20,-1,-1,-1,-1,-1,-1],"split_conditions":[6.59754E-1,7.492501E-2,1.3930713E3,1.1417125E0,4.5444682E-1,1.4220331E3,3.7364338E-2,-9.4453317E-1,5.797188E0,1.8887565E-2,4.1293697E0,6.294078E-2,-7.1024178E-3,5.7577467E0,1.4901844E3,-5.075639E-2,-1.10796075E-2,7.8682386E-4,7.079726E-2,4.082358E-3,-1.699954E-2],"split_indices":[10,0,8,0,2,7,0,3,19,0,18,0,0,19,7,0,0,0,0,0,0],"split_type":[0,0,0,0,0,0,0,0,0,0,0,0,0,0,0,0,0,0,0,0,0],"sum_hessian":[5.59E2,1E0,5.58E2,1.1E1,5.47E2,1E1,1E0,6E0,5.41E2,1E0,9E0,5E0,1E0,3.85E2,1.56E2,8E0,1E0,3.78E2,7E0,7.1E1,8.5E1],"tree_param":{"num_deleted":"0","num_feature":"25","num_nodes":"21","size_leaf_vector":"1"}},{"base_weights":[1.9752536E-2,-3.2608736E-1,3.6787134E-2,-5.4862773E-1,1.7995214E-1,3.4154472E-1,1.5287016E-2,-2.6129335E-1,-6.9446504E-1,-4.6903554E-1,4.3238226E-1,-7.451038E-1,5.837112E-1,-5.7279485E-1,3.2969628E-2,-4.6224952E-1,-4.826975E-2,-1.3753E-2,-4.9444757E-2,-8.778091E-3,-3.3435106E-2,-3.720091E-2,6.2765574E-1,-6.5494835E-2,8.072551E-2,7.3522127E-1,-5.849094E-1,-2.633452E-1,-6.6138154E-1,-3.4166377E-2,1.3070011E-1,-7.096928E-3,-3.2248676E-2,-1.9033194E-4,-4.636643E-3,3.1722682E-3,-6.52035E-3,1.5847616E-2,4.6917953E-2,1.14340605E-2,-4.168764E-3,7.429285E-2,1.8721512E-2,-2.9460203E-3,-4.4828735E-2,-2.4828773E-2,1.0155765E-2,-4.6769083E-2,-1.5589785E-2,-1.1513216E-3,-6.736442E-2,1.5258732E-2,-5.8642426E-3],"categories":[],"categories_nodes":[],"categories_segments":[],"categories_sizes":[],"default_left":[0,0,0,0,0,0,0,0,0,0,0,0,0,0,0,0,0,0,0,0,0,0,0,0,0,0,0,0,0,0,0,0,0,0,0,0,0,0,0,0,0,0,0,0,0,0,0,0,0,0,0,0,0],"id":29,"left_children":[1,3,5,7,9,11,13,15,17,19,21,23,25,27,29,31,33,-1,-1,-1,-1,35,37,-1,39,41,43,45,47,49,51,-1,-1,-1,-1,-1,-1,-1,-1,-1,-1,-1,-1,-1,-1,-1,-1,-1,-1,-1,-1,-1,-1],"loss_changes":[3.387678E0,3.1393108E0,3.5789E0,6.1471796E-1,1.677219E0,9.908319E0,5.343083E0,3.201546E-1,5.347414E-1,3.884375E-3,6.6522944E-1,2.0910337E0,5.7417707E0,2.3702526E-1,3.2719603E0,3.9930463E-2,6.2957257E-3,0E0,0E0,0E0,0E0,2.5058417E-2,7.394254E-2,0E0,6.2737025E-2,5.3609915E0,3.110255E-1,3.9551073E-1,3.191371E-1,4.804534E0,5.7570972E0,0E0,0E0,0E0,0E0,0E0,0E0,0E0,0E0,0E0,0E0,0E0,0E0,0E0,0E0,0E0,0E0,0E0,0E0,0E0,0E0,0E0,0E0],"parents":[2147483647,0,0,1,1,2,2,3,3,4,4,5,5,6,6,7,7,8,8,9,9,10,10,11,11,12,12,13,13,14,14,15,15,16,16,21,21,22,22,24,24,25,25,26,26,27,27,28,28,29,29,30,30],"right_children":[2,4,6,8,10,12,14,16,18,20,22,24,26,28,30,32,34,-1,-1,-1,-1,36,38,-1,40,42,44,46,48,50,52,-1,-1,-1,-1,-1,-1,-1,-1,-1,-1,-1,-1,-1,-1,-1,-1,-1,-1,-1,-1,-1,-1],"split_conditions":[3.2713943E0,-1.0211527E2,3.8543088E0,1.4758439E3,1.6113958E0,1.442578E3,4E0,1.2458003E0,5.7162356E0,1.3841889E0,5.724589E0,2.511105E0,8.7651566E1,1.3569778E0,4.096475E0,9.089089E-1,1.709668E0,-1.3753E-2,-4.9444757E-2,-8.778091E-3,-3.3435106E-2,1.1021619E0,1.3336385E0,-6.5494835E-2,1.055948E0,2.2784735E-1,6.574235E-1,1.05015E0,1.5529311E0,4.0871873E0,1.515902E3,-7.096928E-3,-3.2248676E-2,-1.9033194E-4,-4.636643E-3,3.1722682E-3,-6.52035E-3,1.5847616E-2,4.6917953E-2,1.14340605E-2,-4.168764E-3,7.429285E-2,1.8721512E-2,-2.9460203E-3,-4.4828735E-2,-2.4828773E-2,1.0155765E-2,-4.6769083E-2,-1.5589785E-2,-1.1513216E-3,-6.736442E-2,1.5258732E-2,-5.8642426E-3],"split_indices":[19,9,19,7,2,7,19,15,18,1,18,14,9,15,18,1,1,0,0,0,0,1,1,0,1,3,2,1,1,18,7,0,0,0,0,0,0,0,0,0,0,0,0,0,0,0,0,0,0,0,0,0,0],"split_type":[0,0,0,0,0,0,0,0,0,0,0,0,0,0,0,0,0,0,0,0,0,0,0,0,0,0,0,0,0,0,0,0,0,0,0,0,0,0,0,0,0,0,0,0,0,0,0,0,0,0,0,0,0],"sum_hessian":[5.72E2,2.6E1,5.46E2,1.8E1,8E0,3.5E1,5.11E2,7E0,1.1E1,2E0,6E0,6E0,2.9E1,1.4E1,4.97E2,3E0,4E0,3E0,8E0,1E0,1E0,2E0,4E0,4E0,2E0,2.6E1,3E0,4E0,1E1,2.95E2,2.02E2,1E0,2E0,2E0,2E0,1E0,1E0,2E0,2E0,1E0,1E0,1.1E1,1.5E1,1E0,2E0,3E0,1E0,7E0,3E0,2.92E2,3E0,1.31E2,7.1E1],"tree_param":{"num_deleted":"0","num_feature":"25","num_nodes":"53","size_leaf_vector":"1"}},{"base_weights":[-2.8157666E-2,-5.8993965E-2,1.4004171E-1,2.1079727E-2,-3.0070052E-1,-1.7145596E-1,3.06616E-1,-1.0963154E-1,8.608542E-2,2.5807112E-1,-3.6971062E-1,3.6212635E-1,-4.3045366E-1,4.0209684E-1,-4.601126E-1,-2.4149299E-1,7.5054154E-2,3.918849E-1,-1.6310565E-2,-2.3545876E-1,1.1935166E0,3.9367118E-1,-4.180015E-1,-2.1427707E-1,1.4244016E0,3.6719233E-1,-5.757237E-1,1.0059951E-1,6.4814293E-1,-4.0263027E-2,-1.4491641E-2,-2.0566748E-3,-4.088765E-2,4.2246882E-2,-1.1940031E-2,3.721131E-2,-9.446628E-3,-4.399434E-2,6.996361E-4,-3.0267483E-2,1.7649284E-2,8.0772795E-2,1.7481904E-2,4.574046E-2,-2.1120135E-2,-5.166276E-2,-2.066634E-2,2.2729643E-2,-2.1187468E-2,9.9281825E-2,2.2005446E-2,-9.99866E-3,3.604116E-2,-4.1862458E-2,1.8445594E-2,2.1193022E-2,-2.8821891E-2,6.1575305E-2,2.3707382E-2],"categories":[],"categories_nodes":[],"categories_segments":[],"categories_sizes":[],"default_left":[0,0,0,0,0,0,0,0,0,0,0,0,0,0,0,0,0,0,0,0,0,0,0,0,0,0,0,0,0,0,0,0,0,0,0,0,0,0,0,0,0,0,0,0,0,0,0,0,0,0,0,0,0,0,0,0,0,0,0],"id":30,"left_children":[1,3,5,7,9,11,13,15,17,19,21,23,25,27,29,31,33,35,37,39,41,43,45,47,49,51,53,55,57,-1,-1,-1,-1,-1,-1,-1,-1,-1,-1,-1,-1,-1,-1,-1,-1,-1,-1,-1,-1,-1,-1,-1,-1,-1,-1,-1,-1,-1,-1],"loss_changes":[3.0113297E0,9.489963E0,4.7224464E0,3.144822E0,4.799841E0,4.57817E0,4.5042753E0,3.0135345E0,7.7406135E0,6.744408E0,4.1827736E0,7.0405064E0,2.7606306E0,3.866455E0,1.6067839E-1,6.5407357E0,9.104762E0,7.873295E0,3.7384691E0,1.5730453E0,2.9653788E-1,2.1926966E0,3.0603428E0,7.925813E-1,3.6741066E-1,5.9869087E-1,2.2613664E0,3.838718E0,2.3689308E0,0E0,0E0,0E0,0E0,0E0,0E0,0E0,0E0,0E0,0E0,0E0,0E0,0E0,0E0,0E0,0E0,0E0,0E0,0E0,0E0,0E0,0E0,0E0,0E0,0E0,0E0,0E0,0E0,0E0,0E0],"parents":[2147483647,0,0,1,1,2,2,3,3,4,4,5,5,6,6,7,7,8,8,9,9,10,10,11,11,12,12,13,13,14,14,15,15,16,16,17,17,18,18,19,19,20,20,21,21,22,22,23,23,24,24,25,25,26,26,27,27,28,28],"right_children":[2,4,6,8,10,12,14,16,18,20,22,24,26,28,30,32,34,36,38,40,42,44,46,48,50,52,54,56,58,-1,-1,-1,-1,-1,-1,-1,-1,-1,-1,-1,-1,-1,-1,-1,-1,-1,-1,-1,-1,-1,-1,-1,-1,-1,-1,-1,-1,-1,-1],"split_conditions":[6.2142024E0,5.670655E0,1.1121844E0,3.9482093E0,3.0905058E0,7.7018917E-1,1.5892678E3,-2.2755377E-1,-3.5958382E-1,1.9673543E0,5.6204396E-1,6.782853E-1,6.304464E0,9.1865283E-1,8.873077E-1,1.0893277E0,-1.08008094E-1,4.464051E0,8.709525E-1,-3.021588E-1,1.5230173E3,1.5078002E3,5.737086E0,7.041583E-1,1.0060921E0,1.2588989E0,2.7236745E0,1.4901844E3,1.4144163E0,-4.0263027E-2,-1.4491641E-2,-2.0566748E-3,-4.088765E-2,4.2246882E-2,-1.1940031E-2,3.721131E-2,-9.446628E-3,-4.399434E-2,6.996361E-4,-3.0267483E-2,1.7649284E-2,8.0772795E-2,1.7481904E-2,4.574046E-2,-2.1120135E-2,-5.166276E-2,-2.066634E-2,2.2729643E-2,-2.1187468E-2,9.9281825E-2,2.2005446E-2,-9.99866E-3,3.604116E-2,-4.1862458E-2,1.8445594E-2,2.1193022E-2,-2.8821891E-2,6.1575305E-2,2.3707382E-2],"split_indices":[19,19,0,18,18,14,7,3,3,1,2,14,19,10,10,0,3,18,0,3,7,7,19,0,0,1,1,7,14,0,0,0,0,0,0,0,0,0,0,0,0,0,0,0,0,0,0,0,0,0,0,0,0,0,0,0,0,0,0],"split_type":[0,0,0,0,0,0,0,0,0,0,0,0,0,0,0,0,0,0,0,0,0,0,0,0,0,0,0,0,0,0,0,0,0,0,0,0,0,0,0,0,0,0,0,0,0,0,0,0,0,0,0,0,0,0,0,0,0,0,0],"sum_hessian":[5.78E2,4.89E2,8.9E1,3.68E2,1.21E2,3.1E1,5.8E1,1.22E2,2.46E2,1.3E1,1.08E2,1E1,2.1E1,5.2E1,6E0,7.1E1,5.1E1,6.1E1,1.85E2,9E0,4E0,6E0,1.02E2,7E0,3E0,3E0,1.8E1,2.4E1,2.8E1,2E0,4E0,4.9E1,2.2E1,1.5E1,3.6E1,4.3E1,1.8E1,6E0,1.79E2,6E0,3E0,3E0,1E0,4E0,2E0,1.3E1,8.9E1,1E0,6E0,2E0,1E0,1E0,2E0,1.6E1,2E0,1.7E1,7E0,1E1,1.8E1],"tree_param":{"num_deleted":"0","num_feature":"25","num_nodes":"59","size_leaf_vector":"1"}},{"base_weights":[3.7466139E-3,-7.29453E-2,9.130121E-2,-3.351614E-2,-4.5928302E-1,1.9598188E-2,4.3872014E-1,4.5103532E-1,-7.16442E-2,5.199104E-1,-5.510718E-1,1.4158739E-1,-1.4201982E-1,8.288936E-1,9.1699526E-2,1.9357172E-1,1.1587757E-1,-4.3523166E-1,2.9598467E-2,4.3946195E-2,2.8457379E-3,-6.907662E-1,5.2986223E-2,5.178473E-1,-3.5573777E-2,6.955649E-2,-1.8080193E-1,4.2306778E-1,8.917232E-2,7.5917506E-1,-1.9416909E-1,7.736365E-2,-1.7393578E-2,-2.9573634E-2,3.317541E-3,-7.3896185E-4,5.774401E-2,-2.743784E-2,-5.5511944E-2,-1.6465547E-2,1.711792E-2,-2.6003657E-2,3.9486412E-2,4.5249322E-3,-4.192639E-2,-5.543255E-3,-3.9478473E-2,-1.859298E-2,4.306599E-2,-3.1591233E-2,6.1083782E-2,6.106519E-5,-4.4453748E-2],"categories":[],"categories_nodes":[],"categories_segments":[],"categories_sizes":[],"default_left":[0,0,0,0,0,0,0,0,0,0,0,0,0,0,0,0,0,0,0,0,0,0,0,0,0,0,0,0,0,0,0,0,0,0,0,0,0,0,0,0,0,0,0,0,0,0,0,0,0,0,0,0,0],"id":31,"left_children":[1,3,5,7,9,11,13,15,17,19,21,23,25,27,29,31,-1,33,35,-1,-1,37,39,41,43,-1,45,47,-1,49,51,-1,-1,-1,-1,-1,-1,-1,-1,-1,-1,-1,-1,-1,-1,-1,-1,-1,-1,-1,-1,-1,-1],"loss_changes":[3.9549205E0,4.7677593E0,6.8419237E0,5.316166E0,2.8929987E0,4.534992E0,6.2877073E0,7.6295176E0,9.804493E0,2.665053E-1,2.3149567E0,8.750704E0,5.205826E0,5.2398243E0,5.108476E0,1.0439823E1,0E0,1.6677656E0,8.183317E0,0E0,0E0,7.810297E-1,5.3466463E-1,5.8888903E0,6.677423E0,0E0,4.031535E0,3.4624188E0,0E0,3.1988401E0,2.0283175E0,0E0,0E0,0E0,0E0,0E0,0E0,0E0,0E0,0E0,0E0,0E0,0E0,0E0,0E0,0E0,0E0,0E0,0E0,0E0,0E0,0E0,0E0],"parents":[2147483647,0,0,1,1,2,2,3,3,4,4,5,5,6,6,7,7,8,8,9,9,10,10,11,11,12,12,13,13,14,14,15,15,17,17,18,18,21,21,22,22,23,23,24,24,26,26,27,27,29,29,30,30],"right_children":[2,4,6,8,10,12,14,16,18,20,22,24,26,28,30,32,-1,34,36,-1,-1,38,40,42,44,-1,46,48,-1,50,52,-1,-1,-1,-1,-1,-1,-1,-1,-1,-1,-1,-1,-1,-1,-1,-1,-1,-1,-1,-1,-1,-1],"split_conditions":[5.4122057E0,0E0,1.3052053E0,7.7018917E-1,1.4570276E3,1.5325542E3,1.2944944E-1,1.4920352E3,1.3391575E0,1.006998E0,5.532291E0,5.222971E0,7.037986E-1,4.035939E0,3.2572273E1,1.4555829E3,1.1587757E-1,2.035326E0,-7.174468E0,4.3946195E-2,2.8457379E-3,1.0017662E0,1.1945142E0,4.1129917E-1,4.5010405E0,6.955649E-2,1.1588496E0,8.0323264E-2,8.917232E-2,8.705506E-1,1.546102E0,7.736365E-2,-1.7393578E-2,-2.9573634E-2,3.317541E-3,-7.3896185E-4,5.774401E-2,-2.743784E-2,-5.5511944E-2,-1.6465547E-2,1.711792E-2,-2.6003657E-2,3.9486412E-2,4.5249322E-3,-4.192639E-2,-5.543255E-3,-3.9478473E-2,-1.859298E-2,4.306599E-2,-3.1591233E-2,6.1083782E-2,6.106519E-5,-4.4453748E-2],"split_indices":[9,9,2,14,7,7,3,7,14,0,19,19,10,18,9,7,0,11,9,0,0,0,0,14,18,0,2,24,0,10,14,0,0,0,0,0,0,0,0,0,0,0,0,0,0,0,0,0,0,0,0,0,0],"split_type":[0,0,0,0,0,0,0,0,0,0,0,0,0,0,0,0,0,0,0,0,0,0,0,0,0,0,0,0,0,0,0,0,0,0,0,0,0,0,0,0,0,0,0,0,0,0,0,0,0,0,0,0,0],"sum_hessian":[5.87E2,3.13E2,2.74E2,2.85E2,2.8E1,2.28E2,4.6E1,2E1,2.65E2,2E0,2.6E1,1.3E2,9.8E1,2.1E1,2.5E1,1.8E1,2E0,5.7E1,2.08E2,1E0,1E0,2.1E1,5E0,4.1E1,8.9E1,2E0,9.6E1,1.4E1,7E0,7E0,1.8E1,5E0,1.3E1,5.1E1,6E0,2E2,8E0,1.2E1,9E0,2E0,3E0,5E0,3.6E1,7.7E1,1.2E1,8.2E1,1.4E1,4E0,1E1,1E0,6E0,1.4E1,4E0],"tree_param":{"num_deleted":"0","num_feature":"25","num_nodes":"53","size_leaf_vector":"1"}},{"base_weights":[1.297658E-3,2.755564E-2,-2.3692292E-1,8.700958E-3,9.656487E-1,2.3558086E-3,-5.560594E-1,-7.88863E-2,7.861344E-2,1.7908975E-2,1.3606788E0,-4.9828774E-1,2.416916E-1,-7.274097E-1,-1.22432545E-1,-2.8261596E-2,-3.5797992E-1,2.3373911E-1,-2.5893671E-2,1.0049829E-1,-6.323558E-3,-6.758898E-1,3.8331978E-2,-3.3141315E-1,5.694417E-1,-1.2180338E-1,-9.043806E-1,5.705778E-2,-2.6436139E-2,-7.3467256E-3,1.9538058E-2,-4.0905852E-2,1.7546296E-2,2.730383E-2,-1.8232097E-3,-2.3318736E-2,8.21655E-3,-5.4258443E-2,-6.431188E-3,2.1337282E-3,-4.7941368E-2,6.887213E-2,1.5285169E-2,2.0141136E-2,-3.232147E-2,-6.0537033E-2,1.0513755E-2,9.723092E-3,-2.157119E-3],"categories":[],"categories_nodes":[],"categories_segments":[],"categories_sizes":[],"default_left":[0,0,0,0,0,0,0,0,0,0,0,0,0,0,0,0,0,0,0,0,0,0,0,0,0,0,0,0,0,0,0,0,0,0,0,0,0,0,0,0,0,0,0,0,0,0,0,0,0],"id":32,"left_children":[1,3,5,7,9,11,13,15,17,-1,19,21,23,25,27,29,31,33,35,-1,-1,37,-1,39,41,43,45,47,-1,-1,-1,-1,-1,-1,-1,-1,-1,-1,-1,-1,-1,-1,-1,-1,-1,-1,-1,-1,-1],"loss_changes":[3.5282018E0,8.976822E0,4.2776136E0,3.0617993E0,2.2293663E0,4.0745554E0,1.6941924E0,3.126528E0,4.512914E0,0E0,2.941183E0,2.6533732E0,4.5089283E0,1.711813E0,4.8200697E-1,6.339483E0,7.3596096E0,6.561081E0,9.917767E0,0E0,0E0,1.2020888E0,0E0,1.5728257E0,2.4379458E0,1.1344389E0,1.6444292E0,6.441875E-2,0E0,0E0,0E0,0E0,0E0,0E0,0E0,0E0,0E0,0E0,0E0,0E0,0E0,0E0,0E0,0E0,0E0,0E0,0E0,0E0,0E0],"parents":[2147483647,0,0,1,1,2,2,3,3,4,4,5,5,6,6,7,7,8,8,10,10,11,11,12,12,13,13,14,14,15,15,16,16,17,17,18,18,21,21,23,23,24,24,25,25,26,26,27,27],"right_children":[2,4,6,8,10,12,14,16,18,-1,20,22,24,26,28,30,32,34,36,-1,-1,38,-1,40,42,44,46,48,-1,-1,-1,-1,-1,-1,-1,-1,-1,-1,-1,-1,-1,-1,-1,-1,-1,-1,-1,-1,-1],"split_conditions":[1.8270792E0,1.753886E0,1.3206242E0,3.929938E0,1.4875005E3,7.012727E-1,2.1327184E-1,1.5133588E-1,-3.5958382E-1,1.7908975E-2,2.3473616E0,9.886316E-2,1.5868256E3,4.2356577E0,2.4999373E-1,9.907474E-2,8.296365E-2,5.670655E0,-8.4032334E-2,1.0049829E-1,-6.323558E-3,1.3815601E0,3.8331978E-2,2.4366722E0,1.9994321E0,1.4700768E3,2.5010846E0,1.0372444E0,-2.6436139E-2,-7.3467256E-3,1.9538058E-2,-4.0905852E-2,1.7546296E-2,2.730383E-2,-1.8232097E-3,-2.3318736E-2,8.21655E-3,-5.4258443E-2,-6.431188E-3,2.1337282E-3,-4.7941368E-2,6.887213E-2,1.5285169E-2,2.0141136E-2,-3.232147E-2,-6.0537033E-2,1.0513755E-2,9.723092E-3,-2.157119E-3],"split_indices":[2,2,15,18,7,15,23,24,3,0,0,24,8,18,23,24,23,19,3,0,0,3,0,14,2,7,2,3,0,0,0,0,0,0,0,0,0,0,0,0,0,0,0,0,0,0,0,0,0],"split_type":[0,0,0,0,0,0,0,0,0,0,0,0,0,0,0,0,0,0,0,0,0,0,0,0,0,0,0,0,0,0,0,0,0,0,0,0,0,0,0,0,0,0,0,0,0,0,0,0,0],"sum_hessian":[5.62E2,5.07E2,5.5E1,4.98E2,9E0,3.2E1,2.3E1,2.21E2,2.77E2,4E0,5E0,1E1,2.2E1,1.6E1,7E0,1.88E2,3.3E1,1.11E2,1.66E2,4E0,1E0,9E0,1E0,8E0,1.4E1,4E0,1.2E1,5E0,2E0,1.49E2,3.9E1,2.2E1,1.1E1,6E1,5.1E1,5.1E1,1.15E2,6E0,3E0,5E0,3E0,4E0,1E1,2E0,2E0,1.1E1,1E0,2E0,3E0],"tree_param":{"num_deleted":"0","num_feature":"25","num_nodes":"49","size_leaf_vector":"1"}},{"base_weights":[-1.0388127E-3,7.144118E-2,-5.211162E-3,9.665986E-3,-3.305147E-1,5.103727E-2,-1.02213606E-1,-4.8784012E-1,-1.7205615E-1,3.4625718E-1,9.679054E-4,-4.2884314E-1,-1.2005415E-2,-1.05670415E-1,-5.53707E-1,-4.515138E-1,3.336628E-2,-3.0117342E-3,3.4357652E-2,-3.5285905E-2,1.3353926E-3,1.9902928E-2,-3.4918383E-2,6.702827E-2,-4.9862694E-3,-1.9400275E-3,-7.5703096E-3,-3.575695E-2,-5.2058278E-3,-3.9778086E-3,-3.091787E-2,6.8631624E-3,-1.0008115E-2],"categories":[],"categories_nodes":[],"categories_segments":[],"categories_sizes":[],"default_left":[0,0,0,0,0,0,0,0,0,0,0,0,0,0,0,0,0,0,0,0,0,0,0,0,0,0,0,0,0,0,0,0,0],"id":33,"left_children":[1,-1,3,5,7,9,11,13,15,17,19,21,23,25,27,29,31,-1,-1,-1,-1,-1,-1,-1,-1,-1,-1,-1,-1,-1,-1,-1,-1],"loss_changes":[2.850357E0,0E0,2.7666001E0,2.5370624E0,5.3930306E-1,5.9122543E0,4.3556213E0,2.4355745E-1,8.187615E-1,5.2339625E0,4.314453E0,3.9199066E0,9.485722E0,4.309006E-4,1.4554024E-1,1.1326146E-1,1.6503805E-1,0E0,0E0,0E0,0E0,0E0,0E0,0E0,0E0,0E0,0E0,0E0,0E0,0E0,0E0,0E0,0E0],"parents":[2147483647,0,0,2,2,3,3,4,4,5,5,6,6,7,7,8,8,9,9,10,10,11,11,12,12,13,13,14,14,15,15,16,16],"right_children":[2,-1,4,6,8,10,12,14,16,18,20,22,24,26,28,30,32,-1,-1,-1,-1,-1,-1,-1,-1,-1,-1,-1,-1,-1,-1,-1,-1],"split_conditions":[6.59754E-1,7.144118E-2,1.914899E-1,1.8008016E0,1.4934843E3,1.4623608E3,1.8758197E0,5.03706E-1,1.0947791E0,1.4451342E3,8.088655E-1,3.2738774E0,1.9014437E0,7.8514576E-1,1.2253846E0,5.2931924E0,8.873077E-1,-3.0117342E-3,3.4357652E-2,-3.5285905E-2,1.3353926E-3,1.9902928E-2,-3.4918383E-2,6.702827E-2,-4.9862694E-3,-1.9400275E-3,-7.5703096E-3,-3.575695E-2,-5.2058278E-3,-3.9778086E-3,-3.091787E-2,6.8631624E-3,-1.0008115E-2],"split_indices":[10,0,23,1,8,8,1,14,1,8,0,18,1,0,10,18,10,0,0,0,0,0,0,0,0,0,0,0,0,0,0,0,0],"split_type":[0,0,0,0,0,0,0,0,0,0,0,0,0,0,0,0,0,0,0,0,0,0,0,0,0,0,0,0,0,0,0,0,0],"sum_hessian":[5.71E2,1E0,5.7E2,5.46E2,2.4E1,3.99E2,1.47E2,1.1E1,1.3E1,5.7E1,3.42E2,3.1E1,1.16E2,2E0,9E0,5E0,8E0,2.1E1,3.6E1,1.1E1,3.31E2,5E0,2.6E1,6E0,1.1E2,1E0,1E0,8E0,1E0,1E0,4E0,6E0,2E0],"tree_param":{"num_deleted":"0","num_feature":"25","num_nodes":"33","size_leaf_vector":"1"}},{"base_weights":[1.6645242E-2,4.2413548E-2,-2.3114179E-1,2.5486274E-2,8.064404E-1,-6.9863325E-1,-7.727518E-2,5.034632E-1,1.0650934E-2,1.7881078E-1,1.2996633E0,-7.9799485E-1,1.4811172E-2,-2.1313341E-1,5.097817E-1,7.131983E-1,-3.439261E-2,-2.9458733E-2,2.0527196E-1,1.6985247E-2,-1.027718E-2,1.5935047E0,-5.086298E-3,8.239688E-3,-8.955086E-1,5.1516366E-1,-3.8759577E-1,7.435201E-1,-3.379161E-2,5.6207236E-2,-1.444425E-3,-8.592349E-3,3.615601E-3,4.246639E-2,2.701976E-3,2.8688027E-2,1.05168834E-1,-5.885035E-2,-2.046084E-2,3.5848103E-2,1.2376077E-2,4.951733E-4,-3.11963E-2,6.722827E-2,1.084133E-2],"categories":[],"categories_nodes":[],"categories_segments":[],"categories_sizes":[],"default_left":[0,0,0,0,0,0,0,0,0,0,0,0,0,0,0,0,0,0,0,0,0,0,0,0,0,0,0,0,0,0,0,0,0,0,0,0,0,0,0,0,0,0,0,0,0],"id":34,"left_children":[1,3,5,7,9,11,13,15,17,19,21,23,-1,25,27,29,-1,31,33,-1,-1,35,-1,-1,37,39,41,43,-1,-1,-1,-1,-1,-1,-1,-1,-1,-1,-1,-1,-1,-1,-1,-1,-1],"loss_changes":[3.5918176E0,6.562289E0,3.7583742E0,3.533022E0,3.1727815E0,1.418272E0,3.3786683E0,3.7960563E0,3.7920463E0,2.6753083E-1,2.5759087E0,1.2174611E0,0E0,4.51973E0,2.4251094E0,2.1655493E0,0E0,4.1213436E0,6.651312E0,0E0,0E0,5.0365448E-2,0E0,0E0,1.8598843E-1,5.4726362E-2,1.4711442E0,1.2826629E0,0E0,0E0,0E0,0E0,0E0,0E0,0E0,0E0,0E0,0E0,0E0,0E0,0E0,0E0,0E0,0E0,0E0],"parents":[2147483647,0,0,1,1,2,2,3,3,4,4,5,5,6,6,7,7,8,8,9,9,10,10,11,11,13,13,14,14,15,15,17,17,18,18,21,21,24,24,25,25,26,26,27,27],"right_children":[2,4,6,8,10,12,14,16,18,20,22,24,-1,26,28,30,-1,32,34,-1,-1,36,-1,-1,38,40,42,44,-1,-1,-1,-1,-1,-1,-1,-1,-1,-1,-1,-1,-1,-1,-1,-1,-1],"split_conditions":[1.8270792E0,1.753886E0,1.5868256E3,7.746497E-2,1.4875005E3,2.0163267E0,9.886316E-2,2.0772383E0,1.8864045E0,1.8233572E0,1.4115024E0,1.4600765E3,1.4811172E-2,1.611126E3,1.5742208E3,2.1148762E1,-3.439261E-2,1.6842631E0,1.281671E0,1.6985247E-2,-1.027718E-2,1.2420202E0,-5.086298E-3,8.239688E-3,1.8845239E0,1.6020221E3,2.2980802E0,2.4828432E0,-3.379161E-2,5.6207236E-2,-1.444425E-3,-8.592349E-3,3.615601E-3,4.246639E-2,2.701976E-3,2.8688027E-2,1.05168834E-1,-5.885035E-2,-2.046084E-2,3.5848103E-2,1.2376077E-2,4.951733E-4,-3.11963E-2,6.722827E-2,1.084133E-2],"split_indices":[2,2,8,24,7,2,24,1,14,2,1,7,0,8,7,9,0,15,15,0,0,1,0,0,2,8,14,14,0,0,0,0,0,0,0,0,0,0,0,0,0,0,0,0,0],"split_type":[0,0,0,0,0,0,0,0,0,0,0,0,0,0,0,0,0,0,0,0,0,0,0,0,0,0,0,0,0,0,0,0,0,0,0,0,0,0,0,0,0,0,0,0,0],"sum_hessian":[5.6E2,5.08E2,5.2E1,4.98E2,1E1,1.2E1,4E1,1.4E1,4.84E2,5E0,5E0,1.1E1,1E0,3.3E1,7E0,1.2E1,2E0,4.02E2,8.2E1,4E0,1E0,4E0,1E0,1E0,1E1,6E0,2.7E1,6E0,1E0,9E0,3E0,1.77E2,2.25E2,1.9E1,6.3E1,1E0,3E0,8E0,2E0,4E0,2E0,7E0,2E1,3E0,3E0],"tree_param":{"num_deleted":"0","num_feature":"25","num_nodes":"45","size_leaf_vector":"1"}},{"base_weights":[-6.0353903E-3,1.5184237E-1,-3.5685077E-2,-1.1912296E-1,3.6777893E-1,-2.344739E-1,1.0886647E-2,1.1204914E-1,-3.1496292E-1,2.2437605E-1,1.4298049E0,-2.583887E-1,5.9688054E-2,3.1855968E-1,-4.1914504E-2,2.8194526E-1,-4.5402825E-1,6.674486E-2,-4.30408E-1,-1.1877806E-1,6.93573E-1,1.4288174E-1,3.586856E-1,7.8603566E-2,-3.517921E-1,4.8203993E-1,-1.1368795E-1,-4.340517E-1,9.650745E-3,5.581405E-3,4.952729E-2,-5.024915E-2,4.8463275E-3,-5.845007E-2,-1.7596751E-2,-1.7695297E-2,1.081529E-2,7.052701E-2,1.6462043E-2,-8.308582E-3,3.42339E-2,-2.8804429E-2,3.780811E-2,-2.4834411E-2,1.2277733E-2,-2.210642E-2,3.779481E-2,5.0698336E-2,-1.7870449E-2,2.145174E-2,-3.3440985E-2,-2.1923792E-4,6.0704626E-2],"categories":[],"categories_nodes":[],"categories_segments":[],"categories_sizes":[],"default_left":[0,0,0,0,0,0,0,0,0,0,0,0,0,0,0,0,0,0,0,0,0,0,0,0,0,0,0,0,0,0,0,0,0,0,0,0,0,0,0,0,0,0,0,0,0,0,0,0,0,0,0,0,0],"id":35,"left_children":[1,3,5,7,9,11,13,15,17,19,21,23,-1,25,27,29,31,-1,33,35,37,-1,39,41,43,45,47,49,51,-1,-1,-1,-1,-1,-1,-1,-1,-1,-1,-1,-1,-1,-1,-1,-1,-1,-1,-1,-1,-1,-1,-1,-1],"loss_changes":[2.753181E0,5.485364E0,4.585232E0,1.9367459E0,7.59866E0,3.020444E0,6.5440397E0,2.051498E0,4.2688165E0,7.649704E0,5.2612295E0,2.9549413E0,0E0,4.223974E0,6.960093E0,1.5661069E0,1.093012E0,0E0,1.3547297E0,1.527997E0,3.7176065E0,0E0,5.0036335E-1,6.773205E0,2.6077213E0,5.6399193E0,3.2528477E0,4.103284E0,4.070127E0,0E0,0E0,0E0,0E0,0E0,0E0,0E0,0E0,0E0,0E0,0E0,0E0,0E0,0E0,0E0,0E0,0E0,0E0,0E0,0E0,0E0,0E0,0E0,0E0],"parents":[2147483647,0,0,1,1,2,2,3,3,4,4,5,5,6,6,7,7,8,8,9,9,10,10,11,11,13,13,14,14,15,15,16,16,18,18,19,19,20,20,22,22,23,23,24,24,25,25,26,26,27,27,28,28],"right_children":[2,4,6,8,10,12,14,16,18,20,22,24,-1,26,28,30,32,-1,34,36,38,-1,40,42,44,46,48,50,52,-1,-1,-1,-1,-1,-1,-1,-1,-1,-1,-1,-1,-1,-1,-1,-1,-1,-1,-1,-1,-1,-1,-1,-1],"split_conditions":[1.1432543E0,1.50829E3,1.4373981E0,1.4853599E3,-6.580053E0,1.4422437E0,1.5672412E0,1.2513089E0,1.4417697E3,4.2842865E0,1.1304617E0,1.0694821E0,5.9688054E-2,5.784541E0,1.6564074E0,1.228344E0,1.4686587E3,6.674486E-2,1.4883495E3,8.289612E-1,1.5372076E3,1.4288174E-1,1.753886E0,-5.481873E-1,6.199997E0,3.4989593E0,-1.3065384E2,3.3006313E0,2.1216713E-1,5.581405E-3,4.952729E-2,-5.024915E-2,4.8463275E-3,-5.845007E-2,-1.7596751E-2,-1.7695297E-2,1.081529E-2,7.052701E-2,1.6462043E-2,-8.308582E-3,3.42339E-2,-2.8804429E-2,3.780811E-2,-2.4834411E-2,1.2277733E-2,-2.210642E-2,3.779481E-2,5.0698336E-2,-1.7870449E-2,2.145174E-2,-3.3440985E-2,-2.1923792E-4,6.0704626E-2],"split_indices":[15,8,15,8,9,3,15,0,7,19,0,14,0,19,15,14,8,0,8,15,8,0,2,3,19,18,9,18,24,0,0,0,0,0,0,0,0,0,0,0,0,0,0,0,0,0,0,0,0,0,0,0,0],"split_type":[0,0,0,0,0,0,0,0,0,0,0,0,0,0,0,0,0,0,0,0,0,0,0,0,0,0,0,0,0,0,0,0,0,0,0,0,0,0,0,0,0,0,0,0,0,0,0,0,0,0,0,0,0],"sum_hessian":[5.86E2,9.2E1,4.94E2,4.1E1,5.1E1,9.3E1,4.01E2,1.9E1,2.2E1,4.6E1,5E0,9.2E1,1E0,5.8E1,3.43E2,1.5E1,4E0,1E0,2.1E1,2.7E1,1.9E1,2E0,3E0,2E1,7.2E1,4.2E1,1.6E1,3.9E1,3.04E2,1.2E1,3E0,2E0,2E0,3E0,1.8E1,1.7E1,1E1,8E0,1.1E1,1E0,2E0,1E1,1E1,6.5E1,7E0,6E0,3.6E1,2E0,1.4E1,5E0,3.4E1,3.01E2,3E0],"tree_param":{"num_deleted":"0","num_feature":"25","num_nodes":"53","size_leaf_vector":"1"}},{"base_weights":[6.4777457E-3,-3.4802613E-1,2.3409039E-2,-7.673999E-2,-5.418533E-1,3.4792575E-1,-2.731026E-4,5.762768E-1,-3.58443E-1,-5.9016746E-2,-6.115961E-1,-6.953189E-1,5.3266144E-1,-4.9532253E-1,1.1680351E-2,1.480627E-2,4.6943802E-2,-1.3503514E-1,-3.623664E-2,2.5724135E-3,-7.88392E-3,-9.574532E-3,-6.792748E-1,-5.5147693E-2,1.2711843E-2,1.258685E0,1.9383985E-1,-4.281098E-2,-1.5820931E-1,3.6100817E-1,-7.5870296E-3,-1.4668518E-2,-1.1517736E-3,-4.8051547E-2,-1.5977243E-2,-2.177553E-3,8.439623E-2,4.693974E-2,-1.4421317E-2,1.6660726E-2,-2.6734382E-2,5.7522256E-2,-2.4971759E-2,-3.4532588E-2,2.8177374E-4],"categories":[],"categories_nodes":[],"categories_segments":[],"categories_sizes":[],"default_left":[0,0,0,0,0,0,0,0,0,0,0,0,0,0,0,0,0,0,0,0,0,0,0,0,0,0,0,0,0,0,0,0,0,0,0,0,0,0,0,0,0,0,0,0,0],"id":36,"left_children":[1,3,5,7,9,11,13,15,17,19,21,23,25,27,29,-1,-1,31,-1,-1,-1,-1,33,-1,-1,35,37,-1,39,41,43,-1,-1,-1,-1,-1,-1,-1,-1,-1,-1,-1,-1,-1,-1],"loss_changes":[3.423404E0,1.3255663E0,4.180871E0,2.4140437E0,4.6902132E-1,7.501177E0,3.011901E0,7.8597784E-2,4.12068E-1,2.775858E-2,2.8930235E-1,1.4129465E0,7.6277742E0,7.6978755E-1,3.3478627E0,0E0,0E0,7.137158E-2,0E0,0E0,0E0,0E0,3.3908176E-1,0E0,0E0,1.9665661E0,6.064977E0,0E0,8.752766E-1,1.2476838E1,3.295541E0,0E0,0E0,0E0,0E0,0E0,0E0,0E0,0E0,0E0,0E0,0E0,0E0,0E0,