{"learner":{"attributes":{"scikit_learn":"{\"_estimator_type\": \"regressor\"}"},"feature_names":["ShotConv_A","ShotConvRec_A","PointsPerGame_A","xGDiff_A","CornersConv_A","CornersConvRec_A","NumMatches_A","Elo_H","Elo_A","EloDiff","GFvsMid_A","GAvsMid_A","GFvsHigh_A","GAvsHigh_A","GFvsSim_A","GAvsSim_A","Possession_A","PossessionRec_A","CornersFor_A","CornersAgainst_A","Availability_A","xGpp_A","xGppRec_A","xGCorners_A","xGCornersRec_A"],"feature_types":["float","float","float","float","float","float","float","float","float","float","float","float","float","float","float","float","float","float","float","float","float","float","float","float","float"],"gradient_booster":{"model":{"gbtree_model_param":{"num_parallel_tree":"1","num_trees":"220"},"iteration_indptr":[0,1,2,3,4,5,6,7,8,9,10,11,12,13,14,15,16,17,18,19,20,21,22,23,24,25,26,27,28,29,30,31,32,33,34,35,36,37,38,39,40,41,42,43,44,45,46,47,48,49,50,51,52,53,54,55,56,57,58,59,60,61,62,63,64,65,66,67,68,69,70,71,72,73,74,75,76,77,78,79,80,81,82,83,84,85,86,87,88,89,90,91,92,93,94,95,96,97,98,99,100,101,102,103,104,105,106,107,108,109,110,111,112,113,114,115,116,117,118,119,120,121,122,123,124,125,126,127,128,129,130,131,132,133,134,135,136,137,138,139,140,141,142,143,144,145,146,147,148,149,150,151,152,153,154,155,156,157,158,159,160,161,162,163,164,165,166,167,168,169,170,171,172,173,174,175,176,177,178,179,180,181,182,183,184,185,186,187,188,189,190,191,192,193,194,195,196,197,198,199,200,201,202,203,204,205,206,207,208,209,210,211,212,213,214,215,216,217,218,219,220],"tree_info":[0,0,0,0,0,0,0,0,0,0,0,0,0,0,0,0,0,0,0,0,0,0,0,0,0,0,0,0,0,0,0,0,0,0,0,0,0,0,0,0,0,0,0,0,0,0,0,0,0,0,0,0,0,0,0,0,0,0,0,0,0,0,0,0,0,0,0,0,0,0,0,0,0,0,0,0,0,0,0,0,0,0,0,0,0,0,0,0,0,0,0,0,0,0,0,0,0,0,0,0,0,0,0,0,0,0,0,0,0,0,0,0,0,0,0,0,0,0,0,0,0,0,0,0,0,0,0,0,0,0,0,0,0,0,0,0,0,0,0,0,0,0,0,0,0,0,0,0,0,0,0,0,0,0,0,0,0,0,0,0,0,0,0,0,0,0,0,0,0,0,0,0,0,0,0,0,0,0,0,0,0,0,0,0,0,0,0,0,0,0,0,0,0,0,0,0,0,0,0,0,0,0,0,0,0,0,0,0,0,0,0,0,0,0,0,0,0,0,0,0],"trees":[{"base_weights":[3.881155E-3,9.5674914E-1,-2.0970527E-2,2.0737586E0,3.2990518E-1,1.4960626E-1,-1.1553949E-1,1.758155E-2,2.3217099E0,-1.9449845E-1,1.6895388E0,5.2499622E-2,8.3352077E-1,-3.4593043E-1,-5.018159E-2,1.8344207E-1,7.137232E-2,-6.405271E-1,4.6884137E-1,1.4344208E-1,-1.2418449E-2,1.01372324E-1,2.476577E-2,1.8486631E0,1.9577663E-1,3.7120357E-1,-5.637823E-1,-9.95404E-2,3.9153758E-1,-1.9869518E-2,-5.655793E-2,-1.2418449E-2,4.1372325E-2,-2.1755261E-2,7.167461E-3,1.1372326E-2,1.3964678E-1,4.2875547E-2,-1.7767156E-2,6.7646794E-2,-5.7288446E-3,-3.836463E-2,2.1568373E-2,-4.103853E-3,-4.7181103E-2,-3.1124018E-3,7.122289E-2],"categories":[],"categories_nodes":[],"categories_segments":[],"categories_sizes":[],"default_left":[0,0,0,0,0,0,0,0,0,0,0,0,0,0,0,0,0,0,0,0,0,0,0,0,0,0,0,0,0,0,0,0,0,0,0,0,0,0,0,0,0,0,0,0,0,0,0],"id":0,"left_children":[1,3,5,7,9,11,13,-1,15,17,19,21,23,25,27,-1,-1,29,31,-1,-1,-1,33,35,37,39,41,43,45,-1,-1,-1,-1,-1,-1,-1,-1,-1,-1,-1,-1,-1,-1,-1,-1,-1,-1],"loss_changes":[1.8632835E1,1.331967E1,1.238997E1,2.4104252E0,1.0310569E1,1.8153305E1,7.4212275E0,0E0,1.3604889E0,3.5548596E0,5.8138666E0,1.0899895E1,2.1649715E1,1.7238234E1,8.454828E0,0E0,0E0,3.4207153E-1,8.884703E-1,0E0,0E0,0E0,8.772973E0,9.885551E0,5.8260784E0,9.283745E0,6.0950813E0,7.3896775E0,1.3818357E1,0E0,0E0,0E0,0E0,0E0,0E0,0E0,0E0,0E0,0E0,0E0,0E0,0E0,0E0,0E0,0E0,0E0,0E0],"parents":[2147483647,0,0,1,1,2,2,3,3,4,4,5,5,6,6,8,8,9,9,10,10,11,11,12,12,13,13,14,14,17,17,18,18,22,22,23,23,24,24,25,25,26,26,27,27,28,28],"right_children":[2,4,6,8,10,12,14,-1,16,18,20,22,24,26,28,-1,-1,30,32,-1,-1,-1,34,36,38,40,42,44,46,-1,-1,-1,-1,-1,-1,-1,-1,-1,-1,-1,-1,-1,-1,-1,-1,-1,-1],"split_conditions":[3.2159886E0,6.4745183E0,1.0071087E0,1.3824261E3,7.932716E0,1.5046293E3,1.4723337E3,1.758155E-2,9.018957E-1,1.4960201E0,1.0526361E0,6.077288E-1,4.062844E0,-3.3968142E-1,2.6503238E-1,1.8344207E-1,7.137232E-2,2.9550612E0,1.4353606E0,1.4344208E-1,-1.2418449E-2,1.01372324E-1,9.018957E-1,1.4175753E3,1.4736314E0,1.4296934E3,6.6660147E0,1.2107966E0,4.63049E0,-1.9869518E-2,-5.655793E-2,-1.2418449E-2,4.1372325E-2,-2.1755261E-2,7.167461E-3,1.1372326E-2,1.3964678E-1,4.2875547E-2,-1.7767156E-2,6.7646794E-2,-5.7288446E-3,-3.836463E-2,2.1568373E-2,-4.103853E-3,-4.7181103E-2,-3.1124018E-3,7.122289E-2],"split_indices":[18,19,2,7,19,8,7,0,10,14,0,0,18,3,23,0,0,18,1,0,0,0,10,7,14,7,19,10,19,0,0,0,0,0,0,0,0,0,0,0,0,0,0,0,0,0,0],"split_type":[0,0,0,0,0,0,0,0,0,0,0,0,0,0,0,0,0,0,0,0,0,0,0,0,0,0,0,0,0,0,0,0,0,0,0,0,0,0,0,0,0,0,0,0,0,0,0],"sum_hessian":[7.85E2,1.9E1,7.66E2,6E0,1.3E1,2.73E2,4.93E2,1E0,5E0,1E1,3E0,2.4E2,3.3E1,1.08E2,3.85E2,2E0,3E0,6E0,4E0,2E0,1E0,3E0,2.37E2,1.2E1,2.1E1,2.5E1,8.3E1,3.47E2,3.8E1,4E0,2E0,1E0,3E0,4.6E1,1.91E2,3E0,9E0,1E1,1.1E1,9E0,1.6E1,7.7E1,6E0,3.33E2,1.4E1,2.5E1,1.3E1],"tree_param":{"num_deleted":"0","num_feature":"25","num_nodes":"47","size_leaf_vector":"1"}},{"base_weights":[-1.1576273E-2,4.8417604E-1,-6.1893858E-2,3.7216672E-1,1.7842029E-1,-3.055307E-1,1.7043598E-2,1.1970744E-1,9.675599E-1,-5.523441E-2,-5.1353556E-1,3.1613472E-1,-5.2692663E-2,1.3246894E0,-7.039437E-2,1.5187178E0,3.2844195E-1,-2.9534236E-1,3.854882E-1,-6.1312914E-1,6.586346E-1,1.8695912E0,2.0077048E-1,-8.8541046E-2,5.242869E-1,-4.263347E-2,1.0693941E-1,-3.9848603E-2,5.789479E-3,2.623172E-2,1.1217836E-1,-2.0578245E-2,4.5666132E-2,-5.9390627E-3,-4.7171015E-2,-1.7195384E-3,6.3947335E-2,-6.1272416E-2,-3.1400308E-2,1.0188013E-1,-1.8275185E-2,1.1218861E-2,1.8508822E-1,7.760489E-5,6.83646E-2,-3.3891613E-3,-3.4105606E-2,2.7795383E-3,7.031045E-2],"categories":[],"categories_nodes":[],"categories_segments":[],"categories_sizes":[],"default_left":[0,0,0,0,0,0,0,0,0,0,0,0,0,0,0,0,0,0,0,0,0,0,0,0,0,0,0,0,0,0,0,0,0,0,0,0,0,0,0,0,0,0,0,0,0,0,0,0,0],"id":1,"left_children":[1,3,5,7,-1,9,11,13,15,17,19,21,23,25,27,29,31,33,35,37,39,41,43,45,47,-1,-1,-1,-1,-1,-1,-1,-1,-1,-1,-1,-1,-1,-1,-1,-1,-1,-1,-1,-1,-1,-1,-1,-1],"loss_changes":[1.9761509E1,1.924911E1,1.3833067E1,1.0556365E1,0E0,9.134695E0,1.1363136E1,1.1775784E1,6.8985443E0,8.685352E0,1.1610928E1,1.8083614E1,9.188655E0,7.786234E0,4.523054E0,3.3574257E0,3.4564652E0,5.030351E0,8.201139E0,2.7266617E0,8.526315E0,1.3736301E1,1.816052E1,6.3824983E0,7.992862E0,0E0,0E0,0E0,0E0,0E0,0E0,0E0,0E0,0E0,0E0,0E0,0E0,0E0,0E0,0E0,0E0,0E0,0E0,0E0,0E0,0E0,0E0,0E0,0E0],"parents":[2147483647,0,0,1,1,2,2,3,3,5,5,6,6,7,7,8,8,9,9,10,10,11,11,12,12,13,13,14,14,15,15,16,16,17,17,18,18,19,19,20,20,21,21,22,22,23,23,24,24],"right_children":[2,4,6,8,-1,10,12,14,16,18,20,22,24,26,28,30,32,34,36,38,40,42,44,46,48,-1,-1,-1,-1,-1,-1,-1,-1,-1,-1,-1,-1,-1,-1,-1,-1,-1,-1,-1,-1,-1,-1,-1,-1],"split_conditions":[3.5270412E0,1.5950873E0,1.4728796E3,1.4883994E3,1.7842029E-1,-2.9968166E-1,8.9684534E-1,1.3849331E3,1.5131262E3,6.089848E0,6.6423597E0,-6.3275056E0,1.6436993E3,5.1472837E-1,8.0422765E-1,1.5809014E0,1.1058961E0,4.8890452E0,8.0323264E-2,9.9958646E-1,1.985354E-1,8.9064676E-1,8.4271693E-1,1.2107966E0,1.4736314E0,-4.263347E-2,1.0693941E-1,-3.9848603E-2,5.789479E-3,2.623172E-2,1.1217836E-1,-2.0578245E-2,4.5666132E-2,-5.9390627E-3,-4.7171015E-2,-1.7195384E-3,6.3947335E-2,-6.1272416E-2,-3.1400308E-2,1.0188013E-1,-1.8275185E-2,1.1218861E-2,1.8508822E-1,7.760489E-5,6.83646E-2,-3.3891613E-3,-3.4105606E-2,2.7795383E-3,7.031045E-2],"split_indices":[18,11,7,8,0,3,14,8,8,19,18,9,7,2,14,15,2,18,24,1,23,0,14,10,14,0,0,0,0,0,0,0,0,0,0,0,0,0,0,0,0,0,0,0,0,0,0,0,0],"split_type":[0,0,0,0,0,0,0,0,0,0,0,0,0,0,0,0,0,0,0,0,0,0,0,0,0,0,0,0,0,0,0,0,0,0,0,0,0,0,0,0,0,0,0,0,0,0,0,0,0],"sum_hessian":[7.9E2,7.2E1,7.18E2,7E1,2E0,1.75E2,5.43E2,5E1,2E1,8E1,9.5E1,1.02E2,4.41E2,6E0,4.4E1,1E1,1E1,5.2E1,2.8E1,8.8E1,7E0,6E0,9.6E1,4.16E2,2.5E1,1E0,5E0,9E0,3.5E1,3E0,7E0,4E0,6E0,3.8E1,1.4E1,1.8E1,1E1,1.4E1,7.4E1,3E0,4E0,3E0,3E0,8E1,1.6E1,3.91E2,2.5E1,1.5E1,1E1],"tree_param":{"num_deleted":"0","num_feature":"25","num_nodes":"49","size_leaf_vector":"1"}},{"base_weights":[2.7105E-3,8.3054715E-1,-2.763261E-2,1.6818078E0,2.6419085E-1,9.680707E-2,-3.6222234E-2,1.8990995E0,-1.4733302E-2,-2.830344E-1,1.1645497E0,-1.9730166E-1,3.0066382E-2,1.1266181E0,1.6657001E-1,6.263288E-2,-6.3914055E-1,-3.9883018E-2,1.2467071E-1,-1.5563075E-1,-8.552699E-1,-2.60644E-1,1.11091815E-1,7.351069E-2,1.605773E-2,2.4570523E-2,-1.799407E-2,-5.3614434E-2,-1.731182E-2,-1.523099E-2,1.8060522E-2,-1.170785E-2,1.1564438E-1,-1.6162334E-2,-6.5144315E-2,3.965825E-2,-2.4076615E-2,2.106114E-2,2.600677E-3],"categories":[],"categories_nodes":[],"categories_segments":[],"categories_sizes":[],"default_left":[0,0,0,0,0,0,0,0,0,0,0,0,0,0,0,0,0,0,0,0,0,0,0,0,0,0,0,0,0,0,0,0,0,0,0,0,0,0,0],"id":2,"left_children":[1,3,5,7,9,-1,11,13,-1,15,17,19,21,23,-1,25,27,29,-1,31,33,35,37,-1,-1,-1,-1,-1,-1,-1,-1,-1,-1,-1,-1,-1,-1,-1,-1],"loss_changes":[1.9892189E1,1.3054951E1,1.082801E1,5.0731335E0,9.198192E0,0E0,8.131686E0,3.647503E0,0E0,1.5171621E0,7.7828903E0,5.953719E0,1.2748619E1,2.647419E-1,0E0,1.0030924E0,2.7741838E-1,3.6816907E-1,0E0,1.7654928E1,1.4629364E0,1.555914E1,6.860393E0,0E0,0E0,0E0,0E0,0E0,0E0,0E0,0E0,0E0,0E0,0E0,0E0,0E0,0E0,0E0,0E0],"parents":[2147483647,0,0,1,1,2,2,3,3,4,4,6,6,7,7,9,9,10,10,11,11,12,12,13,13,15,15,16,16,17,17,19,19,20,20,21,21,22,22],"right_children":[2,4,6,8,10,-1,12,14,-1,16,18,20,22,24,-1,26,28,30,-1,32,34,36,38,-1,-1,-1,-1,-1,-1,-1,-1,-1,-1,-1,-1,-1,-1,-1,-1],"split_conditions":[3.2365828E0,6.4745183E0,6.077288E-1,1.2721152E0,7.328451E0,9.680707E-2,-5.038566E1,1.2080232E0,-1.4733302E-2,2.9550612E0,1.4607579E3,2.503481E0,9.626975E-1,1.525992E3,1.6657001E-1,1.5311959E3,1.092923E0,1.0539993E0,1.2467071E-1,2.4064736E0,4.905596E0,-2.063107E1,9.114075E-1,7.351069E-2,1.605773E-2,2.4570523E-2,-1.799407E-2,-5.3614434E-2,-1.731182E-2,-1.523099E-2,1.8060522E-2,-1.170785E-2,1.1564438E-1,-1.6162334E-2,-6.5144315E-2,3.965825E-2,-2.4076615E-2,2.106114E-2,2.600677E-3],"split_indices":[18,19,0,2,19,0,9,0,0,18,7,14,10,7,0,7,0,0,0,14,18,9,14,0,0,0,0,0,0,0,0,0,0,0,0,0,0,0,0],"split_type":[0,0,0,0,0,0,0,0,0,0,0,0,0,0,0,0,0,0,0,0,0,0,0,0,0,0,0,0,0,0,0,0,0,0,0,0,0,0,0],"sum_hessian":[7.9E2,2.7E1,7.63E2,1E1,1.7E1,3E0,7.6E2,9E0,1E0,1.1E1,6E0,2.21E2,5.39E2,6E0,3E0,6E0,5E0,3E0,3E0,2.09E2,1.2E1,1.17E2,4.22E2,5E0,1E0,3E0,3E0,2E0,3E0,2E0,1E0,2.06E2,3E0,4E0,8E0,1.5E1,1.02E2,9.2E1,3.3E2],"tree_param":{"num_deleted":"0","num_feature":"25","num_nodes":"39","size_leaf_vector":"1"}},{"base_weights":[6.7021064E-3,8.7880176E-1,-2.1899777E-2,1.222367E0,-2.2835657E-1,2.506162E-1,-8.020304E-2,2.5194025E0,4.865375E-1,4.002688E-2,-2.9327253E-2,3.840387E-1,-4.447955E-1,3.879305E-1,-1.1052034E-1,1.6070541E-2,1.7100132E-1,-5.518112E-1,7.055799E-1,2.0645168E-1,1.2438923E0,-5.730693E-1,-6.97312E-2,-4.8994085E-1,5.57259E-1,-1.3398266E-1,5.2798605E-1,-3.9286964E-2,-1.0376043E-2,6.142317E-2,3.3264183E-3,1.1751534E-3,5.397552E-2,-5.781227E-2,9.256153E-2,-1.7080747E-2,-5.17154E-2,1.2410608E-2,-1.9732384E-2,1.8782819E-2,-4.05568E-2,3.8919203E-2,-3.620203E-2,-1.2021561E-2,3.3183529E-3,1.4117908E-2,7.6156184E-2],"categories":[],"categories_nodes":[],"categories_segments":[],"categories_sizes":[],"default_left":[0,0,0,0,0,0,0,0,0,0,0,0,0,0,0,0,0,0,0,0,0,0,0,0,0,0,0,0,0,0,0,0,0,0,0,0,0,0,0,0,0,0,0,0,0,0,0],"id":3,"left_children":[1,3,5,7,9,11,13,15,17,-1,-1,19,21,23,25,-1,-1,27,29,31,33,35,37,39,41,43,45,-1,-1,-1,-1,-1,-1,-1,-1,-1,-1,-1,-1,-1,-1,-1,-1,-1,-1,-1,-1],"loss_changes":[2.0423187E1,1.01690445E1,1.2619738E1,1.7862156E1,1.9585365E0,1.3160518E1,9.324799E0,4.44751E0,3.5735402E0,0E0,0E0,1.7761656E1,1.0665908E0,6.2189703E0,9.283959E0,0E0,0E0,3.8064122E-3,2.4252672E0,1.280528E1,1.4678043E1,1.1707735E0,5.697298E-1,1.2571259E0,3.9979143E0,7.4743023E0,4.474563E0,0E0,0E0,0E0,0E0,0E0,0E0,0E0,0E0,0E0,0E0,0E0,0E0,0E0,0E0,0E0,0E0,0E0,0E0,0E0,0E0],"parents":[2147483647,0,0,1,1,2,2,3,3,4,4,5,5,6,6,7,7,8,8,11,11,12,12,13,13,14,14,17,17,18,18,19,19,20,20,21,21,22,22,23,23,24,24,25,25,26,26],"right_children":[2,4,6,8,10,12,14,16,18,-1,-1,20,22,24,26,-1,-1,28,30,32,34,36,38,40,42,44,46,-1,-1,-1,-1,-1,-1,-1,-1,-1,-1,-1,-1,-1,-1,-1,-1,-1,-1,-1,-1],"split_conditions":[3.2365828E0,2.2714157E0,9.114075E-1,1.256104E0,1.3815648E3,1.8849711E0,3.5270412E0,1.0948086E0,7.522636E-1,4.002688E-2,-2.9327253E-2,8.4271693E-1,1.18745565E-1,8.873077E-1,1.6436993E3,1.6070541E-2,1.7100132E-1,2.0757E0,1.4867192E3,1.5078978E3,1E0,2.154411E0,1.5467518E3,6.9467545E-1,1.573988E3,6.107493E0,1.5461309E-1,-3.9286964E-2,-1.0376043E-2,6.142317E-2,3.3264183E-3,1.1751534E-3,5.397552E-2,-5.781227E-2,9.256153E-2,-1.7080747E-2,-5.17154E-2,1.2410608E-2,-1.9732384E-2,1.8782819E-2,-4.05568E-2,3.8919203E-2,-3.620203E-2,-1.2021561E-2,3.3183529E-3,1.4117908E-2,7.6156184E-2],"split_indices":[18,15,14,14,8,1,18,1,2,0,0,14,23,10,7,0,0,1,7,8,11,1,7,2,7,19,24,0,0,0,0,0,0,0,0,0,0,0,0,0,0,0,0,0,0,0,0],"split_type":[0,0,0,0,0,0,0,0,0,0,0,0,0,0,0,0,0,0,0,0,0,0,0,0,0,0,0,0,0,0,0,0,0,0,0,0,0,0,0,0,0,0,0,0,0,0,0],"sum_hessian":[8.17E2,2.5E1,7.92E2,1.9E1,6E0,1.39E2,6.53E2,6E0,1.3E1,1E0,5E0,1.17E2,2.2E1,3.9E1,6.14E2,1E0,5E0,2E0,1.1E1,9.8E1,1.9E1,1.6E1,6E0,6E0,3.3E1,5.93E2,2.1E1,1E0,1E0,7E0,4E0,7.8E1,2E1,2E0,1.7E1,9E0,7E0,3E0,3E0,1E0,5E0,3.1E1,2E0,4.39E2,1.54E2,1.6E1,5E0],"tree_param":{"num_deleted":"0","num_feature":"25","num_nodes":"47","size_leaf_vector":"1"}},{"base_weights":[-2.8661033E-3,-2.0738196E-1,7.5524755E-2,-3.09741E-1,2.59756E-2,4.659397E-1,2.647959E-2,-1.3790517E-1,-5.967293E-1,6.742647E-1,-1.3951573E-1,1.1518399E0,2.5603607E-2,-4.891666E-1,6.1948996E-2,-3.287384E-2,-8.140404E-1,-8.01039E-1,-3.400504E-1,9.2897606E-1,-3.416013E-2,-2.2269051E-1,8.2584634E-2,3.6912337E-1,2.768972E0,-1.391455E-1,9.8237276E-1,-2.8600714E-1,-9.991465E-1,-2.0899506E-1,1.22615136E-1,7.983319E-3,-2.1472614E-2,-1.3771896E-2,-5.7986394E-2,-5.3805787E-2,2.347845E-2,7.8058034E-2,-2.719222E-2,8.452875E-2,3.0777374E-2,2.2902848E-2,-2.1299643E-2,-3.309031E-2,3.5400964E-2,1.8556118E-1,1.5089088E-2,-5.5716828E-2,-4.394005E-4,7.246397E-2,2.1266112E-2,-5.251971E-2,-5.6946226E-3,-7.027071E-2,-1.5881374E-2,7.546478E-2,-1.5463816E-2,3.8231192E-3,3.2602746E-2],"categories":[],"categories_nodes":[],"categories_segments":[],"categories_sizes":[],"default_left":[0,0,0,0,0,0,0,0,0,0,0,0,0,0,0,0,0,0,0,0,0,0,0,0,0,0,0,0,0,0,0,0,0,0,0,0,0,0,0,0,0,0,0,0,0,0,0,0,0,0,0,0,0,0,0,0,0,0,0],"id":4,"left_children":[1,3,5,7,9,11,13,15,17,19,21,23,25,27,29,31,33,35,37,39,-1,41,-1,43,45,47,49,51,53,55,57,-1,-1,-1,-1,-1,-1,-1,-1,-1,-1,-1,-1,-1,-1,-1,-1,-1,-1,-1,-1,-1,-1,-1,-1,-1,-1,-1,-1],"loss_changes":[1.27291765E1,5.2630224E0,1.0978594E1,7.462883E0,7.389534E0,1.9300209E1,9.376321E0,6.8617315E0,2.7167988E0,4.963526E0,7.2412887E0,3.0621807E1,6.4417677E0,3.1332755E0,7.899011E0,4.631454E0,9.361963E-1,3.8891354E0,5.603139E0,1.6727991E0,0E0,4.373645E0,0E0,3.9858794E0,5.74181E0,3.6356292E0,4.210086E-1,2.7323573E0,8.271532E-1,6.6145725E0,9.679731E0,0E0,0E0,0E0,0E0,0E0,0E0,0E0,0E0,0E0,0E0,0E0,0E0,0E0,0E0,0E0,0E0,0E0,0E0,0E0,0E0,0E0,0E0,0E0,0E0,0E0,0E0,0E0,0E0],"parents":[2147483647,0,0,1,1,2,2,3,3,4,4,5,5,6,6,7,7,8,8,9,9,10,10,11,11,12,12,13,13,14,14,15,15,16,16,17,17,18,18,19,19,21,21,23,23,24,24,25,25,26,26,27,27,28,28,29,29,30,30],"right_children":[2,4,6,8,10,12,14,16,18,20,22,24,26,28,30,32,34,36,38,40,-1,42,-1,44,46,48,50,52,54,56,58,-1,-1,-1,-1,-1,-1,-1,-1,-1,-1,-1,-1,-1,-1,-1,-1,-1,-1,-1,-1,-1,-1,-1,-1,-1,-1,-1,-1],"split_conditions":[-5.038566E1,1.1143769E-1,4.0594893E0,4.8632965E0,-2.6446187E-1,-8.719554E-1,4.3452797E0,2.4064736E0,1.6410033E0,5.593767E0,1.294313E0,4E0,2.2073324E0,5.194288E0,8.873077E-1,1.4257799E0,4.905596E0,2.4064736E0,1.6487963E0,1.4051055E0,-3.416013E-2,1.19018376E-1,8.2584634E-2,1.0030751E0,1.0107205E0,8.767391E-1,1.4285955E0,7.068158E-1,1.4782354E0,6.077288E-1,1.8825357E-1,7.983319E-3,-2.1472614E-2,-1.3771896E-2,-5.7986394E-2,-5.3805787E-2,2.347845E-2,7.8058034E-2,-2.719222E-2,8.452875E-2,3.0777374E-2,2.2902848E-2,-2.1299643E-2,-3.309031E-2,3.5400964E-2,1.8556118E-1,1.5089088E-2,-5.5716828E-2,-4.394005E-4,7.246397E-2,2.1266112E-2,-5.251971E-2,-5.6946226E-3,-7.027071E-2,-1.5881374E-2,7.546478E-2,-1.5463816E-2,3.8231192E-3,3.2602746E-2],"split_indices":[9,24,19,19,3,9,19,14,1,18,10,19,15,18,10,15,18,14,1,11,0,24,0,1,0,2,0,15,0,0,24,0,0,0,0,0,0,0,0,0,0,0,0,0,0,0,0,0,0,0,0,0,0,0,0,0,0,0,0],"split_type":[0,0,0,0,0,0,0,0,0,0,0,0,0,0,0,0,0,0,0,0,0,0,0,0,0,0,0,0,0,0,0,0,0,0,0,0,0,0,0,0,0,0,0,0,0,0,0,0,0,0,0,0,0,0,0,0,0,0,0],"sum_hessian":[7.92E2,2.19E2,5.73E2,1.52E2,6.7E1,6.3E1,5.1E2,9.6E1,5.6E1,1.3E1,5.4E1,2.4E1,3.9E1,3.2E1,4.78E2,8.4E1,1.2E1,3E1,2.6E1,1.1E1,2E0,5.2E1,2E0,1.7E1,7E0,3.4E1,5E0,2.4E1,8E0,8.7E1,3.91E2,5.6E1,2.8E1,3E0,9E0,2.8E1,2E0,1E0,2.5E1,4E0,7E0,9E0,4.3E1,3E0,1.4E1,6E0,1E0,4E0,3E1,3E0,2E0,5E0,1.9E1,6E0,2E0,2E0,8.5E1,3.44E2,4.7E1],"tree_param":{"num_deleted":"0","num_feature":"25","num_nodes":"59","size_leaf_vector":"1"}},{"base_weights":[2.2992957E-2,7.585055E-1,-4.9021427E-4,-3.3263287E-1,1.1205825E0,8.9644894E-2,-8.144244E-3,-6.3466346E-1,1.6897745E-2,2.6578228E0,5.3346354E-1,2.2515237E-1,-5.4219466E-2,-1.3601584E-2,-4.986476E-2,3.784799E-2,1.8041272E-1,7.691221E-1,-1.8412687E-2,-6.483934E-3,7.2248113E-1,-6.738391E-2,1.2591344E-1,6.0956225E-2,-1.8598106E-2,-6.778522E-3,6.515182E-2,6.5071374E-2,5.3404816E-3,-2.6877118E-2,-1.8450785E-3],"categories":[],"categories_nodes":[],"categories_segments":[],"categories_sizes":[],"default_left":[0,0,0,0,0,0,0,0,0,0,0,0,0,0,0,0,0,0,0,0,0,0,0,0,0,0,0,0,0,0,0],"id":5,"left_children":[1,3,5,7,9,-1,11,13,-1,15,17,19,21,-1,-1,-1,-1,23,-1,25,27,29,-1,-1,-1,-1,-1,-1,-1,-1,-1],"loss_changes":[1.3956284E1,1.0249646E1,8.980733E0,1.477421E0,1.5730465E1,0E0,8.407328E0,2.1225953E-1,0E0,1.6409836E0,3.206533E0,1.4865408E1,1.8647501E1,0E0,0E0,0E0,0E0,3.5109363E0,0E0,1.047566E1,9.306564E0,9.048003E0,0E0,0E0,0E0,0E0,0E0,0E0,0E0,0E0,0E0],"parents":[2147483647,0,0,1,1,2,2,3,3,4,4,6,6,7,7,9,9,10,10,11,11,12,12,17,17,19,19,20,20,21,21],"right_children":[2,4,6,8,10,-1,12,14,-1,16,18,20,22,-1,-1,-1,-1,24,-1,26,28,30,-1,-1,-1,-1,-1,-1,-1,-1,-1],"split_conditions":[3.2365828E0,1.459671E3,6.077288E-1,7.522636E-1,7.2210336E-1,8.9644894E-2,4.0594893E0,1.3954332E3,1.6897745E-2,6.7498404E-1,1.5641942E3,4E0,3.3614433E-1,-1.3601584E-2,-4.986476E-2,3.784799E-2,1.8041272E-1,1.2721152E0,-1.8412687E-2,1.6116614E3,1.501957E3,4.3452797E0,1.2591344E-1,6.0956225E-2,-1.8598106E-2,-6.778522E-3,6.515182E-2,6.5071374E-2,5.3404816E-3,-2.6877118E-2,-1.8450785E-3],"split_indices":[18,7,0,2,2,0,19,8,0,0,7,19,23,0,0,0,0,2,0,7,7,19,0,0,0,0,0,0,0,0,0],"split_type":[0,0,0,0,0,0,0,0,0,0,0,0,0,0,0,0,0,0,0,0,0,0,0,0,0,0,0,0,0,0,0],"sum_hessian":[8.07E2,2.4E1,7.83E2,6E0,1.8E1,3E0,7.8E2,4E0,2E0,4E0,1.4E1,1.28E2,6.52E2,2E0,2E0,1E0,3E0,1.1E1,3E0,8.8E1,4E1,6.49E2,3E0,9E0,2E0,8.1E1,7E0,2.5E1,1.5E1,5.6E1,5.93E2],"tree_param":{"num_deleted":"0","num_feature":"25","num_nodes":"31","size_leaf_vector":"1"}},{"base_weights":[-4.1869506E-3,6.947628E-1,-2.9272089E-2,1.4566183E0,1.9058657E-1,-2.0777205E-1,2.8163213E-2,1.9512639E0,4.727909E-1,-2.9279876E-1,9.920204E-1,-8.377989E-1,-1.1163684E-1,2.4635078E-1,-2.5067715E-2,1.0788881E-2,1.3299218E-1,-1.773865E-2,7.388107E-1,-6.2137777E-1,3.0668769E-2,-4.3958724E-2,1.0679967E-1,-9.450909E-1,-2.1961255E-1,-2.68665E-1,2.0160891E-1,-4.3326905E-1,3.9245147E-1,-5.8678955E-2,4.2791584E-1,5.0082974E-2,1.3532824E-2,-9.459539E-3,-4.0955383E-2,-9.6539445E-3,2.0383535E-2,-1.30575225E-2,1.4311237E-2,-6.7421615E-2,-1.867812E-2,2.2032687E-2,-2.7487285E-2,1.4997908E-3,-2.646143E-2,-5.4204683E-3,3.5678394E-2,4.748861E-3,-4.528144E-2,1.23141855E-2,6.842179E-2,1.4484214E-2,-5.842391E-3,1.4127815E-1,9.405358E-3],"categories":[],"categories_nodes":[],"categories_segments":[],"categories_sizes":[],"default_left":[0,0,0,0,0,0,0,0,0,0,0,0,0,0,0,0,0,0,0,0,0,0,0,0,0,0,0,0,0,0,0,0,0,0,0,0,0,0,0,0,0,0,0,0,0,0,0,0,0,0,0,0,0,0,0],"id":6,"left_children":[1,3,5,7,9,11,13,15,17,19,21,23,25,27,29,-1,-1,-1,31,33,35,37,-1,39,41,43,45,47,49,51,53,-1,-1,-1,-1,-1,-1,-1,-1,-1,-1,-1,-1,-1,-1,-1,-1,-1,-1,-1,-1,-1,-1,-1,-1],"loss_changes":[1.4169672E1,1.0477452E1,8.002565E0,4.430565E0,7.263687E0,1.1414346E1,6.8702426E0,2.89085E0,1.2405198E0,1.2944723E0,5.7925196E0,1.4506073E0,8.219441E0,1.1688017E1,7.272371E0,0E0,0E0,0E0,8.631468E-3,6.269431E-2,4.6909893E-1,2.4813712E-1,0E0,2.0273151E0,8.6804116E-1,5.629306E0,6.4794626E0,3.518471E0,1.3207907E1,5.178996E0,1.687172E1,0E0,0E0,0E0,0E0,0E0,0E0,0E0,0E0,0E0,0E0,0E0,0E0,0E0,0E0,0E0,0E0,0E0,0E0,0E0,0E0,0E0,0E0,0E0,0E0],"parents":[2147483647,0,0,1,1,2,2,3,3,4,4,5,5,6,6,7,7,8,8,9,9,10,10,11,11,12,12,13,13,14,14,18,18,19,19,20,20,21,21,23,23,24,24,25,25,26,26,27,27,28,28,29,29,30,30],"right_children":[2,4,6,8,10,12,14,16,18,20,22,24,26,28,30,-1,-1,-1,32,34,36,38,-1,40,42,44,46,48,50,52,54,-1,-1,-1,-1,-1,-1,-1,-1,-1,-1,-1,-1,-1,-1,-1,-1,-1,-1,-1,-1,-1,-1,-1,-1],"split_conditions":[3.2365828E0,6.4745183E0,1.4711194E3,2.0770411E0,7.328451E0,1.0440446E0,8.9684534E-1,1.3824261E3,1.7465129E0,1.4316985E3,1.4607579E3,3.493367E-1,6.089848E0,3.7609537E0,2.7956444E-1,1.0788881E-2,1.3299218E-1,-1.773865E-2,7.9431295E-1,2.0680485E0,8.685941E-2,2.1942053E0,1.0679967E-1,1.4641189E3,3.2944531E0,4.779933E0,1.4980583E3,-1.2242054E0,1.5078978E3,4.016757E0,-4.8428345E-1,5.0082974E-2,1.3532824E-2,-9.459539E-3,-4.0955383E-2,-9.6539445E-3,2.0383535E-2,-1.30575225E-2,1.4311237E-2,-6.7421615E-2,-1.867812E-2,2.2032687E-2,-2.7487285E-2,1.4997908E-3,-2.646143E-2,-5.4204683E-3,3.5678394E-2,4.748861E-3,-4.528144E-2,1.23141855E-2,6.842179E-2,1.4484214E-2,-5.842391E-3,1.4127815E-1,9.405358E-3],"split_indices":[18,19,7,15,19,1,14,7,1,8,7,23,19,18,23,0,0,0,2,1,24,1,0,7,19,19,8,3,8,19,3,0,0,0,0,0,0,0,0,0,0,0,0,0,0,0,0,0,0,0,0,0,0,0,0],"split_type":[0,0,0,0,0,0,0,0,0,0,0,0,0,0,0,0,0,0,0,0,0,0,0,0,0,0,0,0,0,0,0,0,0,0,0,0,0,0,0,0,0,0,0,0,0,0,0,0,0,0,0,0,0,0,0],"sum_hessian":[8.06E2,2.7E1,7.79E2,1E1,1.7E1,1.89E2,5.9E2,6E0,4E0,1.1E1,6E0,2.4E1,1.65E2,1.15E2,4.75E2,1E0,5E0,1E0,3E0,5E0,6E0,3E0,3E0,2E1,4E0,1.1E2,5.5E1,2E1,9.5E1,4.43E2,3.2E1,2E0,1E0,1E0,4E0,4E0,2E0,2E0,1E0,1.5E1,5E0,1E0,3E0,4.1E1,6.9E1,3.2E1,2.3E1,8E0,1.2E1,7.7E1,1.8E1,5E1,3.93E2,3E0,2.9E1],"tree_param":{"num_deleted":"0","num_feature":"25","num_nodes":"55","size_leaf_vector":"1"}},{"base_weights":[-1.5601864E-2,3.5111648E-1,-5.4764096E-2,2.577548E-1,1.5595444E-1,-2.3988293E-1,9.8894555E-3,3.3882585E-1,-5.8977795E-1,-4.2487267E-1,5.334261E-2,8.505673E-2,-5.7581405E-4,4.0474045E-1,-2.5903203E-2,-1.4129431E-2,-6.8439484E-1,8.314427E-2,-5.3804636E-1,-8.030124E-1,2.1561113E-1,-8.821439E-1,1.4367103E-2,3.921621E-2,6.6425945E-3,-4.565709E-2,-1.1345043E-2,5.4683942E-2,-1.7064823E-2,-1.4548897E-3,-3.8983025E-2,-2.4522644E-2,-5.6944456E-2,3.7834566E-2,-4.1310463E-4,-6.174408E-2,-1.4716384E-2,1.6857052E-2,-2.4404896E-3],"categories":[],"categories_nodes":[],"categories_segments":[],"categories_sizes":[],"default_left":[0,0,0,0,0,0,0,0,0,0,0,0,0,0,0,0,0,0,0,0,0,0,0,0,0,0,0,0,0,0,0,0,0,0,0,0,0,0,0],"id":7,"left_children":[1,3,5,7,-1,9,11,13,15,17,19,-1,21,23,-1,-1,25,27,29,31,33,35,37,-1,-1,-1,-1,-1,-1,-1,-1,-1,-1,-1,-1,-1,-1,-1,-1],"loss_changes":[1.1608965E1,1.5701347E1,8.739444E0,5.421821E0,0E0,1.0274724E1,7.9856668E0,3.730051E0,7.348251E-2,6.714058E0,1.0456138E1,0E0,7.113028E0,4.6839075E0,0E0,0E0,4.5712948E-2,6.956711E0,5.434988E0,3.0321312E-1,5.8210144E0,5.8974266E-1,7.802942E0,0E0,0E0,0E0,0E0,0E0,0E0,0E0,0E0,0E0,0E0,0E0,0E0,0E0,0E0,0E0,0E0],"parents":[2147483647,0,0,1,1,2,2,3,3,5,5,6,6,7,7,8,8,9,9,10,10,12,12,13,13,16,16,17,17,18,18,19,19,20,20,21,21,22,22],"right_children":[2,4,6,8,-1,10,12,14,16,18,20,-1,22,24,-1,-1,26,28,30,32,34,36,38,-1,-1,-1,-1,-1,-1,-1,-1,-1,-1,-1,-1,-1,-1,-1,-1],"split_conditions":[3.5270412E0,1.5950873E0,1.4751882E3,1.573988E3,1.5595444E-1,1.0464903E-1,6.077288E-1,2.4963238E0,8.0323264E-2,-6.4271855E-1,1.1714787E0,8.505673E-2,6.7498404E-1,1.2421417E0,-2.5903203E-2,-1.4129431E-2,1.673644E3,1.8849711E0,8.939738E-1,1.4417578E-1,1.4296934E3,1.5962597E0,8.9684534E-1,3.921621E-2,6.6425945E-3,-4.565709E-2,-1.1345043E-2,5.4683942E-2,-1.7064823E-2,-1.4548897E-3,-3.8983025E-2,-2.4522644E-2,-5.6944456E-2,3.7834566E-2,-4.1310463E-4,-6.174408E-2,-1.4716384E-2,1.6857052E-2,-2.4404896E-3],"split_indices":[18,11,7,7,0,24,0,15,24,3,1,0,0,11,0,0,7,1,15,23,7,1,14,0,0,0,0,0,0,0,0,0,0,0,0,0,0,0,0],"split_type":[0,0,0,0,0,0,0,0,0,0,0,0,0,0,0,0,0,0,0,0,0,0,0,0,0,0,0,0,0,0,0,0,0,0,0,0,0,0,0],"sum_hessian":[8.06E2,7.7E1,7.29E2,7.5E1,2E0,1.88E2,5.41E2,6.9E1,6E0,1.15E2,7.3E1,3E0,5.38E2,6.4E1,5E0,2E0,4E0,2.1E1,9.4E1,1.1E1,6.2E1,8E0,5.3E2,3.4E1,3E1,3E0,1E0,6E0,1.5E1,1.7E1,7.7E1,4E0,7E0,2.1E1,4.1E1,6E0,2E0,9E1,4.4E2],"tree_param":{"num_deleted":"0","num_feature":"25","num_nodes":"39","size_leaf_vector":"1"}},{"base_weights":[6.719765E-3,5.7976043E-1,-1.39923105E-2,4.0180132E-1,1.6153967E-1,-1.6846852E-1,4.8719037E-2,8.7924206E-1,-3.87674E-2,1.4727268E-1,-2.3376659E-1,-2.2529615E-1,1.22138895E-1,1.1997976E0,-1.419574E-1,-1.7088625E-1,5.4326892E-2,-1.8932903E-1,8.3503985E-1,-5.8640885E-1,-9.6202396E-2,-3.076502E-1,4.0256938E-1,1.0547654E-1,1.2986947E0,8.4071614E-2,-1.8382974E-2,1.4822294E-2,-2.1238122E-2,3.5010785E-2,-1.6428154E-2,-3.0842151E-2,1.5563452E-2,8.027124E-2,1.2776057E-2,-4.149839E-2,2.0138117E-2,2.4178067E-2,-9.437276E-3,3.647107E-2,-2.404682E-2,5.1277928E-2,-1.0295021E-2,6.861858E-2,5.2877488E-3,-4.5060337E-2,1.11530155E-1],"categories":[],"categories_nodes":[],"categories_segments":[],"categories_sizes":[],"default_left":[0,0,0,0,0,0,0,0,0,0,0,0,0,0,0,0,0,0,0,0,0,0,0,0,0,0,0,0,0,0,0,0,0,0,0,0,0,0,0,0,0,0,0,0,0,0,0],"id":8,"left_children":[1,3,5,7,-1,9,11,13,15,17,19,21,23,25,27,29,-1,31,33,35,37,39,41,43,45,-1,-1,-1,-1,-1,-1,-1,-1,-1,-1,-1,-1,-1,-1,-1,-1,-1,-1,-1,-1,-1,-1],"loss_changes":[9.526939E0,9.444836E0,7.515951E0,5.7134132E0,0E0,4.6527E0,1.1132739E1,4.425886E0,2.0259588E0,9.186737E0,8.966622E0,6.1736016E0,8.410445E0,3.4626875E0,4.173297E-1,1.2467277E0,0E0,4.0673018E0,3.7815704E0,5.2775745E0,4.1798134E0,9.110735E0,3.7803862E0,7.6612983E0,8.284726E0,0E0,0E0,0E0,0E0,0E0,0E0,0E0,0E0,0E0,0E0,0E0,0E0,0E0,0E0,0E0,0E0,0E0,0E0,0E0,0E0,0E0,0E0],"parents":[2147483647,0,0,1,1,2,2,3,3,5,5,6,6,7,7,8,8,9,9,10,10,11,11,12,12,13,13,14,14,15,15,17,17,18,18,19,19,20,20,21,21,22,22,23,23,24,24],"right_children":[2,4,6,8,-1,10,12,14,16,18,20,22,24,26,28,30,-1,32,34,36,38,40,42,44,46,-1,-1,-1,-1,-1,-1,-1,-1,-1,-1,-1,-1,-1,-1,-1,-1,-1,-1,-1,-1,-1,-1],"split_conditions":[3.2365828E0,1.5950873E0,-5.038566E1,1.9095409E0,1.6153967E-1,-3.2501072E-1,9.626975E-1,1.2721152E0,8.368806E0,1.1589159E-1,1.5494926E3,5.7424965E0,3.3614433E-1,2.1613634E0,1.0948086E0,1.3815648E3,5.4326892E-2,-4.5510754E-1,1.4051055E0,1.3978381E0,7.770058E-2,-2.063107E1,4.835722E0,9.959424E-1,6.510126E-1,8.4071614E-2,-1.8382974E-2,1.4822294E-2,-2.1238122E-2,3.5010785E-2,-1.6428154E-2,-3.0842151E-2,1.5563452E-2,8.027124E-2,1.2776057E-2,-4.149839E-2,2.0138117E-2,2.4178067E-2,-9.437276E-3,3.647107E-2,-2.404682E-2,5.1277928E-2,-1.0295021E-2,6.861858E-2,5.2877488E-3,-4.5060337E-2,1.11530155E-1],"split_indices":[18,11,9,1,0,3,10,2,19,24,8,18,23,15,1,8,0,3,11,11,24,9,19,10,1,0,0,0,0,0,0,0,0,0,0,0,0,0,0,0,0,0,0,0,0,0,0],"split_type":[0,0,0,0,0,0,0,0,0,0,0,0,0,0,0,0,0,0,0,0,0,0,0,0,0,0,0,0,0,0,0,0,0,0,0,0,0,0,0,0,0,0,0,0,0,0,0],"sum_hessian":[8.01E2,2.7E1,7.74E2,2.6E1,1E0,2.23E2,5.51E2,1.2E1,1.4E1,3.8E1,1.85E2,1.16E2,4.35E2,9E0,3E0,1.3E1,1E0,2.6E1,1.2E1,5.1E1,1.34E2,1.03E2,1.3E1,4.3E2,5E0,8E0,1E0,1E0,2E0,1E0,1.2E1,1.5E1,1.1E1,6E0,6E0,4.6E1,5E0,1.4E1,1.2E2,9E0,9.4E1,7E0,6E0,6E0,4.24E2,1E0,4E0],"tree_param":{"num_deleted":"0","num_feature":"25","num_nodes":"47","size_leaf_vector":"1"}},{"base_weights":[1.7495845E-2,1.8094188E-1,-7.091295E-2,8.840093E-2,7.8382045E-1,-1.22411236E-1,1.9165379E-1,-1.6009322E-1,2.1595754E-1,1.02384545E-1,1.4240026E0,-3.3831197E-1,-5.8886815E-2,-2.449772E-1,6.4451355E-1,-8.871055E-1,-5.9684895E-2,3.6534414E-1,-8.681487E-2,5.941368E-1,-1.1567961E-1,3.543646E-1,1.8904229E0,-7.950511E-1,-2.0342141E-1,1.0684801E-1,-2.3442814E-1,-3.2760653E-1,2.7903168E-2,1.4505047E0,1.8971422E-1,-6.2279712E-2,1.4127051E-2,3.9831102E-2,-1.02047995E-2,7.726688E-2,1.672028E-2,-1.6084118E-2,3.0327136E-2,-1.4201267E-2,4.8458353E-2,-5.1985133E-2,4.898711E-3,5.9259724E-2,-5.789208E-3,1.4794075E-1,2.86126E-2,-5.5096317E-2,-1.1546743E-2,1.8628424E-2,-2.4100576E-2,2.5009276E-2,-1.1401731E-3,-3.0223967E-3,-3.511229E-2,-2.9983308E-2,-4.4597435E-4,9.977574E-2,2.7898718E-3,3.417218E-2,-4.9861994E-2],"categories":[],"categories_nodes":[],"categories_segments":[],"categories_sizes":[],"default_left":[0,0,0,0,0,0,0,0,0,0,0,0,0,0,0,0,0,0,0,0,0,0,0,0,0,0,0,0,0,0,0,0,0,0,0,0,0,0,0,0,0,0,0,0,0,0,0,0,0,0,0,0,0,0,0,0,0,0,0,0,0],"id":9,"left_children":[1,3,5,7,9,11,13,15,17,19,21,23,25,27,29,31,33,35,37,39,41,43,45,47,49,51,53,55,-1,57,59,-1,-1,-1,-1,-1,-1,-1,-1,-1,-1,-1,-1,-1,-1,-1,-1,-1,-1,-1,-1,-1,-1,-1,-1,-1,-1,-1,-1,-1,-1],"loss_changes":[1.1486185E1,1.5496385E1,7.000677E0,7.7369614E0,1.5995201E1,5.904945E0,1.696516E1,6.0058947E0,7.3137693E0,2.1061666E0,8.809219E0,5.876028E0,9.771308E0,2.7338037E0,1.5120516E1,1.9382195E0,6.0236497E0,8.275756E0,5.932432E0,1.2554569E0,2.1446915E0,2.093958E0,9.395149E0,1.4568615E0,7.96964E0,6.7567225E0,1.0494153E1,2.2005568E0,0E0,4.396353E0,1.1328973E1,0E0,0E0,0E0,0E0,0E0,0E0,0E0,0E0,0E0,0E0,0E0,0E0,0E0,0E0,0E0,0E0,0E0,0E0,0E0,0E0,0E0,0E0,0E0,0E0,0E0,0E0,0E0,0E0,0E0,0E0],"parents":[2147483647,0,0,1,1,2,2,3,3,4,4,5,5,6,6,7,7,8,8,9,9,10,10,11,11,12,12,13,13,14,14,15,15,16,16,17,17,18,18,19,19,20,20,21,21,22,22,23,23,24,24,25,25,26,26,27,27,29,29,30,30],"right_children":[2,4,6,8,10,12,14,16,18,20,22,24,26,28,30,32,34,36,38,40,42,44,46,48,50,52,54,56,-1,58,60,-1,-1,-1,-1,-1,-1,-1,-1,-1,-1,-1,-1,-1,-1,-1,-1,-1,-1,-1,-1,-1,-1,-1,-1,-1,-1,-1,-1,-1,-1],"split_conditions":[1.0071087E0,1.5046293E3,1.7582623E0,1.7003342E0,9.5853823E-1,1.4704851E3,9.600349E-2,-8.434635E-1,2.2714157E0,1.4938545E0,-4.0111446E1,1.0440446E0,4.6539357E-1,1.5783917E3,1.8395538E0,1.092923E0,-7.36658E-1,3.2159886E0,1.3886042E0,7.5795466E-1,7.724462E-1,9.978308E-1,2.4192262E0,1.4641189E3,1.1966122E0,1.5390436E3,1.3275465E0,5.898533E0,2.7903168E-2,5.9266176E0,1.0813472E0,-6.2279712E-2,1.4127051E-2,3.9831102E-2,-1.02047995E-2,7.726688E-2,1.672028E-2,-1.6084118E-2,3.0327136E-2,-1.4201267E-2,4.8458353E-2,-5.1985133E-2,4.898711E-3,5.9259724E-2,-5.789208E-3,1.4794075E-1,2.86126E-2,-5.5096317E-2,-1.1546743E-2,1.8628424E-2,-2.4100576E-2,2.5009276E-2,-1.1401731E-3,-3.0223967E-3,-3.511229E-2,-2.9983308E-2,-4.4597435E-4,9.977574E-2,2.7898718E-3,3.417218E-2,-4.9861994E-2],"split_indices":[2,8,1,15,2,7,24,3,15,1,9,1,9,7,1,0,3,18,11,0,10,2,9,7,15,8,11,19,0,18,10,0,0,0,0,0,0,0,0,0,0,0,0,0,0,0,0,0,0,0,0,0,0,0,0,0,0,0,0,0,0],"split_type":[0,0,0,0,0,0,0,0,0,0,0,0,0,0,0,0,0,0,0,0,0,0,0,0,0,0,0,0,0,0,0,0,0,0,0,0,0,0,0,0,0,0,0,0,0,0,0,0,0,0,0,0,0,0,0,0,0,0,0,0,0],"sum_hessian":[7.93E2,2.78E2,5.15E2,2.42E2,3.6E1,4.31E2,8.4E1,8.2E1,1.6E2,1.8E1,1.8E1,9.7E1,3.34E2,4.3E1,4.1E1,9E0,7.3E1,1.07E2,5.3E1,5E0,1.3E1,6E0,1.2E1,2.1E1,7.6E1,1.72E2,1.62E2,3.9E1,4E0,1.4E1,2.7E1,8E0,1E0,9E0,6.4E1,8E0,9.9E1,4.1E1,1.2E1,1E0,4E0,2E0,1.1E1,2E0,4E0,8E0,4E0,1.7E1,4E0,2.1E1,5.5E1,4.9E1,1.23E2,1.07E2,5.5E1,2.5E1,1.4E1,1.2E1,2E0,2E1,7E0],"tree_param":{"num_deleted":"0","num_feature":"25","num_nodes":"61","size_leaf_vector":"1"}},{"base_weights":[5.2349325E-3,6.697148E-2,-1.5867133E-1,5.6351367E-2,1.2629697E-1,-7.594474E-1,-9.145654E-2,3.8805637E-1,1.6769677E-2,3.3636177E-1,-8.858464E-1,-5.169242E-1,2.5655346E-2,7.456645E-1,2.9496707E-2,-3.0283892E-1,7.372749E-2,-1.8179744E-2,4.8452303E-2,-9.4894475E-1,-1.2718436E-2,-7.0711464E-1,1.00640126E-1,2.0570086E-1,-3.418539E-1,6.946252E-2,-2.3411337E-2,-4.0732794E-3,5.9610687E-2,4.9888793E-2,-2.1513311E-2,2.3477147E-3,3.397845E-2,-5.8838077E-2,-1.2306511E-2,2.2959048E-2,-4.5187656E-2,-5.194567E-2,3.4275647E-2,1.6873754E-3,5.071817E-2,-2.6955964E-2,4.5460433E-2],"categories":[],"categories_nodes":[],"categories_segments":[],"categories_sizes":[],"default_left":[0,0,0,0,0,0,0,0,0,0,0,0,0,0,0,0,0,0,0,0,0,0,0,0,0,0,0,0,0,0,0,0,0,0,0,0,0,0,0,0,0,0,0],"id":10,"left_children":[1,3,5,7,-1,9,11,13,15,17,19,21,23,25,27,29,31,-1,-1,33,-1,35,37,39,41,-1,-1,-1,-1,-1,-1,-1,-1,-1,-1,-1,-1,-1,-1,-1,-1,-1,-1],"loss_changes":[8.136189E0,1.252122E1,8.814371E0,7.6348286E0,0E0,3.3451672E0,9.9289E0,7.927885E0,9.50672E0,1.1484317E0,6.492529E-1,5.1217203E0,1.0458756E1,1.4960402E1,3.071617E0,5.2909327E0,7.5277715E0,0E0,0E0,2.2315979E-1,0E0,1.9429169E0,5.497468E0,1.2015623E1,6.481736E0,0E0,0E0,0E0,0E0,0E0,0E0,0E0,0E0,0E0,0E0,0E0,0E0,0E0,0E0,0E0,0E0,0E0,0E0],"parents":[2147483647,0,0,1,1,2,2,3,3,5,5,6,6,7,7,8,8,9,9,10,10,11,11,12,12,13,13,14,14,15,15,16,16,19,19,21,21,22,22,23,23,24,24],"right_children":[2,4,6,8,-1,10,12,14,16,18,20,22,24,26,28,30,32,-1,-1,34,-1,36,38,40,42,-1,-1,-1,-1,-1,-1,-1,-1,-1,-1,-1,-1,-1,-1,-1,-1,-1,-1],"split_conditions":[1.4375113E0,3.1913087E-1,1.4761782E0,4.0594893E0,1.2629697E-1,7.724462E-1,1.4668489E3,-8.719554E-1,1.4098692E0,1.3933039E0,4.3384415E-1,1.0167571E0,1.6684023E0,1.3340192E0,2.156175E0,7.724462E-1,1.3611805E0,-1.8179744E-2,4.8452303E-2,1.7391247E0,-1.2718436E-2,5.856565E-2,7.2439235E-1,1.1440374E0,1.6669482E3,6.946252E-2,-2.3411337E-2,-4.0732794E-3,5.9610687E-2,4.9888793E-2,-2.1513311E-2,2.3477147E-3,3.397845E-2,-5.8838077E-2,-1.2306511E-2,2.2959048E-2,-4.5187656E-2,-5.194567E-2,3.4275647E-2,1.6873754E-3,5.071817E-2,-2.6955964E-2,4.5460433E-2],"split_indices":[2,23,2,19,0,10,7,9,15,0,3,10,15,11,15,10,2,0,0,0,0,24,15,11,7,0,0,0,0,0,0,0,0,0,0,0,0,0,0,0,0,0,0],"split_type":[0,0,0,0,0,0,0,0,0,0,0,0,0,0,0,0,0,0,0,0,0,0,0,0,0,0,0,0,0,0,0,0,0,0,0,0,0,0,0,0,0,0,0],"sum_hessian":[8.02E2,5.83E2,2.19E2,5.81E2,2E0,2.1E1,1.98E2,6.1E1,5.2E2,2E0,1.9E1,4.2E1,1.56E2,3E1,3.1E1,7.8E1,4.42E2,1E0,1E0,1.7E1,2E0,3.2E1,1E1,1.05E2,5.1E1,2.2E1,8E0,2.9E1,2E0,3E0,7.5E1,4.14E2,2.8E1,1.6E1,1E0,1E0,3.1E1,3E0,7E0,8.3E1,2.2E1,4.7E1,4E0],"tree_param":{"num_deleted":"0","num_feature":"25","num_nodes":"43","size_leaf_vector":"1"}},{"base_weights":[-5.7431897E-3,5.498358E-1,-2.3797458E-2,3.5843307E-1,1.5430506E-1,8.110656E-2,-3.094954E-2,9.290801E-2,1.798633E-1,-7.764208E-1,-2.1060951E-2,4.9267668E-1,-2.4478039E-1,-9.497867E-1,-1.6735516E-2,-1.39846355E-2,-6.495252E-2,3.9721973E-2,-1.755131E-2,-3.2349095E-2,1.989386E-2,-9.622872E-3,-6.3277446E-2,-3.91615E-3,8.978023E-3],"categories":[],"categories_nodes":[],"categories_segments":[],"categories_sizes":[],"default_left":[0,0,0,0,0,0,0,0,0,0,0,0,0,0,0,0,0,0,0,0,0,0,0,0,0],"id":11,"left_children":[1,3,5,7,-1,-1,9,-1,11,13,15,17,19,21,-1,23,-1,-1,-1,-1,-1,-1,-1,-1,-1],"loss_changes":[7.967328E0,8.753202E0,7.6074257E0,4.8215847E0,0E0,0E0,5.6303387E0,0E0,3.0429506E0,5.9756804E-1,5.670973E0,1.9223771E0,1.8753564E0,4.1017246E-1,0E0,6.328258E0,0E0,0E0,0E0,0E0,0E0,0E0,0E0,0E0,0E0],"parents":[2147483647,0,0,1,1,2,2,3,3,6,6,8,8,9,9,10,10,11,11,12,12,13,13,15,15],"right_children":[2,4,6,8,-1,-1,10,-1,12,14,16,18,20,22,-1,24,-1,-1,-1,-1,-1,-1,-1,-1,-1],"split_conditions":[3.2365828E0,1.5950873E0,6.077288E-1,1.3849331E3,1.5430506E-1,8.110656E-2,6.7498404E-1,9.290801E-2,2.0411043E0,1.5962597E0,8.466411E0,2.2714157E0,1.4316985E3,1.4997675E3,-1.6735516E-2,6.135549E0,-6.495252E-2,3.9721973E-2,-1.755131E-2,-3.2349095E-2,1.989386E-2,-9.622872E-3,-6.3277446E-2,-3.91615E-3,8.978023E-3],"split_indices":[18,11,0,8,0,0,0,0,1,1,19,15,8,7,0,19,0,0,0,0,0,0,0,0,0],"split_type":[0,0,0,0,0,0,0,0,0,0,0,0,0,0,0,0,0,0,0,0,0,0,0,0,0],"sum_hessian":[7.92E2,2.4E1,7.68E2,2.3E1,1E0,3E0,7.65E2,2E0,2.1E1,9E0,7.56E2,1.2E1,9E0,6E0,3E0,7.52E2,4E0,1E1,2E0,6E0,3E0,1E0,5E0,5.73E2,1.79E2],"tree_param":{"num_deleted":"0","num_feature":"25","num_nodes":"25","size_leaf_vector":"1"}},{"base_weights":[-3.4053907E-2,3.2454714E-1,-7.175422E-2,2.3932306E-1,1.3911349E-1,-1.7933467E-1,4.7136126E-3,-1.9938943E-1,4.0550157E-1,-4.1263565E-2,-3.8044447E-1,4.7431925E-1,-5.384389E-2,5.9383583E-1,-3.6458454E-1,-3.179145E-1,5.771397E-1,-9.302427E-2,9.4677466E-1,-2.5352678E-1,-7.15055E-1,8.646997E-1,-8.599449E-3,-4.0443756E-2,-6.256351E-2,5.2307393E-2,1.2635268E-2,-4.0072925E-2,-6.6516264E-3,-3.8093746E-2,1.1366534E-2,5.983789E-2,4.1685374E-3,-4.1804645E-2,-1.0466718E-3,8.031115E-2,-1.6973255E-2,-1.7353324E-2,5.2682713E-2,-5.426136E-3,-4.7885455E-2,9.455513E-3,8.7572135E-2,5.9097838E-2,-9.432239E-3,-8.4492617E-4,-3.357431E-2],"categories":[],"categories_nodes":[],"categories_segments":[],"categories_sizes":[],"default_left":[0,0,0,0,0,0,0,0,0,0,0,0,0,0,0,0,0,0,0,0,0,0,0,0,0,0,0,0,0,0,0,0,0,0,0,0,0,0,0,0,0,0,0,0,0,0,0],"id":12,"left_children":[1,3,5,7,-1,9,11,13,15,17,19,21,23,25,27,29,31,33,35,37,39,41,43,45,-1,-1,-1,-1,-1,-1,-1,-1,-1,-1,-1,-1,-1,-1,-1,-1,-1,-1,-1,-1,-1,-1,-1],"loss_changes":[1.0798226E1,1.2360384E1,5.940339E0,5.4757924E0,0E0,8.314538E0,1.1657588E1,2.9682786E0,6.8884315E0,9.242412E0,4.9998093E0,8.867971E0,4.953509E0,2.4251318E-1,1.3111284E0,1.8893247E0,9.315885E0,7.790402E0,4.714072E0,3.889216E0,1.6393986E0,1.0705931E1,3.4030964E0,5.096652E0,0E0,0E0,0E0,0E0,0E0,0E0,0E0,0E0,0E0,0E0,0E0,0E0,0E0,0E0,0E0,0E0,0E0,0E0,0E0,0E0,0E0,0E0,0E0],"parents":[2147483647,0,0,1,1,2,2,3,3,5,5,6,6,7,7,8,8,9,9,10,10,11,11,12,12,13,13,14,14,15,15,16,16,17,17,18,18,19,19,20,20,21,21,22,22,23,23],"right_children":[2,4,6,8,-1,10,12,14,16,18,20,22,24,26,28,30,32,34,36,38,40,42,44,46,-1,-1,-1,-1,-1,-1,-1,-1,-1,-1,-1,-1,-1,-1,-1,-1,-1,-1,-1,-1,-1,-1,-1],"split_conditions":[3.5270412E0,1.5950873E0,1.4999047E3,8.873077E-1,1.3911349E-1,9.9004483E-1,1.0105304E0,1.3949785E0,1.5684386E0,1.6022139E0,1.4789311E0,1.648419E0,2.1296322E0,9.739144E-1,1.4264977E3,5.334109E0,2.1613634E0,1.4780698E0,2.4697459E-1,2.7781954E-1,-6.905738E-1,1.5078978E3,-7.407994E-1,2.503481E0,-6.256351E-2,5.2307393E-2,1.2635268E-2,-4.0072925E-2,-6.6516264E-3,-3.8093746E-2,1.1366534E-2,5.983789E-2,4.1685374E-3,-4.1804645E-2,-1.0466718E-3,8.031115E-2,-1.6973255E-2,-1.7353324E-2,5.2682713E-2,-5.426136E-3,-4.7885455E-2,9.455513E-3,8.7572135E-2,5.9097838E-2,-9.432239E-3,-8.4492617E-4,-3.357431E-2],"split_indices":[18,11,8,10,0,2,2,1,15,14,14,15,1,0,8,19,15,15,23,23,3,8,3,14,0,0,0,0,0,0,0,0,0,0,0,0,0,0,0,0,0,0,0,0,0,0,0],"split_type":[0,0,0,0,0,0,0,0,0,0,0,0,0,0,0,0,0,0,0,0,0,0,0,0,0,0,0,0,0,0,0,0,0,0,0,0,0,0,0,0,0,0,0,0,0,0,0],"sum_hessian":[7.96E2,7.5E1,7.21E2,7.3E1,2E0,2.99E2,4.22E2,2E1,5.3E1,1.78E2,1.21E2,4.6E1,3.76E2,3E0,1.7E1,1E1,4.3E1,1.7E2,8E0,8.9E1,3.2E1,2.5E1,2.1E1,3.72E2,4E0,1E0,2E0,7E0,1E1,6E0,4E0,2.3E1,2E1,1.8E1,1.52E2,6E0,2E0,8.7E1,2E0,4E0,2.8E1,1.2E1,1.3E1,2E0,1.9E1,3.55E2,1.7E1],"tree_param":{"num_deleted":"0","num_feature":"25","num_nodes":"47","size_leaf_vector":"1"}},{"base_weights":[1.1816525E-2,-6.58064E-2,1.5263638E-1,-3.6819783E-1,-2.547593E-2,1.0464225E-1,7.238095E-1,-7.5161494E-2,-8.490769E-1,2.6795617E-1,-9.777091E-2,4.532042E-1,9.079219E-3,1.0906873E0,-2.181697E-1,1.0848064E0,-2.3872374E-1,-9.7637904E-1,-3.2565778E-1,5.859731E-2,1.1137673E0,-1.5249784E-1,2.464578E-1,1.3621417E-1,3.458533E-1,1.752494E-1,-1.08529605E-1,1.5318801E0,-1.8631294E-1,1.985459E-1,-5.803429E-1,8.791691E-2,-1.3112851E-2,-3.3125933E-2,2.4475219E-2,-3.2594178E-2,-6.886084E-2,1.5801469E-2,-2.9767947E-2,-1.0033577E-2,3.818977E-2,1.07841834E-1,-1.3033347E-2,-2.1348843E-2,-4.9772062E-3,5.2888528E-2,-1.058569E-3,1.1100758E-1,1.5250813E-2,4.0590526E-3,7.3759705E-2,1.6466953E-2,-1.31460745E-2,1.4673413E-2,1.449876E-1,8.040443E-3,-1.7993692E-2,2.3106579E-2,-1.0834361E-2,-4.0138666E-2,-9.433147E-3],"categories":[],"categories_nodes":[],"categories_segments":[],"categories_sizes":[],"default_left":[0,0,0,0,0,0,0,0,0,0,0,0,0,0,0,0,0,0,0,0,0,0,0,0,0,0,0,0,0,0,0,0,0,0,0,0,0,0,0,0,0,0,0,0,0,0,0,0,0,0,0,0,0,0,0,0,0,0,0,0,0],"id":13,"left_children":[1,3,5,7,9,11,13,15,17,19,21,23,25,27,29,31,33,35,37,39,41,43,45,-1,47,49,51,53,55,57,59,-1,-1,-1,-1,-1,-1,-1,-1,-1,-1,-1,-1,-1,-1,-1,-1,-1,-1,-1,-1,-1,-1,-1,-1,-1,-1,-1,-1,-1,-1],"loss_changes":[8.798447E0,6.320129E0,7.7643642E0,8.532001E0,9.763271E0,8.822939E0,7.8409643E0,7.6583204E0,1.2145805E0,1.6048838E1,6.989022E0,1.0333255E1,4.1035233E0,9.299862E0,1.1716872E0,2.7997036E0,7.31769E0,7.12101E-1,7.331338E-1,9.763677E0,1.6767914E1,4.480986E0,8.568688E0,0E0,7.1143074E0,9.784145E0,5.2687635E0,1.3073919E1,2.2210115E-1,3.524595E-1,4.483807E-2,0E0,0E0,0E0,0E0,0E0,0E0,0E0,0E0,0E0,0E0,0E0,0E0,0E0,0E0,0E0,0E0,0E0,0E0,0E0,0E0,0E0,0E0,0E0,0E0,0E0,0E0,0E0,0E0,0E0,0E0],"parents":[2147483647,0,0,1,1,2,2,3,3,4,4,5,5,6,6,7,7,8,8,9,9,10,10,11,11,12,12,13,13,14,14,15,15,16,16,17,17,18,18,19,19,20,20,21,21,22,22,24,24,25,25,26,26,27,27,28,28,29,29,30,30],"right_children":[2,4,6,8,10,12,14,16,18,20,22,24,26,28,30,32,34,36,38,40,42,44,46,-1,48,50,52,54,56,58,60,-1,-1,-1,-1,-1,-1,-1,-1,-1,-1,-1,-1,-1,-1,-1,-1,-1,-1,-1,-1,-1,-1,-1,-1,-1,-1,-1,-1,-1,-1],"split_conditions":[1.8400698E0,-5.840776E-1,2.2114599E-1,1.488339E3,1.0071087E0,9.691054E-1,1.5541993E3,1.4078527E3,1.4197048E0,1.5078978E3,1.6294402E0,1.8835945E0,1.5095906E3,2.20441E0,1.5398955E3,1.0867116E0,1.4748458E3,5.7434916E-1,1.9773024E1,1.5234211E3,1.3949785E0,1.4704851E3,1.459705E0,1.3621417E-1,-2.2493591E1,1.5050897E3,1.4531031E0,1.7646893E0,2.2210784E0,1.5589392E0,1.2007524E0,8.791691E-2,-1.3112851E-2,-3.3125933E-2,2.4475219E-2,-3.2594178E-2,-6.886084E-2,1.5801469E-2,-2.9767947E-2,-1.0033577E-2,3.818977E-2,1.07841834E-1,-1.3033347E-2,-2.1348843E-2,-4.9772062E-3,5.2888528E-2,-1.058569E-3,1.1100758E-1,1.5250813E-2,4.0590526E-3,7.3759705E-2,1.6466953E-2,-1.31460745E-2,1.4673413E-2,1.449876E-1,8.040443E-3,-1.7993692E-2,2.3106579E-2,-1.0834361E-2,-4.0138666E-2,-9.433147E-3],"split_indices":[15,3,23,7,2,0,8,8,11,8,1,15,7,15,7,0,7,2,9,7,1,7,0,0,9,7,1,1,15,0,2,0,0,0,0,0,0,0,0,0,0,0,0,0,0,0,0,0,0,0,0,0,0,0,0,0,0,0,0,0,0],"split_type":[0,0,0,0,0,0,0,0,0,0,0,0,0,0,0,0,0,0,0,0,0,0,0,0,0,0,0,0,0,0,0,0,0,0,0,0,0,0,0,0,0,0,0,0,0,0,0,0,0,0,0,0,0,0,0,0,0,0,0,0,0],"sum_hessian":[8.03E2,5.18E2,2.85E2,6E1,4.58E2,2.64E2,2.1E1,3.8E1,2.2E1,9E1,3.68E2,5.6E1,2.08E2,1.5E1,6E0,4E0,3.4E1,1.7E1,5E0,7.3E1,1.7E1,3.18E2,5E1,2E0,5.4E1,8.6E1,1.22E2,1.1E1,4E0,3E0,3E0,3E0,1E0,2.3E1,1.1E1,6E0,1.1E1,1E0,4E0,5.3E1,2E1,1.1E1,6E0,8E1,2.38E2,1.4E1,3.6E1,2E0,5.2E1,7.9E1,7E0,2.7E1,9.5E1,5E0,6E0,1E0,3E0,2E0,1E0,2E0,1E0],"tree_param":{"num_deleted":"0","num_feature":"25","num_nodes":"61","size_leaf_vector":"1"}},{"base_weights":[1.3858806E-2,-2.0522846E-1,5.7853892E-2,-2.3583187E-1,7.1971826E-2,2.1290383E-1,-3.0830678E-2,-1.256817E-2,-4.7661543E-1,1.3845795E-1,7.978283E-1,-6.2938794E-2,3.7617618E-1,-2.4227415E-1,4.282253E-1,-6.4224184E-1,-5.9257362E-2,5.798313E-1,7.1985014E-2,2.0801551E0,3.3239418E-1,-3.487039E-1,-1.8871548E-3,1.4993672E0,-1.5146412E-1,-1.9058019E-2,5.662541E-2,-7.865789E-4,4.1634012E-2,-4.1666068E-2,4.962699E-2,4.678244E-2,-3.681774E-2,-1.6510883E-2,5.995923E-2,-2.9934498E-2,8.347224E-3,-1.2995002E-2,1.4994252E-1,-3.0510828E-2,3.361005E-2,2.2987751E-2,-2.5469022E-2,4.4220127E-2,-1.520278E-3,1.2884246E-1,2.5313111E-2,-1.8526305E-2,3.801679E-2],"categories":[],"categories_nodes":[],"categories_segments":[],"categories_sizes":[],"default_left":[0,0,0,0,0,0,0,0,0,0,0,0,0,0,0,0,0,0,0,0,0,0,0,0,0,0,0,0,0,0,0,0,0,0,0,0,0,0,0,0,0,0,0,0,0,0,0,0,0],"id":14,"left_children":[1,3,5,7,-1,9,11,13,15,17,19,21,23,25,27,29,31,33,35,37,39,41,43,45,47,-1,-1,-1,-1,-1,-1,-1,-1,-1,-1,-1,-1,-1,-1,-1,-1,-1,-1,-1,-1,-1,-1,-1,-1],"loss_changes":[7.665051E0,6.000615E0,9.10942E0,7.0363383E0,0E0,1.0383931E1,5.5384665E0,7.090198E0,4.3168497E0,6.2662263E0,1.542321E1,6.838342E0,1.8598969E1,4.41119E0,2.8231359E0,4.0254135E0,9.315319E0,1.0317716E1,7.2749114E0,7.2757645E0,4.3071165E0,3.9892464E0,5.6328015E0,6.0762177E0,2.9126122E0,0E0,0E0,0E0,0E0,0E0,0E0,0E0,0E0,0E0,0E0,0E0,0E0,0E0,0E0,0E0,0E0,0E0,0E0,0E0,0E0,0E0,0E0,0E0,0E0],"parents":[2147483647,0,0,1,1,2,2,3,3,5,5,6,6,7,7,8,8,9,9,10,10,11,11,12,12,13,13,14,14,15,15,16,16,17,17,18,18,19,19,20,20,21,21,22,22,23,23,24,24],"right_children":[2,4,6,8,-1,10,12,14,16,18,20,22,24,26,28,30,32,34,36,38,40,42,44,46,48,-1,-1,-1,-1,-1,-1,-1,-1,-1,-1,-1,-1,-1,-1,-1,-1,-1,-1,-1,-1,-1,-1,-1,-1],"split_conditions":[1.4533717E3,6.6423597E0,1.0071087E0,-2.9968166E-1,7.1971826E-2,1.5046293E3,2.8328258E-1,1.4943362E3,1.8647794E0,3.4315019E0,1.5088287E3,1.4911782E3,1.5558943E0,1.4506525E3,-5.07423E-1,3.1926593E-1,5.6463804E0,8.873077E-1,1.4055168E3,7.5795466E-1,1.4824752E3,1.0138774E0,1.4943362E3,1.0167571E0,2.0745735E0,-1.9058019E-2,5.662541E-2,-7.865789E-4,4.1634012E-2,-4.1666068E-2,4.962699E-2,4.678244E-2,-3.681774E-2,-1.6510883E-2,5.995923E-2,-2.9934498E-2,8.347224E-3,-1.2995002E-2,1.4994252E-1,-3.0510828E-2,3.361005E-2,2.2987751E-2,-2.5469022E-2,4.4220127E-2,-1.520278E-3,1.2884246E-1,2.5313111E-2,-1.8526305E-2,3.801679E-2],"split_indices":[7,18,2,3,0,8,23,8,0,18,8,8,0,7,3,24,18,10,8,0,7,0,8,10,2,0,0,0,0,0,0,0,0,0,0,0,0,0,0,0,0,0,0,0,0,0,0,0,0],"split_type":[0,0,0,0,0,0,0,0,0,0,0,0,0,0,0,0,0,0,0,0,0,0,0,0,0,0,0,0,0,0,0,0,0,0,0,0,0,0,0,0,0,0,0,0,0,0,0,0,0],"sum_hessian":[7.93E2,1.32E2,6.61E2,1.3E2,2E0,2.4E2,4.21E2,6.8E1,6.2E1,2.14E2,2.6E1,3.91E2,3E1,4.5E1,2.3E1,4.4E1,1.8E1,2.7E1,1.87E2,6E0,2E1,6.8E1,3.23E2,9E0,2.1E1,4.3E1,2E0,9E0,1.4E1,4.3E1,1E0,7E0,1.1E1,9E0,1.8E1,1.9E1,1.68E2,1E0,5E0,4E0,1.6E1,6E0,6.2E1,9E0,3.14E2,5E0,4E0,1.8E1,3E0],"tree_param":{"num_deleted":"0","num_feature":"25","num_nodes":"49","size_leaf_vector":"1"}},{"base_weights":[7.952419E-3,3.0477914E-1,-2.2750687E-2,2.2387041E-1,1.3193609E-1,7.535196E-2,-2.9706584E-2,3.013432E-1,-5.6070405E-1,1.4773123E-1,-6.5436326E-2,-4.5502618E-1,3.818794E-1,-6.0022545E-1,-9.707268E-3,-2.2322836E-3,7.9984355E-1,-9.0551846E-2,5.258888E-1,-3.61845E-2,1.2998013E-2,9.4642654E-2,1.6334103E-2,-4.6833504E-2,-1.8895162E-2,-1.0532091E-2,2.4826098E-2,-2.858007E-2,7.669674E-2,-5.905689E-3,6.480347E-2,7.9059415E-2,1.5723836E-2],"categories":[],"categories_nodes":[],"categories_segments":[],"categories_sizes":[],"default_left":[0,0,0,0,0,0,0,0,0,0,0,0,0,0,0,0,0,0,0,0,0,0,0,0,0,0,0,0,0,0,0,0,0],"id":15,"left_children":[1,3,5,7,-1,-1,9,11,13,15,17,19,21,23,-1,25,27,29,31,-1,-1,-1,-1,-1,-1,-1,-1,-1,-1,-1,-1,-1,-1],"loss_changes":[7.3888707E0,1.1155008E1,6.5743427E0,4.6669197E0,0E0,0E0,4.6504064E0,4.3159904E0,1.3250828E-2,1.2030331E1,9.106997E0,8.267156E-1,7.6975174E0,6.288767E-2,0E0,7.3541226E0,1.4651972E1,5.5092773E0,4.876894E0,0E0,0E0,0E0,0E0,0E0,0E0,0E0,0E0,0E0,0E0,0E0,0E0,0E0,0E0],"parents":[2147483647,0,0,1,1,2,2,3,3,6,6,7,7,8,8,9,9,10,10,11,11,12,12,13,13,15,15,16,16,17,17,18,18],"right_children":[2,4,6,8,-1,-1,10,12,14,16,18,20,22,24,-1,26,28,30,32,-1,-1,-1,-1,-1,-1,-1,-1,-1,-1,-1,-1,-1,-1],"split_conditions":[3.5270412E0,1.5950873E0,6.077288E-1,1.573988E3,1.3193609E-1,7.535196E-2,9.114075E-1,5.1472837E-1,1.673644E3,8.4271693E-1,1.6436993E3,1.4952116E2,1.3849331E3,6.0588427E0,-9.707268E-3,-2.3579603E-2,1E0,1.3883483E0,1.6596118E3,-3.61845E-2,1.2998013E-2,9.4642654E-2,1.6334103E-2,-4.6833504E-2,-1.8895162E-2,-1.0532091E-2,2.4826098E-2,-2.858007E-2,7.669674E-2,-5.905689E-3,6.480347E-2,7.9059415E-2,1.5723836E-2],"split_indices":[18,11,0,7,0,0,14,2,7,14,7,9,8,19,0,3,10,10,7,0,0,0,0,0,0,0,0,0,0,0,0,0,0],"split_type":[0,0,0,0,0,0,0,0,0,0,0,0,0,0,0,0,0,0,0,0,0,0,0,0,0,0,0,0,0,0,0,0,0],"sum_hessian":[8.09E2,7.5E1,7.34E2,7.3E1,2E0,3E0,7.31E2,6.7E1,6E0,1.22E2,6.09E2,6E0,6.1E1,5E0,1E0,1E2,2.2E1,5.85E2,2.4E1,5E0,1E0,4E0,5.7E1,2E0,3E0,7.1E1,2.9E1,6E0,1.6E1,5.82E2,3E0,5E0,1.9E1],"tree_param":{"num_deleted":"0","num_feature":"25","num_nodes":"33","size_leaf_vector":"1"}},{"base_weights":[3.4801196E-3,1.01329006E-1,-7.6256655E-2,-7.073601E-1,1.2949012E-1,1.3647361E-1,-1.441238E-1,-6.512306E-2,3.8950704E-2,1.1590889E-1,9.726031E-2,-4.8753623E-2,4.267979E-1,-1.6892213E-1,5.858757E-1,1.7959481E-2,-1.00973964E-1,5.350135E-1,7.198923E-2,1.6403541E-2,-6.279007E-2,3.4183603E-2,7.643201E-1,-2.6965445E-1,-5.5730406E-2,-4.7276657E-2,6.728292E-2,7.0387423E-3,-1.2770412E-2,1.2594972E-2,9.996523E-2,6.0397447E-3,-3.518488E-2,-4.656047E-2,5.971649E-3,-6.290746E-3,3.699075E-2,5.9659414E-2,-3.1156596E-2,-1.1599252E-2,-3.7731774E-2,2.511749E-3,-4.9647268E-2,-1.7912585E-2,1.8210247E-2],"categories":[],"categories_nodes":[],"categories_segments":[],"categories_sizes":[],"default_left":[0,0,0,0,0,0,0,0,0,0,0,0,0,0,0,0,0,0,0,0,0,0,0,0,0,0,0,0,0,0,0,0,0,0,0,0,0,0,0,0,0,0,0,0,0],"id":16,"left_children":[1,3,5,7,9,11,13,-1,15,17,-1,19,21,23,25,-1,27,29,31,33,-1,35,37,39,41,43,-1,-1,-1,-1,-1,-1,-1,-1,-1,-1,-1,-1,-1,-1,-1,-1,-1,-1,-1],"loss_changes":[6.116814E0,8.107899E0,6.256624E0,3.4277587E0,6.719612E0,5.667284E0,6.0366755E0,0E0,2.1238771E-1,6.201434E0,0E0,4.2428427E0,5.407031E0,3.6108284E0,3.782644E0,0E0,1.2264427E-1,1.1416949E1,5.873618E0,4.1610723E0,0E0,1.6838552E0,7.011426E0,4.484931E0,1.1407171E1,6.1944574E-1,0E0,0E0,0E0,0E0,0E0,0E0,0E0,0E0,0E0,0E0,0E0,0E0,0E0,0E0,0E0,0E0,0E0,0E0,0E0],"parents":[2147483647,0,0,1,1,2,2,3,3,4,4,5,5,6,6,8,8,9,9,11,11,12,12,13,13,14,14,16,16,17,17,18,18,19,19,21,21,22,22,23,23,24,24,25,25],"right_children":[2,4,6,8,10,12,14,-1,16,18,-1,20,22,24,26,-1,28,30,32,34,-1,36,38,40,42,44,-1,-1,-1,-1,-1,-1,-1,-1,-1,-1,-1,-1,-1,-1,-1,-1,-1,-1,-1],"split_conditions":[-2.4641651E-1,1.1065056E0,4.016757E0,1.0167571E0,-2.521945E-1,3.8708045E0,1.668313E3,-6.512306E-2,1.1835091E0,1.3704617E0,9.726031E-2,3.8705506E0,1.5006432E3,1.5083715E3,1.1940395E0,1.7959481E-2,1.3824261E3,5.5049843E1,-2.9439077E-1,1.4120536E3,-6.279007E-2,1.5119313E3,1.015436E-1,1.6874396E0,1.1440374E0,1.5889539E0,6.728292E-2,7.0387423E-3,-1.2770412E-2,1.2594972E-2,9.996523E-2,6.0397447E-3,-3.518488E-2,-4.656047E-2,5.971649E-3,-6.290746E-3,3.699075E-2,5.9659414E-2,-3.1156596E-2,-1.1599252E-2,-3.7731774E-2,2.511749E-3,-4.9647268E-2,-1.7912585E-2,1.8210247E-2],"split_indices":[3,15,19,11,3,19,7,0,1,1,0,19,8,7,1,0,7,9,3,7,0,7,24,2,10,2,0,0,0,0,0,0,0,0,0,0,0,0,0,0,0,0,0,0,0],"split_type":[0,0,0,0,0,0,0,0,0,0,0,0,0,0,0,0,0,0,0,0,0,0,0,0,0,0,0,0,0,0,0,0,0,0,0,0,0,0,0,0,0,0,0,0,0],"sum_hessian":[7.82E2,3.51E2,4.31E2,1.1E1,3.4E2,1.04E2,3.27E2,7E0,4E0,3.38E2,2E0,6.4E1,4E1,3.17E2,1E1,1E0,3E0,3.1E1,3.07E2,6.1E1,3E0,1.9E1,2.1E1,1.67E2,1.5E2,5E0,5E0,1E0,2E0,2.5E1,6E0,2.95E2,1.2E1,5E0,5.6E1,1.6E1,3E0,1.8E1,3E0,1.39E2,2.8E1,1.34E2,1.6E1,3E0,2E0],"tree_param":{"num_deleted":"0","num_feature":"25","num_nodes":"45","size_leaf_vector":"1"}},{"base_weights":[9.762286E-3,2.9812866E-1,-1.9610805E-2,5.4591E-1,-5.518509E-2,7.028044E-2,-2.6255338E-2,6.759898E-1,-5.7789433E-1,6.748476E-1,-1.8833244E-1,-8.069069E-1,-1.7384803E-2,4.6816522E-1,1.426448E-1,-6.4239085E-1,-9.597244E-3,-3.5740864E-1,8.892927E-2,-3.604386E-1,1.4029187E-1,-5.7979308E-2,-1.3146483E-2,1.7019694E-1,-5.2980352E-2,-2.5048718E-2,3.195244E-2,-4.3778498E-2,-1.1419161E-2,6.0896263E-3,-3.8256403E-2,-2.8269738E-2,1.3005338E-3,2.3574127E-2,-3.4805965E-2,-6.686765E-4,5.5247884E-2,-4.3913717E-3,2.7167717E-2],"categories":[],"categories_nodes":[],"categories_segments":[],"categories_sizes":[],"default_left":[0,0,0,0,0,0,0,0,0,0,0,0,0,0,0,0,0,0,0,0,0,0,0,0,0,0,0,0,0,0,0,0,0,0,0,0,0,0,0],"id":17,"left_children":[1,3,5,7,9,-1,11,13,15,17,19,21,23,25,-1,27,-1,29,-1,31,33,-1,-1,35,37,-1,-1,-1,-1,-1,-1,-1,-1,-1,-1,-1,-1,-1,-1],"loss_changes":[6.6888437E0,6.4208784E0,5.704601E0,6.676573E0,3.1403549E0,0E0,4.9302764E0,1.2677284E1,3.2025456E-2,4.6964736E0,1.5776398E0,5.3790236E-1,4.7297087E0,2.2748194E0,0E0,1.8909335E-2,0E0,4.504639E-1,0E0,7.717762E-1,2.0477045E0,0E0,0E0,1.5391276E1,6.1148195E0,0E0,0E0,0E0,0E0,0E0,0E0,0E0,0E0,0E0,0E0,0E0,0E0,0E0,0E0],"parents":[2147483647,0,0,1,1,2,2,3,3,4,4,6,6,7,7,8,8,9,9,10,10,11,11,12,12,13,13,15,15,17,17,19,19,20,20,23,23,24,24],"right_children":[2,4,6,8,10,-1,12,14,16,18,20,22,24,26,-1,28,-1,30,-1,32,34,-1,-1,36,38,-1,-1,-1,-1,-1,-1,-1,-1,-1,-1,-1,-1,-1,-1],"split_conditions":[3.5270412E0,6.554189E0,6.077288E-1,1.5641942E3,1.3849331E3,7.028044E-2,6.7498404E-1,1.5481283E3,1.673644E3,1.3815648E3,2.0852435E0,1.5962597E0,9.114075E-1,1.3895648E3,1.426448E-1,1.420923E0,-9.597244E-3,9.1865283E-1,8.892927E-2,1.4960201E0,2.4095492E0,-5.7979308E-2,-1.3146483E-2,8.4271693E-1,1.6436993E3,-2.5048718E-2,3.195244E-2,-4.3778498E-2,-1.1419161E-2,6.0896263E-3,-3.8256403E-2,-2.8269738E-2,1.3005338E-3,2.3574127E-2,-3.4805965E-2,-6.686765E-4,5.5247884E-2,-4.3913717E-3,2.7167717E-2],"split_indices":[18,19,0,7,8,0,0,7,7,8,1,1,14,7,0,0,0,0,0,14,1,0,0,14,7,0,0,0,0,0,0,0,0,0,0,0,0,0,0],"split_type":[0,0,0,0,0,0,0,0,0,0,0,0,0,0,0,0,0,0,0,0,0,0,0,0,0,0,0,0,0,0,0,0,0,0,0,0,0,0,0],"sum_hessian":[7.88E2,7.2E1,7.16E2,4.2E1,3E1,3E0,7.13E2,3.8E1,4E0,4E0,2.6E1,7E0,7.06E2,3.5E1,3E0,3E0,1E0,2E0,2E0,1.7E1,9E0,5E0,2E0,1.12E2,5.94E2,2E0,3.3E1,2E0,1E0,1E0,1E0,1.3E1,4E0,7E0,2E0,9.1E1,2.1E1,5.72E2,2.2E1],"tree_param":{"num_deleted":"0","num_feature":"25","num_nodes":"39","size_leaf_vector":"1"}},{"base_weights":[7.37506E-3,1.5139738E-3,9.495349E-1,2.1772824E-1,-2.165392E-2,1.7173976E-2,6.262813E-2,1.4258614E-1,1.2292511E-1,4.1368272E-4,-5.178324E-1,-5.7971537E-2,5.795433E-1,1.8604235E-1,-3.8836077E-2,-8.311685E-1,-2.1089865E-1,2.1093417E-2,-1.1184486E-2,4.8334114E-2,1.6077948E-3,1.9246008E-2,-2.8631559E-2,-5.4829028E-3,1.2582569E-2,-2.6895713E-2,-6.2197957E-2,-4.060359E-2,1.6701745E-2],"categories":[],"categories_nodes":[],"categories_segments":[],"categories_sizes":[],"default_left":[0,0,0,0,0,0,0,0,0,0,0,0,0,0,0,0,0,0,0,0,0,0,0,0,0,0,0,0,0],"id":18,"left_children":[1,3,5,7,9,-1,-1,11,-1,13,15,17,19,21,23,25,27,-1,-1,-1,-1,-1,-1,-1,-1,-1,-1,-1,-1],"loss_changes":[4.4659257E0,4.0371437E0,1.3867378E-2,1.0439657E1,7.971427E0,0E0,0E0,6.693865E0,0E0,5.09277E0,2.8060837E0,2.8532498E0,2.9768467E0,1.1054251E1,7.5547748E0,7.1542263E-1,4.06287E0,0E0,0E0,0E0,0E0,0E0,0E0,0E0,0E0,0E0,0E0,0E0,0E0],"parents":[2147483647,0,0,1,1,2,2,3,3,4,4,7,7,9,9,10,10,11,11,12,12,13,13,14,14,15,15,16,16],"right_children":[2,4,6,8,10,-1,-1,12,-1,14,16,18,20,22,24,26,28,-1,-1,-1,-1,-1,-1,-1,-1,-1,-1,-1,-1],"split_conditions":[3.1926593E-1,3.5270412E0,9.739144E-1,1.5950873E0,2.1296322E0,1.7173976E-2,6.262813E-2,1.4883994E3,1.2292511E-1,9.114075E-1,2.2542748E0,1.3971558E3,1.6315912E0,1.5115688E2,2.04791E0,-9.4091177E-1,3.9832428E0,2.1093417E-2,-1.1184486E-2,4.8334114E-2,1.6077948E-3,1.9246008E-2,-2.8631559E-2,-5.4829028E-3,1.2582569E-2,-2.6895713E-2,-6.2197957E-2,-4.060359E-2,1.6701745E-2],"split_indices":[24,18,0,11,1,0,0,8,0,14,1,8,1,9,15,3,18,0,0,0,0,0,0,0,0,0,0,0,0],"split_type":[0,0,0,0,0,0,0,0,0,0,0,0,0,0,0,0,0,0,0,0,0,0,0,0,0,0,0,0,0],"sum_hessian":[8.08E2,8.04E2,4E0,7.7E1,7.27E2,1E0,3E0,7.5E1,2E0,6.97E2,3E1,5.2E1,2.3E1,1.21E2,5.76E2,1.4E1,1.6E1,1.2E1,4E1,1.6E1,7E0,1.01E2,2E1,4.76E2,1E2,6E0,8E0,8E0,8E0],"tree_param":{"num_deleted":"0","num_feature":"25","num_nodes":"29","size_leaf_vector":"1"}},{"base_weights":[1.246125E-2,7.448739E-2,-1.5185085E-1,5.6389683E-1,5.108861E-2,1.2731744E-2,-3.7806576E-1,8.2452655E-1,-2.6131615E-1,4.444053E-2,1.1042818E-1,-1.4997226E-1,4.2365763E-1,-5.230055E-1,1.0029101E-1,2.2363745E-1,1.5340979E0,2.319977E-2,-4.3375647E-1,-4.196565E-2,1.6423409E-1,-8.687107E-1,-7.973559E-2,-2.7284753E-1,7.832789E-1,-6.240884E-1,2.3145497E-1,4.414715E-1,-3.5327268E-1,-2.7792618E-2,2.4439681E-2,1.5014248E-1,5.3997923E-2,-1.3679702E-2,-3.381117E-2,-1.2214448E-2,5.177149E-3,3.0967923E-2,3.4761378E-3,-5.6531448E-2,-1.0630495E-2,3.349759E-2,-1.1011486E-2,-2.9348582E-2,3.667111E-2,7.139262E-2,-1.5955908E-3,-4.0783774E-2,8.770013E-3,-4.1087843E-3,3.7409596E-2,-1.2356951E-2,3.9377555E-2,2.0475307E-2,-2.810158E-2],"categories":[],"categories_nodes":[],"categories_segments":[],"categories_sizes":[],"default_left":[0,0,0,0,0,0,0,0,0,0,0,0,0,0,0,0,0,0,0,0,0,0,0,0,0,0,0,0,0,0,0,0,0,0,0,0,0,0,0,0,0,0,0,0,0,0,0,0,0,0,0,0,0,0,0],"id":19,"left_children":[1,3,5,7,9,11,13,15,17,19,-1,21,23,25,27,29,31,-1,33,35,37,39,41,43,45,47,49,51,53,-1,-1,-1,-1,-1,-1,-1,-1,-1,-1,-1,-1,-1,-1,-1,-1,-1,-1,-1,-1,-1,-1,-1,-1,-1,-1],"loss_changes":[8.032136E0,6.5214972E0,8.046717E0,5.807413E0,6.42529E0,8.487807E0,6.3617477E0,8.184392E0,9.498814E-1,5.658486E0,0E0,4.524576E0,9.2309265E0,5.4828625E0,3.5603955E0,1.7026882E0,3.2740917E0,0E0,3.172183E-2,6.6086006E0,8.536119E0,2.3958015E-1,5.664981E0,2.7847168E0,7.934661E0,2.756544E0,1.1009698E0,1.9431982E0,9.591415E-1,0E0,0E0,0E0,0E0,0E0,0E0,0E0,0E0,0E0,0E0,0E0,0E0,0E0,0E0,0E0,0E0,0E0,0E0,0E0,0E0,0E0,0E0,0E0,0E0,0E0,0E0],"parents":[2147483647,0,0,1,1,2,2,3,3,4,4,5,5,6,6,7,7,8,8,9,9,11,11,12,12,13,13,14,14,15,15,16,16,18,18,19,19,20,20,21,21,22,22,23,23,24,24,25,25,26,26,27,27,28,28],"right_children":[2,4,6,8,10,12,14,16,18,20,-1,22,24,26,28,30,32,-1,34,36,38,40,42,44,46,48,50,52,54,-1,-1,-1,-1,-1,-1,-1,-1,-1,-1,-1,-1,-1,-1,-1,-1,-1,-1,-1,-1,-1,-1,-1,-1,-1,-1],"split_conditions":[1.4375113E0,3.2365828E0,1.5007174E0,2.2714157E0,3.1913087E-1,-6.965732E1,1.6910983E0,8.873077E-1,1.3815648E3,1.4999047E3,1.1042818E-1,6.881224E-1,8.870349E-1,1.6979487E-1,1.9264525E0,7.522636E-1,6.8458563E-1,2.319977E-2,3.0790527E0,2.708117E1,1.0371912E0,2.1567237E0,7.726724E-1,2.0180073E0,6.401868E0,1.7582623E0,6.17831E0,1.4867192E3,1.5152152E0,-2.7792618E-2,2.4439681E-2,1.5014248E-1,5.3997923E-2,-1.3679702E-2,-3.381117E-2,-1.2214448E-2,5.177149E-3,3.0967923E-2,3.4761378E-3,-5.6531448E-2,-1.0630495E-2,3.349759E-2,-1.1011486E-2,-2.9348582E-2,3.667111E-2,7.139262E-2,-1.5955908E-3,-4.0783774E-2,8.770013E-3,-4.1087843E-3,3.7409596E-2,-1.2356951E-2,3.9377555E-2,2.0475307E-2,-2.810158E-2],"split_indices":[2,18,15,15,23,9,14,10,8,8,0,15,1,24,14,2,2,0,18,9,2,0,15,2,19,1,19,7,2,0,0,0,0,0,0,0,0,0,0,0,0,0,0,0,0,0,0,0,0,0,0,0,0,0,0],"split_type":[0,0,0,0,0,0,0,0,0,0,0,0,0,0,0,0,0,0,0,0,0,0,0,0,0,0,0,0,0,0,0,0,0,0,0,0,0,0,0,0,0,0,0,0,0,0,0,0,0,0,0,0,0,0,0],"sum_hessian":[7.86E2,5.71E2,2.15E2,2.5E1,5.46E2,1.25E2,9E1,1.9E1,6E0,5.45E2,1E0,9E1,3.5E1,6.9E1,2.1E1,1.1E1,8E0,1E0,5E0,3.17E2,2.28E2,7E0,8.3E1,1.2E1,2.3E1,6.1E1,8E0,1.2E1,9E0,2E0,9E0,2E0,6E0,3E0,2E0,1.4E2,1.77E2,5.2E1,1.76E2,6E0,1E0,1.1E1,7.2E1,1E1,2E0,1.5E1,8E0,5.7E1,4E0,5E0,3E0,3E0,9E0,1E0,8E0],"tree_param":{"num_deleted":"0","num_feature":"25","num_nodes":"55","size_leaf_vector":"1"}},{"base_weights":[4.04602E-3,1.2708548E-1,-6.6781044E-2,6.342004E-2,6.0185474E-1,-2.5528717E-1,-7.763187E-3,4.5155026E-2,1.6313366E0,1.100866E0,1.7255297E-1,-2.8351596E-1,5.8102153E-2,-6.820025E-2,2.4193487E-1,-2.5954938E-1,1.0644786E-1,1.9332822E-2,1.2748747E-1,-1.9186158E-2,1.3266546E0,-1.0996176E-1,1.0860743E-1,-1.771605E-1,-6.3044083E-1,4.7223676E-2,-2.2704522E-1,1.6322315E0,1.635143E-1,-3.123034E-2,8.778267E-3,1.07168E-2,-1.5801013E-2,1.2730594E-1,4.7786016E-2,-4.8931547E-2,1.7522459E-3,-1.3449383E-2,3.296831E-2,-6.5551236E-2,-2.7285542E-2,-6.138467E-4,7.0314854E-2,-8.7097706E-4,-2.1698559E-2,1.19340174E-1,1.6857516E-2,7.568426E-2,2.8854962E-3],"categories":[],"categories_nodes":[],"categories_segments":[],"categories_sizes":[],"default_left":[0,0,0,0,0,0,0,0,0,0,0,0,0,0,0,0,0,0,0,0,0,0,0,0,0,0,0,0,0,0,0,0,0,0,0,0,0,0,0,0,0,0,0,0,0,0,0,0,0],"id":20,"left_children":[1,3,5,7,9,11,13,15,17,19,21,23,-1,25,27,29,31,-1,-1,-1,33,35,-1,37,39,41,43,45,47,-1,-1,-1,-1,-1,-1,-1,-1,-1,-1,-1,-1,-1,-1,-1,-1,-1,-1,-1,-1],"loss_changes":[7.08468E0,8.939069E0,5.738636E0,7.4581366E0,7.307967E0,4.5232544E0,5.962361E0,4.9021163E0,1.2533422E0,5.5564346E0,9.451802E0,4.35289E0,0E0,5.841097E0,8.12825E0,4.7361965E0,5.864729E0,0E0,0E0,0E0,4.2123375E0,1.7912444E0,0E0,3.3331485E0,1.7761774E0,1.1966409E1,3.8279338E0,1.3695545E0,9.316722E0,0E0,0E0,0E0,0E0,0E0,0E0,0E0,0E0,0E0,0E0,0E0,0E0,0E0,0E0,0E0,0E0,0E0,0E0,0E0,0E0],"parents":[2147483647,0,0,1,1,2,2,3,3,4,4,5,5,6,6,7,7,8,8,9,9,10,10,11,11,13,13,14,14,15,15,16,16,20,20,21,21,23,23,24,24,25,25,26,26,27,27,28,28],"right_children":[2,4,6,8,10,12,14,16,18,20,22,24,-1,26,28,30,32,-1,-1,-1,34,36,-1,38,40,42,44,46,48,-1,-1,-1,-1,-1,-1,-1,-1,-1,-1,-1,-1,-1,-1,-1,-1,-1,-1,-1,-1],"split_conditions":[1.0071087E0,1.5046293E3,1.4999047E3,1.5950873E0,1.648419E0,3.1913087E-1,6.107493E0,1.4780698E0,1.3212024E0,1.5078978E3,2.181371E0,1.3073474E-1,5.8102153E-2,4.792677E0,1.0807095E0,1.4964644E3,2.1296322E0,1.9332822E-2,1.2748747E-1,-1.9186158E-2,1.5088287E3,7.724462E-1,1.0860743E-1,1.6502253E0,1.4718418E-1,4.737183E0,1.5259132E3,1.670936E0,-3.5568675E-1,-3.123034E-2,8.778267E-3,1.07168E-2,-1.5801013E-2,1.2730594E-1,4.7786016E-2,-4.8931547E-2,1.7522459E-3,-1.3449383E-2,3.296831E-2,-6.5551236E-2,-2.7285542E-2,-6.138467E-4,7.0314854E-2,-8.7097706E-4,-2.1698559E-2,1.19340174E-1,1.6857516E-2,7.568426E-2,2.8854962E-3],"split_indices":[2,8,8,11,15,23,19,15,0,8,1,23,0,19,2,8,1,0,0,0,8,10,0,14,23,19,8,1,3,0,0,0,0,0,0,0,0,0,0,0,0,0,0,0,0,0,0,0,0],"split_type":[0,0,0,0,0,0,0,0,0,0,0,0,0,0,0,0,0,0,0,0,0,0,0,0,0,0,0,0,0,0,0,0,0,0,0,0,0,0,0,0,0,0,0,0,0,0,0,0,0],"sum_hessian":[8.11E2,2.96E2,5.15E2,2.62E2,3.4E1,1.22E2,3.93E2,2.6E2,2E0,1.5E1,1.9E1,1.2E2,2E0,3.17E2,7.6E1,4.3E1,2.17E2,1E0,1E0,2E0,1.3E1,1.7E1,2E0,9.3E1,2.7E1,1.84E2,1.33E2,3E0,7.3E1,2.6E1,1.7E1,1.82E2,3.5E1,4E0,9E0,2E0,1.5E1,8.8E1,5E0,6E0,2.1E1,1.76E2,8E0,5.2E1,8.1E1,2E0,1E0,6E0,6.7E1],"tree_param":{"num_deleted":"0","num_feature":"25","num_nodes":"49","size_leaf_vector":"1"}},{"base_weights":[7.873535E-3,-4.1589513E-2,1.5922068E-1,1.0267483E-1,-1.0040375E-1,1.0425643E0,9.662558E-2,3.1799513E-1,-9.291205E-2,-1.20107755E-1,4.9507335E-1,1.6727792E0,2.8517008E-2,2.8453666E-1,-2.1863332E-2,1.0023664E0,1.4222589E-1,9.858586E-4,-6.228349E-1,-1.6709198E-1,1.7439938E-1,-1.2452551E-1,8.531311E-1,1.3902125E-2,1.1073282E-1,-1.6489381E-2,2.540788E-2,5.9280306E-2,8.28765E-1,-1.257192E-1,5.4478884E-1,2.1572595E-2,1.272571E-1,4.8230803E-3,8.7319456E-2,-2.248841E-2,6.9679343E-3,-5.5984877E-2,7.3334896E-3,-3.681986E-2,-8.429284E-3,2.2990841E-2,-3.0548433E-2,1.9368235E-2,-1.671313E-2,7.529363E-2,1.6844526E-2,1.53088225E-2,-4.1637816E-2,2.8741878E-2,1.3172251E-1,9.744786E-3,-1.425469E-2,8.237335E-3,8.021443E-2],"categories":[],"categories_nodes":[],"categories_segments":[],"categories_sizes":[],"default_left":[0,0,0,0,0,0,0,0,0,0,0,0,0,0,0,0,0,0,0,0,0,0,0,0,0,0,0,0,0,0,0,0,0,0,0,0,0,0,0,0,0,0,0,0,0,0,0,0,0,0,0,0,0,0,0],"id":21,"left_children":[1,3,5,7,9,11,13,15,17,19,21,23,25,27,29,31,33,35,37,39,41,43,45,-1,-1,-1,-1,47,49,51,53,-1,-1,-1,-1,-1,-1,-1,-1,-1,-1,-1,-1,-1,-1,-1,-1,-1,-1,-1,-1,-1,-1,-1,-1],"loss_changes":[6.017953E0,5.1520963E0,1.0847271E1,7.441578E0,5.1165075E0,8.260178E0,4.147582E0,9.961917E0,4.6281686E0,5.813086E0,3.2121668E0,1.5641594E0,8.3519846E-1,8.777414E0,6.836259E0,1.1461319E1,5.40486E0,3.5052214E0,3.350175E0,4.202674E0,8.472295E0,5.0332165E-1,1.71738E0,0E0,0E0,0E0,0E0,7.848905E0,8.98529E0,3.1971433E0,5.626646E0,0E0,0E0,0E0,0E0,0E0,0E0,0E0,0E0,0E0,0E0,0E0,0E0,0E0,0E0,0E0,0E0,0E0,0E0,0E0,0E0,0E0,0E0,0E0,0E0],"parents":[2147483647,0,0,1,1,2,2,3,3,4,4,5,5,6,6,7,7,8,8,9,9,10,10,11,11,12,12,13,13,14,14,15,15,16,16,17,17,18,18,19,19,20,20,21,21,22,22,27,27,28,28,29,29,30,30],"right_children":[2,4,6,8,10,12,14,16,18,20,22,24,26,28,30,32,34,36,38,40,42,44,46,-1,-1,-1,-1,48,50,52,54,-1,-1,-1,-1,-1,-1,-1,-1,-1,-1,-1,-1,-1,-1,-1,-1,-1,-1,-1,-1,-1,-1,-1,-1],"split_conditions":[1.421886E-1,4.020149E0,1.469432E-1,1.0118736E0,2.4450696E0,4.3004753E1,9.978308E-1,-6.3275056E0,1.3671355E0,1.586369E3,3.3893418E0,8.6188406E-1,1.4215932E0,1.2319994E0,1.7929364E0,1.4751882E3,7.932716E0,1.4593047E3,1.5188568E3,4.1050344E0,1.1919225E-1,2.4884067E0,1.7428862E0,1.3902125E-2,1.1073282E-1,-1.6489381E-2,2.540788E-2,1.0867476E0,1.5467518E3,1.1532346E0,1.0813472E0,2.1572595E-2,1.272571E-1,4.8230803E-3,8.7319456E-2,-2.248841E-2,6.9679343E-3,-5.5984877E-2,7.3334896E-3,-3.681986E-2,-8.429284E-3,2.2990841E-2,-3.0548433E-2,1.9368235E-2,-1.671313E-2,7.529363E-2,1.6844526E-2,1.53088225E-2,-4.1637816E-2,2.8741878E-2,1.3172251E-1,9.744786E-3,-1.425469E-2,8.237335E-3,8.021443E-2],"split_indices":[24,18,24,14,0,9,2,9,2,7,19,2,11,14,0,7,19,7,7,18,24,0,3,0,0,0,0,14,7,0,10,0,0,0,0,0,0,0,0,0,0,0,0,0,0,0,0,0,0,0,0,0,0,0,0],"split_type":[0,0,0,0,0,0,0,0,0,0,0,0,0,0,0,0,0,0,0,0,0,0,0,0,0,0,0,0,0,0,0,0,0,0,0,0,0,0,0,0,0,0,0,0,0,0,0,0,0,0,0,0,0,0,0],"sum_hessian":[8.02E2,6.05E2,1.97E2,1.75E2,4.3E2,1.2E1,1.85E2,8.3E1,9.2E1,4.17E2,1.3E1,7E0,5E0,7.1E1,1.14E2,1.6E1,6.7E1,7.9E1,1.3E1,3.6E2,5.7E1,5E0,8E0,1E0,6E0,3E0,2E0,5.1E1,2E1,9.7E1,1.7E1,1.1E1,5E0,6.5E1,2E0,1.8E1,6.1E1,9E0,4E0,1.9E1,3.41E2,4.4E1,1.3E1,1E0,4E0,4E0,4E0,4.1E1,1E1,1.7E1,3E0,2.7E1,7E1,1.2E1,5E0],"tree_param":{"num_deleted":"0","num_feature":"25","num_nodes":"55","size_leaf_vector":"1"}},{"base_weights":[5.299126E-3,-1.9562906E-1,4.3734863E-2,-4.7278572E-2,-1.0397254E-1,1.08179994E-1,-1.1930408E-1,4.4806036E-1,-1.7469709E-1,3.4642555E-2,3.1451026E-1,-1.8451414E-1,2.8120527E-1,6.819578E-1,-1.4921895E-2,-5.3878244E-2,-1.1897781E-1,5.2783936E-1,-2.712622E-3,9.697649E-1,1.8172857E-1,-2.5948852E-1,3.383824E-1,7.823644E-1,-2.4003999E-1,6.483036E-2,1.4170473E-2,1.8292113E-3,-1.8775908E-2,5.187251E-2,-2.768838E-2,1.7739994E-3,-2.3939619E-2,2.6729584E-2,1.3237174E-1,-2.3598896E-2,1.8710019E-2,-1.3016267E-2,-5.241873E-2,4.4711757E-2,-1.1017931E-2,1.2269913E-1,4.369045E-3,-3.6380313E-2,2.096487E-2],"categories":[],"categories_nodes":[],"categories_segments":[],"categories_sizes":[],"default_left":[0,0,0,0,0,0,0,0,0,0,0,0,0,0,0,0,0,0,0,0,0,0,0,0,0,0,0,0,0,0,0,0,0,0,0,0,0,0,0,0,0,0,0,0,0],"id":22,"left_children":[1,3,5,-1,7,9,11,13,15,17,19,21,23,25,-1,-1,27,29,31,33,35,37,39,41,43,-1,-1,-1,-1,-1,-1,-1,-1,-1,-1,-1,-1,-1,-1,-1,-1,-1,-1,-1,-1],"loss_changes":[6.155923E0,6.86751E0,7.0421343E0,0E0,4.4510098E0,7.272144E0,5.01416E0,2.2882123E0,3.9231904E0,6.541758E0,1.0786498E1,6.5172377E0,7.2409244E0,1.5214734E0,0E0,0E0,2.7345319E0,8.7265625E0,4.2458386E0,1.2629896E1,8.053154E0,3.5736027E0,4.5964575E0,1.2393537E1,3.234692E0,0E0,0E0,0E0,0E0,0E0,0E0,0E0,0E0,0E0,0E0,0E0,0E0,0E0,0E0,0E0,0E0,0E0,0E0,0E0,0E0],"parents":[2147483647,0,0,1,1,2,2,4,4,5,5,6,6,7,7,8,8,9,9,10,10,11,11,12,12,13,13,16,16,17,17,18,18,19,19,20,20,21,21,22,22,23,23,24,24],"right_children":[2,4,6,-1,8,10,12,14,16,18,20,22,24,26,-1,-1,28,30,32,34,36,38,40,42,44,-1,-1,-1,-1,-1,-1,-1,-1,-1,-1,-1,-1,-1,-1,-1,-1,-1,-1,-1,-1],"split_conditions":[1.4533717E3,1.0440446E0,1.3340192E0,-4.7278572E-2,1.3872589E3,1.009399E-1,2.0680485E0,1.8184509E0,1.3911622E3,3.442819E0,1.10459425E-1,1.819511E0,1.4088937E0,1.21833734E-1,-1.4921895E-2,-5.3878244E-2,4.5271597E0,2.2714157E0,2.1426442E-1,1.6218089E0,1.4437916E0,1.2962013E0,2.0620708E0,2.2883384E0,7.071575E0,6.483036E-2,1.4170473E-2,1.8292113E-3,-1.8775908E-2,5.187251E-2,-2.768838E-2,1.7739994E-3,-2.3939619E-2,2.6729584E-2,1.3237174E-1,-2.3598896E-2,1.8710019E-2,-1.3016267E-2,-5.241873E-2,4.4711757E-2,-1.1017931E-2,1.2269913E-1,4.369045E-3,-3.6380313E-2,2.096487E-2],"split_indices":[7,1,11,0,7,24,1,15,7,18,24,0,0,24,0,0,18,15,23,1,15,10,0,15,19,0,0,0,0,0,0,0,0,0,0,0,0,0,0,0,0,0,0,0,0],"split_type":[0,0,0,0,0,0,0,0,0,0,0,0,0,0,0,0,0,0,0,0,0,0,0,0,0,0,0,0,0,0,0,0,0,0,0,0,0,0,0,0,0,0,0,0,0],"sum_hessian":[7.95E2,1.27E2,6.68E2,1.6E1,1.11E2,4.79E2,1.89E2,1.2E1,9.9E1,3.54E2,1.25E2,1.63E2,2.6E1,9E0,3E0,6E0,9.3E1,2.4E1,3.3E2,2E1,1.05E2,1.43E2,2E1,1.3E1,1.3E1,4E0,5E0,5.3E1,4E1,1.8E1,6E0,3.06E2,2.4E1,1.5E1,5E0,1.9E1,8.6E1,1.35E2,8E0,1.1E1,9E0,4E0,9E0,8E0,5E0],"tree_param":{"num_deleted":"0","num_feature":"25","num_nodes":"45","size_leaf_vector":"1"}},{"base_weights":[1.276639E-2,-1.4849515E-1,4.3749955E-2,-1.9180028E-1,9.638321E-1,8.6662315E-2,-6.534218E-2,-2.9693136E-1,1.2301602E-1,-2.577491E-2,8.517485E-2,2.2171555E-2,2.6296514E-1,1.8592592E-1,-1.664775E-1,-5.3774273E-1,-1.0859438E-1,-1.10474676E-1,6.4774305E-1,4.971364E-1,-1.3877817E-2,1.1056037E0,1.1636066E-1,4.773095E-1,-2.402299E-1,7.420108E-2,-3.5746324E-1,-4.0553395E-2,-2.5138499E-3,3.4469604E-2,-2.0351714E-2,1.158589E-2,-3.146575E-2,2.5942707E-2,6.0368046E-2,4.892397E-2,-2.6264407E-2,7.367831E-3,-7.876736E-3,2.042452E-2,1.15079835E-1,-1.3724266E-2,1.7520055E-2,1.2066486E-2,8.846823E-2,-3.098299E-2,1.022446E-2,3.365262E-2,-4.9619866E-3,7.2527565E-2,-2.3667831E-2],"categories":[],"categories_nodes":[],"categories_segments":[],"categories_sizes":[],"default_left":[0,0,0,0,0,0,0,0,0,0,0,0,0,0,0,0,0,0,0,0,0,0,0,0,0,0,0,0,0,0,0,0,0,0,0,0,0,0,0,0,0,0,0,0,0,0,0,0,0,0,0],"id":23,"left_children":[1,3,5,7,9,11,13,15,17,-1,-1,19,21,23,25,27,29,31,33,35,37,39,41,43,45,47,49,-1,-1,-1,-1,-1,-1,-1,-1,-1,-1,-1,-1,-1,-1,-1,-1,-1,-1,-1,-1,-1,-1,-1,-1],"loss_changes":[3.9986665E0,6.3987246E0,3.1468825E0,4.17365E0,3.785061E0,5.474464E0,4.859247E0,4.204851E0,3.992163E0,0E0,0E0,6.068153E0,1.5807314E1,6.9442782E0,6.2779236E0,2.7801666E0,8.700979E0,2.9915693E0,3.368168E-1,7.7953515E0,5.3112345E0,1.1158247E1,6.794855E0,8.792242E0,2.6961708E0,4.704336E0,4.881214E0,0E0,0E0,0E0,0E0,0E0,0E0,0E0,0E0,0E0,0E0,0E0,0E0,0E0,0E0,0E0,0E0,0E0,0E0,0E0,0E0,0E0,0E0,0E0,0E0],"parents":[2147483647,0,0,1,1,2,2,3,3,4,4,5,5,6,6,7,7,8,8,11,11,12,12,13,13,14,14,15,15,16,16,17,17,18,18,19,19,20,20,21,21,22,22,23,23,24,24,25,25,26,26],"right_children":[2,4,6,8,10,12,14,16,18,-1,-1,20,22,24,26,28,30,32,34,36,38,40,42,44,46,48,50,-1,-1,-1,-1,-1,-1,-1,-1,-1,-1,-1,-1,-1,-1,-1,-1,-1,-1,-1,-1,-1,-1,-1,-1],"split_conditions":[1.4533717E3,6.6423597E0,1.3340192E0,1.3861791E0,7.378368E-1,1.009399E-1,-2.7280785E1,1.4967975E3,1.7339785E0,-2.577491E-2,8.517485E-2,3.442819E0,1.10459425E-1,1.545244E-1,9.978308E-1,1.1161004E0,-3.0820787E-1,1.466375E0,1.1161004E0,2.2714157E0,1.3144544E0,1.5403428E0,1.4294007E-1,1.3451321E-1,9.018957E-1,1.484187E3,1.3932567E0,-4.0553395E-2,-2.5138499E-3,3.4469604E-2,-2.0351714E-2,1.158589E-2,-3.146575E-2,2.5942707E-2,6.0368046E-2,4.892397E-2,-2.6264407E-2,7.367831E-3,-7.876736E-3,2.042452E-2,1.15079835E-1,-1.3724266E-2,1.7520055E-2,1.2066486E-2,8.846823E-2,-3.098299E-2,1.022446E-2,3.365262E-2,-4.9619866E-3,7.2527565E-2,-2.3667831E-2],"split_indices":[7,18,11,11,1,24,9,8,15,0,0,18,24,24,2,2,3,15,2,15,1,1,24,24,10,7,15,0,0,0,0,0,0,0,0,0,0,0,0,0,0,0,0,0,0,0,0,0,0,0,0],"split_type":[0,0,0,0,0,0,0,0,0,0,0,0,0,0,0,0,0,0,0,0,0,0,0,0,0,0,0,0,0,0,0,0,0,0,0,0,0,0,0,0,0,0,0,0,0,0,0,0,0,0,0],"sum_hessian":[7.98E2,1.28E2,6.7E2,1.24E2,4E0,4.81E2,1.89E2,9.3E1,3.1E1,1E0,3E0,3.53E2,1.28E2,5.4E1,1.35E2,4E1,5.3E1,2.2E1,9E0,2.4E1,3.29E2,1.8E1,1.1E2,3.2E1,2.2E1,6E1,7.5E1,3.1E1,9E0,1.3E1,4E1,1.3E1,9E0,7E0,2E0,1.8E1,6E0,1.52E2,1.77E2,1E1,8E0,3.7E1,7.3E1,2.6E1,6E0,1.3E1,9E0,1.4E1,4.6E1,1E0,7.4E1],"tree_param":{"num_deleted":"0","num_feature":"25","num_nodes":"51","size_leaf_vector":"1"}},{"base_weights":[-6.785517E-3,4.257939E-1,-2.182786E-2,2.6140052E-1,9.9228434E-2,6.3217245E-2,-2.7364688E-2,1.161039E0,1.3269113E-1,-4.6896455E-1,-1.2588504E-2,2.174079E-2,8.275272E-2,5.108608E-1,-1.0305675E-1,-3.0132967E-1,-5.6975204E-2,-5.9074897E-2,1.24490276E-1,5.191958E-2,-8.913161E-3,1.8775877E-2,-1.6966404E-2,-2.3819868E-2,1.083554E-2,-2.261881E-3,-3.090193E-2,5.680955E-3,6.1368726E-2],"categories":[],"categories_nodes":[],"categories_segments":[],"categories_sizes":[],"default_left":[0,0,0,0,0,0,0,0,0,0,0,0,0,0,0,0,0,0,0,0,0,0,0,0,0,0,0,0,0],"id":24,"left_children":[1,3,5,7,-1,-1,9,11,13,15,17,-1,-1,19,21,23,-1,25,27,-1,-1,-1,-1,-1,-1,-1,-1,-1,-1],"loss_changes":[5.2279143E0,5.0183797E0,4.649581E0,2.7407389E0,0E0,0E0,5.0380454E0,2.3006916E-2,2.10316E0,1.7280874E0,4.7802057E0,0E0,0E0,2.2322004E0,1.2098885E0,9.9378633E-1,0E0,5.438872E0,4.9907684E0,0E0,0E0,0E0,0E0,0E0,0E0,0E0,0E0,0E0,0E0],"parents":[2147483647,0,0,1,1,2,2,3,3,6,6,7,7,8,8,9,9,10,10,13,13,14,14,15,15,17,17,18,18],"right_children":[2,4,6,8,-1,-1,10,12,14,16,18,-1,-1,20,22,24,-1,26,28,-1,-1,-1,-1,-1,-1,-1,-1,-1,-1],"split_conditions":[3.2365828E0,2.2149749E0,6.077288E-1,1.3849331E3,9.9228434E-2,6.3217245E-2,7.6626647E-1,6.7498404E-1,6.4745183E0,8.240036E-1,6.115847E0,2.174079E-2,8.275272E-2,2.0365617E0,2.7996807E0,4.7554827E0,-5.6975204E-2,2.1296322E0,2.4919048E-1,5.191958E-2,-8.913161E-3,1.8775877E-2,-1.6966404E-2,-2.3819868E-2,1.083554E-2,-2.261881E-3,-3.090193E-2,5.680955E-3,6.1368726E-2],"split_indices":[18,1,0,8,0,0,0,0,19,14,19,0,0,15,18,18,0,1,23,0,0,0,0,0,0,0,0,0,0],"split_type":[0,0,0,0,0,0,0,0,0,0,0,0,0,0,0,0,0,0,0,0,0,0,0,0,0,0,0,0,0],"sum_hessian":[8.01E2,2.6E1,7.75E2,2.4E1,2E0,3E0,7.72E2,2E0,2.2E1,2.4E1,7.48E2,1E0,1E0,8E0,1.4E1,1.9E1,5E0,5.59E2,1.89E2,5E0,3E0,4E0,1E1,1.6E1,3E0,5.35E2,2.4E1,1.84E2,5E0],"tree_param":{"num_deleted":"0","num_feature":"25","num_nodes":"29","size_leaf_vector":"1"}},{"base_weights":[-1.5709208E-2,2.0868279E-1,-3.8804937E-2,1.4306243E-1,1.0415306E-1,6.0372476E-2,-4.4517003E-2,7.2065246E-1,7.08839E-2,-5.737079E-1,-3.404904E-2,-3.755483E-2,1.0024353E0,-4.7990194E-1,1.7780818E-1,-8.898594E-1,-1.3043366E-1,1.7223379E-1,-7.1219206E-2,1.6987113E-2,8.826859E-2,1.1193466E-2,-3.391222E-2,5.285483E-2,2.5362922E-3,-8.478205E-3,-5.859658E-2,4.5382757E-2,-2.4257943E-2,1.2832496E-3,6.286147E-2,-6.803757E-3,5.8845812E-3],"categories":[],"categories_nodes":[],"categories_segments":[],"categories_sizes":[],"default_left":[0,0,0,0,0,0,0,0,0,0,0,0,0,0,0,0,0,0,0,0,0,0,0,0,0,0,0,0,0,0,0,0,0],"id":25,"left_children":[1,3,5,7,-1,-1,9,11,13,15,17,-1,19,21,23,25,27,29,31,-1,-1,-1,-1,-1,-1,-1,-1,-1,-1,-1,-1,-1,-1],"loss_changes":[4.1644607E0,7.267825E0,4.390357E0,2.992258E0,0E0,0E0,3.9966402E0,3.662953E0,3.9722276E0,1.8459172E0,5.4715743E0,0E0,1.9435382E0,7.3079515E-1,5.2993717E0,3.8150167E-1,2.005875E0,1.4372078E1,4.323884E0,0E0,0E0,0E0,0E0,0E0,0E0,0E0,0E0,0E0,0E0,0E0,0E0,0E0,0E0],"parents":[2147483647,0,0,1,1,2,2,3,3,6,6,7,7,8,8,9,9,10,10,12,12,13,13,14,14,15,15,16,16,17,17,18,18],"right_children":[2,4,6,8,-1,-1,10,12,14,16,18,-1,20,22,24,26,28,30,32,-1,-1,-1,-1,-1,-1,-1,-1,-1,-1,-1,-1,-1,-1],"split_conditions":[3.5270412E0,1.5950873E0,6.077288E-1,1.3849331E3,1.0415306E-1,6.0372476E-2,7.328572E-1,1.3733059E3,8.716685E-1,1.5962597E0,8.9684534E-1,-3.755483E-2,7.9568416E-1,9.018957E-1,9.692331E-1,1.4997675E3,1.6487963E0,8.4271693E-1,6.259962E0,1.6987113E-2,8.826859E-2,1.1193466E-2,-3.391222E-2,5.285483E-2,2.5362922E-3,-8.478205E-3,-5.859658E-2,4.5382757E-2,-2.4257943E-2,1.2832496E-3,6.286147E-2,-6.803757E-3,5.8845812E-3],"split_indices":[18,11,0,8,0,0,0,8,0,1,14,0,14,10,14,7,1,14,19,0,0,0,0,0,0,0,0,0,0,0,0,0,0],"split_type":[0,0,0,0,0,0,0,0,0,0,0,0,0,0,0,0,0,0,0,0,0,0,0,0,0,0,0,0,0,0,0,0,0],"sum_hessian":[8.01E2,7.4E1,7.27E2,7.2E1,2E0,3E0,7.24E2,7E0,6.5E1,1.3E1,7.11E2,1E0,6E0,1E1,5.5E1,7E0,6E0,1.08E2,6.03E2,3E0,3E0,1E0,9E0,8E0,4.7E1,1E0,6E0,1E0,5E0,9.3E1,1.5E1,4.83E2,1.2E2],"tree_param":{"num_deleted":"0","num_feature":"25","num_nodes":"33","size_leaf_vector":"1"}},{"base_weights":[-1.6165593E-4,3.7571198E-1,-1.3811851E-2,2.53729E-1,1.100776E-1,-7.4956934E-3,-5.8796883E-2,3.6901164E-1,-3.2731706E-1,-3.8920876E-2,1.188702E-1,8.151627E-1,2.3974312E-2,-2.5633734E-2,-7.097974E-3,1.2265076E-1,-7.87444E-2,-8.764244E-2,3.5861215E-1,6.317064E-2,-5.422511E-3,-1.3099189E-2,2.3005186E-2,-3.7578915E-3,2.6464868E-2,-1.2451847E-2,1.6278602E-3,-8.523953E-3,3.806816E-2,1.09251095E-2,5.4518048E-2],"categories":[],"categories_nodes":[],"categories_segments":[],"categories_sizes":[],"default_left":[0,0,0,0,0,0,0,0,0,0,0,0,0,0,0,0,0,0,0,0,0,0,0,0,0,0,0,0,0,0,0],"id":26,"left_children":[1,3,5,7,-1,9,-1,11,13,15,17,19,21,-1,-1,23,25,27,29,-1,-1,-1,-1,-1,-1,-1,-1,-1,-1,-1,-1],"loss_changes":[4.0995264E0,4.517461E0,4.6975036E0,1.9293665E0,0E0,3.0504382E0,0E0,3.5210488E0,5.3875625E-2,3.9667838E0,7.6064205E0,2.2474456E0,1.3029896E0,0E0,0E0,7.2255654E0,6.7414746E0,3.3520203E0,6.7282057E0,0E0,0E0,0E0,0E0,0E0,0E0,0E0,0E0,0E0,0E0,0E0,0E0],"parents":[2147483647,0,0,1,1,2,2,3,3,5,5,7,7,8,8,9,9,10,10,11,11,12,12,15,15,16,16,17,17,18,18],"right_children":[2,4,6,8,-1,10,-1,12,14,16,18,20,22,-1,-1,24,26,28,30,-1,-1,-1,-1,-1,-1,-1,-1,-1,-1,-1,-1],"split_conditions":[3.2365828E0,1.5950873E0,8.466411E0,2.407941E0,1.100776E-1,6.276704E0,-5.8796883E-2,1.2359248E0,7.328451E0,4.04282E0,1.2638339E0,1.2721152E0,1.4960201E0,-2.5633734E-2,-7.097974E-3,3.8708045E0,1.7022738E0,4.817255E0,4.3004753E1,6.317064E-2,-5.422511E-3,-1.3099189E-2,2.3005186E-2,-3.7578915E-3,2.6464868E-2,-1.2451847E-2,1.6278602E-3,-8.523953E-3,3.806816E-2,1.09251095E-2,5.4518048E-2],"split_indices":[18,11,19,15,0,19,0,11,19,19,14,2,14,0,0,19,15,18,9,0,0,0,0,0,0,0,0,0,0,0,0],"split_type":[0,0,0,0,0,0,0,0,0,0,0,0,0,0,0,0,0,0,0,0,0,0,0,0,0,0,0,0,0,0,0],"sum_hessian":[7.97E2,2.7E1,7.7E2,2.6E1,1E0,7.66E2,4E0,2.2E1,4E0,6.14E2,1.52E2,9E0,1.3E1,2E0,2E0,1.21E2,4.93E2,8.2E1,7E1,7E0,2E0,8E0,5E0,7.7E1,4.4E1,2.22E2,2.71E2,7.7E1,5E0,5.4E1,1.6E1],"tree_param":{"num_deleted":"0","num_feature":"25","num_nodes":"31","size_leaf_vector":"1"}},{"base_weights":[1.7338404E-2,1.0241934E-1,-3.2368287E-2,1.2652628E-2,2.9822567E-1,6.5905005E-2,-1.06131084E-1,1.8523924E-1,-1.9128107E-1,9.466333E-2,6.3285285E-1,-6.4133056E-3,5.37442E-1,-1.270166E-1,1.4189382E0,2.4802992E-1,-4.6985015E-2,-3.6323756E-1,1.3758513E-1,-5.568547E-1,1.9307643E-1,4.2341638E-1,1.8047886E0,-4.82758E-1,3.1299908E-2,-8.509886E-2,9.226114E-1,-2.4008705E-1,3.9325807E-2,9.617817E-2,2.6005318E-2,1.9970302E-2,-3.0417293E-2,-2.8658656E-2,3.7878896E-3,-5.199984E-3,5.8974016E-2,-4.7849827E-2,-1.51781915E-2,5.9425745E-2,6.3597863E-3,7.7502556E-2,1.7055152E-2,3.274484E-2,1.1898672E-1,2.3890894E-3,-4.1746214E-2,3.4664602E-3,-3.7194237E-2,-3.6830507E-2,3.2757062E-2,1.08976945E-1,3.2252543E-2,-8.293934E-3,-2.7143687E-2,3.0734167E-2,-1.7955856E-3],"categories":[],"categories_nodes":[],"categories_segments":[],"categories_sizes":[],"default_left":[0,0,0,0,0,0,0,0,0,0,0,0,0,0,0,0,0,0,0,0,0,0,0,0,0,0,0,0,0,0,0,0,0,0,0,0,0,0,0,0,0,0,0,0,0,0,0,0,0,0,0,0,0,0,0,0,0],"id":27,"left_children":[1,3,5,7,9,11,13,15,17,19,21,23,25,27,29,31,-1,33,35,37,39,41,43,45,47,49,51,53,55,-1,-1,-1,-1,-1,-1,-1,-1,-1,-1,-1,-1,-1,-1,-1,-1,-1,-1,-1,-1,-1,-1,-1,-1,-1,-1,-1,-1],"loss_changes":[3.3950467E0,5.1989865E0,3.6821933E0,7.215463E0,6.2750187E0,7.4374123E0,9.417273E0,6.9432106E0,5.36574E0,3.8904724E0,7.826436E0,3.428363E0,7.03224E0,5.4074554E0,3.0701637E-2,6.891789E0,0E0,3.0544815E0,6.3407707E0,3.832779E-1,3.505559E0,3.3787131E0,4.030609E-2,1.5861161E0,3.087339E0,4.3390856E0,5.217923E0,3.6352644E0,3.8470905E0,0E0,0E0,0E0,0E0,0E0,0E0,0E0,0E0,0E0,0E0,0E0,0E0,0E0,0E0,0E0,0E0,0E0,0E0,0E0,0E0,0E0,0E0,0E0,0E0,0E0,0E0,0E0,0E0],"parents":[2147483647,0,0,1,1,2,2,3,3,4,4,5,5,6,6,7,7,8,8,9,9,10,10,11,11,12,12,13,13,14,14,15,15,17,17,18,18,19,19,20,20,21,21,22,22,23,23,24,24,25,25,26,26,27,27,28,28],"right_children":[2,4,6,8,10,12,14,16,18,20,22,24,26,28,30,32,-1,34,36,38,40,42,44,46,48,50,52,54,56,-1,-1,-1,-1,-1,-1,-1,-1,-1,-1,-1,-1,-1,-1,-1,-1,-1,-1,-1,-1,-1,-1,-1,-1,-1,-1,-1,-1],"split_conditions":[1.0071087E0,1.253065E-1,4.97264E0,1.0003989E0,1.2319994E0,2.0198138E0,3.3614433E-1,1.6193397E3,1.2474802E0,1.4780698E0,1.5467518E3,1.0921879E0,4.296805E0,6.107493E0,1.4246885E0,2.0411043E0,-4.6985015E-2,1.5276514E3,9.645208E-1,-8.434635E-1,5.206379E-1,1.3949785E0,1.1333723E0,1.4776908E3,1.3357399E0,2.2610528E0,2.0987153E0,1.3451321E-1,6.183165E0,9.617817E-2,2.6005318E-2,1.9970302E-2,-3.0417293E-2,-2.8658656E-2,3.7878896E-3,-5.199984E-3,5.8974016E-2,-4.7849827E-2,-1.51781915E-2,5.9425745E-2,6.3597863E-3,7.7502556E-2,1.7055152E-2,3.274484E-2,1.1898672E-1,2.3890894E-3,-4.1746214E-2,3.4664602E-3,-3.7194237E-2,-3.6830507E-2,3.2757062E-2,1.08976945E-1,3.2252543E-2,-8.293934E-3,-2.7143687E-2,3.0734167E-2,-1.7955856E-3],"split_indices":[2,24,19,14,14,15,23,7,0,15,7,2,19,19,0,1,0,7,2,3,14,1,0,7,10,15,15,24,19,0,0,0,0,0,0,0,0,0,0,0,0,0,0,0,0,0,0,0,0,0,0,0,0,0,0,0,0],"split_type":[0,0,0,0,0,0,0,0,0,0,0,0,0,0,0,0,0,0,0,0,0,0,0,0,0,0,0,0,0,0,0,0,0,0,0,0,0,0,0,0,0,0,0,0,0,0,0,0,0,0,0,0,0,0,0,0,0],"sum_hessian":[8.01E2,2.95E2,5.06E2,2.03E2,9.2E1,2.17E2,2.89E2,1.1E2,9.3E1,5.8E1,3.4E1,1.89E2,2.8E1,2.86E2,3E0,1.04E2,6E0,6.1E1,3.2E1,7E0,5.1E1,3E1,4E0,1.3E1,1.76E2,1.1E1,1.7E1,1.7E2,1.16E2,2E0,1E0,9.4E1,1E1,4.8E1,1.3E1,2.6E1,6E0,3E0,4E0,4E0,4.7E1,3E0,2.7E1,1E0,3E0,4E0,9E0,1.7E2,6E0,6E0,5E0,4E0,1.3E1,1.16E2,5.4E1,1.4E1,1.02E2],"tree_param":{"num_deleted":"0","num_feature":"25","num_nodes":"57","size_leaf_vector":"1"}},{"base_weights":[-7.823534E-3,-2.9407045E-1,6.9339992E-3,-6.880333E-2,-7.393121E-1,7.868297E-2,1.7415752E-3,-1.9547962E-1,7.084552E-1,-9.1389495E-1,4.0670455E-2,-4.7859818E-1,1.014356E-2,-4.6464244E-1,-3.185805E-2,-1.7949289E-2,1.1440434E0,-1.3040077E-2,-1.0314735E0,-1.9738886E-1,-7.7377754E-1,5.680483E-2,5.0671306E-3,-7.182444E-3,-2.9567752E-2,-5.0227577E-3,1.32449595E-2,8.5291356E-2,1.7672552E-2,-6.521386E-2,-1.5979664E-2,-1.6939543E-2,1.19150765E-2,-9.5567E-3,-5.1889304E-2,2.391691E-2,-4.189032E-4],"categories":[],"categories_nodes":[],"categories_segments":[],"categories_sizes":[],"default_left":[0,0,0,0,0,0,0,0,0,0,0,0,0,0,0,0,0,0,0,0,0,0,0,0,0,0,0,0,0,0,0,0,0,0,0,0,0],"id":28,"left_children":[1,3,5,7,9,-1,11,13,15,17,-1,19,21,23,25,-1,27,-1,29,31,33,-1,35,-1,-1,-1,-1,-1,-1,-1,-1,-1,-1,-1,-1,-1,-1],"loss_changes":[3.3603563E0,3.8607664E0,5.1250668E0,2.7969143E0,3.8358135E0,0E0,3.0518894E0,1.0421774E0,2.0978587E0,7.586317E-1,0E0,9.2635846E-1,3.5278723E0,2.8408766E-2,2.2806111E-1,0E0,2.8845716E-1,0E0,1.3460541E-1,3.251275E-1,1.9793224E-1,0E0,3.5117161E0,0E0,0E0,0E0,0E0,0E0,0E0,0E0,0E0,0E0,0E0,0E0,0E0,0E0,0E0],"parents":[2147483647,0,0,1,1,2,2,3,3,4,4,6,6,7,7,8,8,9,9,11,11,12,12,13,13,14,14,16,16,18,18,19,19,20,20,22,22],"right_children":[2,4,6,8,10,-1,12,14,16,18,-1,20,22,24,26,-1,28,-1,30,32,34,-1,36,-1,-1,-1,-1,-1,-1,-1,-1,-1,-1,-1,-1,-1,-1],"split_conditions":[4.5847896E-1,9.739161E0,4.9199796E-1,1.50829E3,2.0579178E0,7.868297E-2,5E-1,1.4802139E3,8.635526E-1,8.873077E-1,4.0670455E-2,-1.1370729E0,6.077288E-1,8.873077E-1,1.0030751E0,-1.7949289E-2,1.4932981E3,-1.3040077E-2,1.486658E0,1.0526361E0,6.379893E-1,5.680483E-2,3.2365828E0,-7.182444E-3,-2.9567752E-2,-5.0227577E-3,1.32449595E-2,8.5291356E-2,1.7672552E-2,-6.521386E-2,-1.5979664E-2,-1.6939543E-2,1.19150765E-2,-9.5567E-3,-5.1889304E-2,2.391691E-2,-4.189032E-4],"split_indices":[14,9,14,8,15,0,2,7,0,10,0,3,0,10,1,0,7,0,1,0,0,0,18,0,0,0,0,0,0,0,0,0,0,0,0,0,0],"split_type":[0,0,0,0,0,0,0,0,0,0,0,0,0,0,0,0,0,0,0,0,0,0,0,0,0,0,0,0,0,0,0,0,0,0,0,0,0],"sum_hessian":[7.94E2,3.8E1,7.56E2,2.6E1,1.2E1,2E0,7.54E2,2.3E1,3E0,1.1E1,1E0,1.2E1,7.42E2,8E0,1.5E1,1E0,2E0,2E0,9E0,7E0,5E0,3E0,7.39E2,1E0,7E0,1.3E1,2E0,1E0,1E0,8E0,1E0,6E0,1E0,1E0,4E0,2.1E1,7.18E2],"tree_param":{"num_deleted":"0","num_feature":"25","num_nodes":"37","size_leaf_vector":"1"}},{"base_weights":[6.3026063E-3,1.5107787E-3,9.618945E-1,3.7863255E-1,-1.06563885E-2,6.509017E-2,1.779208E-2,2.520642E-1,1.02488175E-1,-4.662582E-3,-5.5966202E-2,1.1438944E-1,7.065946E-2,-2.690146E-1,1.0553098E-2,2.6835307E-2,-9.027616E-3,-2.6026852E-2,2.2999585E-2,5.391166E-5,4.233554E-2],"categories":[],"categories_nodes":[],"categories_segments":[],"categories_sizes":[],"default_left":[0,0,0,0,0,0,0,0,0,0,0,0,0,0,0,0,0,0,0,0,0],"id":29,"left_children":[1,3,5,7,9,-1,-1,11,-1,13,-1,15,-1,17,19,-1,-1,-1,-1,-1,-1],"loss_changes":[3.67093E0,3.6702492E0,5.5105686E-3,3.776267E0,4.279053E0,0E0,0E0,2.9236288E0,0E0,3.104029E0,0E0,2.0068007E0,0E0,4.6805997E0,4.897889E0,0E0,0E0,0E0,0E0,0E0,0E0],"parents":[2147483647,0,0,1,1,2,2,3,3,4,4,7,7,9,9,11,11,13,13,14,14],"right_children":[2,4,6,8,10,-1,-1,12,-1,14,-1,16,-1,18,20,-1,-1,-1,-1,-1,-1],"split_conditions":[1.3883483E0,3.2365828E0,1.3949785E0,1.5950873E0,8.466411E0,6.509017E-2,1.779208E-2,7.932716E0,1.02488175E-1,-1.5896487E2,-5.5966202E-2,6.4745183E0,7.065946E-2,1.0540596E0,3.3614433E-1,2.6835307E-2,-9.027616E-3,-2.6026852E-2,2.2999585E-2,5.391166E-5,4.233554E-2],"split_indices":[10,18,1,11,19,0,0,19,0,9,0,19,0,10,23,0,0,0,0,0,0],"split_type":[0,0,0,0,0,0,0,0,0,0,0,0,0,0,0,0,0,0,0,0,0],"sum_hessian":[8.01E2,7.98E2,3E0,2.4E1,7.74E2,2E0,1E0,2.3E1,1E0,7.7E2,4E0,2.1E1,2E0,4.1E1,7.29E2,9E0,1.2E1,3.3E1,8E0,7.2E2,9E0],"tree_param":{"num_deleted":"0","num_feature":"25","num_nodes":"21","size_leaf_vector":"1"}},{"base_weights":[3.8279693E-3,-3.6939102E-1,1.8420853E-2,-6.344513E-2,-7.645937E-1,1.0562423E-2,6.1224777E-1,-5.958123E-1,3.2949874E-1,-9.775575E-1,-4.103586E-2,5.8369365E-2,-1.3266237E-1,8.3059275E-1,-1.0445287E-2,-5.3127732E-2,-1.4695796E-2,-1.2887021E-2,3.7018083E-2,-1.4441986E-2,-6.1961167E-2,1.5935412E-2,-1.3906476E-2,5.0581038E-2,9.065439E-2,5.0415277E-2,-4.2677882E-1,1.014187E0,-1.3637004E-2,1.7988874E-2,-8.123415E-3,-2.5091307E-2,4.109112E-3,2.500478E-2,-8.567383E-3,-5.0048485E-2,-1.7293187E-2,2.6547596E-2,7.994203E-2],"categories":[],"categories_nodes":[],"categories_segments":[],"categories_sizes":[],"default_left":[0,0,0,0,0,0,0,0,0,0,0,0,0,0,0,0,0,0,0,0,0,0,0,0,0,0,0,0,0,0,0,0,0,0,0,0,0,0,0],"id":30,"left_children":[1,3,5,7,9,11,13,15,17,19,21,23,25,27,-1,-1,-1,29,-1,-1,-1,-1,-1,31,-1,33,35,37,-1,-1,-1,-1,-1,-1,-1,-1,-1,-1,-1],"loss_changes":[4.342092E0,3.5788093E0,3.5727751E0,3.961747E0,1.9630756E0,5.197875E0,1.8615215E0,5.961883E-1,1.0906304E0,1.576519E-1,2.9549894E-1,6.3605785E0,1.0252285E1,1.7842674E0,0E0,0E0,0E0,2.7043372E-1,0E0,0E0,0E0,0E0,0E0,4.787429E0,0E0,8.411192E0,3.87998E0,6.83867E-1,0E0,0E0,0E0,0E0,0E0,0E0,0E0,0E0,0E0,0E0,0E0],"parents":[2147483647,0,0,1,1,2,2,3,3,4,4,5,5,6,6,7,7,8,8,9,9,10,10,11,11,12,12,13,13,17,17,23,23,25,25,26,26,27,27],"right_children":[2,4,6,8,10,12,14,16,18,20,22,24,26,28,-1,-1,-1,30,-1,-1,-1,-1,-1,32,-1,34,36,38,-1,-1,-1,-1,-1,-1,-1,-1,-1,-1,-1],"split_conditions":[7.676718E-2,1.5653174E1,2.4884067E0,-8.171876E1,5.1631713E0,1.4315908E0,6.699439E0,6.671739E0,1.7208856E0,1.4796636E3,1.1835382E0,3.1913087E-1,1.3180176E0,2.4234517E0,-1.0445287E-2,-5.3127732E-2,-1.4695796E-2,9.844545E-1,3.7018083E-2,-1.4441986E-2,-6.1961167E-2,1.5935412E-2,-1.3906476E-2,1E0,9.065439E-2,1.6628956E0,8.0323264E-2,9.018957E-1,-1.3637004E-2,1.7988874E-2,-8.123415E-3,-2.5091307E-2,4.109112E-3,2.500478E-2,-8.567383E-3,-5.0048485E-2,-1.7293187E-2,2.6547596E-2,7.994203E-2],"split_indices":[24,9,0,9,19,2,18,18,0,7,0,23,1,2,0,0,0,14,0,0,0,0,0,1,0,2,24,10,0,0,0,0,0,0,0,0,0,0,0],"split_type":[0,0,0,0,0,0,0,0,0,0,0,0,0,0,0,0,0,0,0,0,0,0,0,0,0,0,0,0,0,0,0,0,0,0,0,0,0,0,0],"sum_hessian":[7.95E2,2.9E1,7.66E2,1.7E1,1.2E1,7.57E2,9E0,7E0,1E1,9E0,3E0,5.68E2,1.89E2,7E0,2E0,3E0,4E0,5E0,5E0,1E0,8E0,1E0,2E0,5.66E2,2E0,1.17E2,7.2E1,6E0,1E0,1E0,4E0,2E1,5.46E2,4E1,7.7E1,1.7E1,5.5E1,3E0,3E0],"tree_param":{"num_deleted":"0","num_feature":"25","num_nodes":"39","size_leaf_vector":"1"}},{"base_weights":[1.9736396E-2,-2.1166509E-2,1.295852E-1,3.7771237E-1,-4.156637E-2,-1.9948876E-2,2.8341794E-1,-2.687778E-1,9.990217E-1,5.4478645E-2,-1.7038068E-1,4.1609693E-1,-1.24003865E-1,1.2810718E0,2.2313581E-1,6.3828313E-1,-6.5664387E-1,1.3249326E0,-4.4775978E-2,8.457577E-2,-4.346948E-1,-4.1567716E-1,-1.04336396E-1,-1.3191348E-1,9.760995E-1,-4.3314993E-1,1.8015506E-2,1.903096E-1,1.0673253E-1,-5.4000694E-1,2.753691E-1,5.258315E-2,1.124516E-2,-4.9243122E-3,-5.171096E-2,2.5064759E-2,1.1038236E-1,4.400317E-3,1.0569428E-1,-9.6762803E-4,-4.858758E-2,2.3695298E-2,-3.074226E-2,-3.2453444E-2,-3.857063E-3,-2.3515861E-2,1.8629838E-2,1.5997041E-2,7.252968E-2,-6.1815744E-3,-4.676969E-2,4.629739E-2,-6.2053036E-3,1.989255E-3,1.5138609E-2,6.667237E-3,-4.9360927E-2,4.7789514E-2,9.369865E-3],"categories":[],"categories_nodes":[],"categories_segments":[],"categories_sizes":[],"default_left":[0,0,0,0,0,0,0,0,0,0,0,0,0,0,0,0,0,0,0,0,0,0,0,0,0,0,0,0,0,0,0,0,0,0,0,0,0,0,0,0,0,0,0,0,0,0,0,0,0,0,0,0,0,0,0,0,0,0,0],"id":31,"left_children":[1,3,5,7,9,11,13,15,17,19,21,23,25,27,29,31,33,35,-1,37,39,41,43,45,47,49,51,53,-1,55,57,-1,-1,-1,-1,-1,-1,-1,-1,-1,-1,-1,-1,-1,-1,-1,-1,-1,-1,-1,-1,-1,-1,-1,-1,-1,-1,-1,-1],"loss_changes":[3.6601553E0,4.849121E0,5.08937E0,1.1916957E1,7.011818E0,5.1787176E0,6.2694817E0,5.6963973E0,9.520877E0,4.8216467E0,3.8771343E0,6.8802795E0,4.0470386E0,2.9193764E0,4.2942944E0,3.725078E-1,1.2262254E0,5.302414E0,0E0,5.6561155E0,2.9700153E0,4.1997204E0,3.3223255E0,1.5021083E0,1.493989E0,3.235454E0,5.936829E0,2.0866E-2,0E0,1.3798201E0,5.963403E0,0E0,0E0,0E0,0E0,0E0,0E0,0E0,0E0,0E0,0E0,0E0,0E0,0E0,0E0,0E0,0E0,0E0,0E0,0E0,0E0,0E0,0E0,0E0,0E0,0E0,0E0,0E0,0E0],"parents":[2147483647,0,0,1,1,2,2,3,3,4,4,5,5,6,6,7,7,8,8,9,9,10,10,11,11,12,12,13,13,14,14,15,15,16,16,17,17,19,19,20,20,21,21,22,22,23,23,24,24,25,25,26,26,27,27,29,29,30,30],"right_children":[2,4,6,8,10,12,14,16,18,20,22,24,26,28,30,32,34,36,-1,38,40,42,44,46,48,50,52,54,-1,56,58,-1,-1,-1,-1,-1,-1,-1,-1,-1,-1,-1,-1,-1,-1,-1,-1,-1,-1,-1,-1,-1,-1,-1,-1,-1,-1,-1,-1],"split_conditions":[6.115847E0,1.4350833E3,1.03563994E-1,1.4162722E3,4.97264E0,9.114075E-1,1.0860778E-1,3.5050936E0,5.9810123E0,1.9181913E0,9.959424E-1,-1.0826379E0,1.4748458E3,1.4083772E0,1.0274279E0,2.1296322E0,5.2882853E0,1.4874856E3,-4.4775978E-2,1.9128244E0,4.5834284E0,1.0138774E0,-8.395243E-1,1.4214208E3,8.9064676E-1,-4.2056417E-1,1.484187E3,1.1658859E0,1.0673253E-1,8.705506E-1,-3.7470604E1,5.258315E-2,1.124516E-2,-4.9243122E-3,-5.171096E-2,2.5064759E-2,1.1038236E-1,4.400317E-3,1.0569428E-1,-9.6762803E-4,-4.858758E-2,2.3695298E-2,-3.074226E-2,-3.2453444E-2,-3.857063E-3,-2.3515861E-2,1.8629838E-2,1.5997041E-2,7.252968E-2,-6.1815744E-3,-4.676969E-2,4.629739E-2,-6.2053036E-3,1.989255E-3,1.5138609E-2,6.667237E-3,-4.9360927E-2,4.7789514E-2,9.369865E-3],"split_indices":[19,8,24,8,19,14,24,18,19,1,10,3,7,14,1,1,19,7,0,1,18,0,3,8,0,3,7,0,0,1,9,0,0,0,0,0,0,0,0,0,0,0,0,0,0,0,0,0,0,0,0,0,0,0,0,0,0,0,0],"split_type":[0,0,0,0,0,0,0,0,0,0,0,0,0,0,0,0,0,0,0,0,0,0,0,0,0,0,0,0,0,0,0,0,0,0,0,0,0,0,0,0,0,0,0,0,0,0,0,0,0,0,0,0,0,0,0,0,0,0,0],"sum_hessian":[8.13E2,5.93E2,2.2E2,2.8E1,5.65E2,1.12E2,1.08E2,1.4E1,1.4E1,3.24E2,2.41E2,2.1E1,9.1E1,5E0,1.03E2,4E0,1E1,1.2E1,2E0,3.06E2,1.8E1,5E1,1.91E2,1.1E1,1E1,2.8E1,6.3E1,2E0,3E0,6E0,9.7E1,2E0,2E0,3E0,7E0,5E0,7E0,3.05E2,1E0,9E0,9E0,5E0,4.5E1,1.5E1,1.76E2,7E0,4E0,3E0,7E0,1.5E1,1.3E1,8E0,5.5E1,1E0,1E0,2E0,4E0,1.7E1,8E1],"tree_param":{"num_deleted":"0","num_feature":"25","num_nodes":"59","size_leaf_vector":"1"}},{"base_weights":[-3.0301842E-3,-3.1944826E-1,1.1564892E-2,1.1906326E-3,-5.5998695E-1,-5.4234672E-2,7.044389E-2,-6.3211536E-1,3.46522E-1,1.2914592E-1,-6.8919545E-1,-2.0245653E-1,8.318039E-2,2.3684941E-1,8.298342E-3,-1.2754166E-2,-4.7324754E-2,7.63074E-1,-3.059551E-1,-2.0510998E-2,2.4005672E-2,-8.403307E-1,-2.72059E-1,1.9844338E-1,-2.532068E-1,1.5905036E-1,-2.892851E-1,4.1080108E-1,-9.897611E-2,-1.4467573E-1,1.21395744E-1,-1.9711016E-3,5.407221E-2,-6.616037E-3,-3.2661192E-2,-5.294973E-2,-1.1295525E-2,-1.4760374E-3,-1.8997831E-2,2.8852593E-2,-1.7118955E-2,-1.2811383E-2,-4.8198022E-2,1.5745921E-2,-8.239408E-3,-2.5639221E-2,7.124975E-2,-2.138096E-2,2.9156474E-2,-5.0334908E-2,2.3134518E-3,1.43303E-3,-2.3879565E-2,4.3814987E-2,4.4631204E-3],"categories":[],"categories_nodes":[],"categories_segments":[],"categories_sizes":[],"default_left":[0,0,0,0,0,0,0,0,0,0,0,0,0,0,0,0,0,0,0,0,0,0,0,0,0,0,0,0,0,0,0,0,0,0,0,0,0,0,0,0,0,0,0,0,0,0,0,0,0,0,0,0,0,0,0],"id":32,"left_children":[1,3,5,7,9,11,13,15,17,19,21,23,25,27,29,-1,-1,31,33,-1,-1,35,37,39,41,43,45,47,49,51,53,-1,-1,-1,-1,-1,-1,-1,-1,-1,-1,-1,-1,-1,-1,-1,-1,-1,-1,-1,-1,-1,-1,-1,-1],"loss_changes":[3.665884E0,2.700079E0,2.9443474E0,3.7182486E0,1.8698435E0,7.3289213E0,4.1449213E0,2.26619E-1,3.2231631E0,6.4723516E-1,8.431282E-1,3.570068E0,5.330433E0,6.4081573E0,5.086747E0,0E0,0E0,7.9919195E-1,1.7323363E-1,0E0,0E0,1.6379642E-1,5.8388293E-2,2.869795E0,3.1902618E0,4.81582E0,7.030573E0,4.3235197E0,3.8994741E0,5.346881E0,4.782879E0,0E0,0E0,0E0,0E0,0E0,0E0,0E0,0E0,0E0,0E0,0E0,0E0,0E0,0E0,0E0,0E0,0E0,0E0,0E0,0E0,0E0,0E0,0E0,0E0],"parents":[2147483647,0,0,1,1,2,2,3,3,4,4,5,5,6,6,7,7,8,8,9,9,10,10,11,11,12,12,13,13,14,14,17,17,18,18,21,21,22,22,23,23,24,24,25,25,26,26,27,27,28,28,29,29,30,30],"right_children":[2,4,6,8,10,12,14,16,18,20,22,24,26,28,30,-1,-1,32,34,-1,-1,36,38,40,42,44,46,48,50,52,54,-1,-1,-1,-1,-1,-1,-1,-1,-1,-1,-1,-1,-1,-1,-1,-1,-1,-1,-1,-1,-1,-1,-1,-1],"split_conditions":[-1.6425635E2,8.939738E-1,1.4999047E3,7.378368E-1,1.3824261E3,4.3004753E1,1.5160209E3,1.9755195E0,2.0620708E0,6.975873E-1,2.2051467E-1,3.4315019E0,1.4262928E-1,1.5264468E3,5.0355954E0,-1.2754166E-2,-4.7324754E-2,1.569275E0,1.1462066E0,-2.0510998E-2,2.4005672E-2,6.671739E0,1.0105304E0,-3.681224E-1,3.6416283E1,1.573988E3,3.1913087E-1,9.006498E-1,4.2588987E0,1.6684023E0,5.128556E0,-1.9711016E-3,5.407221E-2,-6.616037E-3,-3.2661192E-2,-5.294973E-2,-1.1295525E-2,-1.4760374E-3,-1.8997831E-2,2.8852593E-2,-1.7118955E-2,-1.2811383E-2,-4.8198022E-2,1.5745921E-2,-8.239408E-3,-2.5639221E-2,7.124975E-2,-2.138096E-2,2.9156474E-2,-5.0334908E-2,2.3134518E-3,1.43303E-3,-2.3879565E-2,4.3814987E-2,4.4631204E-3],"split_indices":[9,15,8,1,7,9,8,14,0,1,23,18,23,7,18,0,0,0,1,0,0,18,1,3,9,7,23,1,19,15,18,0,0,0,0,0,0,0,0,0,0,0,0,0,0,0,0,0,0,0,0,0,0,0,0],"split_type":[0,0,0,0,0,0,0,0,0,0,0,0,0,0,0,0,0,0,0,0,0,0,0,0,0,0,0,0,0,0,0,0,0,0,0,0,0,0,0,0,0,0,0,0,0,0,0,0,0,0,0,0,0,0,0],"sum_hessian":[7.92E2,3.4E1,7.58E2,1.5E1,1.9E1,3.58E2,4E2,5E0,1E1,3E0,1.6E1,1.72E2,1.86E2,1.08E2,2.92E2,2E0,3E0,6E0,4E0,1E0,2E0,1.1E1,5E0,1.9E1,1.53E2,1.55E2,3.1E1,7.1E1,3.7E1,1.24E2,1.68E2,1E0,5E0,3E0,1E0,1E1,1E0,1E0,4E0,1.2E1,7E0,1.44E2,9E0,1.15E2,4E1,2.9E1,2E0,6E0,6.5E1,5E0,3.2E1,7.5E1,4.9E1,1.1E1,1.57E2],"tree_param":{"num_deleted":"0","num_feature":"25","num_nodes":"55","size_leaf_vector":"1"}},{"base_weights":[2.394389E-3,-4.3752603E-2,8.8087395E-2,9.221168E-2,-1.04437314E-1,2.7079565E-2,5.143685E-1,-6.498566E-2,3.8811713E-1,-4.1275653E-1,-6.9963686E-2,8.399832E-1,-7.334426E-3,9.535967E-2,9.048013E-1,-1.3808772E-1,3.8770604E-1,1.172746E0,9.865169E-2,-5.1002765E-1,8.2723475E-1,1.1648364E0,-8.1215814E-2,6.933455E-2,1.3421932E0,7.691004E-2,-1.833867E-1,-3.6197567E-1,7.122758E-1,2.1313675E-1,1.4368193E0,-4.546612E-3,-4.225876E-2,-1.1027393E-2,3.2753747E-2,7.964756E-2,-2.9797325E-2,-7.4314037E-3,3.627264E-2,-4.5712166E-2,-2.6760525E-3,1.363459E-2,6.0816534E-2,8.508875E-2,1.974652E-2,-6.0182684E-3,2.5311446E-2,-3.133658E-2,3.8270038E-2,1.0151208E-1,2.5713738E-2,1.4472898E-2,-6.601556E-3,-3.024677E-3,-3.8984776E-2,-2.812954E-2,2.1195738E-2,5.578503E-2,2.3940683E-3,3.3832375E-2,-1.0813605E-2,1.4426374E-1,2.3462141E-2],"categories":[],"categories_nodes":[],"categories_segments":[],"categories_sizes":[],"default_left":[0,0,0,0,0,0,0,0,0,0,0,0,0,0,0,0,0,0,0,0,0,0,0,0,0,0,0,0,0,0,0,0,0,0,0,0,0,0,0,0,0,0,0,0,0,0,0,0,0,0,0,0,0,0,0,0,0,0,0,0,0,0,0],"id":33,"left_children":[1,3,5,7,9,11,13,15,17,19,21,23,25,27,29,31,33,35,37,39,41,43,45,47,49,51,53,55,57,59,61,-1,-1,-1,-1,-1,-1,-1,-1,-1,-1,-1,-1,-1,-1,-1,-1,-1,-1,-1,-1,-1,-1,-1,-1,-1,-1,-1,-1,-1,-1,-1,-1],"loss_changes":[3.1634793E0,4.300126E0,7.267886E0,7.5142264E0,3.7975194E0,6.888075E0,5.639536E0,3.5613637E0,1.260319E1,4.7640634E0,4.6101937E0,3.777214E0,3.5291529E0,5.3363023E0,6.3173656E0,3.1925702E0,1.4564025E0,4.5333557E0,4.80262E0,3.951293E0,1.0513306E-1,1.683693E-1,3.144082E0,2.014778E0,1.1917715E0,4.9715753E0,4.742351E0,1.0062735E0,1.1326976E0,1.3433263E0,9.178551E0,0E0,0E0,0E0,0E0,0E0,0E0,0E0,0E0,0E0,0E0,0E0,0E0,0E0,0E0,0E0,0E0,0E0,0E0,0E0,0E0,0E0,0E0,0E0,0E0,0E0,0E0,0E0,0E0,0E0,0E0,0E0,0E0],"parents":[2147483647,0,0,1,1,2,2,3,3,4,4,5,5,6,6,7,7,8,8,9,9,10,10,11,11,12,12,13,13,14,14,15,15,16,16,17,17,18,18,19,19,20,20,21,21,22,22,23,23,24,24,25,25,26,26,27,27,28,28,29,29,30,30],"right_children":[2,4,6,8,10,12,14,16,18,20,22,24,26,28,30,32,34,36,38,40,42,44,46,48,50,52,54,56,58,60,62,-1,-1,-1,-1,-1,-1,-1,-1,-1,-1,-1,-1,-1,-1,-1,-1,-1,-1,-1,-1,-1,-1,-1,-1,-1,-1,-1,-1,-1,-1,-1,-1],"split_conditions":[1.8400698E0,4.1142898E0,1.8303518E-1,1.50829E3,-5.840776E-1,1.8528326E0,1.7718828E0,1.3933039E0,1.5153143E3,2.181371E0,1.4264977E3,4.6073384E0,-3.3968142E-1,5.712597E0,-7.407994E-1,1.3913344E-1,5.4958453E0,1.2027221E2,1.5736173E0,1.5461309E-1,8.635526E-1,9.750664E-1,2.4884067E0,8.0323264E-2,1.2400028E0,2.2380064E0,1.3886042E0,1.819511E0,1.6827874E0,-1.6866926E1,2.0987153E0,-4.546612E-3,-4.225876E-2,-1.1027393E-2,3.2753747E-2,7.964756E-2,-2.9797325E-2,-7.4314037E-3,3.627264E-2,-4.5712166E-2,-2.6760525E-3,1.363459E-2,6.0816534E-2,8.508875E-2,1.974652E-2,-6.0182684E-3,2.5311446E-2,-3.133658E-2,3.8270038E-2,1.0151208E-1,2.5713738E-2,1.4472898E-2,-6.601556E-3,-3.024677E-3,-3.8984776E-2,-2.812954E-2,2.1195738E-2,5.578503E-2,2.3940683E-3,3.3832375E-2,-1.0813605E-2,1.4426374E-1,2.3462141E-2],"split_indices":[15,18,23,8,3,15,1,0,8,1,8,18,3,18,3,23,19,9,15,24,0,0,0,24,0,15,11,0,1,9,15,0,0,0,0,0,0,0,0,0,0,0,0,0,0,0,0,0,0,0,0,0,0,0,0,0,0,0,0,0,0,0,0],"split_type":[0,0,0,0,0,0,0,0,0,0,0,0,0,0,0,0,0,0,0,0,0,0,0,0,0,0,0,0,0,0,0,0,0,0,0,0,0,0,0,0,0,0,0,0,0,0,0,0,0,0,0,0,0,0,0,0,0,0,0,0,0,0,0],"sum_hessian":[7.98E2,5.19E2,2.79E2,1.6E2,3.59E2,2.45E2,3.4E1,1.05E2,5.5E1,3.5E1,3.24E2,9E0,2.36E2,1.7E1,1.7E1,9.1E1,1.4E1,1.4E1,4.1E1,3.3E1,2E0,2E0,3.22E2,4E0,5E0,1.6E2,7.6E1,1E1,7E0,8E0,9E0,8.3E1,8E0,3E0,1.1E1,1.3E1,1E0,2.9E1,1.2E1,2.1E1,1.2E1,1E0,1E0,1E0,1E0,3.11E2,1.1E1,2E0,2E0,3E0,2E0,8.5E1,7.5E1,6E1,1.6E1,9E0,1E0,5E0,2E0,4E0,4E0,4E0,5E0],"tree_param":{"num_deleted":"0","num_feature":"25","num_nodes":"63","size_leaf_vector":"1"}},{"base_weights":[1.718308E-2,-3.456313E-1,2.5565932E-2,1.8243873E-1,-7.863312E-1,1.574637E-2,4.6363184E-1,-1.2931241E-1,2.7462125E-2,-2.0866882E-2,-5.547588E-2,-4.271227E-2,8.749164E-2,9.075967E-1,-3.1847697E-2,-2.0109875E-2,2.0822894E-2,1.1966972E-2,-2.9036525E-1,1.136242E0,6.2185686E-2,1.9136441E-1,1.2338188E0,-2.5049686E-1,3.04088E-1,-1.3409381E-2,3.5606264E-3,1.5869455E-2,-2.2706509E-2,9.150829E-2,-1.2178564E-3,2.5934384E-3,3.700589E-2,2.264026E-2,-1.0996659E-2,8.0611E-2,2.0559868E-2,-2.2744633E-2,-5.486244E-3,2.9440915E-2,-7.6708137E-3],"categories":[],"categories_nodes":[],"categories_segments":[],"categories_sizes":[],"default_left":[0,0,0,0,0,0,0,0,0,0,0,0,0,0,0,0,0,0,0,0,0,0,0,0,0,0,0,0,0,0,0,0,0,0,0,0,0,0,0,0,0],"id":34,"left_children":[1,3,5,7,9,11,13,15,-1,-1,-1,17,19,21,23,-1,-1,25,27,29,31,33,35,37,39,-1,-1,-1,-1,-1,-1,-1,-1,-1,-1,-1,-1,-1,-1,-1,-1],"loss_changes":[2.4237232E0,4.332424E0,3.3350544E0,8.315096E-1,2.8481054E-1,3.1954708E0,3.7684886E0,6.0661775E-1,0E0,0E0,0E0,5.690895E0,9.005896E0,1.8667483E0,7.372416E-1,0E0,0E0,3.8618011E0,3.8142014E0,3.6291475E0,3.4961238E0,3.4785116E-1,1.2617111E-1,8.804968E-2,3.8511786E-1,0E0,0E0,0E0,0E0,0E0,0E0,0E0,0E0,0E0,0E0,0E0,0E0,0E0,0E0,0E0,0E0],"parents":[2147483647,0,0,1,1,2,2,3,3,4,4,5,5,6,6,7,7,11,11,12,12,13,13,14,14,17,17,18,18,19,19,20,20,21,21,22,22,23,23,24,24],"right_children":[2,4,6,8,10,12,14,16,-1,-1,-1,18,20,22,24,-1,-1,26,28,30,32,34,36,38,40,-1,-1,-1,-1,-1,-1,-1,-1,-1,-1,-1,-1,-1,-1,-1,-1],"split_conditions":[7.378368E-1,9.8324287E-1,3.3614433E-1,1.8252337E0,1E0,1.50829E3,1.8904272E0,6.975873E-1,2.7462125E-2,-2.0866882E-2,-5.547588E-2,1.182411E0,1.5088287E3,1E0,1.9262191E0,-2.0109875E-2,2.0822894E-2,1.466375E0,1.1793166E0,1.0030751E0,1.294313E0,1.9911213E0,1.6754308E3,1.8255206E0,8.870349E-1,-1.3409381E-2,3.5606264E-3,1.5869455E-2,-2.2706509E-2,9.150829E-2,-1.2178564E-3,2.5934384E-3,3.700589E-2,2.264026E-2,-1.0996659E-2,8.0611E-2,2.0559868E-2,-2.2744633E-2,-5.486244E-3,2.9440915E-2,-7.6708137E-3],"split_indices":[1,11,23,3,10,8,14,1,0,0,0,2,8,10,2,0,0,15,15,1,10,2,7,2,1,0,0,0,0,0,0,0,0,0,0,0,0,0,0,0,0],"split_type":[0,0,0,0,0,0,0,0,0,0,0,0,0,0,0,0,0,0,0,0,0,0,0,0,0,0,0,0,0,0,0,0,0,0,0,0,0,0,0,0,0],"sum_hessian":[7.93E2,1.7E1,7.76E2,8E0,9E0,7.6E2,1.6E1,4E0,4E0,3E0,6E0,4.19E2,3.41E2,8E0,8E0,3E0,1E0,3.44E2,7.5E1,7E0,3.34E2,3E0,5E0,5E0,3E0,5.7E1,2.87E2,1E1,6.5E1,5E0,2E0,3.24E2,1E1,2E0,1E0,4E0,1E0,2E0,3E0,2E0,1E0],"tree_param":{"num_deleted":"0","num_feature":"25","num_nodes":"41","size_leaf_vector":"1"}},{"base_weights":[8.649999E-3,-4.512691E-2,7.3159225E-2,1.5609242E-2,-1.9475137E-1,4.091394E-1,2.1404112E-2,-3.9160624E-2,2.4052648E-1,-4.9791914E-1,-1.027733E-1,7.733737E-1,-3.4339628E-1,-9.368429E-2,1.2247952E-1,8.091383E-3,-4.4547755E-1,4.5633256E-1,-3.7026247E-1,-7.8147006E-1,6.289336E-2,-2.0811E-1,3.0841938E-1,9.827079E-1,-1.7444506E-1,-4.687164E-1,2.386018E-2,2.1197501E-1,-2.0375817E-1,-8.085045E-1,1.5480748E-1,-1.0450273E-3,5.856396E-2,-5.178627E-2,-3.2301415E-3,7.521008E-2,1.8546028E-2,5.627418E-2,-3.6432683E-2,-1.9884925E-2,-5.4563634E-2,2.0725088E-2,-3.1072775E-2,-2.176708E-2,5.8574216E-3,-6.0031107E-3,5.1849872E-2,4.5639988E-2,1.111179E-1,-4.0449318E-2,2.2132587E-2,-6.3743163E-3,-4.635628E-2,4.3250687E-2,-6.5597123E-3,3.7800095E-3,-1.7796198E-2,-8.324529E-3,-5.488251E-2,1.7570404E-2,2.8722358E-4],"categories":[],"categories_nodes":[],"categories_segments":[],"categories_sizes":[],"default_left":[0,0,0,0,0,0,0,0,0,0,0,0,0,0,0,0,0,0,0,0,0,0,0,0,0,0,0,0,0,0,0,0,0,0,0,0,0,0,0,0,0,0,0,0,0,0,0,0,0,0,0,0,0,0,0,0,0,0,0,0,0],"id":35,"left_children":[1,3,5,7,9,11,13,15,17,19,21,23,25,27,29,31,33,35,37,39,41,43,45,47,49,51,-1,53,55,57,59,-1,-1,-1,-1,-1,-1,-1,-1,-1,-1,-1,-1,-1,-1,-1,-1,-1,-1,-1,-1,-1,-1,-1,-1,-1,-1,-1,-1,-1,-1],"loss_changes":[2.861846E0,4.0924664E0,6.512002E0,3.9637182E0,3.5738492E0,1.397054E1,3.8037045E0,4.976221E0,8.473117E0,4.8197155E0,4.4388666E0,6.9173985E0,1.7651925E0,5.1908917E0,5.3620076E0,5.7701397E0,4.3696594E0,5.1288767E0,5.8389683E0,8.5006714E-1,1.9837955E0,3.8658473E0,4.8535852E0,3.9955845E0,2.1492033E0,1.5702105E0,0E0,6.7823777E0,2.817381E0,2.998805E-1,3.4982004E0,0E0,0E0,0E0,0E0,0E0,0E0,0E0,0E0,0E0,0E0,0E0,0E0,0E0,0E0,0E0,0E0,0E0,0E0,0E0,0E0,0E0,0E0,0E0,0E0,0E0,0E0,0E0,0E0,