{"learner":{"attributes":{"scikit_learn":"{\"_estimator_type\": \"regressor\"}"},"feature_names":["ShotConv_A","ShotConvRec_A","PointsPerGame_A","xGDiff_A","CornersConv_A","CornersConvRec_A","NumMatches_A","Elo_H","Elo_A","EloDiff","GFvsMid_A","GAvsMid_A","GFvsHigh_A","GAvsHigh_A","GFvsSim_A","GAvsSim_A","Possession_A","PossessionRec_A","CornersFor_A","CornersAgainst_A","Availability_A","xGpp_A","xGppRec_A","xGCorners_A","xGCornersRec_A"],"feature_types":["float","float","float","float","float","float","float","float","float","float","float","float","float","float","float","float","float","float","float","float","float","float","float","float","float"],"gradient_booster":{"model":{"gbtree_model_param":{"num_parallel_tree":"1","num_trees":"220"},"iteration_indptr":[0,1,2,3,4,5,6,7,8,9,10,11,12,13,14,15,16,17,18,19,20,21,22,23,24,25,26,27,28,29,30,31,32,33,34,35,36,37,38,39,40,41,42,43,44,45,46,47,48,49,50,51,52,53,54,55,56,57,58,59,60,61,62,63,64,65,66,67,68,69,70,71,72,73,74,75,76,77,78,79,80,81,82,83,84,85,86,87,88,89,90,91,92,93,94,95,96,97,98,99,100,101,102,103,104,105,106,107,108,109,110,111,112,113,114,115,116,117,118,119,120,121,122,123,124,125,126,127,128,129,130,131,132,133,134,135,136,137,138,139,140,141,142,143,144,145,146,147,148,149,150,151,152,153,154,155,156,157,158,159,160,161,162,163,164,165,166,167,168,169,170,171,172,173,174,175,176,177,178,179,180,181,182,183,184,185,186,187,188,189,190,191,192,193,194,195,196,197,198,199,200,201,202,203,204,205,206,207,208,209,210,211,212,213,214,215,216,217,218,219,220],"tree_info":[0,0,0,0,0,0,0,0,0,0,0,0,0,0,0,0,0,0,0,0,0,0,0,0,0,0,0,0,0,0,0,0,0,0,0,0,0,0,0,0,0,0,0,0,0,0,0,0,0,0,0,0,0,0,0,0,0,0,0,0,0,0,0,0,0,0,0,0,0,0,0,0,0,0,0,0,0,0,0,0,0,0,0,0,0,0,0,0,0,0,0,0,0,0,0,0,0,0,0,0,0,0,0,0,0,0,0,0,0,0,0,0,0,0,0,0,0,0,0,0,0,0,0,0,0,0,0,0,0,0,0,0,0,0,0,0,0,0,0,0,0,0,0,0,0,0,0,0,0,0,0,0,0,0,0,0,0,0,0,0,0,0,0,0,0,0,0,0,0,0,0,0,0,0,0,0,0,0,0,0,0,0,0,0,0,0,0,0,0,0,0,0,0,0,0,0,0,0,0,0,0,0,0,0,0,0,0,0,0,0,0,0,0,0,0,0,0,0,0,0],"trees":[{"base_weights":[-8.2899857E-4,-3.727652E-2,5.398323E-1,-6.5637505E-1,3.4954485E-3,1.4669812E0,-1.9227314E-1,-8.490566E-2,-7.553908E-1,3.4860358E-2,-6.226415E-1,1.860849E0,9.538784E-1,-8.4150946E-1,9.988897E-3,2.735849E-1,-5.345912E-1,-2.683438E-1,-9.3679243E-1,-5.2440185E-2,2.9075164E-1,-7.427101E-1,2.7924528E-2,1.2161725E-1,2.0943396E-2,3.5902966E-2,8.7924525E-2,-9.056604E-3,-5.8584906E-2,4.6415094E-2,-2.0889488E-1,-9.056604E-3,2.7924528E-2,-3.9056603E-2,-9.056604E-3,-5.2075468E-2,1.6172504E-3,-6.0440253E-2,-1.2075472E-2,1.21415086E-1,-4.541058E-3,2.5142366E-2,-4.9027577E-2,-5.3773582E-2,-2.4905663E-3,-2.1335268E-2,5.0943393E-2],"categories":[],"categories_nodes":[],"categories_segments":[],"categories_sizes":[],"default_left":[0,0,0,0,0,0,0,0,0,0,0,0,0,0,0,0,0,0,0,0,0,0,0,0,0,0,0,0,0,0,0,0,0,0,0,0,0,0,0,0,0,0,0,0,0,0,0],"id":0,"left_children":[1,3,5,7,9,11,13,15,17,19,21,23,25,27,29,31,33,35,37,39,41,43,-1,-1,-1,-1,-1,-1,-1,-1,45,-1,-1,-1,-1,-1,-1,-1,-1,-1,-1,-1,-1,-1,-1,-1,-1],"loss_changes":[1.1232703E1,1.3481451E1,2.4717804E1,1.8031511E0,9.880348E0,1.4584923E0,2.7660384E0,1.1135043E0,2.2224474E0,1.0715842E1,3.481041E0,1.3014088E0,7.597456E-1,3.184228E-1,3.0029573E0,3.9598912E-1,3.5659194E-2,1.616889E0,8.350315E-1,1.7428576E1,1.7681934E1,2.3310041E0,0E0,0E0,0E0,0E0,0E0,0E0,0E0,0E0,2.4746304E0,0E0,0E0,0E0,0E0,0E0,0E0,0E0,0E0,0E0,0E0,0E0,0E0,0E0,0E0,0E0,0E0],"parents":[2147483647,0,0,1,1,2,2,3,3,4,4,5,5,6,6,7,7,8,8,9,9,10,10,11,11,12,12,13,13,14,14,15,15,16,16,17,17,18,18,19,19,20,20,21,21,30,30],"right_children":[2,4,6,8,10,12,14,16,18,20,22,24,26,28,30,32,34,36,38,40,42,44,-1,-1,-1,-1,-1,-1,-1,-1,46,-1,-1,-1,-1,-1,-1,-1,-1,-1,-1,-1,-1,-1,-1,-1,-1],"split_conditions":[1.9829775E0,8.1212866E-1,4.959946E0,3.8370361E0,2.2103399E-1,2.1911576E0,1.6147067E3,3.7222415E-1,1.4984718E3,1.1819468E-1,4.275733E-1,1.4872901E-1,2.338798E0,2.0777972E0,6.911131E-1,8.8890016E-1,1.1718086E0,-1.2780549E-1,4.7984495E0,7.816134E-1,1.7859685E-1,4.4549985E0,2.7924528E-2,1.2161725E-1,2.0943396E-2,3.5902966E-2,8.7924525E-2,-9.056604E-3,-5.8584906E-2,4.6415094E-2,7.5061E0,-9.056604E-3,2.7924528E-2,-3.9056603E-2,-9.056604E-3,-5.2075468E-2,1.6172504E-3,-6.0440253E-2,-1.2075472E-2,1.21415086E-1,-4.541058E-3,2.5142366E-2,-4.9027577E-2,-5.3773582E-2,-2.4905663E-3,-2.1335268E-2,5.0943393E-2],"split_indices":[2,15,18,19,23,0,8,3,8,23,3,23,0,2,1,0,0,3,19,1,24,18,0,0,0,0,0,0,0,0,18,0,0,0,0,0,0,0,0,0,0,0,0,0,0,0,0],"split_type":[0,0,0,0,0,0,0,0,0,0,0,0,0,0,0,0,0,0,0,0,0,0,0,0,0,0,0,0,0,0,0,0,0,0,0,0,0,0,0,0,0,0,0,0,0,0,0],"sum_hessian":[5.68E2,5.33E2,3.5E1,3.2E1,5.01E2,1.5E1,2E1,5E0,2.7E1,4.78E2,2.3E1,7E0,8E0,4E0,1.6E1,3E0,2E0,8E0,1.9E1,3.57E2,1.21E2,2.1E1,2E0,6E0,1E0,6E0,2E0,1E0,3E0,3E0,1.3E1,1E0,2E0,1E0,1E0,2E0,6E0,1.7E1,2E0,3E0,3.54E2,1.09E2,1.2E1,1.7E1,4E0,1.2E1,1E0],"tree_param":{"num_deleted":"0","num_feature":"25","num_nodes":"47","size_leaf_vector":"1"}},{"base_weights":[2.1628442E-3,1.188486E0,-1.9216245E-2,1.5557454E0,-1.1222062E-2,-4.7584194E-1,1.3374058E-2,1.1121543E-1,2.6488408E-2,2.010566E-2,-5.076761E-1,8.951052E-2,-2.1052234E-1,-5.408011E-1,1.9550944E-2,-7.758492E-3,3.233655E-1,4.9802074E-1,-2.6025108E-1,-2.089924E-2,-4.6453215E-2,8.101241E-2,-2.274406E-3,7.132666E-2,8.266178E-3,6.78573E-2,-1.4071066E-2,7.7037397E-3,-2.2496631E-2],"categories":[],"categories_nodes":[],"categories_segments":[],"categories_sizes":[],"default_left":[0,0,0,0,0,0,0,0,0,0,0,0,0,0,0,0,0,0,0,0,0,0,0,0,0,0,0,0,0],"id":1,"left_children":[1,3,5,7,-1,9,11,-1,-1,-1,13,15,17,19,-1,21,23,25,27,-1,-1,-1,-1,-1,-1,-1,-1,-1,-1],"loss_changes":[1.4327293E1,5.3427057E0,8.265635E0,1.836731E0,0E0,1.1252928E0,8.866071E0,0E0,0E0,0E0,1.1701975E0,8.828285E0,4.780625E0,1.3028259E0,0E0,1.1309766E1,1.8146555E1,4.438068E0,5.5754366E0,0E0,0E0,0E0,0E0,0E0,0E0,0E0,0E0,0E0,0E0],"parents":[2147483647,0,0,1,1,2,2,3,3,5,5,6,6,10,10,11,11,12,12,13,13,15,15,16,16,17,17,18,18],"right_children":[2,4,6,8,-1,10,12,-1,-1,-1,14,16,18,20,-1,22,24,26,28,-1,-1,-1,-1,-1,-1,-1,-1,-1,-1],"split_conditions":[-1.8291817E2,2.5553472E0,7.1954197E-1,2.633369E0,-1.1222062E-2,3.3858767E0,5.234355E0,1.1121543E-1,2.6488408E-2,2.010566E-2,2.4892282E0,1.1819468E-1,1.0864387E0,1.5074353E3,1.9550944E-2,7.816134E-1,1.268281E-1,1.4937584E3,3.4607108E0,-2.089924E-2,-4.6453215E-2,8.101241E-2,-2.274406E-3,7.132666E-2,8.266178E-3,6.78573E-2,-1.4071066E-2,7.7037397E-3,-2.2496631E-2],"split_indices":[9,0,15,14,0,19,19,0,0,0,0,23,1,8,0,1,23,8,18,0,0,0,0,0,0,0,0,0,0],"split_type":[0,0,0,0,0,0,0,0,0,0,0,0,0,0,0,0,0,0,0,0,0,0,0,0,0,0,0,0,0],"sum_hessian":[5.63E2,9E0,5.54E2,7E0,2E0,3.6E1,5.18E2,5E0,2E0,1E0,3.5E1,3.87E2,1.31E2,3.4E1,1E0,2.74E2,1.13E2,8E0,1.23E2,2E1,1.4E1,5E0,2.69E2,1.9E1,9.4E1,4E0,4E0,2.8E1,9.5E1],"tree_param":{"num_deleted":"0","num_feature":"25","num_nodes":"29","size_leaf_vector":"1"}},{"base_weights":[-5.528463E-3,1.0888085E0,-2.3169152E-2,2.4265677E-2,1.6170356E0,-4.3322653E-1,8.479142E-3,1.9071653E-2,-1.0773182E-2,1.087979E-1,1.9071653E-2,2.0155904E-1,-5.9822166E-1,-1.563073E-1,1.18309595E-1,4.8631057E-1,-5.300476E-1,-6.8509835E-1,2.8197145E-2,1.2279009E-1,-3.426103E-1,6.912866E-1,4.1068796E-2,4.340823E-3,4.6721786E-2,-8.852141E-3,-3.885214E-2,-2.5639176E-2,-5.3036835E-2,-6.3040047E-3,4.6182472E-2,2.0244583E-2,-2.630446E-2,-1.6078027E-2,5.3135563E-2,9.462356E-3,-1.2104013E-2],"categories":[],"categories_nodes":[],"categories_segments":[],"categories_sizes":[],"default_left":[0,0,0,0,0,0,0,0,0,0,0,0,0,0,0,0,0,0,0,0,0,0,0,0,0,0,0,0,0,0,0,0,0,0,0,0,0],"id":2,"left_children":[1,3,5,7,9,11,13,-1,-1,-1,-1,15,17,19,21,23,25,27,-1,29,31,33,35,-1,-1,-1,-1,-1,-1,-1,-1,-1,-1,-1,-1,-1,-1],"loss_changes":[1.09517765E1,5.0216446E0,7.2451835E0,2.964337E-1,9.535017E-1,4.3100376E0,9.41165E0,0E0,0E0,0E0,0E0,2.1327028E0,3.291545E0,1.0857378E1,1.3779857E1,7.9092336E-1,3.928715E-2,1.1600428E0,0E0,1.246286E1,8.290939E0,7.1336994E0,7.848071E0,0E0,0E0,0E0,0E0,0E0,0E0,0E0,0E0,0E0,0E0,0E0,0E0,0E0,0E0],"parents":[2147483647,0,0,1,1,2,2,3,3,4,4,5,5,6,6,11,11,12,12,13,13,14,14,15,15,16,16,17,17,19,19,20,20,21,21,22,22],"right_children":[2,4,6,8,10,12,14,-1,-1,-1,-1,16,18,20,22,24,26,28,-1,30,32,34,36,-1,-1,-1,-1,-1,-1,-1,-1,-1,-1,-1,-1,-1,-1],"split_conditions":[-1.8291817E2,-2.076588E2,3.521647E-1,2.338798E0,2.633369E0,1.491416E3,1.4880876E3,1.9071653E-2,-1.0773182E-2,1.087979E-1,1.9071653E-2,4.005347E0,2.3507493E0,4.443624E0,1.4981936E3,1.1230613E0,1.4356161E3,1.50171E3,2.8197145E-2,9.775674E-2,3.3856463E0,4.016757E0,1.7848657E0,4.340823E-3,4.6721786E-2,-8.852141E-3,-3.885214E-2,-2.5639176E-2,-5.3036835E-2,-6.3040047E-3,4.6182472E-2,2.0244583E-2,-2.630446E-2,-1.6078027E-2,5.3135563E-2,9.462356E-3,-1.2104013E-2],"split_indices":[9,9,14,0,14,7,7,0,0,0,0,18,1,19,7,1,7,7,0,24,18,19,15,0,0,0,0,0,0,0,0,0,0,0,0,0,0],"split_type":[0,0,0,0,0,0,0,0,0,0,0,0,0,0,0,0,0,0,0,0,0,0,0,0,0,0,0,0,0,0,0,0,0,0,0,0,0],"sum_hessian":[5.65E2,8E0,5.57E2,3E0,5E0,3.9E1,5.18E2,1E0,2E0,4E0,1E0,8E0,3.1E1,2.07E2,3.11E2,6E0,2E0,2.9E1,2E0,8.3E1,1.24E2,3.6E1,2.75E2,3E0,3E0,1E0,1E0,1.4E1,1.5E1,6.2E1,2.1E1,1.5E1,1.09E2,6E0,3E1,1.86E2,8.9E1],"tree_param":{"num_deleted":"0","num_feature":"25","num_nodes":"37","size_leaf_vector":"1"}},{"base_weights":[-1.7129833E-2,-5.1700603E-2,4.934856E-1,3.1574202E-1,-8.937777E-2,1.3082963E0,-2.3825716E-3,-3.743723E-2,9.653172E-1,-9.704733E-2,1.11211635E-1,2.2607723E-1,1.5828946E0,5.6137323E-2,-1.8093666E-1,6.0766738E-2,-2.9865423E-1,1.6027744E0,1.497739E-1,-2.227494E-2,-3.181954E-1,2.4666004E-2,-9.8697385E-3,1.7885929E0,2.6290074E-2,-2.719826E-1,4.9199454E-2,-4.2152023E-3,-5.8429237E-2,1.17961966E-1,5.9896465E-3,-2.9302567E-2,3.3014696E-2,-5.6912648E-3,3.4841493E-2,-2.279869E-2,4.6654064E-2,1.9477611E-2,1.1586062E-1,-2.2832092E-2,1.5441618E-2],"categories":[],"categories_nodes":[],"categories_segments":[],"categories_sizes":[],"default_left":[0,0,0,0,0,0,0,0,0,0,0,0,0,0,0,0,0,0,0,0,0,0,0,0,0,0,0,0,0,0,0,0,0,0,0,0,0,0,0,0,0],"id":3,"left_children":[1,3,5,7,9,11,13,15,17,19,-1,21,23,-1,25,-1,27,29,31,33,35,-1,-1,37,-1,39,-1,-1,-1,-1,-1,-1,-1,-1,-1,-1,-1,-1,-1,-1,-1],"loss_changes":[1.0299193E1,7.587151E0,1.4952549E1,1.1736379E1,7.5708885E0,3.802599E0,4.188918E0,9.629839E0,9.117678E0,8.178119E0,0E0,3.566838E-1,1.806448E0,0E0,2.1367612E0,0E0,4.249427E0,5.2633133E0,2.568772E0,1.6291151E1,8.757865E0,0E0,0E0,1.2495918E0,0E0,1.2471625E0,0E0,0E0,0E0,0E0,0E0,0E0,0E0,0E0,0E0,0E0,0E0,0E0,0E0,0E0,0E0],"parents":[2147483647,0,0,1,1,2,2,3,3,4,4,5,5,6,6,7,7,8,8,9,9,11,11,12,12,14,14,16,16,17,17,18,18,19,19,20,20,23,23,25,25],"right_children":[2,4,6,8,10,12,14,16,18,20,-1,22,24,-1,26,-1,28,30,32,34,36,-1,-1,38,-1,40,-1,-1,-1,-1,-1,-1,-1,-1,-1,-1,-1,-1,-1,-1,-1],"split_conditions":[1.5949266E3,3.3958068E0,4.959946E0,-3.7750727E-1,7.3968277E0,1.4203771E3,1.5989438E3,-1.0233395E0,5.072654E0,1.7848657E0,1.11211635E-1,1.178111E0,1.4872901E-1,5.6137323E-2,7.5061E0,6.0766738E-2,1.0440255E0,2.1692044E-3,1.2494656E0,1.6623323E0,1.8302892E2,2.4666004E-2,-9.8697385E-3,2.0559454E0,2.6290074E-2,5.1043572E0,4.9199454E-2,-4.2152023E-3,-5.8429237E-2,1.17961966E-1,5.9896465E-3,-2.9302567E-2,3.3014696E-2,-5.6912648E-3,3.4841493E-2,-2.279869E-2,4.6654064E-2,1.9477611E-2,1.1586062E-1,-2.2832092E-2,1.5441618E-2],"split_indices":[8,18,18,3,19,7,8,3,19,15,0,1,23,0,18,0,2,3,1,15,9,0,0,14,0,19,0,0,0,0,0,0,0,0,0,0,0,0,0,0,0],"split_type":[0,0,0,0,0,0,0,0,0,0,0,0,0,0,0,0,0,0,0,0,0,0,0,0,0,0,0,0,0,0,0,0,0,0,0,0,0,0,0,0,0],"sum_hessian":[5.81E2,5.45E2,3.6E1,5E1,4.95E2,1.3E1,2.3E1,3.3E1,1.7E1,4.94E2,1E0,3E0,1E1,3E0,2E1,6E0,2.7E1,9E0,8E0,3.7E2,1.24E2,2E0,1E0,8E0,2E0,1.9E1,1E0,2.1E1,6E0,7E0,2E0,3E0,5E0,3.31E2,3.9E1,1.18E2,6E0,1E0,7E0,1.6E1,3E0],"tree_param":{"num_deleted":"0","num_feature":"25","num_nodes":"41","size_leaf_vector":"1"}},{"base_weights":[6.615414E-3,-3.8867152E-1,3.7577048E-2,-4.4099244E-1,2.6309896E-2,9.8501813E-1,2.3177981E-2,-2.760205E-1,-7.276532E-1,9.139374E-2,3.574458E-1,-1.5218693E-1,1.2853883E-1,-3.5063276E-1,4.991694E-2,1.3919497E-1,-8.837275E-1,-7.107489E-3,3.036218E-2,5.146119E-2,-4.6876237E-1,1.170269E0,9.244048E-2,-2.381474E-2,2.4190718E-2,2.0430164E-2,-7.902618E-3,-5.6648146E-2,-6.577077E-3,2.4791524E-2,-7.8019085E-3,-9.330311E-3,-3.4886684E-2,6.2807654E-3,1.2244883E-1,-3.6432497E-2,8.013777E-3],"categories":[],"categories_nodes":[],"categories_segments":[],"categories_sizes":[],"default_left":[0,0,0,0,0,0,0,0,0,0,0,0,0,0,0,0,0,0,0,0,0,0,0,0,0,0,0,0,0,0,0,0,0,0,0,0,0],"id":4,"left_children":[1,3,5,7,-1,9,11,13,15,-1,17,19,21,23,-1,25,27,-1,-1,29,31,33,35,-1,-1,-1,-1,-1,-1,-1,-1,-1,-1,-1,-1,-1,-1],"loss_changes":[7.0763516E0,2.011063E0,7.289424E0,1.6907921E0,0E0,2.157658E0,9.79368E0,2.5237474E0,2.017108E0,0E0,4.1351825E-1,1.2853652E1,1.2338989E1,1.0670648E0,0E0,2.084537E-1,4.5765877E-1,0E0,0E0,8.063226E0,2.6628704E0,9.990447E0,9.316688E0,0E0,0E0,0E0,0E0,0E0,0E0,0E0,0E0,0E0,0E0,0E0,0E0,0E0,0E0],"parents":[2147483647,0,0,1,1,2,2,3,3,5,5,6,6,7,7,8,8,10,10,11,11,12,12,13,13,15,15,16,16,19,19,20,20,21,21,22,22],"right_children":[2,4,6,8,-1,10,12,14,16,-1,18,20,22,24,-1,26,28,-1,-1,30,32,34,36,-1,-1,-1,-1,-1,-1,-1,-1,-1,-1,-1,-1,-1,-1],"split_conditions":[3.521647E-1,2.3507493E0,3.811697E-1,1.5159731E0,2.6309896E-2,1.4465984E3,1.4895646E3,1.1230613E0,8E-2,9.139374E-2,7.816134E-1,1.0177699E0,8.041819E-1,1.5088252E3,4.991694E-2,1.4719419E3,1.4240268E0,-7.107489E-3,3.036218E-2,7.695158E-1,1.3951277E0,1.5985324E0,8.835461E-1,-2.381474E-2,2.4190718E-2,2.0430164E-2,-7.902618E-3,-5.6648146E-2,-6.577077E-3,2.4791524E-2,-7.8019085E-3,-9.330311E-3,-3.4886684E-2,6.2807654E-3,1.2244883E-1,-3.6432497E-2,8.013777E-3],"split_indices":[14,1,14,15,0,8,8,1,24,0,1,0,2,8,0,8,1,0,0,14,1,1,0,0,0,0,0,0,0,0,0,0,0,0,0,0,0],"split_type":[0,0,0,0,0,0,0,0,0,0,0,0,0,0,0,0,0,0,0,0,0,0,0,0,0,0,0,0,0,0,0,0,0,0,0,0,0],"sum_hessian":[5.76E2,4.1E1,5.35E2,3.9E1,2E0,7E0,5.28E2,2.6E1,1.3E1,3E0,4E0,1.98E2,3.3E2,2.5E1,1E0,2E0,1.1E1,1E0,3E0,1.21E2,7.7E1,1E1,3.2E2,2.4E1,1E0,1E0,1E0,1E1,1E0,4E1,8.1E1,2.1E1,5.6E1,5E0,5E0,1.7E1,3.03E2],"tree_param":{"num_deleted":"0","num_feature":"25","num_nodes":"37","size_leaf_vector":"1"}},{"base_weights":[1.1231744E-2,-3.8058352E-1,4.429076E-2,-1.5527125E-1,-1.0628877E0,-6.932009E-2,1.811919E-1,-4.367731E-1,2.0631054E-1,-8.7228045E-3,-6.840603E-2,4.2574027E-1,-1.5887007E-1,1.482093E-1,1.714925E0,-6.360186E-1,2.8816706E-1,5.427554E-1,-4.4489017E-1,-4.6170312E-1,5.2358115E-1,-1.7397097E-1,1.0713154E-1,1.494669E0,1.2466017E-1,1.3324547E-1,-9.252191E-3,-5.2505273E-2,-5.503305E-3,4.4168714E-2,-1.5352011E-2,-2.433825E-3,5.291253E-2,-1.607282E-2,-3.989818E-2,-1.547648E-2,-3.8302504E-2,5.0461352E-2,8.892994E-3,-2.6033386E-3,-2.1186242E-2,1.2618688E-1,-9.920028E-3,1.50781805E-2,-6.617509E-3],"categories":[],"categories_nodes":[],"categories_segments":[],"categories_sizes":[],"default_left":[0,0,0,0,0,0,0,0,0,0,0,0,0,0,0,0,0,0,0,0,0,0,0,0,0,0,0,0,0,0,0,0,0,0,0,0,0,0,0,0,0,0,0,0,0],"id":5,"left_children":[1,3,5,7,9,11,13,15,17,-1,-1,19,21,23,25,27,29,31,33,35,37,39,-1,41,43,-1,-1,-1,-1,-1,-1,-1,-1,-1,-1,-1,-1,-1,-1,-1,-1,-1,-1,-1,-1],"loss_changes":[7.4907527E0,6.7528815E0,8.302551E0,3.652619E0,6.135273E-1,1.3012771E1,1.1987764E1,3.0721006E0,3.7469573E0,0E0,0E0,4.1490107E0,7.5924354E0,7.360172E0,5.0697813E0,2.0017295E0,1.4069319E0,2.2117393E0,5.5605173E-2,1.5331626E-2,4.7607527E0,5.762392E0,0E0,4.3878E0,7.020139E0,0E0,0E0,0E0,0E0,0E0,0E0,0E0,0E0,0E0,0E0,0E0,0E0,0E0,0E0,0E0,0E0,0E0,0E0,0E0,0E0],"parents":[2147483647,0,0,1,1,2,2,3,3,4,4,5,5,6,6,7,7,8,8,11,11,12,12,13,13,14,14,15,15,16,16,17,17,18,18,19,19,20,20,21,21,23,23,24,24],"right_children":[2,4,6,8,10,12,14,16,18,-1,-1,20,22,24,26,28,30,32,34,36,38,40,-1,42,44,-1,-1,-1,-1,-1,-1,-1,-1,-1,-1,-1,-1,-1,-1,-1,-1,-1,-1,-1,-1],"split_conditions":[3.7349725E0,3.5789125E0,4.229341E0,1.4962452E3,7.691597E-2,3.3856463E0,1.4076971E2,1.5675287E3,1.2598424E0,-8.7228045E-3,-6.840603E-2,4.3248596E0,7.3968277E0,3.7888918E0,1.3048409E0,1.1718086E0,1.4112628E0,-2.7325734E-1,1.6080406E0,1.8642128E0,5.291141E0,4.9969068E0,1.0713154E-1,1.6080406E0,4.959946E0,1.3324547E-1,-9.252191E-3,-5.2505273E-2,-5.503305E-3,4.4168714E-2,-1.5352011E-2,-2.433825E-3,5.291253E-2,-1.607282E-2,-3.989818E-2,-1.547648E-2,-3.8302504E-2,5.0461352E-2,8.892994E-3,-2.6033386E-3,-2.1186242E-2,1.2618688E-1,-9.920028E-3,1.50781805E-2,-6.617509E-3],"split_indices":[19,19,18,7,24,18,9,8,2,0,0,19,19,19,0,0,0,3,0,1,19,19,0,0,18,0,0,0,0,0,0,0,0,0,0,0,0,0,0,0,0,0,0,0,0],"split_type":[0,0,0,0,0,0,0,0,0,0,0,0,0,0,0,0,0,0,0,0,0,0,0,0,0,0,0,0,0,0,0,0,0,0,0,0,0,0,0,0,0,0,0,0,0],"sum_hessian":[5.76E2,4.4E1,5.32E2,3.4E1,1E1,2.91E2,2.41E2,1.9E1,1.5E1,1E0,9E0,4.4E1,2.47E2,2.37E2,4E0,1.5E1,4E0,1E1,5E0,4E0,4E1,2.46E2,1E0,3E0,2.34E2,3E0,1E0,1E1,5E0,2E0,2E0,4E0,6E0,4E0,1E0,3E0,1E0,2.1E1,1.9E1,1.43E2,1.03E2,2E0,1E0,1.52E2,8.2E1],"tree_param":{"num_deleted":"0","num_feature":"25","num_nodes":"45","size_leaf_vector":"1"}},{"base_weights":[1.632679E-2,-1.686554E-2,4.9281853E-1,4.356987E-2,-3.0061036E-1,1.1426021E0,-8.760638E-2,1.0735189E-2,7.8956187E-1,1.6063173E-1,-4.5658875E-1,1.2300903E0,-1.0340906E-2,-4.8851274E-2,3.1727884E-2,-7.576514E-2,2.5344896E-1,-2.937282E-2,1.0599915E0,-4.6480942E-1,6.8525046E-1,-6.723665E-1,1.3805181E-1,1.360712E0,2.7923487E-2,5.1269484E-1,-1.7666708E-1,1.5943727E-2,-9.238752E-3,3.1422712E-2,-1.0355529E-2,7.9801306E-2,-3.3208866E-2,-4.7328677E-2,4.6207998E-2,5.5612274E-2,-3.0578963E-2,-4.4770867E-2,-4.8420974E-3,2.2499094E-2,-3.8864672E-2,2.275569E-2,8.956092E-2,-8.180316E-3,4.018615E-2,-1.8904643E-2,4.8680004E-2],"categories":[],"categories_nodes":[],"categories_segments":[],"categories_sizes":[],"default_left":[0,0,0,0,0,0,0,0,0,0,0,0,0,0,0,0,0,0,0,0,0,0,0,0,0,0,0,0,0,0,0,0,0,0,0,0,0,0,0,0,0,0,0,0,0,0,0],"id":6,"left_children":[1,3,5,7,9,11,13,15,17,19,21,23,-1,-1,25,27,29,-1,31,33,35,37,39,41,-1,43,45,-1,-1,-1,-1,-1,-1,-1,-1,-1,-1,-1,-1,-1,-1,-1,-1,-1,-1,-1,-1],"loss_changes":[9.228964E0,9.376035E0,1.4431822E1,1.1038502E1,6.979946E0,2.282772E0,1.8466601E0,9.10996E0,7.0911865E0,8.521465E0,9.331159E0,1.0648041E0,0E0,0E0,1.9949671E0,8.5879965E0,1.3216703E1,0E0,7.7071285E0,5.4089756E0,4.514355E0,2.2544804E0,3.966518E0,1.2471924E0,0E0,7.029946E-1,2.1701252E0,0E0,0E0,0E0,0E0,0E0,0E0,0E0,0E0,0E0,0E0,0E0,0E0,0E0,0E0,0E0,0E0,0E0,0E0,0E0,0E0],"parents":[2147483647,0,0,1,1,2,2,3,3,4,4,5,5,6,6,7,7,8,8,9,9,10,10,11,11,14,14,15,15,16,16,18,18,19,19,20,20,21,21,22,22,23,23,25,25,26,26],"right_children":[2,4,6,8,10,12,14,16,18,20,22,24,-1,-1,26,28,30,-1,32,34,36,38,40,42,-1,44,46,-1,-1,-1,-1,-1,-1,-1,-1,-1,-1,-1,-1,-1,-1,-1,-1,-1,-1,-1,-1],"split_conditions":[1.9997891E0,2.0648523E-1,4.959946E0,1.415415E-1,1.1418175E0,1.5492903E3,1.0542152E0,1.1039579E-1,4.278747E0,1.0213594E0,5.404378E-1,1.4872901E-1,-1.0340906E-2,-4.8851274E-2,1.6551259E3,1.4476145E3,1.6516237E-1,-2.937282E-2,1.3402461E0,1.0981044E0,1.5390417E-1,5.417302E0,1.5037038E0,1.4153202E3,2.7923487E-2,2.0777972E0,7.5061E0,1.5943727E-2,-9.238752E-3,3.1422712E-2,-1.0355529E-2,7.9801306E-2,-3.3208866E-2,-4.7328677E-2,4.6207998E-2,5.5612274E-2,-3.0578963E-2,-4.4770867E-2,-4.8420974E-3,2.2499094E-2,-3.8864672E-2,2.275569E-2,8.956092E-2,-8.180316E-3,4.018615E-2,-1.8904643E-2,4.8680004E-2],"split_indices":[2,3,18,3,14,7,3,23,18,14,3,23,0,0,8,8,23,0,1,1,24,19,15,7,0,2,18,0,0,0,0,0,0,0,0,0,0,0,0,0,0,0,0,0,0,0,0],"split_type":[0,0,0,0,0,0,0,0,0,0,0,0,0,0,0,0,0,0,0,0,0,0,0,0,0,0,0,0,0,0,0,0,0,0,0,0,0,0,0,0,0,0,0,0,0,0,0],"sum_hessian":[5.82E2,5.45E2,3.7E1,4.5E2,9.5E1,1.7E1,2E1,4.32E2,1.8E1,2.4E1,7.1E1,1.6E1,1E0,2E0,1.8E1,3.19E2,1.13E2,3E0,1.5E1,1.1E1,1.3E1,5.2E1,1.9E1,1.3E1,3E0,5E0,1.3E1,5.9E1,2.6E2,6.9E1,4.4E1,1.3E1,2E0,9E0,2E0,1.1E1,2E0,4.6E1,6E0,1.5E1,4E0,2E0,1.1E1,1E0,4E0,1.2E1,1E0],"tree_param":{"num_deleted":"0","num_feature":"25","num_nodes":"47","size_leaf_vector":"1"}},{"base_weights":[-6.2051654E-4,8.5547054E-1,-1.5664963E-2,-2.1702195E-2,1.4438694E0,-3.328281E-1,9.593593E-3,1.6384095E-2,-9.819712E-3,9.740496E-2,1.6384095E-2,2.1336612E-1,-4.676199E-1,-1.3522759E-1,1.04149945E-1,4.749839E-1,-4.6819738E-1,-5.3460586E-1,2.4166243E-2,6.084159E-1,-1.7565396E-1,1.2762734E0,8.52741E-2,4.9083335E-3,4.4964973E-2,-7.189851E-3,-3.4947913E-2,-1.896288E-2,-4.5674097E-2,5.7134632E-2,-1.388064E-2,-7.0514847E-3,-3.4531944E-2,8.669422E-2,1.8052561E-2,-2.8143939E-2,7.701046E-3],"categories":[],"categories_nodes":[],"categories_segments":[],"categories_sizes":[],"default_left":[0,0,0,0,0,0,0,0,0,0,0,0,0,0,0,0,0,0,0,0,0,0,0,0,0,0,0,0,0,0,0,0,0,0,0,0,0],"id":7,"left_children":[1,3,5,7,9,11,13,-1,-1,-1,-1,15,17,19,21,23,25,27,-1,29,31,33,35,-1,-1,-1,-1,-1,-1,-1,-1,-1,-1,-1,-1,-1,-1],"loss_changes":[7.457703E0,5.192609E0,4.561499E0,2.5391844E-1,8.1797695E-1,3.1919193E0,7.2443905E0,0E0,0E0,0E0,0E0,1.8271682E0,2.197658E0,6.3899994E0,6.9711103E0,6.9399965E-1,4.9623966E-2,1.3444242E0,0E0,3.396358E0,4.5580406E0,3.8767147E-1,7.6060038E0,0E0,0E0,0E0,0E0,0E0,0E0,0E0,0E0,0E0,0E0,0E0,0E0,0E0,0E0],"parents":[2147483647,0,0,1,1,2,2,3,3,4,4,5,5,6,6,11,11,12,12,13,13,14,14,15,15,16,16,17,17,19,19,20,20,21,21,22,22],"right_children":[2,4,6,8,10,12,14,-1,-1,-1,-1,16,18,20,22,24,26,28,-1,30,32,34,36,-1,-1,-1,-1,-1,-1,-1,-1,-1,-1,-1,-1,-1,-1],"split_conditions":[-1.8291817E2,-2.076588E2,3.521647E-1,2.338798E0,2.633369E0,1.491416E3,1.4880876E3,1.6384095E-2,-9.819712E-3,9.740496E-2,1.6384095E-2,4.005347E0,2.3507493E0,1.4098844E3,3.811697E-1,1.1230613E0,1.4356161E3,4.0263063E-1,2.4166243E-2,1.3709738E0,1.4421158E-1,8.4162664E-1,6.4167196E-1,4.9083335E-3,4.4964973E-2,-7.189851E-3,-3.4947913E-2,-1.896288E-2,-4.5674097E-2,5.7134632E-2,-1.388064E-2,-7.0514847E-3,-3.4531944E-2,8.669422E-2,1.8052561E-2,-2.8143939E-2,7.701046E-3],"split_indices":[9,9,14,0,14,7,7,0,0,0,0,18,1,7,14,1,7,15,0,14,24,0,14,0,0,0,0,0,0,0,0,0,0,0,0,0,0],"split_type":[0,0,0,0,0,0,0,0,0,0,0,0,0,0,0,0,0,0,0,0,0,0,0,0,0,0,0,0,0,0,0,0,0,0,0,0,0],"sum_hessian":[5.77E2,9E0,5.68E2,4E0,5E0,4.1E1,5.27E2,1E0,3E0,4E0,1E0,8E0,3.3E1,2.08E2,3.19E2,6E0,2E0,3.1E1,2E0,1E1,1.98E2,4E0,3.15E2,3E0,3E0,1E0,1E0,1.7E1,1.4E1,7E0,3E0,1.74E2,2.4E1,3E0,1E0,2.2E1,2.93E2],"tree_param":{"num_deleted":"0","num_feature":"25","num_nodes":"37","size_leaf_vector":"1"}},{"base_weights":[9.363002E-3,8.593481E-1,-7.349854E-3,1.9926949E-1,1.3762021E0,3.341335E-2,-3.2945663E-1,-9.377823E-3,3.6416106E-2,1.589257E-2,9.272952E-2,-6.03464E-2,5.0293916E-1,1.4751033E-1,-5.7145226E-1,-7.245853E-2,1.2053177E0,1.21439636E-1,4.403947E-1,7.134608E-1,-4.8330018E-1,-6.5986955E-1,2.6008774E-2,-1.0324926E-3,-1.5283227E-2,1.0320825E-1,2.7619913E-2,3.8401395E-2,1.0459757E-3,-2.8024403E-2,6.9532156E-2,-2.9016733E-3,-5.0261345E-2,-4.3116234E-2,4.716105E-2],"categories":[],"categories_nodes":[],"categories_segments":[],"categories_sizes":[],"default_left":[0,0,0,0,0,0,0,0,0,0,0,0,0,0,0,0,0,0,0,0,0,0,0,0,0,0,0,0,0,0,0,0,0,0,0],"id":8,"left_children":[1,3,5,7,9,11,13,-1,-1,-1,-1,15,17,19,21,23,25,-1,27,29,31,33,-1,-1,-1,-1,-1,-1,-1,-1,-1,-1,-1,-1,-1],"loss_changes":[8.103553E0,3.478572E0,7.363867E0,9.645756E-1,7.194538E-1,2.1953617E1,7.356001E0,0E0,0E0,0E0,0E0,6.464569E0,7.00473E0,8.19898E0,4.0178814E0,4.154538E0,7.4230003E-1,0E0,6.8280983E0,6.8511157E0,1.6550012E0,3.8768406E0,0E0,0E0,0E0,0E0,0E0,0E0,0E0,0E0,0E0,0E0,0E0,0E0,0E0],"parents":[2147483647,0,0,1,1,2,2,3,3,4,4,5,5,6,6,11,11,12,12,13,13,14,14,15,15,16,16,18,18,19,19,20,20,21,21],"right_children":[2,4,6,8,10,12,14,-1,-1,-1,-1,16,18,20,22,24,26,-1,28,30,32,34,-1,-1,-1,-1,-1,-1,-1,-1,-1,-1,-1,-1,-1],"split_conditions":[-1.8291817E2,-2.076588E2,1.6516237E-1,1.0718946E0,4.6640043E0,1.1819468E-1,1.1971189E0,-9.377823E-3,3.6416106E-2,1.589257E-2,9.272952E-2,6.574314E0,1.1859481E-1,1.8533694E0,4.9115273E-1,8.096596E-2,1.4871563E0,1.21439636E-1,5.0030026E0,1.44313E0,1.7075775E0,1.5969757E0,2.6008774E-2,-1.0324926E-3,-1.5283227E-2,1.0320825E-1,2.7619913E-2,3.8401395E-2,1.0459757E-3,-2.8024403E-2,6.9532156E-2,-2.9016733E-3,-5.0261345E-2,-4.3116234E-2,4.716105E-2],"split_indices":[9,9,23,1,18,23,2,0,0,0,0,19,23,1,3,24,1,0,19,15,15,11,0,0,0,0,0,0,0,0,0,0,0,0,0],"split_type":[0,0,0,0,0,0,0,0,0,0,0,0,0,0,0,0,0,0,0,0,0,0,0,0,0,0,0,0,0,0,0,0,0,0,0],"sum_hessian":[5.69E2,1E1,5.59E2,5E0,5E0,4.97E2,6.2E1,3E0,2E0,1E0,4E0,4.15E2,8.2E1,2.1E1,4.1E1,4.12E2,3E0,2E0,8E1,1.1E1,1E1,3.8E1,3E0,3.17E2,9.5E1,1E0,2E0,5.4E1,2.6E1,3E0,8E0,5E0,5E0,3.7E1,1E0],"tree_param":{"num_deleted":"0","num_feature":"25","num_nodes":"35","size_leaf_vector":"1"}},{"base_weights":[-1.5527953E-2,8.5279834E-1,-3.1006051E-2,1.3035768E0,-8.95582E-3,-4.371401E-1,4.4727055E-3,8.6111784E-2,1.5415792E-2,-5.014305E-1,6.431917E-2,3.7677667E-1,-3.103185E-2,-2.6470202E-1,-6.6489494E-1,-9.552346E-3,2.045476E-2,1.5726572E-1,2.1143402E-1,-5.313469E-2,7.5345576E-1,-4.898985E-2,-8.68179E-3,-4.954438E-2,-4.292693E-3,1.1848769E-1,4.635041E-3,3.7593278E-4,-1.9380964E-2,6.229914E-2,-3.2531675E-2],"categories":[],"categories_nodes":[],"categories_segments":[],"categories_sizes":[],"default_left":[0,0,0,0,0,0,0,0,0,0,0,0,0,0,0,0,0,0,0,0,0,0,0,0,0,0,0,0,0,0,0],"id":9,"left_children":[1,3,5,7,-1,9,11,-1,-1,13,15,17,19,21,23,-1,-1,-1,25,27,29,-1,-1,-1,-1,-1,-1,-1,-1,-1,-1],"loss_changes":[7.673825E0,4.711657E0,8.071069E0,5.9557056E-1,0E0,1.4830074E0,6.832431E0,0E0,0E0,1.3718681E0,4.2522857E-1,1.6144482E1,8.224234E0,1.0737886E0,2.1359787E0,0E0,0E0,0E0,1.0021834E1,7.376293E0,5.36105E0,0E0,0E0,0E0,0E0,0E0,0E0,0E0,0E0,0E0,0E0],"parents":[2147483647,0,0,1,1,2,2,3,3,5,5,6,6,9,9,10,10,11,11,12,12,13,13,14,14,18,18,19,19,20,20],"right_children":[2,4,6,8,-1,10,12,-1,-1,14,16,18,20,22,24,-1,-1,-1,26,28,30,-1,-1,-1,-1,-1,-1,-1,-1,-1,-1],"split_conditions":[-1.8291817E2,2.5553472E0,8.1212866E-1,2.633369E0,-8.95582E-3,5.1043572E0,9.969535E-1,8.6111784E-2,1.5415792E-2,1.5049723E3,1.7696868E0,7.816134E-1,1.9829775E0,-1.2780549E-1,5.717658E0,-9.552346E-3,2.045476E-2,1.5726572E-1,8.873077E-1,1.6258848E-1,1.5492903E3,-4.898985E-2,-8.68179E-3,-4.954438E-2,-4.292693E-3,1.1848769E-1,4.635041E-3,3.7593278E-4,-1.9380964E-2,6.229914E-2,-3.2531675E-2],"split_indices":[9,0,15,14,0,19,15,0,0,8,0,1,2,3,18,0,0,0,11,3,7,0,0,0,0,0,0,0,0,0,0],"split_type":[0,0,0,0,0,0,0,0,0,0,0,0,0,0,0,0,0,0,0,0,0,0,0,0,0,0,0,0,0,0,0],"sum_hessian":[5.68E2,9E0,5.59E2,6E0,3E0,4.4E1,5.15E2,5E0,1E0,3.9E1,5E0,4.4E1,4.71E2,1.7E1,2.2E1,3E0,2E0,2E0,4.2E1,4.59E2,1.2E1,2E0,1.5E1,1.7E1,5E0,2E0,4E1,3.77E2,8.2E1,1E1,2E0],"tree_param":{"num_deleted":"0","num_feature":"25","num_nodes":"31","size_leaf_vector":"1"}},{"base_weights":[2.5892125E-3,7.448529E-1,-1.0437501E-2,1.1455309E0,-8.552808E-3,-1.6319975E-2,1.00100726E-1,1.952729E-2,8.4508225E-2,5.365437E-2,-1.6185404E-1,8.111941E-1,1.6454995E-2,-9.70248E-1,-1.1983484E-1,6.0969543E-2,-3.314102E-2,-4.6558897E-3,1.5749497E-2,-5.701679E-3,-6.406632E-2,-3.60451E-2,-3.0747035E-3],"categories":[],"categories_nodes":[],"categories_segments":[],"categories_sizes":[],"default_left":[0,0,0,0,0,0,0,0,0,0,0,0,0,0,0,0,0,0,0,0,0,0,0],"id":10,"left_children":[1,3,5,7,-1,9,-1,-1,-1,11,13,15,17,19,21,-1,-1,-1,-1,-1,-1,-1,-1],"loss_changes":[5.6062737E0,3.7189074E0,5.6562047E0,1.0510187E0,0E0,5.8031816E0,0E0,0E0,0E0,1.0835953E1,6.1678247E0,5.591893E0,8.536081E0,6.6672516E-1,5.8077326E0,0E0,0E0,0E0,0E0,0E0,0E0,0E0,0E0],"parents":[2147483647,0,0,1,1,2,2,3,3,5,5,9,9,10,10,11,11,12,12,13,13,14,14],"right_children":[2,4,6,8,-1,10,-1,-1,-1,12,14,16,18,20,22,-1,-1,-1,-1,-1,-1,-1,-1],"split_conditions":[-1.8291817E2,2.5553472E0,7.3968277E0,1.4153202E3,-8.552808E-3,5.0030026E0,1.00100726E-1,1.952729E-2,8.4508225E-2,1.4465984E3,5.0444674E0,1.2190704E0,1.1151205E-1,-4.3265635E-1,7.095947E-1,6.0969543E-2,-3.314102E-2,-4.6558897E-3,1.5749497E-2,-5.701679E-3,-6.406632E-2,-3.60451E-2,-3.0747035E-3],"split_indices":[9,0,19,7,0,19,0,0,0,8,19,14,23,3,2,0,0,0,0,0,0,0,0],"split_type":[0,0,0,0,0,0,0,0,0,0,0,0,0,0,0,0,0,0,0,0,0,0,0],"sum_hessian":[5.78E2,9E0,5.69E2,6E0,3E0,5.68E2,1E0,2E0,4E0,3.84E2,1.84E2,1.7E1,3.67E2,8E0,1.76E2,1.5E1,2E0,2.66E2,1.01E2,1E0,7E0,2.1E1,1.55E2],"tree_param":{"num_deleted":"0","num_feature":"25","num_nodes":"23","size_leaf_vector":"1"}},{"base_weights":[-2.2077369E-2,-4.1857985E-1,8.174397E-3,1.5376878E-1,-5.446468E-1,1.6675848E-1,-7.5048484E-2,4.5054808E-1,-2.9462764E-2,-4.0782988E-1,-5.5273257E-2,9.2670506E-1,9.250605E-2,-3.4130847E-1,8.358094E-2,4.520386E-2,1.1077383E-1,-1.9131076E-1,-6.856913E-1,1.2637906E-1,4.9246234E-1,-2.4141462E-1,2.3441654E-1,-8.304435E-1,-2.3850958E-1,2.1921463E-1,-1.9841531E-1,-8.024751E-3,2.5329987E-2,-1.5624341E-2,2.5353394E-2,-5.2400306E-2,6.348834E-3,1.2338393E-2,8.2799435E-2,5.9760343E-2,-1.8823436E-2,-5.0880298E-2,1.6814208E-2,-5.4592874E-2,2.5132444E-2,1.7014636E-2,-2.034951E-2,5.1689944E-3,5.3854905E-2,-2.119462E-2,1.662557E-2],"categories":[],"categories_nodes":[],"categories_segments":[],"categories_sizes":[],"default_left":[0,0,0,0,0,0,0,0,0,0,0,0,0,0,0,0,0,0,0,0,0,0,0,0,0,0,0,0,0,0,0,0,0,0,0,0,0,0,0,0,0,0,0,0,0,0,0],"id":11,"left_children":[1,3,5,7,9,11,13,15,-1,17,-1,19,21,23,25,-1,27,29,31,-1,33,35,37,39,41,43,45,-1,-1,-1,-1,-1,-1,-1,-1,-1,-1,-1,-1,-1,-1,-1,-1,-1,-1,-1,-1],"loss_changes":[6.7685456E0,2.9699187E0,6.941373E0,1.7521815E0,1.3245153E0,1.012772E1,1.4600177E1,5.3394616E-1,0E0,1.4330397E0,0E0,7.158531E0,7.922808E0,6.288378E0,8.343353E0,0E0,3.6102957E-1,7.88678E-1,1.7261724E0,0E0,3.025538E0,4.7863207E0,6.040475E0,2.5644703E0,5.7713065E0,1.3191882E1,5.325054E0,0E0,0E0,0E0,0E0,0E0,0E0,0E0,0E0,0E0,0E0,0E0,0E0,0E0,0E0,0E0,0E0,0E0,0E0,0E0,0E0],"parents":[2147483647,0,0,1,1,2,2,3,3,4,4,5,5,6,6,7,7,9,9,11,11,12,12,13,13,14,14,16,16,17,17,18,18,20,20,21,21,22,22,23,23,24,24,25,25,26,26],"right_children":[2,4,6,8,10,12,14,16,-1,18,-1,20,22,24,26,-1,28,30,32,-1,34,36,38,40,42,44,46,-1,-1,-1,-1,-1,-1,-1,-1,-1,-1,-1,-1,-1,-1,-1,-1,-1,-1,-1,-1],"split_conditions":[3.521647E-1,1.491416E3,4.4088936E0,-7.9555154E0,1.5004012E3,1.4341323E3,1.4871765E3,7.5876415E-1,-2.9462764E-2,1E0,-5.5273257E-2,1.2394211E0,-2.2538456E-1,4.5893793E0,5.3772006E0,4.520386E-2,1.5004012E3,1.5139817E3,1.4240268E0,1.2637906E-1,1.4299014E3,1.4310276E3,1.440963E3,1.8533694E0,3.459117E0,1.5529985E3,1.0959351E0,-8.024751E-3,2.5329987E-2,-1.5624341E-2,2.5353394E-2,-5.2400306E-2,6.348834E-3,1.2338393E-2,8.2799435E-2,5.9760343E-2,-1.8823436E-2,-5.0880298E-2,1.6814208E-2,-5.4592874E-2,2.5132444E-2,1.7014636E-2,-2.034951E-2,5.1689944E-3,5.3854905E-2,-2.119462E-2,1.662557E-2],"split_indices":[14,7,19,9,8,7,7,0,0,15,0,14,3,19,19,0,8,7,1,0,7,8,7,1,18,8,10,0,0,0,0,0,0,0,0,0,0,0,0,0,0,0,0,0,0,0,0],"split_type":[0,0,0,0,0,0,0,0,0,0,0,0,0,0,0,0,0,0,0,0,0,0,0,0,0,0,0,0,0,0,0,0,0,0,0,0,0,0,0,0,0,0,0,0,0,0,0],"sum_hessian":[5.63E2,3.9E1,5.24E2,7E0,3.2E1,1.8E2,3.44E2,5E0,2E0,2.5E1,7E0,1.5E1,1.65E2,1.28E2,2.16E2,2E0,3E0,1.5E1,1E1,3E0,1.2E1,4.9E1,1.16E2,2.1E1,1.07E2,1.46E2,7E1,2E0,1E0,1.4E1,1E0,8E0,2E0,1E1,2E0,2E0,4.7E1,4E0,1.12E2,2E1,1E0,1.7E1,9E1,1.23E2,2.3E1,5.3E1,1.7E1],"tree_param":{"num_deleted":"0","num_feature":"25","num_nodes":"47","size_leaf_vector":"1"}},{"base_weights":[6.770047E-3,3.2952446E-1,-2.2471238E-2,-4.8384283E-2,9.9926835E-1,-6.4956576E-2,2.3389271E-1,-2.4130282E-1,7.956601E-1,1.6225029E0,9.5316604E-2,-4.94538E-2,-9.07552E-1,4.926279E-1,-1.6200647E-1,1.4690846E-1,-7.840372E-1,6.1059058E-2,2.5815114E-2,1.9009051E0,2.0355755E-2,-3.929982E-1,4.0912855E-2,-5.700457E-2,9.7733535E-2,-6.1082974E-2,-4.022069E-3,2.607653E-1,1.0433077E0,2.7530092E-1,-3.6253348E-1,-2.9123422E-2,4.155772E-2,-6.478163E-2,1.9712985E-4,1.5621303E-2,1.2588455E-1,-3.5841722E-2,-1.1554003E-2,3.1463E-2,-4.7316505E-3,3.9086994E-2,-8.7155085E-3,4.2157274E-2,9.805181E-2,3.609914E-2,-1.0282857E-2,-3.438534E-2,3.0753198E-3],"categories":[],"categories_nodes":[],"categories_segments":[],"categories_sizes":[],"default_left":[0,0,0,0,0,0,0,0,0,0,0,0,0,0,0,0,0,0,0,0,0,0,0,0,0,0,0,0,0,0,0,0,0,0,0,0,0,0,0,0,0,0,0,0,0,0,0,0,0],"id":12,"left_children":[1,3,5,7,9,11,13,15,17,19,21,23,25,27,29,31,33,-1,-1,35,-1,37,-1,39,-1,-1,-1,41,43,45,47,-1,-1,-1,-1,-1,-1,-1,-1,-1,-1,-1,-1,-1,-1,-1,-1,-1,-1],"loss_changes":[5.3397355E0,1.1944147E1,5.6679897E0,5.239781E0,9.422703E0,5.781025E0,7.659854E0,5.593267E0,4.8857212E-2,2.9276638E0,2.5594022E0,5.6562176E0,6.74757E-1,5.473633E0,2.730564E0,5.8571277E0,2.564096E0,0E0,0E0,2.041504E0,0E0,8.97727E-2,0E0,5.607007E0,0E0,0E0,0E0,5.3293276E0,1.4687824E0,1.5608644E0,1.85901E0,0E0,0E0,0E0,0E0,0E0,0E0,0E0,0E0,0E0,0E0,0E0,0E0,0E0,0E0,0E0,0E0,0E0,0E0],"parents":[2147483647,0,0,1,1,2,2,3,3,4,4,5,5,6,6,7,7,8,8,9,9,10,10,11,11,12,12,13,13,14,14,15,15,16,16,19,19,21,21,23,23,27,27,28,28,29,29,30,30],"right_children":[2,4,6,8,10,12,14,16,18,20,22,24,26,28,30,32,34,-1,-1,36,-1,38,-1,40,-1,-1,-1,42,44,46,48,-1,-1,-1,-1,-1,-1,-1,-1,-1,-1,-1,-1,-1,-1,-1,-1,-1,-1],"split_conditions":[3.3958068E0,-3.7750727E-1,1.6733271E0,2.166879E0,5.221553E0,1.2588989E0,4.992344E0,1.7219234E0,1.3990862E3,1.5042236E3,1.3901365E0,6.609383E0,1.6870568E0,1.5949266E3,-1.4808302E2,1.4291713E0,2.3179083E0,6.1059058E-2,2.5815114E-2,6.8361104E-1,2.0355755E-2,1.4438529E3,4.0912855E-2,-1.1845273E2,9.7733535E-2,-6.1082974E-2,-4.022069E-3,5.404378E-1,4.935813E0,2.516979E0,-7.9328964E1,-2.9123422E-2,4.155772E-2,-6.478163E-2,1.9712985E-4,1.5621303E-2,1.2588455E-1,-3.5841722E-2,-1.1554003E-2,3.1463E-2,-4.7316505E-3,3.9086994E-2,-8.7155085E-3,4.2157274E-2,9.805181E-2,3.609914E-2,-1.0282857E-2,-3.438534E-2,3.0753198E-3],"split_indices":[18,3,2,1,19,10,18,1,7,8,1,19,0,8,9,1,15,0,0,14,0,7,0,9,0,0,0,3,19,0,9,0,0,0,0,0,0,0,0,0,0,0,0,0,0,0,0,0,0],"split_type":[0,0,0,0,0,0,0,0,0,0,0,0,0,0,0,0,0,0,0,0,0,0,0,0,0,0,0,0,0,0,0,0,0,0,0,0,0,0,0,0,0,0,0,0,0,0,0,0,0],"sum_hessian":[5.64E2,4.6E1,5.18E2,3E1,1.6E1,4.45E2,7.3E1,2.5E1,5E0,9E0,7E0,4.38E2,7E0,4.4E1,2.9E1,1.5E1,1E1,2E0,3E0,7E0,2E0,4E0,3E0,4.37E2,1E0,6E0,1E0,3.2E1,1.2E1,9E0,2E1,7E0,8E0,7E0,3E0,1E0,6E0,1E0,3E0,1.5E1,4.22E2,1.6E1,1.6E1,9E0,3E0,5E0,4E0,1.3E1,7E0],"tree_param":{"num_deleted":"0","num_feature":"25","num_nodes":"49","size_leaf_vector":"1"}},{"base_weights":[-1.5263355E-3,-1.350123E-1,8.105827E-2,1.3849618E-1,-2.8429854E-1,-1.329242E-1,1.8457672E-1,5.2703214E-1,-2.0708305E-1,-3.1910685E-1,9.963649E-1,1.1738187E0,-1.9007412E-1,2.0969526E-1,-8.2580906E-1,7.793002E-1,-3.4439087E-1,5.8616694E-2,-2.9070807E-1,4.0543997E-1,-3.7238657E-1,2.6247848E-2,8.0192015E-2,1.2036431E-2,8.201818E-2,-3.670895E-1,2.1233814E-2,3.6808896E-1,8.6643726E-2,-5.669709E-2,-6.902901E-3,1.0367448E-2,7.567738E-2,3.940459E-2,-3.3097528E-2,-3.3023562E-3,-3.2897234E-2,7.2587304E-2,-1.994542E-2,-3.2805768E-3,-2.6410107E-2,-1.0055988E-2,-3.7751228E-2,1.5521961E-1,-4.788034E-3,-7.2041363E-3,3.7493333E-2,3.8060024E-2,-1.6573297E-3],"categories":[],"categories_nodes":[],"categories_segments":[],"categories_sizes":[],"default_left":[0,0,0,0,0,0,0,0,0,0,0,0,0,0,0,0,0,0,0,0,0,0,0,0,0,0,0,0,0,0,0,0,0,0,0,0,0,0,0,0,0,0,0,0,0,0,0,0,0],"id":13,"left_children":[1,3,5,7,9,11,13,15,17,19,21,23,25,27,29,31,33,-1,35,37,39,-1,-1,-1,-1,41,43,45,47,-1,-1,-1,-1,-1,-1,-1,-1,-1,-1,-1,-1,-1,-1,-1,-1,-1,-1,-1,-1],"loss_changes":[6.316606E0,8.981376E0,7.8660355E0,1.0582195E1,6.6479845E0,8.886021E0,6.2388477E0,8.402176E0,4.442609E0,5.516885E0,1.7579651E-1,6.656604E-1,4.1971264E0,4.528906E0,3.9937592E-1,8.259666E0,2.2295032E0,0E0,2.3979583E0,6.3371572E0,2.775484E0,0E0,0E0,0E0,0E0,3.0839815E0,1.3686402E1,1.286164E1,8.340965E0,0E0,0E0,0E0,0E0,0E0,0E0,0E0,0E0,0E0,0E0,0E0,0E0,0E0,0E0,0E0,0E0,0E0,0E0,0E0,0E0],"parents":[2147483647,0,0,1,1,2,2,3,3,4,4,5,5,6,6,7,7,8,8,9,9,10,10,11,11,12,12,13,13,14,14,15,15,16,16,18,18,19,19,20,20,25,25,26,26,27,27,28,28],"right_children":[2,4,6,8,10,12,14,16,18,20,22,24,26,28,30,32,34,-1,36,38,40,-1,-1,-1,-1,42,44,46,48,-1,-1,-1,-1,-1,-1,-1,-1,-1,-1,-1,-1,-1,-1,-1,-1,-1,-1,-1,-1],"split_conditions":[1.489977E3,1.4465984E3,1.027678E0,1.103179E-1,4.2711678E0,-1.8291817E2,2.2664848E-1,9.9608237E-1,-3.2715134E1,9.529919E-1,2.4947662E0,1.4153202E3,1.5402887E3,1.2092556E0,1.5204147E3,7.6680535E-1,1.369848E0,5.8616694E-2,8.041819E-1,8.44907E-1,4.0253344E0,2.6247848E-2,8.0192015E-2,1.2036431E-2,8.201818E-2,1.5109899E3,1.5414143E3,1.3483192E0,1.5067181E3,-5.669709E-2,-6.902901E-3,1.0367448E-2,7.567738E-2,3.940459E-2,-3.3097528E-2,-3.3023562E-3,-3.2897234E-2,7.2587304E-2,-1.994542E-2,-3.2805768E-3,-2.6410107E-2,-1.0055988E-2,-3.7751228E-2,1.5521961E-1,-4.788034E-3,-7.2041363E-3,3.7493333E-2,3.8060024E-2,-1.6573297E-3],"split_indices":[8,8,1,24,15,9,24,0,9,15,1,7,8,2,7,2,1,0,2,0,19,0,0,0,0,8,8,15,8,0,0,0,0,0,0,0,0,0,0,0,0,0,0,0,0,0,0,0,0],"split_type":[0,0,0,0,0,0,0,0,0,0,0,0,0,0,0,0,0,0,0,0,0,0,0,0,0,0,0,0,0,0,0,0,0,0,0,0,0,0,0,0,0,0,0,0,0,0,0,0,0],"sum_hessian":[5.71E2,2.18E2,3.53E2,7.7E1,1.41E2,1.15E2,2.38E2,3.6E1,4.1E1,1.38E2,3E0,4E0,1.11E2,2.33E2,5E0,2.8E1,8E0,2E0,3.9E1,9E0,1.29E2,2E0,1E0,1E0,3E0,6E1,5.1E1,1.01E2,1.32E2,4E0,1E0,1.3E1,1.5E1,1E0,7E0,2.1E1,1.8E1,4E0,5E0,2.3E1,1.06E2,3.5E1,2.5E1,1E0,5E1,3.5E1,6.6E1,2.2E1,1.1E2],"tree_param":{"num_deleted":"0","num_feature":"25","num_nodes":"49","size_leaf_vector":"1"}},{"base_weights":[-9.88088E-3,1.2269247E-2,-5.152304E-1,2.8957674E-2,-6.7675126E-1,-6.131894E-1,2.2492748E-2,-3.182613E-2,2.3331164E-1,-8.622663E-1,-1.2448434E-2,1.02948695E-1,-7.3168224E-1,-7.461075E-2,3.9347982E-1,3.2343873E-1,-6.2731713E-1,-8.004394E-3,-9.3669796E-1,-6.8302895E-3,2.2599276E-2,-9.083013E-1,-5.5488586E-2,1.5203247E-2,-7.957259E-3,4.8216205E-2,-3.536319E-3,8.804969E-2,1.60487E-2,-5.070807E-2,5.306023E-2,-6.164269E-2,-9.058073E-3,-1.7771749E-2,-6.219868E-2,2.6535088E-2,-3.2083947E-2],"categories":[],"categories_nodes":[],"categories_segments":[],"categories_sizes":[],"default_left":[0,0,0,0,0,0,0,0,0,0,0,0,0,0,0,0,0,0,0,0,0,0,0,0,0,0,0,0,0,0,0,0,0,0,0,0,0],"id":14,"left_children":[1,3,5,7,9,11,-1,13,15,17,-1,19,21,23,25,27,29,-1,31,-1,-1,33,35,-1,-1,-1,-1,-1,-1,-1,-1,-1,-1,-1,-1,-1,-1],"loss_changes":[6.397842E0,6.320867E0,2.322534E0,6.665302E0,9.5285654E-1,1.9421835E0,0E0,7.562731E0,9.743511E0,3.632903E-1,0E0,2.8022105E-1,2.2187452E0,7.2068796E0,7.098168E0,6.777918E0,4.69856E0,0E0,4.1490078E-1,0E0,0E0,8.713455E-1,1.4291806E0,0E0,0E0,0E0,0E0,0E0,0E0,0E0,0E0,0E0,0E0,0E0,0E0,0E0,0E0],"parents":[2147483647,0,0,1,1,2,2,3,3,4,4,5,5,7,7,8,8,9,9,11,11,12,12,13,13,14,14,15,15,16,16,18,18,21,21,22,22],"right_children":[2,4,6,8,10,12,-1,14,16,18,-1,20,22,24,26,28,30,-1,32,-1,-1,34,36,-1,-1,-1,-1,-1,-1,-1,-1,-1,-1,-1,-1,-1,-1],"split_conditions":[2.2103399E-1,1.6526943E3,4.275733E-1,1.1819468E-1,1.4178474E-1,9.5769334E-1,2.2492748E-2,1.5639501E3,1.7859685E-1,3.4882286E0,-1.2448434E-2,1.0787853E0,4.4549985E0,1.4476145E3,4.9777694E0,8.3238775E-1,1.821634E0,-8.004394E-3,4.5517993E-1,-6.8302895E-3,2.2599276E-2,3.5970638E0,1.5325745E3,1.5203247E-2,-7.957259E-3,4.8216205E-2,-3.536319E-3,8.804969E-2,1.60487E-2,-5.070807E-2,5.306023E-2,-6.164269E-2,-9.058073E-3,-1.7771749E-2,-6.219868E-2,2.6535088E-2,-3.2083947E-2],"split_indices":[23,7,3,23,24,14,0,8,24,19,0,0,18,8,18,0,14,0,3,0,0,18,7,0,0,0,0,0,0,0,0,0,0,0,0,0,0],"split_type":[0,0,0,0,0,0,0,0,0,0,0,0,0,0,0,0,0,0,0,0,0,0,0,0,0,0,0,0,0,0,0,0,0,0,0,0,0],"sum_hessian":[5.7E2,5.47E2,2.3E1,5.35E2,1.2E1,2.1E1,2E0,4.13E2,1.22E2,8E0,4E0,3E0,1.8E1,3.76E2,3.7E1,1.11E2,1.1E1,1E0,7E0,2E0,1E0,1.4E1,4E0,5.6E1,3.2E2,1.9E1,1.8E1,4E0,1.07E2,1E1,1E0,6E0,1E0,3E0,1.1E1,2E0,2E0],"tree_param":{"num_deleted":"0","num_feature":"25","num_nodes":"37","size_leaf_vector":"1"}},{"base_weights":[-1.5494339E-2,1.1973146E-2,-3.516189E-1,-3.616495E-1,4.1033648E-2,6.0608745E-1,-4.8994246E-1,2.9140154E-2,-4.2057672E-1,3.4977373E-2,9.207511E-2,6.850642E-2,5.2800924E-2,6.7930035E-2,-5.6242347E-1,-3.0059043E-1,-7.604685E-1,6.616882E-1,2.0836972E-2,-3.9550546E-3,1.2268692E-2,-7.820026E-1,-1.7360188E-1,-3.8594272E-2,-3.327561E-3,-5.060646E-2,-2.9006444E-3,5.870334E-2,-8.228127E-3,4.6490896E-2,5.9332786E-4,2.3306658E-2,-5.098683E-2,4.8926484E-2,-2.3309318E-2],"categories":[],"categories_nodes":[],"categories_segments":[],"categories_sizes":[],"default_left":[0,0,0,0,0,0,0,0,0,0,0,0,0,0,0,0,0,0,0,0,0,0,0,0,0,0,0,0,0,0,0,0,0,0,0],"id":15,"left_children":[1,3,5,7,9,11,13,-1,15,17,-1,-1,19,-1,21,23,25,27,29,-1,-1,31,33,-1,-1,-1,-1,-1,-1,-1,-1,-1,-1,-1,-1],"loss_changes":[5.3775234E0,5.86712E0,6.1257753E0,2.1515365E0,4.478048E0,1.718041E0,5.2220697E0,0E0,1.2803569E0,4.4171844E0,0E0,0E0,8.55063E-2,0E0,3.108574E0,2.4001389E0,4.9100542E-1,2.9170408E0,4.0373106E0,0E0,0E0,2.234024E0,3.5047743E0,0E0,0E0,0E0,0E0,0E0,0E0,0E0,0E0,0E0,0E0,0E0,0E0],"parents":[2147483647,0,0,1,1,2,2,3,3,4,4,5,5,6,6,8,8,9,9,12,12,14,14,15,15,16,16,17,17,18,18,21,21,22,22],"right_children":[2,4,6,8,10,12,14,-1,16,18,-1,-1,20,-1,22,24,26,28,30,-1,-1,32,34,-1,-1,-1,-1,-1,-1,-1,-1,-1,-1,-1,-1],"split_conditions":[1.6809183E-1,3.521647E-1,6.8361104E-1,1.4521764E3,7.3968277E0,1.5151401E3,1.3885977E3,2.9140154E-2,1.5004012E3,-1.8291817E2,9.207511E-2,6.850642E-2,2.3507493E0,6.7930035E-2,1.4878988E0,9.1580206E-1,1.0089417E0,2.5553472E0,3.811697E-1,-3.9550546E-3,1.2268692E-2,3.10595E0,1.5206916E0,-3.8594272E-2,-3.327561E-3,-5.060646E-2,-2.9006444E-3,5.870334E-2,-8.228127E-3,4.6490896E-2,5.9332786E-4,2.3306658E-2,-5.098683E-2,4.8926484E-2,-2.3309318E-2],"split_indices":[24,14,14,7,19,7,7,0,8,9,0,0,1,0,0,0,1,0,14,0,0,18,0,0,0,0,0,0,0,0,0,0,0,0,0],"split_type":[0,0,0,0,0,0,0,0,0,0,0,0,0,0,0,0,0,0,0,0,0,0,0,0,0,0,0,0,0,0,0,0,0,0,0],"sum_hessian":[5.81E2,5.38E2,4.3E1,3.8E1,5E2,5E0,3.8E1,2E0,3.6E1,4.99E2,1E0,2E0,3E0,1E0,3.7E1,2.8E1,8E0,1E1,4.89E2,2E0,1E0,2.3E1,1.4E1,1.1E1,1.7E1,7E0,1E0,7E0,3E0,6E0,4.83E2,1E0,2.2E1,2E0,1.2E1],"tree_param":{"num_deleted":"0","num_feature":"25","num_nodes":"35","size_leaf_vector":"1"}},{"base_weights":[3.1795222E-2,6.160998E-4,4.023049E-1,-1.306823E-1,9.610378E-2,6.109133E-1,-4.536504E-1,9.0870164E-2,-3.021315E-1,1.1776991E-1,7.679433E-2,5.0084674E-1,1.3059525E-1,-1.01352595E-1,-5.212107E-2,3.47646E-1,-1.7876571E-1,2.4342882E-2,-4.501121E-1,-4.124714E-1,1.337394E-1,7.595251E-1,-3.0209607E-1,8.467752E-3,-1.0684487E-2,-4.219374E-2,2.8982764E-2,-3.2460123E-2,5.1815417E-3,-1.84365E-2,3.452499E-2,-5.6730393E-2,-2.3131467E-2,-2.8649338E-2,2.1211332E-2,1.870644E-2,-4.4598747E-3,5.5451334E-2,3.3968615E-3,5.6592356E-3,-3.0961467E-2],"categories":[],"categories_nodes":[],"categories_segments":[],"categories_sizes":[],"default_left":[0,0,0,0,0,0,0,0,0,0,0,0,0,0,0,0,0,0,0,0,0,0,0,0,0,0,0,0,0,0,0,0,0,0,0,0,0,0,0,0,0],"id":16,"left_children":[1,3,5,7,9,11,13,15,17,-1,19,21,-1,23,-1,25,27,29,31,33,35,37,39,-1,-1,-1,-1,-1,-1,-1,-1,-1,-1,-1,-1,-1,-1,-1,-1,-1,-1],"loss_changes":[6.3996525E0,6.4316974E0,7.9551973E0,8.232213E0,1.0554779E1,4.941354E0,1.2278969E0,6.6395655E0,5.9050074E0,0E0,8.274238E0,7.2913847E0,0E0,1.3675396E-1,0E0,7.3118315E0,4.560498E0,7.3039007E0,2.3231792E0,1.7126975E0,9.839775E0,2.9570208E0,8.11915E-1,0E0,0E0,0E0,0E0,0E0,0E0,0E0,0E0,0E0,0E0,0E0,0E0,0E0,0E0,0E0,0E0,0E0,0E0],"parents":[2147483647,0,0,1,1,2,2,3,3,4,4,5,5,6,6,7,7,8,8,10,10,11,11,13,13,15,15,16,16,17,17,18,18,19,19,20,20,21,21,22,22],"right_children":[2,4,6,8,10,12,14,16,18,-1,20,22,-1,24,-1,26,28,30,32,34,36,38,40,-1,-1,-1,-1,-1,-1,-1,-1,-1,-1,-1,-1,-1,-1,-1,-1,-1,-1],"split_conditions":[2.1035275E0,1.4918982E3,1.5646558E0,4.485412E0,1.4921434E3,1.81179E0,1.5092028E3,1.4662596E3,9.1678464E-1,1.1776991E-1,3.521647E-1,-2.235907E1,1.3059525E-1,1.6053432E0,-5.212107E-2,7.8149244E-2,1.1287799E0,7.968073E-1,4.5893793E0,2.3507493E0,1.543521E3,5.3504972E0,1.3630065E0,8.467752E-3,-1.0684487E-2,-4.219374E-2,2.8982764E-2,-3.2460123E-2,5.1815417E-3,-1.84365E-2,3.452499E-2,-5.6730393E-2,-2.3131467E-2,-2.8649338E-2,2.1211332E-2,1.870644E-2,-4.4598747E-3,5.5451334E-2,3.3968615E-3,5.6592356E-3,-3.0961467E-2],"split_indices":[14,7,3,19,7,1,7,7,2,0,14,9,0,3,0,24,1,2,19,1,7,19,2,0,0,0,0,0,0,0,0,0,0,0,0,0,0,0,0,0,0],"split_type":[0,0,0,0,0,0,0,0,0,0,0,0,0,0,0,0,0,0,0,0,0,0,0,0,0,0,0,0,0,0,0,0,0,0,0,0,0,0,0,0,0],"sum_hessian":[5.53E2,5.11E2,4.2E1,2.15E2,2.96E2,3.4E1,8E0,9.4E1,1.21E2,2E0,2.94E2,3.3E1,1E0,5E0,3E0,4.8E1,4.6E1,3.8E1,8.3E1,3E1,2.64E2,2.5E1,8E0,1E0,4E0,5E0,4.3E1,1.9E1,2.7E1,2.4E1,1.4E1,8E0,7.5E1,2.8E1,2E0,1.42E2,1.22E2,2E1,5E0,3E0,5E0],"tree_param":{"num_deleted":"0","num_feature":"25","num_nodes":"41","size_leaf_vector":"1"}},{"base_weights":[-1.4353324E-2,-4.258106E-2,3.0382755E-1,-4.8385642E-2,8.875166E-2,1.266774E-1,2.1674418E-1,-3.1390965E-2,-5.17772E-1,3.6032513E-1,-6.141704E-1,-4.6731167E-2,8.1069463E-1,-7.75751E-1,-2.8308073E-1,6.7811143E-1,-1.3887462E-1,-6.8101524E-3,-7.9173696E-1,-2.9744324E-4,-1.5332376E-2,-3.2543175E-2,6.285768E-2,-5.182485E-2,-4.793261E-3,2.2741254E-2,-2.3231579E-2,4.90943E-2,-1.0811132E-3,3.392333E-2,-2.0693304E-2,-9.04747E-3,-5.485654E-2],"categories":[],"categories_nodes":[],"categories_segments":[],"categories_sizes":[],"default_left":[0,0,0,0,0,0,0,0,0,0,0,0,0,0,0,0,0,0,0,0,0,0,0,0,0,0,0,0,0,0,0,0,0],"id":17,"left_children":[1,3,5,7,-1,-1,9,11,13,15,17,19,21,23,25,27,29,-1,31,-1,-1,-1,-1,-1,-1,-1,-1,-1,-1,-1,-1,-1,-1],"loss_changes":[5.069536E0,4.6472077E0,6.782788E0,4.107892E0,0E0,0E0,5.589959E0,6.4967666E0,8.702173E-1,6.2810864E0,5.32449E-1,4.290311E0,3.4535294E0,4.2086554E-1,9.050161E-1,2.3558607E0,2.5164042E0,0E0,2.5483847E-1,0E0,0E0,0E0,0E0,0E0,0E0,0E0,0E0,0E0,0E0,0E0,0E0,0E0,0E0],"parents":[2147483647,0,0,1,1,2,2,3,3,6,6,7,7,8,8,9,9,10,10,11,11,12,12,13,13,14,14,15,15,16,16,18,18],"right_children":[2,4,6,8,-1,-1,10,12,14,16,18,20,22,24,26,28,30,-1,32,-1,-1,-1,-1,-1,-1,-1,-1,-1,-1,-1,-1,-1,-1],"split_conditions":[2.1035275E0,7.3968277E0,1.0313451E0,6.1806464E0,8.875166E-2,1.266774E-1,1.7848657E0,6.050934E0,9.08877E-1,4.959946E0,1.3213197E0,1.4908798E0,1.0204545E0,1.1900684E0,-8.3747345E-1,-2.235907E1,1.4281256E3,-6.8101524E-3,1.5924991E0,-2.9744324E-4,-1.5332376E-2,-3.2543175E-2,6.285768E-2,-5.182485E-2,-4.793261E-3,2.2741254E-2,-2.3231579E-2,4.90943E-2,-1.0811132E-3,3.392333E-2,-2.0693304E-2,-9.04747E-3,-5.485654E-2],"split_indices":[14,19,0,19,0,0,15,19,2,18,1,14,15,0,3,9,7,0,0,0,0,0,0,0,0,0,0,0,0,0,0,0,0],"split_type":[0,0,0,0,0,0,0,0,0,0,0,0,0,0,0,0,0,0,0,0,0,0,0,0,0,0,0,0,0,0,0,0,0],"sum_hessian":[5.62E2,5.17E2,4.5E1,5.16E2,1E0,1E0,4.4E1,4.99E2,1.7E1,3.8E1,6E0,4.91E2,8E0,7E0,1E1,2.3E1,1.5E1,2E0,4E0,4.1E2,8.1E1,1E0,7E0,6E0,1E0,1E0,9E0,1.9E1,4E0,3E0,1.2E1,1E0,3E0],"tree_param":{"num_deleted":"0","num_feature":"25","num_nodes":"33","size_leaf_vector":"1"}},{"base_weights":[-7.843185E-3,-4.8849348E-2,2.7321044E-1,2.6776135E-1,-8.330718E-2,4.621172E-1,-9.3314245E-2,-3.6649365E-2,8.608321E-1,-1.5803245E-1,6.816627E-2,3.5281432E-1,1.3534195E0,3.531655E-1,-2.7639443E-1,8.288227E-1,-2.5170845E-1,1.4024305E0,7.623008E-2,-1.20557964E-1,-8.794984E-1,-4.258046E-1,1.4193508E-1,4.665809E-1,-4.6443188E-1,9.311146E-2,1.6790016E-2,5.2965707E-1,-7.0523666E-3,-4.5956552E-1,1.0326535E-1,1.1273214E-2,5.4259848E-2,-3.8574229E-3,-4.82867E-2,9.9572584E-2,3.611254E-2,7.1494125E-2,-1.5199686E-2,9.553937E-2,-8.268135E-3,-5.5456784E-2,-7.5767934E-3,-5.396929E-2,1.5185113E-2,-3.7444741E-3,2.0649578E-2,6.9527174E-3,3.7868742E-2,1.2737016E-2,-3.85339E-2,-9.401024E-3,4.1895717E-2,-1.0597856E-2,-4.0610876E-2,3.6271673E-2,-2.5428811E-2],"categories":[],"categories_nodes":[],"categories_segments":[],"categories_sizes":[],"default_left":[0,0,0,0,0,0,0,0,0,0,0,0,0,0,0,0,0,0,0,0,0,0,0,0,0,0,0,0,0,0,0,0,0,0,0,0,0,0,0,0,0,0,0,0,0,0,0,0,0,0,0,0,0,0,0,0,0],"id":18,"left_children":[1,3,5,7,9,11,13,15,17,19,21,23,25,27,29,31,33,35,37,39,41,43,45,47,49,-1,-1,51,-1,53,55,-1,-1,-1,-1,-1,-1,-1,-1,-1,-1,-1,-1,-1,-1,-1,-1,-1,-1,-1,-1,-1,-1,-1,-1,-1,-1],"loss_changes":[6.697806E0,5.553533E0,5.1668077E0,9.058403E0,5.194826E0,4.2961683E0,2.2228944E0,6.5369606E0,7.1170597E0,8.194195E0,5.5992618E0,4.4005837E0,6.309395E-1,7.268591E-1,1.3687683E0,1.6885948E-1,2.8506088E0,1.0594883E0,3.2424097E0,8.87388E0,3.892336E-1,6.659228E0,5.517459E0,2.2353945E0,8.582547E-1,0E0,0E0,8.0372894E-1,0E0,6.7964506E-1,2.1056411E0,0E0,0E0,0E0,0E0,0E0,0E0,0E0,0E0,0E0,0E0,0E0,0E0,0E0,0E0,0E0,0E0,0E0,0E0,0E0,0E0,0E0,0E0,0E0,0E0,0E0,0E0],"parents":[2147483647,0,0,1,1,2,2,3,3,4,4,5,5,6,6,7,7,8,8,9,9,10,10,11,11,12,12,13,13,14,14,15,15,16,16,17,17,18,18,19,19,20,20,21,21,22,22,23,23,24,24,27,27,29,29,30,30],"right_children":[2,4,6,8,10,12,14,16,18,20,22,24,26,28,30,32,34,36,38,40,42,44,46,48,50,-1,-1,52,-1,54,56,-1,-1,-1,-1,-1,-1,-1,-1,-1,-1,-1,-1,-1,-1,-1,-1,-1,-1,-1,-1,-1,-1,-1,-1,-1,-1],"split_conditions":[1.6733271E0,3.3958068E0,4.992344E0,-3.7750727E-1,4.5758324E0,4.8899107E0,-1.4808302E2,-1.0233395E0,1.3481133E0,1.5848279E0,9.9401754E-1,4.8095465E0,4.959946E0,2.516979E0,-7.9328964E1,3.3359003E-1,1.0440255E0,1.5004012E3,9.8324287E-1,7.578583E-1,1.941103E0,1.0832034E0,-1.376754E-1,4.0521955E0,7.492454E-1,9.311146E-2,1.6790016E-2,6.224076E-2,-7.0523666E-3,5.239546E0,-5.1170826E1,1.1273214E-2,5.4259848E-2,-3.8574229E-3,-4.82867E-2,9.9572584E-2,3.611254E-2,7.1494125E-2,-1.5199686E-2,9.553937E-2,-8.268135E-3,-5.5456784E-2,-7.5767934E-3,-5.396929E-2,1.5185113E-2,-3.7444741E-3,2.0649578E-2,6.9527174E-3,3.7868742E-2,1.2737016E-2,-3.85339E-2,-9.401024E-3,4.1895717E-2,-1.0597856E-2,-4.0610876E-2,3.6271673E-2,-2.5428811E-2],"split_indices":[2,18,18,3,18,18,9,3,2,2,1,18,18,0,9,14,2,8,10,1,14,14,3,18,1,0,0,24,0,18,9,0,0,0,0,0,0,0,0,0,0,0,0,0,0,0,0,0,0,0,0,0,0,0,0,0,0],"split_type":[0,0,0,0,0,0,0,0,0,0,0,0,0,0,0,0,0,0,0,0,0,0,0,0,0,0,0,0,0,0,0,0,0,0,0,0,0,0,0,0,0,0,0,0,0,0,0,0,0,0,0,0,0,0,0,0,0],"sum_hessian":[5.79E2,5.06E2,7.3E1,4.9E1,4.57E2,4.8E1,2.5E1,3.3E1,1.6E1,3.06E2,1.51E2,4.4E1,4E0,7E0,1.8E1,6E0,2.7E1,9E0,7E0,2.92E2,1.4E1,1.9E1,1.32E2,3.9E1,5E0,3E0,1E0,5E0,2E0,1.2E1,6E0,1E0,5E0,2.1E1,6E0,6E0,3E0,1E0,6E0,2E0,2.9E2,1.3E1,1E0,1.1E1,8E0,6.6E1,6.6E1,1.3E1,2.6E1,1E0,4E0,1E0,4E0,6E0,6E0,3E0,3E0],"tree_param":{"num_deleted":"0","num_feature":"25","num_nodes":"57","size_leaf_vector":"1"}},{"base_weights":[1.0401145E-2,-2.7097164E-2,2.7168652E-1,1.2886149E-2,-3.407679E-1,8.9704573E-1,1.02351874E-1,-2.9345566E-1,4.9396757E-2,3.480281E-2,-5.671047E-1,4.5803693E-1,1.5002412E-1,2.5673264E-1,-4.9797043E-1,-3.799034E-1,5.08686E-1,1.2954689E0,3.3294816E-2,2.8439665E-1,-5.4066926E-1,-6.3951135E-1,2.5104215E-2,-3.9599393E-2,7.573049E-2,5.494675E-1,-1.1792632E-1,-7.9916584E-1,-6.3580714E-2,-4.3609617E-3,-3.8633503E-2,6.285403E-2,-1.1985429E-2,1.431779E-1,-1.3631008E-2,2.1108253E-2,-2.46685E-4,6.5260775E-2,-4.440258E-3,-1.7175887E-2,-4.7067218E-2,-2.578783E-3,-4.3218568E-2,1.4929653E-2,-2.7740397E-2,4.7850974E-2,-6.4999023E-3,2.0109354E-2,-2.2104427E-2,-9.395531E-3,-5.280976E-2,1.9777086E-2,-1.24886455E-2],"categories":[],"categories_nodes":[],"categories_segments":[],"categories_sizes":[],"default_left":[0,0,0,0,0,0,0,0,0,0,0,0,0,0,0,0,0,0,0,0,0,0,0,0,0,0,0,0,0,0,0,0,0,0,0,0,0,0,0,0,0,0,0,0,0,0,0,0,0,0,0,0,0],"id":19,"left_children":[1,3,5,7,9,11,13,15,17,19,21,23,-1,25,27,29,31,33,35,37,39,41,-1,43,-1,45,47,49,51,-1,-1,-1,-1,-1,-1,-1,-1,-1,-1,-1,-1,-1,-1,-1,-1,-1,-1,-1,-1,-1,-1,-1,-1],"loss_changes":[5.543096E0,6.2124815E0,7.4267287E0,4.9357753E0,4.780043E0,9.413037E0,5.410504E0,3.4523883E0,7.8621554E0,3.313719E0,2.7650824E0,5.2521687E0,0E0,5.1098804E0,1.519223E0,3.4406157E0,2.1180923E0,8.846897E0,4.6479983E0,4.6868515E0,2.0957756E-1,1.559597E0,0E0,1.2124109E0,0E0,4.328719E0,2.50673E0,2.264986E-1,4.0966097E-1,0E0,0E0,0E0,0E0,0E0,0E0,0E0,0E0,0E0,0E0,0E0,0E0,0E0,0E0,0E0,0E0,0E0,0E0,0E0,0E0,0E0,0E0,0E0,0E0],"parents":[2147483647,0,0,1,1,2,2,3,3,4,4,5,5,6,6,7,7,8,8,9,9,10,10,11,11,13,13,14,14,15,15,16,16,17,17,18,18,19,19,20,20,21,21,23,23,25,25,26,26,27,27,28,28],"right_children":[2,4,6,8,10,12,14,16,18,20,22,24,-1,26,28,30,32,34,36,38,40,42,-1,44,-1,46,48,50,52,-1,-1,-1,-1,-1,-1,-1,-1,-1,-1,-1,-1,-1,-1,-1,-1,-1,-1,-1,-1,-1,-1,-1,-1],"split_conditions":[1.9067093E0,1.478444E0,1.1820759E0,3.922063E0,4.3699017E0,1.5826995E3,1.3715912E0,1.323839E0,7.816134E-1,1.6516237E-1,1.8291905E0,1.1076245E0,1.5002412E-1,4.959946E0,1.5785146E0,3.5901701E0,1.3451574E0,-4.56177E1,7.7883434E-1,3.7888918E0,1.5297543E0,3.2881627E0,2.5104215E-2,1.0102823E1,7.573049E-2,-2.235907E1,-1.4808302E2,1.5924991E0,1.5352501E0,-4.3609617E-3,-3.8633503E-2,6.285403E-2,-1.1985429E-2,1.431779E-1,-1.3631008E-2,2.1108253E-2,-2.46685E-4,6.5260775E-2,-4.440258E-3,-1.7175887E-2,-4.7067218E-2,-2.578783E-3,-4.3218568E-2,1.4929653E-2,-2.7740397E-2,4.7850974E-2,-6.4999023E-3,2.0109354E-2,-2.2104427E-2,-9.395531E-3,-5.280976E-2,1.9777086E-2,-1.24886455E-2],"split_indices":[14,14,2,19,19,7,1,0,1,23,2,2,0,18,1,19,0,9,0,19,0,18,0,9,0,9,9,0,0,0,0,0,0,0,0,0,0,0,0,0,0,0,0,0,0,0,0,0,0,0,0,0,0],"split_type":[0,0,0,0,0,0,0,0,0,0,0,0,0,0,0,0,0,0,0,0,0,0,0,0,0,0,0,0,0,0,0,0,0,0,0,0,0,0,0,0,0,0,0,0,0,0,0,0,0,0,0,0,0],"sum_hessian":[5.64E2,4.94E2,7E1,4.39E2,5.5E1,1.4E1,5.6E1,4.6E1,3.93E2,2.1E1,3.4E1,1.2E1,2E0,4.5E1,1.1E1,4.2E1,4E0,4E0,3.89E2,1.5E1,6E0,3.2E1,2E0,8E0,4E0,2.5E1,2E1,6E0,5E0,2E1,2.2E1,2E0,2E0,2E0,2E0,4E1,3.49E2,4E0,1.1E1,4E0,2E0,4E0,2.8E1,5E0,3E0,1.8E1,7E0,7E0,1.3E1,1E0,5E0,1E0,4E0],"tree_param":{"num_deleted":"0","num_feature":"25","num_nodes":"53","size_leaf_vector":"1"}},{"base_weights":[1.5362458E-2,-9.4900854E-2,7.99679E-2,-1.1908313E-1,9.87368E-2,7.318225E-1,4.994035E-2,1.502978E-1,-2.802214E-1,-4.5081962E-2,9.973756E-1,1.10669404E-1,-1.3212419E-1,9.543902E-1,-3.472772E-2,4.7291404E-1,-3.520034E-1,6.495248E-1,1.7046213E0,-1.0882452E-2,3.0574152E-1,6.596813E-2,-1.7355041E-1,6.597912E-2,4.0752173E-4,5.7472438E-2,-6.852967E-3,-2.889301E-3,1.2313037E-1,-1.2780998E-2,-3.5612866E-2,6.474241E-2,-4.902098E-3,1.2695388E-1,1.4123736E-2,-4.1484207E-2,3.1623235E-3,2.882604E-2,-2.0604072E-2,-1.7562829E-2,1.963988E-2],"categories":[],"categories_nodes":[],"categories_segments":[],"categories_sizes":[],"default_left":[0,0,0,0,0,0,0,0,0,0,0,0,0,0,0,0,0,0,0,0,0,0,0,0,0,0,0,0,0,0,0,0,0,0,0,0,0,0,0,0,0],"id":20,"left_children":[1,3,5,7,-1,9,11,13,15,-1,17,19,21,23,25,27,29,31,33,35,37,-1,39,-1,-1,-1,-1,-1,-1,-1,-1,-1,-1,-1,-1,-1,-1,-1,-1,-1,-1],"loss_changes":[4.1250353E0,9.203137E0,7.107815E0,9.244524E0,0E0,7.051239E0,3.8844345E0,1.1935353E1,7.356655E0,0E0,2.3370285E0,6.239419E0,4.6805954E0,2.0572786E0,5.316826E0,9.973657E0,3.969285E0,3.542962E0,1.9189596E0,7.0899177E0,1.1618418E1,0E0,5.228878E0,0E0,0E0,0E0,0E0,0E0,0E0,0E0,0E0,0E0,0E0,0E0,0E0,0E0,0E0,0E0,0E0,0E0,0E0],"parents":[2147483647,0,0,1,1,2,2,3,3,5,5,6,6,7,7,8,8,10,10,11,11,12,12,13,13,14,14,15,15,16,16,17,17,18,18,19,19,20,20,22,22],"right_children":[2,4,6,8,-1,10,12,14,16,-1,18,20,22,24,26,28,30,32,34,36,38,-1,40,-1,-1,-1,-1,-1,-1,-1,-1,-1,-1,-1,-1,-1,-1,-1,-1,-1,-1],"split_conditions":[1.4886794E3,5.1548295E0,8.295304E-1,1.4465984E3,9.87368E-2,1.3562145E0,5.0166745E0,4.9969068E0,7.4686E-1,-4.5081962E-2,1.827213E0,1.3613571E0,-4.625886E-1,1.103179E-1,1.259334E0,8.096596E-2,1.7701724E0,1.2576516E0,1.1875138E0,-2.0274441E-1,2.0003479E0,6.596813E-2,1.3951565E-1,6.597912E-2,4.0752173E-4,5.7472438E-2,-6.852967E-3,-2.889301E-3,1.2313037E-1,-1.2780998E-2,-3.5612866E-2,6.474241E-2,-4.902098E-3,1.2695388E-1,1.4123736E-2,-4.1484207E-2,3.1623235E-3,2.882604E-2,-2.0604072E-2,-1.7562829E-2,1.963988E-2],"split_indices":[8,18,2,8,0,1,18,19,0,0,1,15,3,24,15,24,15,14,0,3,15,0,24,0,0,0,0,0,0,0,0,0,0,0,0,0,0,0,0,0,0],"split_type":[0,0,0,0,0,0,0,0,0,0,0,0,0,0,0,0,0,0,0,0,0,0,0,0,0,0,0,0,0,0,0,0,0,0,0,0,0,0,0,0,0],"sum_hessian":[5.77E2,2.13E2,3.64E2,2.11E2,2E0,1.5E1,3.49E2,7.9E1,1.32E2,2E0,1.3E1,2.62E2,8.7E1,1.4E1,6.5E1,1.1E1,1.21E2,1E1,3E0,1.62E2,1E2,2E0,8.5E1,1.2E1,2E0,4E0,6.1E1,9E0,2E0,7.8E1,4.3E1,6E0,4E0,2E0,1E0,1.3E1,1.49E2,7.9E1,2.1E1,6.9E1,1.6E1],"tree_param":{"num_deleted":"0","num_feature":"25","num_nodes":"41","size_leaf_vector":"1"}},{"base_weights":[9.679602E-3,-2.6604878E-2,2.6055607E-1,-3.6469913E-1,2.4731802E-3,9.208618E-1,1.2855245E-1,-5.666917E-1,2.979477E-1,1.6768178E-1,-7.192968E-2,1.7880315E-1,1.416167E-1,2.9198524E-1,-2.8717133E-1,-7.276368E-1,-2.5122553E-1,-3.6759302E-2,6.0218024E-1,-1.8494959E-1,3.2313454E-1,2.960346E-2,-3.043075E-1,4.4247305E-1,-4.9602768E-1,4.4657406E-1,-2.9373303E-1,-4.4230238E-1,9.6807815E-2,-2.7898865E-2,-5.4015953E-2,1.1400881E-2,-2.9735848E-2,5.277373E-2,-9.198618E-3,-1.3080477E-2,3.808856E-2,9.8791264E-2,1.5949288E-2,-2.285724E-4,6.4243436E-2,-3.8829967E-2,-6.723113E-3,3.2722346E-2,7.408986E-3,-8.913982E-3,-3.5728507E-2,-5.0733265E-2,3.284705E-2,1.1841978E-3,-4.61323E-2,-3.9077614E-2,-1.0207508E-2,2.8100956E-2,-2.5851004E-2],"categories":[],"categories_nodes":[],"categories_segments":[],"categories_sizes":[],"default_left":[0,0,0,0,0,0,0,0,0,0,0,0,0,0,0,0,0,0,0,0,0,0,0,0,0,0,0,0,0,0,0,0,0,0,0,0,0,0,0,0,0,0,0,0,0,0,0,0,0,0,0,0,0,0,0],"id":21,"left_children":[1,3,5,7,9,11,13,15,17,19,21,23,-1,25,27,29,31,-1,33,35,37,39,41,43,45,47,49,51,53,-1,-1,-1,-1,-1,-1,-1,-1,-1,-1,-1,-1,-1,-1,-1,-1,-1,-1,-1,-1,-1,-1,-1,-1,-1,-1],"loss_changes":[5.2593184E0,4.9656196E0,6.2445016E0,5.522834E0,5.74013E0,1.2395553E1,4.2963095E0,1.3911533E0,3.139279E0,8.008305E0,7.606292E0,1.8208722E0,0E0,4.205721E0,1.1150258E0,4.8823452E-1,1.3880918E0,0E0,1.8113213E0,1.3578888E0,7.2229013E0,7.831145E0,6.3873024E0,1.6242266E-1,1.5194833E-2,5.155348E0,1.5045905E0,6.2867284E-1,1.3780689E0,0E0,0E0,0E0,0E0,0E0,0E0,0E0,0E0,0E0,0E0,0E0,0E0,0E0,0E0,0E0,0E0,0E0,0E0,0E0,0E0,0E0,0E0,0E0,0E0,0E0,0E0],"parents":[2147483647,0,0,1,1,2,2,3,3,4,4,5,5,6,6,7,7,8,8,9,9,10,10,11,11,13,13,14,14,15,15,16,16,18,18,19,19,20,20,21,21,22,22,23,23,24,24,25,25,26,26,27,27,28,28],"right_children":[2,4,6,8,10,12,14,16,18,20,22,24,-1,26,28,30,32,-1,34,36,38,40,42,44,46,48,50,52,54,-1,-1,-1,-1,-1,-1,-1,-1,-1,-1,-1,-1,-1,-1,-1,-1,-1,-1,-1,-1,-1,-1,-1,-1,-1,-1],"split_conditions":[1.9067093E0,3.7349725E0,1.3048409E0,2.0263153E1,4.4088936E0,4.3903255E0,-5.3422813E1,1.1718086E0,8.0458E-1,6.4958674E-1,1.2498605E0,1.0428837E1,1.416167E-1,1.5646558E0,4.351344E-1,3.5162973E0,8.096596E-2,-3.6759302E-2,1.3676158E0,1.6228301E3,7.578583E-1,1.7411011E0,4.7945666E0,1.5006542E3,1.1417838E0,1.0608019E0,1.507834E3,-6.1461773E0,1.6580309E0,-2.7898865E-2,-5.4015953E-2,1.1400881E-2,-2.9735848E-2,5.277373E-2,-9.198618E-3,-1.3080477E-2,3.808856E-2,9.8791264E-2,1.5949288E-2,-2.285724E-4,6.4243436E-2,-3.8829967E-2,-6.723113E-3,3.2722346E-2,7.408986E-3,-8.913982E-3,-3.5728507E-2,-5.0733265E-2,3.284705E-2,1.1841978E-3,-4.61323E-2,-3.9077614E-2,-1.0207508E-2,2.8100956E-2,-2.5851004E-2],"split_indices":[14,19,0,9,19,19,9,0,0,14,14,9,0,3,3,19,24,0,2,7,0,2,19,7,0,2,7,9,2,0,0,0,0,0,0,0,0,0,0,0,0,0,0,0,0,0,0,0,0,0,0,0,0,0,0],"split_type":[0,0,0,0,0,0,0,0,0,0,0,0,0,0,0,0,0,0,0,0,0,0,0,0,0,0,0,0,0,0,0,0,0,0,0,0,0,0,0,0,0,0,0,0,0,0,0,0,0,0,0,0,0,0,0],"sum_hessian":[5.76E2,5.04E2,7.2E1,3.9E1,4.65E2,1.1E1,6.1E1,3E1,9E0,1.44E2,3.21E2,8E0,3E0,4.4E1,1.7E1,1.9E1,1.1E1,2E0,7E0,4.4E1,1E2,2.24E2,9.7E1,6E0,2E0,3.5E1,9E0,1.2E1,5E0,9E0,1E1,4E0,7E0,5E0,2E0,4.3E1,1E0,3E0,9.7E1,2.18E2,6E0,3.4E1,6.3E1,4E0,2E0,1E0,1E0,2E0,3.3E1,6E0,3E0,6E0,6E0,3E0,2E0],"tree_param":{"num_deleted":"0","num_feature":"25","num_nodes":"55","size_leaf_vector":"1"}},{"base_weights":[-9.933254E-3,-1.4957401E-2,8.591636E-2,4.026106E-3,-3.839236E-1,-4.6330832E-2,1.9272014E-1,1.9089323E-1,-5.8461934E-1,9.70662E-3,-2.2717425E-1,1.301595E0,1.3048406E-1,5.242495E-1,-2.735254E-1,5.9241354E-2,-6.9522065E-1,-3.3680326E-3,2.0835854E-2,-3.557835E-2,-2.133296E-3,1.6644659E-2,8.705698E-2,1.2748174E-2,-3.3406217E-2,4.8032243E-2,4.392702E-3,-2.8613739E-2,-2.8062046E-3,-5.950458E-3,1.603465E-2,-4.7613293E-2,3.6581205E-3],"categories":[],"categories_nodes":[],"categories_segments":[],"categories_sizes":[],"default_left":[0,0,0,0,0,0,0,0,0,0,0,0,0,0,0,0,0,0,0,0,0,0,0,0,0,0,0,0,0,0,0,0,0],"id":22,"left_children":[1,3,-1,5,7,9,11,13,15,17,19,21,23,25,27,29,31,-1,-1,-1,-1,-1,-1,-1,-1,-1,-1,-1,-1,-1,-1,-1,-1],"loss_changes":[4.1723332E0,4.0079894E0,0E0,5.187548E0,3.341773E0,4.3699613E0,7.7665453E0,1.3819304E0,1.536634E0,7.3537307E0,7.1285057E0,5.1529026E-1,6.3162365E0,5.644729E-1,1.621567E-1,1.5830736E-1,1.3868484E0,0E0,0E0,0E0,0E0,0E0,0E0,0E0,0E0,0E0,0E0,0E0,0E0,0E0,0E0,0E0,0E0],"parents":[2147483647,0,0,1,1,3,3,4,4,5,5,6,6,7,7,8,8,9,9,10,10,11,11,12,12,13,13,14,14,15,15,16,16],"right_children":[2,4,-1,6,8,10,12,14,16,18,20,22,24,26,28,30,32,-1,-1,-1,-1,-1,-1,-1,-1,-1,-1,-1,-1,-1,-1,-1,-1],"split_conditions":[7.3968277E0,2.099243E-1,8.591636E-2,1.210924E-1,3.62533E0,8.601597E-2,1.24319E-1,1.8361644E0,1.0307858E0,1.5089799E0,1.1377575E-1,7.909658E-1,1.7859685E-1,-3.2242802E-1,1.3608625E0,1.0787853E0,1.7673215E0,-3.3680326E-3,2.0835854E-2,-3.557835E-2,-2.133296E-3,1.6644659E-2,8.705698E-2,1.2748174E-2,-3.3406217E-2,4.8032243E-2,4.392702E-3,-2.8613739E-2,-2.8062046E-3,-5.950458E-3,1.603465E-2,-4.7613293E-2,3.6581205E-3],"split_indices":[19,23,0,23,18,24,23,1,2,2,24,0,24,3,0,0,0,0,0,0,0,0,0,0,0,0,0,0,0,0,0,0,0],"split_type":[0,0,0,0,0,0,0,0,0,0,0,0,0,0,0,0,0,0,0,0,0,0,0,0,0,0,0,0,0,0,0,0,0],"sum_hessian":[5.72E2,5.71E2,1E0,5.44E2,2.7E1,4.3E2,1.14E2,7E0,2E1,3.29E2,1.01E2,5E0,1.09E2,4E0,3E0,3E0,1.7E1,2.76E2,5.3E1,3.4E1,6.7E1,1E0,4E0,9.8E1,1.1E1,2E0,2E0,1E0,2E0,2E0,1E0,1.5E1,2E0],"tree_param":{"num_deleted":"0","num_feature":"25","num_nodes":"33","size_leaf_vector":"1"}},{"base_weights":[4.1296333E-2,5.406932E-2,-5.5502445E-1,4.6442933E-2,6.580838E-2,-7.6161814E-1,-1.134696E-1,-6.842928E-2,1.1516621E-1,-8.41333E-1,-6.108423E-3,-9.107048E-3,-2.2399116E-3,1.26886E-1,-1.795235E-1,8.4224835E-2,1.0526278E0,-7.4981153E-3,-5.6393936E-2,2.3716094E-2,-1.0001179E-2,-1.2638337E-2,5.2596603E-2,6.6741616E-3,-2.5845865E-2,1.1374773E-1,2.0413173E-3],"categories":[],"categories_nodes":[],"categories_segments":[],"categories_sizes":[],"default_left":[0,0,0,0,0,0,0,0,0,0,0,0,0,0,0,0,0,0,0,0,0,0,0,0,0,0,0],"id":23,"left_children":[1,3,5,7,-1,9,11,13,15,17,-1,-1,-1,19,21,23,25,-1,-1,-1,-1,-1,-1,-1,-1,-1,-1],"loss_changes":[4.3563504E0,4.3784995E0,1.008249E0,4.3813753E0,0E0,3.351202E-1,8.919522E-3,4.5360456E0,9.976545E0,3.7680626E-1,0E0,0E0,0E0,6.053895E0,4.5553055E0,4.7357464E0,9.382913E0,0E0,0E0,0E0,0E0,0E0,0E0,0E0,0E0,0E0,0E0],"parents":[2147483647,0,0,1,1,2,2,3,3,5,5,6,6,7,7,8,8,9,9,13,13,14,14,15,15,16,16],"right_children":[2,4,6,8,-1,10,12,14,16,18,-1,-1,-1,20,22,24,26,-1,-1,-1,-1,-1,-1,-1,-1,-1,-1],"split_conditions":[1.6526943E3,1.8302892E2,1.4178474E-1,1.4886794E3,6.580838E-2,4.5517993E-1,1.3345002E-1,1.4465984E3,1.827213E0,8.676735E-2,-6.108423E-3,-9.107048E-3,-2.2399116E-3,1.103179E-1,4.2711678E0,1.6809183E-1,3.904065E0,-7.4981153E-3,-5.6393936E-2,2.3716094E-2,-1.0001179E-2,-1.2638337E-2,5.2596603E-2,6.6741616E-3,-2.5845865E-2,1.1374773E-1,2.0413173E-3],"split_indices":[7,9,24,8,0,3,23,8,1,23,0,0,0,24,15,24,18,0,0,0,0,0,0,0,0,0,0],"split_type":[0,0,0,0,0,0,0,0,0,0,0,0,0,0,0,0,0,0,0,0,0,0,0,0,0,0,0],"sum_hessian":[5.67E2,5.56E2,1.1E1,5.53E2,3E0,7E0,4E0,2.07E2,3.46E2,6E0,1E0,2E0,2E0,7.5E1,1.32E2,3.36E2,1E1,1E0,5E0,3.9E1,3.6E1,1.29E2,3E0,3.2E2,1.6E1,5E0,5E0],"tree_param":{"num_deleted":"0","num_feature":"25","num_nodes":"27","size_leaf_vector":"1"}},{"base_weights":[1.0477243E-2,-9.4954394E-2,7.376545E-2,5.838624E-2,-3.016852E-1,2.964446E-1,-1.0862125E-2,8.9468434E-2,2.3251973E-2,1.07975036E-1,-4.3014297E-1,2.234545E-1,1.6385654E0,-5.586167E-1,3.1488277E-2,-1.1616064E-2,1.4334681E0,-7.7307165E-2,4.742714E-2,4.8991106E-2,-4.5961696E-1,-4.2047155E-1,3.1173283E-1,1.2730274E-1,-8.820659E-3,2.651546E-1,-6.7112833E-1,2.9597256E-1,-5.9239976E-2,-4.850696E-2,1.7607878E-3,1.8658714E-2,1.1035342E-1,1.6460827E-2,-1.1362286E-2,-4.9379975E-2,-2.1244492E-2,-3.7086125E-2,5.2603934E-2,1.0741432E-3,3.3627648E-2,-1.07563734E-4,2.3971478E-2,9.062529E-3,-4.7449227E-2,-9.886773E-3,3.390147E-2,-2.4385976E-2,4.4005625E-3],"categories":[],"categories_nodes":[],"categories_segments":[],"categories_sizes":[],"default_left":[0,0,0,0,0,0,0,0,0,0,0,0,0,0,0,0,0,0,0,0,0,0,0,0,0,0,0,0,0,0,0,0,0,0,0,0,0,0,0,0,0,0,0,0,0,0,0,0,0],"id":24,"left_children":[1,3,5,7,9,11,13,-1,15,17,19,21,23,25,27,29,31,33,-1,-1,35,37,39,-1,-1,41,43,45,47,-1,-1,-1,-1,-1,-1,-1,-1,-1,-1,-1,-1,-1,-1,-1,-1,-1,-1,-1,-1],"loss_changes":[3.8771007E0,6.928266E0,6.8438807E0,6.308014E0,4.94048E0,9.430007E0,6.1417627E0,0E0,6.113914E0,2.9694786E0,2.9841175E0,5.5881677E0,4.625393E0,1.9389458E0,5.920598E0,4.0058427E0,7.944093E-1,8.007033E-1,0E0,0E0,2.3932467E0,3.618315E0,6.202093E0,0E0,0E0,1.0832541E-1,1.7923727E0,7.9029794E0,8.499655E0,0E0,0E0,0E0,0E0,0E0,0E0,0E0,0E0,0E0,0E0,0E0,0E0,0E0,0E0,0E0,0E0,0E0,0E0,0E0,0E0],"parents":[2147483647,0,0,1,1,2,2,3,3,4,4,5,5,6,6,8,8,9,9,10,10,11,11,12,12,13,13,14,14,15,15,16,16,17,17,20,20,21,21,22,22,25,25,26,26,27,27,28,28],"right_children":[2,4,6,8,10,12,14,-1,16,18,20,22,24,26,28,30,32,34,-1,-1,36,38,40,-1,-1,42,44,46,48,-1,-1,-1,-1,-1,-1,-1,-1,-1,-1,-1,-1,-1,-1,-1,-1,-1,-1,-1,-1],"split_conditions":[1.4886794E3,1.4644397E3,1.5067181E3,9.733914E-1,6.1641395E-1,1.8533694E0,7.7821463E-1,8.9468434E-2,1.4642511E3,1.0038788E0,7.293713E-2,-4.3265635E-1,3.904065E0,1.4708469E3,1.2129658E0,7.9151414E-2,1.0177699E0,7.095947E-1,4.742714E-2,4.8991106E-2,3.4751103E0,1.036459E0,1.228161E0,1.2730274E-1,-8.820659E-3,6.8704146E-1,3.4882286E0,1.0895295E0,1.5372589E3,-4.850696E-2,1.7607878E-3,1.8658714E-2,1.1035342E-1,1.6460827E-2,-1.1362286E-2,-4.9379975E-2,-2.1244492E-2,-3.7086125E-2,5.2603934E-2,1.0741432E-3,3.3627648E-2,-1.07563734E-4,2.3971478E-2,9.062529E-3,-4.7449227E-2,-9.886773E-3,3.390147E-2,-2.4385976E-2,4.4005625E-3],"split_indices":[8,8,8,1,14,1,14,0,8,2,24,3,18,7,2,23,0,2,0,0,18,2,15,0,0,0,19,0,8,0,0,0,0,0,0,0,0,0,0,0,0,0,0,0,0,0,0,0,0],"split_type":[0,0,0,0,0,0,0,0,0,0,0,0,0,0,0,0,0,0,0,0,0,0,0,0,0,0,0,0,0,0,0,0,0,0,0,0,0,0,0,0,0,0,0,0,0,0,0,0,0],"sum_hessian":[5.79E2,2.17E2,3.62E2,1.25E2,9.2E1,9.9E1,2.63E2,2E0,1.23E2,2.2E1,7E1,9.5E1,4E0,1.8E1,2.45E2,1.21E2,2E0,1.8E1,4E0,1E0,6.9E1,1.1E1,8.4E1,3E0,1E0,2E0,1.6E1,6.2E1,1.83E2,5E0,1.16E2,1E0,1E0,4E0,1.4E1,1.4E1,5.5E1,1E1,1E0,3.9E1,4.5E1,1E0,1E0,2E0,1.4E1,2.3E1,3.9E1,5E1,1.33E2],"tree_param":{"num_deleted":"0","num_feature":"25","num_nodes":"49","size_leaf_vector":"1"}},{"base_weights":[1.8263161E-2,3.0447873E-1,-5.981132E-3,1.9464627E-1,6.8652555E-2,-7.072308E-1,6.0746474E-3,-3.1771407E-2,2.8724632E-1,-8.7873256E-1,-4.2789867E-3,8.233837E-4,8.257456E-2,5.679272E-1,7.005817E-2,-5.816083E-2,-1.0051342E-2,6.157222E-2,-1.2678999E-1,4.4324405E-2,-2.5110537E-2,-3.7608445E-2,1.8713381E-2,-7.199662E-4,1.7724695E-2,-2.689918E-2,-2.9049455E-3],"categories":[],"categories_nodes":[],"categories_segments":[],"categories_sizes":[],"default_left":[0,0,0,0,0,0,0,0,0,0,0,0,0,0,0,0,0,0,0,0,0,0,0,0,0,0,0],"id":25,"left_children":[1,3,5,7,-1,9,11,-1,13,15,-1,17,-1,19,21,-1,-1,23,25,-1,-1,-1,-1,-1,-1,-1,-1],"loss_changes":[3.9987395E0,3.9276195E0,4.5018835E0,2.9014876E0,0E0,9.188762E-1,3.7691066E0,0E0,2.2157528E0,2.887349E-1,0E0,4.062293E0,0E0,3.0051055E0,3.9030242E0,0E0,0E0,6.1109467E0,4.2370334E0,0E0,0E0,0E0,0E0,0E0,0E0,0E0,0E0],"parents":[2147483647,0,0,1,1,2,2,3,3,5,5,6,6,8,8,9,9,11,11,13,13,14,14,17,17,18,18],"right_children":[2,4,6,8,-1,10,12,-1,14,16,-1,18,-1,20,22,-1,-1,24,26,-1,-1,-1,-1,-1,-1,-1,-1],"split_conditions":[3.3856463E0,3.369302E0,3.428615E0,4.3248596E0,6.8652555E-2,1.0959351E0,7.3968277E0,-3.1771407E-2,5.072654E0,1.1898469E0,-4.2789867E-3,4.9969068E0,8.257456E-2,2.2171893E0,1.3901365E0,-5.816083E-2,-1.0051342E-2,1.0822687E-1,5.1438665E0,4.4324405E-2,-2.5110537E-2,-3.7608445E-2,1.8713381E-2,-7.199662E-4,1.7724695E-2,-2.689918E-2,-2.9049455E-3],"split_indices":[18,18,18,19,0,11,19,0,19,2,0,19,0,15,1,0,0,24,19,0,0,0,0,0,0,0,0],"split_type":[0,0,0,0,0,0,0,0,0,0,0,0,0,0,0,0,0,0,0,0,0,0,0,0,0,0,0],"sum_hessian":[5.75E2,4.4E1,5.31E2,4E1,4E0,8E0,5.23E2,4E0,3.6E1,6E0,2E0,5.22E2,1E0,1.5E1,2.1E1,5E0,1E0,3.54E2,1.68E2,1.3E1,2E0,5E0,1.6E1,2.7E2,8.4E1,3.2E1,1.36E2],"tree_param":{"num_deleted":"0","num_feature":"25","num_nodes":"27","size_leaf_vector":"1"}},{"base_weights":[2.1175949E-2,6.6411495E-2,-1.568291E-1,8.618314E-2,-5.639633E-1,-1.8140945E-1,8.0097325E-2,2.601343E-2,2.6377386E-1,-7.399435E-1,1.9676715E-2,-6.890771E-1,-1.3701302E-1,8.843568E-2,-2.1319653E-1,9.785336E-1,1.3445416E-1,1.3943585E-2,-8.494644E-1,-8.4666646E-1,-5.500565E-3,1.5840167E-1,-2.4887748E-1,1.0161118E-3,2.93049E-2,-2.4196228E-3,-4.9970288E-2,-3.2370206E-2,8.9227326E-2,1.8911984E-2,-9.736839E-3,-5.4981098E-2,-2.1938879E-2,-5.73613E-2,-5.716052E-3,3.0435687E-2,-4.216066E-3,-3.6004737E-2,-6.011387E-3],"categories":[],"categories_nodes":[],"categories_segments":[],"categories_sizes":[],"default_left":[0,0,0,0,0,0,0,0,0,0,0,0,0,0,0,0,0,0,0,0,0,0,0,0,0,0,0,0,0,0,0,0,0,0,0,0,0,0,0],"id":26,"left_children":[1,3,5,7,9,11,-1,13,15,17,-1,19,21,23,25,27,29,-1,31,33,-1,35,37,-1,-1,-1,-1,-1,-1,-1,-1,-1,-1,-1,-1,-1,-1,-1,-1],"loss_changes":[4.6081967E0,5.7319803E0,4.4957294E0,4.7268515E0,2.4400759E0,2.4975295E0,0E0,4.976286E0,1.0220875E1,1.4753041E0,0E0,7.696781E-1,3.5753882E0,7.541788E0,7.3574963E0,1.3927265E1,5.199967E0,0E0,2.0910263E-2,4.8410797E-1,0E0,2.4288516E0,4.0129867E0,0E0,0E0,0E0,0E0,0E0,0E0,0E0,0E0,0E0,0E0,0E0,0E0,0E0,0E0,0E0,0E0],"parents":[2147483647,0,0,1,1,2,2,3,3,4,4,5,5,7,7,8,8,9,9,11,11,12,12,13,13,14,14,15,15,16,16,18,18,19,19,21,21,22,22],"right_children":[2,4,6,8,10,12,-1,14,16,18,-1,20,22,24,26,28,30,-1,32,34,-1,36,38,-1,-1,-1,-1,-1,-1,-1,-1,-1,-1,-1,-1,-1,-1,-1,-1],"split_conditions":[5.3504972E0,2.2103399E-1,7.3968277E0,1.1819468E-1,4.275733E-1,6.59754E-1,8.0097325E-2,8.096596E-2,1.268281E-1,-1.1770335E0,1.9676715E-2,2.228299E-1,8.8058394E-1,1.5089799E0,4.9226904E0,9.5406693E-1,1.4361792E0,1.3943585E-2,2.6694107E-1,1.9289176E0,-5.500565E-3,8.740612E-1,-4.838022E-1,1.0161118E-3,2.93049E-2,-2.4196228E-3,-4.9970288E-2,-3.2370206E-2,8.9227326E-2,1.8911984E-2,-9.736839E-3,-5.4981098E-2,-2.1938879E-2,-5.73613E-2,-5.716052E-3,3.0435687E-2,-4.216066E-3,-3.6004737E-2,-6.011387E-3],"split_indices":[19,23,19,23,3,0,0,24,23,3,0,24,2,2,19,10,2,0,23,15,0,14,3,0,0,0,0,0,0,0,0,0,0,0,0,0,0,0,0],"split_type":[0,0,0,0,0,0,0,0,0,0,0,0,0,0,0,0,0,0,0,0,0,0,0,0,0,0,0,0,0,0,0,0,0,0,0,0,0,0,0],"sum_hessian":[5.7E2,4.55E2,1.15E2,4.42E2,1.3E1,1.14E2,1E0,3.31E2,1.11E2,1.1E1,2E0,8E0,1.06E2,2.63E2,6.8E1,1.6E1,9.5E1,1E0,1E1,6E0,2E0,2.9E1,7.7E1,2.24E2,3.9E1,5.4E1,1.4E1,4E0,1.2E1,5.9E1,3.6E1,8E0,2E0,5E0,1E0,1.1E1,1.8E1,2.2E1,5.5E1],"tree_param":{"num_deleted":"0","num_feature":"25","num_nodes":"39","size_leaf_vector":"1"}},{"base_weights":[9.262656E-3,-3.7386984E-1,3.0998634E-2,-6.064059E-2,-5.20139E-1,4.7290526E-2,-3.4152097E-1,-1.4369306E-1,2.3096522E-2,-4.2602107E-1,-4.881808E-2,4.242911E-2,7.76944E-2,3.9396837E-1,-5.17096E-1,6.6345945E-2,-4.7533804E-1,-3.0967694E-2,1.838614E-2,8.276336E-2,-1.1332531E-1,-5.1552486E-3,4.4552084E-2,-6.334886E-1,1.8889647E-2,-9.533794E-3,1.6500117E-2,-3.8989328E-2,1.4434218E-3,2.2459032E-2,-3.148221E-2,2.822266E-2,3.5328995E-3,-3.9321132E-2,-3.804578E-3,-4.423255E-2,5.7766316E-3],"categories":[],"categories_nodes":[],"categories_segments":[],"categories_sizes":[],"default_left":[0,0,0,0,0,0,0,0,0,0,0,0,0,0,0,0,0,0,0,0,0,0,0,0,0,0,0,0,0,0,0,0,0,0,0,0,0],"id":27,"left_children":[1,3,5,7,9,11,13,15,-1,17,-1,19,-1,21,23,25,27,-1,29,31,33,-1,-1,35,-1,-1,-1,-1,-1,-1,-1,-1,-1,-1,-1,-1,-1],"loss_changes":[4.808379E0,1.3887472E0,3.3298516E0,4.6238762E-1,2.3346138E-1,3.1232164E0,3.1737916E0,7.2812057E-1,0E0,7.3028684E-1,0E0,3.2949896E0,0E0,9.001654E-1,2.0392046E0,3.726843E-1,3.6417872E-1,0E0,9.696154E-1,3.8231692E0,2.8804536E0,0E0,0E0,1.3577361E0,0E0,0E0,0E0,0E0,0E0,0E0,0E0,0E0,0E0,0E0,0E0,0E0,0E0],"parents":[2147483647,0,0,1,1,2,2,3,3,4,4,5,5,6,6,7,7,9,9,11,11,13,13,14,14,15,15,16,16,18,18,19,19,20,20,23,23],"right_children":[2,4,6,8,10,12,14,16,-1,18,-1,20,-1,22,24,26,28,-1,30,32,34,-1,-1,36,-1,-1,-1,-1,-1,-1,-1,-1,-1,-1,-1,-1,-1],"split_conditions":[6.3829094E-1,1.4916725E3,2.2103399E-1,2.201512E0,1.7680974E-1,7.3968277E0,9.5769334E-1,1.0209258E0,2.3096522E-2,1.5020999E3,-4.881808E-2,5.3504972E0,7.76944E-2,7.863304E-1,4.275733E-1,8.8890016E-1,1.5924991E0,-3.0967694E-2,1.5126475E3,7.578583E-1,6.59754E-1,-5.1552486E-3,4.4552084E-2,4.4549985E0,1.8889647E-2,-9.533794E-3,1.6500117E-2,-3.8989328E-2,1.4434218E-3,2.2459032E-2,-3.148221E-2,2.822266E-2,3.5328995E-3,-3.9321132E-2,-3.804578E-3,-4.423255E-2,5.7766316E-3],"split_indices":[15,7,23,2,14,19,14,0,0,7,0,19,0,14,3,0,0,0,7,0,0,0,0,18,0,0,0,0,0,0,0,0,0,0,0,0,0],"split_type":[0,0,0,0,0,0,0,0,0,0,0,0,0,0,0,0,0,0,0,0,0,0,0,0,0,0,0,0,0,0,0,0,0,0,0,0,0],"sum_hessian":[5.75E2,3E1,5.45E2,1E1,2E1,5.23E2,2.2E1,9E0,1E0,1.7E1,3E0,5.22E2,1E0,4E0,1.8E1,6E0,3E0,1.4E1,3E0,4.15E2,1.07E2,2E0,2E0,1.6E1,2E0,3E0,3E0,2E0,1E0,2E0,1E0,2.3E1,3.92E2,8E0,9.9E1,1.4E1,2E0],"tree_param":{"num_deleted":"0","num_feature":"25","num_nodes":"37","size_leaf_vector":"1"}},{"base_weights":[-1.2741023E-2,-2.584554E-1,1.7692175E-2,6.0276383E-1,-3.614925E-1,8.039238E-1,8.145638E-3,7.2316706E-2,-9.026506E-3,-2.3752983E-1,-7.9622823E-1,1.3386424E0,-1.0620532E-2,3.8885486E-1,-1.3742222E-2,6.9213234E-2,-4.856928E-1,-6.0419723E-2,-1.7985301E-2,1.00765936E-1,9.488178E-3,1.6485137E0,1.6270943E-1,3.3447385E-1,-3.9093412E-2,-1.9703563E-2,3.2365143E-2,-4.220641E-2,-8.676639E-3,3.8163785E-2,1.4057596E-1,7.373661E-4,7.269317E-2,5.139996E-2,-1.0600565E-2,-2.288484E-2,-6.197928E-4],"categories":[],"categories_nodes":[],"categories_segments":[],"categories_sizes":[],"default_left":[0,0,0,0,0,0,0,0,0,0,0,0,0,0,0,0,0,0,0,0,0,0,0,0,0,0,0,0,0,0,0,0,0,0,0,0,0],"id":28,"left_children":[1,3,5,7,9,11,13,-1,-1,15,17,19,-1,21,23,25,27,-1,-1,-1,-1,29,31,33,35,-1,-1,-1,-1,-1,-1,-1,-1,-1,-1,-1,-1],"loss_changes":[4.207138E0,5.7196226E0,3.7538517E0,3.3580458E0,2.8287692E0,3.384089E0,4.138467E0,0E0,0E0,3.4591181E0,9.538312E-1,1.3436394E0,0E0,7.4231553E0,4.162091E0,4.103231E0,1.7550192E0,0E0,0E0,0E0,0E0,1.3220072E0,3.7715192E0,8.692744E0,4.3186083E0,0E0,0E0,0E0,0E0,0E0,0E0,0E0,0E0,0E0,0E0,0E0,0E0],"parents":[2147483647,0,0,1,1,2,2,3,3,4,4,5,5,6,6,9,9,10,10,11,11,13,13,14,14,15,15,16,16,21,21,22,22,23,23,24,24],"right_children":[2,4,6,8,10,12,14,-1,-1,16,18,20,-1,22,24,26,28,-1,-1,-1,-1,30,32,34,36,-1,-1,-1,-1,-1,-1,-1,-1,-1,-1,-1,-1],"split_conditions":[3.8926053E0,-1.3038483E2,3.9132614E0,2.3468306E0,1.6415387E-1,1.5000591E3,8.52191E-1,7.2316706E-2,-9.026506E-3,3.5789125E0,1.5595068E0,1.3663808E0,-1.0620532E-2,9.496346E-1,7.578583E-1,1.4962452E3,-9.542065E-2,-6.0419723E-2,-1.7985301E-2,1.00765936E-1,9.488178E-3,8.9051545E-1,8.461977E-1,4.9226904E0,9.8294115E-1,-1.9703563E-2,3.2365143E-2,-4.220641E-2,-8.676639E-3,3.8163785E-2,1.4057596E-1,7.373661E-4,7.269317E-2,5.139996E-2,-1.0600565E-2,-2.288484E-2,-6.197928E-4],"split_indices":[19,9,19,2,23,7,1,0,0,19,1,0,0,0,0,7,3,0,0,0,0,0,1,19,1,0,0,0,0,0,0,0,0,0,0,0,0],"split_type":[0,0,0,0,0,0,0,0,0,0,0,0,0,0,0,0,0,0,0,0,0,0,0,0,0,0,0,0,0,0,0,0,0,0,0,0,0],"sum_hessian":[5.61E2,6.1E1,5E2,6E0,5.5E1,5E0,4.95E2,3E0,3E0,4.4E1,1.1E1,3E0,2E0,2.6E1,4.69E2,2E1,2.4E1,7E0,4E0,2E0,1E0,3E0,2.3E1,3.1E1,4.38E2,1.1E1,9E0,1.4E1,1E1,2E0,1E0,2.1E1,2E0,1.5E1,1.6E1,3.3E1,4.05E2],"tree_param":{"num_deleted":"0","num_feature":"25","num_nodes":"37","size_leaf_vector":"1"}},{"base_weights":[-2.9319527E-2,-3.5183284E-2,6.60259E-2,9.588348E-3,-1.7372404E-1,-4.5722056E-2,5.1359046E-1,-7.7102107E-1,-7.927841E-2,3.37928E-1,-7.9603165E-2,1.4808137E0,3.1672144E-1,-2.935417E-1,-9.205821E-1,2.2393051E-1,-2.593866E-1,7.2764116E-3,8.901644E-2,2.7386001E-3,-1.118744E-2,-1.1701658E-2,1.07557505E-1,4.0627737E-2,-8.827112E-3,-3.6616273E-2,1.3596694E-2,-5.8042467E-2,-9.368466E-3,4.649618E-2,3.9993704E-4,1.1020167E-2,-2.3278818E-2],"categories":[],"categories_nodes":[],"categories_segments":[],"categories_sizes":[],"default_left":[0,0,0,0,0,0,0,0,0,0,0,0,0,0,0,0,0,0,0,0,0,0,0,0,0,0,0,0,0,0,0,0,0],"id":29,"left_children":[1,3,-1,5,7,9,11,13,15,17,19,21,23,25,27,29,31,-1,-1,-1,-1,-1,-1,-1,-1,-1,-1,-1,-1,-1,-1,-1,-1],"loss_changes":[3.847856E0,3.5558105E0,0E0,1.2121909E1,7.8365674E0,5.1223073E0,7.718895E0,1.0866051E0,6.720555E0,7.763006E0,4.8398128E0,4.0074377E0,6.2849607E0,1.126782E0,3.497324E-1,5.5016885E0,4.458276E0,0E0,0E0,0E0,0E0,0E0,0E0,0E0,0E0,0E0,0E0,0E0,0E0,0E0,0E0,0E0,0E0],"parents":[2147483647,0,0,1,1,3,3,4,4,5,5,6,6,7,7,8,8,9,9,10,10,11,11,12,12,13,13,14,14,15,15,16,16],"right_children":[2,4,-1,6,8,10,12,14,16,18,20,22,24,26,28,30,32,-1,-1,-1,-1,-1,-1,-1,-1,-1,-1,-1,-1,-1,-1,-1,-1],"split_conditions":[6.609383E0,1.7848657E0,6.60259E-2,1.6623323E0,1.87378E0,3.3958068E0,7.6680535E-1,8.740612E-1,-6.584364E-1,3.369302E0,4.443624E0,5.930903E-1,1.3934838E0,7.61288E-1,1.0306724E2,1.4335388E3,1.3297157E0,7.2764116E-3,8.901644E-2,2.7386001E-3,-1.118744E-2,-1.1701658E-2,1.07557505E-1,4.0627737E-2,-8.827112E-3,-3.6616273E-2,1.3596694E-2,-5.8042467E-2,-9.368466E-3,4.649618E-2,3.9993704E-4,1.1020167E-2,-2.3278818E-2],"split_indices":[19,15,0,15,15,18,2,14,3,18,19,14,1,2,9,8,1,0,0,0,0,0,0,0,0,0,0,0,0,0,0,0,0],"split_type":[0,0,0,0,0,0,0,0,0,0,0,0,0,0,0,0,0,0,0,0,0,0,0,0,0,0,0,0,0,0,0,0,0],"sum_hessian":[5.74E2,5.72E2,2E0,4.33E2,1.39E2,3.91E2,4.2E1,1.8E1,1.21E2,3.1E1,3.6E2,6E0,3.6E1,5E0,1.3E1,4.5E1,7.6E1,2.7E1,4E0,1.66E2,1.94E2,1E0,5E0,2E1,1.6E1,3E0,2E0,1.2E1,1E0,1.2E1,3.3E1,1.7E1,5.9E1],"tree_param":{"num_deleted":"0","num_feature":"25","num_nodes":"33","size_leaf_vector":"1"}},{"base_weights":[7.4240966E-3,-9.895343E-2,7.252662E-2,9.6928835E-2,-2.420314E-1,3.9516586E-1,2.7656639E-2,-3.6994037E-1,2.281089E-1,2.7037024E-1,-3.1244197E-1,1.3092911E0,1.556577E-1,6.931647E-2,1.6863884E-2,3.6827933E-2,-5.057971E-1,4.0186504E-1,-8.923939E-2,-3.1276364E-2,6.6266966E-1,-9.761884E-2,-4.33416E-1,1.3072404E-1,3.0686842E-2,-2.616439E-1,4.0289962E-1,6.779931E-2,-2.3717037E-1,-3.4030657E-2,1.7971616E-2,-1.6585117E-2,3.0320644E-2,-3.0906629E-2,1.4144485E-2,-1.3485299E-2,2.9705526E-2,1.1909015E-2,4.2417202E-2,3.0691229E-2,-1.6754901E-2,-4.1463643E-2,-1.5808335E-2,-3.827335E-2,1.0954706E-3,1.684215E-3,4.464924E-2,-3.4965542E-3,2.0900127E-2,2.6665293E-3,-3.1879406E-2],"categories":[],"categories_nodes":[],"categories_segments":[],"categories_sizes":[],"default_left":[0,0,0,0,0,0,0,0,0,0,0,0,0,0,0,0,0,0,0,0,0,0,0,0,0,0,0,0,0,0,0,0,0,0,0,0,0,0,0,0,0,0,0,0,0,0,0,0,0,0,0],"id":30,"left_children":[1,3,5,7,9,11,13,15,17,19,21,23,25,-1,27,-1,29,31,33,35,37,39,41,-1,-1,43,45,47,49,-1,-1,-1,-1,-1,-1,-1,-1,-1,-1,-1,-1,-1,-1,-1,-1,-1,-1,-1,-1,-1,-1],"loss_changes":[4.0308604E0,6.217303E0,5.2152014E0,5.841316E0,4.702523E0,9.429579E0,3.8506105E0,3.1170564E0,4.1163116E0,1.9140984E0,2.8943348E0,5.128809E0,3.8196962E0,0E0,4.104912E0,0E0,1.1090794E0,3.508719E0,3.8582313E0,1.129685E0,3.572464E-3,4.7896237E0,2.9704533E0,0E0,0E0,1.4860101E0,2.9210918E0,9.357624E0,4.4139843E0,0E0,0E0,0E0,0E0,0E0,0E0,0E0,0E0,0E0,0E0,0E0,0E0,0E0,0E0,0E0,0E0,0E0,0E0,0E0,0E0,0E0,0E0],"parents":[2147483647,0,0,1,1,2,2,3,3,4,4,5,5,6,6,7,7,8,8,9,9,10,10,11,11,12,12,14,14,16,16,17,17,18,18,19,19,20,20,21,21,22,22,25,25,26,26,27,27,28,28],"right_children":[2,4,6,8,10,12,14,16,18,20,22,24,26,-1,28,-1,30,32,34,36,38,40,42,-1,-1,44,46,48,50,-1,-1,-1,-1,-1,-1,-1,-1,-1,-1,-1,-1,-1,-1,-1,-1,-1,-1,-1,-1,-1,-1],"split_conditions":[1.4880876E3,4.443624E0,-4.4281715E1,3.7349725E0,3.3856463E0,1.1576414E0,1.4886151E3,-1.4620534E2,1.4674857E3,5.483132E0,1.0994014E0,9.969535E-1,8.62172E-1,6.931647E-2,1.8505535E-1,3.6827933E-2,1.5266842E0,7.566782E-1,1.3125317E0,1.3928497E0,8.0458E-1,1.4356161E3,4.906371E0,1.3072404E-1,3.0686842E-2,5.1754136E0,1.9486755E0,1.1387811E0,1.2738788E0,-3.4030657E-2,1.7971616E-2,-1.6585117E-2,3.0320644E-2,-3.0906629E-2,1.4144485E-2,-1.3485299E-2,2.9705526E-2,1.1909015E-2,4.2417202E-2,3.0691229E-2,-1.6754901E-2,-4.1463643E-2,-1.5808335E-2,-3.827335E-2,1.0954706E-3,1.684215E-3,4.464924E-2,-3.4965542E-3,2.0900127E-2,2.6665293E-3,-3.1879406E-2],"split_indices":[7,19,9,19,18,14,7,9,7,19,14,15,1,0,3,0,2,15,15,9,0,7,19,0,0,18,2,14,14,0,0,0,0,0,0,0,0,0,0,0,0,0,0,0,0,0,0,0,0,0,0],"split_type":[0,0,0,0,0,0,0,0,0,0,0,0,0,0,0,0,0,0,0,0,0,0,0,0,0,0,0,0,0,0,0,0,0,0,0,0,0,0,0,0,0,0,0,0,0,0,0,0,0,0,0],"sum_hessian":[5.8E2,2.2E2,3.6E2,9.3E1,1.27E2,4.3E1,3.17E2,2E1,7.3E1,1.5E1,1.12E2,8E0,3.5E1,2E0,3.15E2,2E0,1.8E1,4.7E1,2.6E1,9E0,6E0,4.1E1,7.1E1,3E0,5E0,1.3E1,2.2E1,2.63E2,5.2E1,1.7E1,1E0,6E0,4.1E1,1.1E1,1.5E1,7E0,2E0,1E0,5E0,9E0,3.2E1,2.7E1,4.4E1,5E0,8E0,1.1E1,1.1E1,1.82E2,8.1E1,2.7E1,2.5E1],"tree_param":{"num_deleted":"0","num_feature":"25","num_nodes":"51","size_leaf_vector":"1"}},{"base_weights":[2.9397768E-3,2.771324E-1,-2.020848E-2,-3.9633133E-2,8.198285E-1,-5.063677E-1,-7.3768306E-3,4.3731704E-1,-4.300843E-1,1.1579534E0,1.7137109E-1,1.2544001E-2,-5.382717E-2,2.4084921E-1,-3.4769755E-2,-1.5899561E-2,5.764514E-1,4.596037E-2,-5.527153E-1,-5.3794306E-2,1.4332078E0,-6.934315E-2,2.2154553E-2,2.5442494E-2,-7.602751E-3,5.5955297E-1,-1.9917974E-1,-2.3268463E-1,3.407118E-2,4.5720596E-2,8.899024E-4,1.4226855E-2,-3.727069E-2,7.18979E-3,-1.2031277E-2,1.02963895E-1,1.7728297E-2,-9.406361E-3,5.7883644E-3,8.2461335E-2,1.2983327E-2,8.880139E-3,-2.865766E-2,-1.5164396E-2,6.702358E-2,3.824372E-2,4.552446E-4],"categories":[],"categories_nodes":[],"categories_segments":[],"categories_sizes":[],"default_left":[0,0,0,0,0,0,0,0,0,0,0,0,0,0,0,0,0,0,0,0,0,0,0,0,0,0,0,0,0,0,0,0,0,0,0,0,0,0,0,0,0,0,0,0,0,0,0],"id":31,"left_children":[1,3,5,7,9,11,13,15,17,19,21,23,-1,25,27,-1,29,-1,31,33,35,37,-1,-1,-1,39,41,43,45,-1,-1,-1,-1,-1,-1,-1,-1,-1,-1,-1,-1,-1,-1,-1,-1,-1,-1],"loss_changes":[3.7503784E0,7.9402328E0,3.3960974E0,5.7748556E0,3.5289726E0,2.849973E0,3.625781E0,1.520771E0,2.9169064E0,3.746027E0,3.5901782E-1,4.548574E-1,0E0,7.544112E0,6.5477576E0,0E0,1.2392583E0,0E0,1.0124745E0,1.0045447E-1,2.389305E0,7.311312E-2,0E0,0E0,0E0,8.370546E0,2.294149E0,3.6389503E0,5.6994166E0,0E0,0E0,0E0,0E0,0E0,0E0,0E0,0E0,0E0,0E0,0E0,0E0,0E0,0E0,0E0,0E0,0E0,0E0],"parents":[2147483647,0,0,1,1,2,2,3,3,4,4,5,5,6,6,7,7,8,8,9,9,10,10,11,11,13,13,14,14,16,16,18,18,19,19,20,20,21,21,25,25,26,26,27,27,28,28],"right_children":[2,4,6,8,10,12,14,16,18,20,22,24,-1,26,28,-1,30,-1,32,34,36,38,-1,-1,-1,40,42,44,46,-1,-1,-1,-1,-1,-1,-1,-1,-1,-1,-1,-1,-1,-1,-1,-1,-1,-1],"split_conditions":[3.3958068E0,-3.7750727E-1,8E-2,1.4510963E3,1.3883483E0,1.9143919E1,1.4407383E3,4.0393457E0,7.293713E-2,6.8361104E-1,1.5409835E3,1.7680974E-1,-5.382717E-2,1.1444325E-1,1.4857803E3,-1.5899561E-2,1.1654642E0,4.596037E-2,6.345351E-1,9.6315044E-1,5.221553E0,1.7079406E0,2.2154553E-2,2.5442494E-2,-7.602751E-3,7.695158E-1,7.4469393E-1,2.5500643E0,8.173526E-1,4.5720596E-2,8.899024E-4,1.4226855E-2,-3.727069E-2,7.18979E-3,-1.2031277E-2,1.02963895E-1,1.7728297E-2,-9.406361E-3,5.7883644E-3,8.2461335E-2,1.2983327E-2,8.880139E-3,-2.865766E-2,-1.5164396E-2,6.702358E-2,3.824372E-2,4.552446E-4],"split_indices":[18,3,23,8,0,9,8,19,24,14,8,14,0,24,8,0,0,0,0,0,19,1,0,0,0,14,2,1,2,0,0,0,0,0,0,0,0,0,0,0,0,0,0,0,0,0,0],"split_type":[0,0,0,0,0,0,0,0,0,0,0,0,0,0,0,0,0,0,0,0,0,0,0,0,0,0,0,0,0,0,0,0,0,0,0,0,0,0,0,0,0,0,0,0,0,0,0],"sum_hessian":[5.89E2,4.5E1,5.44E2,2.9E1,1.6E1,1.3E1,5.31E2,1.3E1,1.6E1,1E1,6E0,6E0,7E0,5.2E1,4.79E2,2E0,1.1E1,1E0,1.5E1,2E0,8E0,3E0,3E0,1E0,5E0,3E1,2.2E1,1.23E2,3.56E2,8E0,3E0,1E0,1.4E1,1E0,1E0,6E0,2E0,2E0,1E0,8E0,2.2E1,1E1,1.2E1,1.22E2,1E0,1.4E1,3.42E2],"tree_param":{"num_deleted":"0","num_feature":"25","num_nodes":"47","size_leaf_vector":"1"}},{"base_weights":[2.7568353E-2,1.7867904E-2,6.237774E-1,4.128361E-2,-3.544866E-1,8.224376E-2,-2.4793014E-1,-6.3650556E-2,1.1166522E-1,-6.087634E-1,-7.935768E-2,-2.9993959E-2,-5.9963018E-2,1.6132312E-1,-2.323196E-1,-1.4141186E-1,1.8351719E-1,-8.846139E-1,4.439808E-2,5.2548033E-1,-4.5704025E-1,-5.36818E-3,8.5670827E-4,3.59188E-3,4.945615E-2,-1.6590191E-2,3.9636977E-2,-2.5628127E-2,-2.930586E-3,3.3942256E-2,6.7687347E-3,-3.0985235E-3,-5.733863E-2,2.7140593E-2,-1.6359618E-2,-1.0139265E-2,5.0223906E-2,-8.9136055E-3,-3.6725506E-2],"categories":[],"categories_nodes":[],"categories_segments":[],"categories_sizes":[],"default_left":[0,0,0,0,0,0,0,0,0,0,0,0,0,0,0,0,0,0,0,0,0,0,0,0,0,0,0,0,0,0,0,0,0,0,0,0,0,0,0],"id":32,"left_children":[1,3,5,7,9,-1,11,13,15,17,19,-1,21,23,25,27,29,31,33,35,37,-1,-1,-1,-1,-1,-1,-1,-1,-1,-1,-1,-1,-1,-1,-1,-1,-1,-1],"loss_changes":[3.2507458E0,4.862368E0,6.1999574E0,3.877076E0,2.2603335E0,0E0,2.068342E-1,8.044104E0,5.735754E0,3.1022487E0,4.123591E0,0E0,1.0039961E-2,6.0714507E0,4.956488E0,1.830573E0,6.556699E0,6.6063976E-1,8.993906E-1,1.6561534E0,4.3520117E-1,0E0,0E0,0E0,0E0,0E0,0E0,0E0,0E0,0E0,0E0,0E0,0E0,0E0,0E0,0E0,0E0,0E0,0E0],"parents":[2147483647,0,0,1,1,2,2,3,3,4,4,6,6,7,7,8,8,9,9,10,10,12,12,13,13,14,14,15,15,16,16,17,17,18,18,19,19,20,20],"right_children":[2,4,6,8,10,-1,12,14,16,18,20,-1,22,24,26,28,30,32,34,36,38,-1,-1,-1,-1,-1,-1,-1,-1,-1,-1,-1,-1,-1,-1,-1,-1,-1,-1],"split_conditions":[1.8302892E2,1.2431377E2,1.1399798E0,1.4880876E3,4.017589E0,8.224376E-2,1.0242124E0,4.443624E0,4.016757E0,1.1294495E0,9.5531607E-1,-2.9993959E-2,1.5177977E0,1.304266E-1,2.1035275E0,1.4998711E3,1.4981936E3,4.0422615E-1,1.1294495E0,1.4216543E3,1.0307858E0,-5.36818E-3,8.5670827E-4,3.59188E-3,4.945615E-2,-1.6590191E-2,3.9636977E-2,-2.5628127E-2,-2.930586E-3,3.3942256E-2,6.7687347E-3,-3.0985235E-3,-5.733863E-2,2.7140593E-2,-1.6359618E-2,-1.0139265E-2,5.0223906E-2,-8.9136055E-3,-3.6725506E-2],"split_indices":[9,9,2,7,18,0,0,19,19,2,0,0,1,24,14,7,7,2,0,8,2,0,0,0,0,0,0,0,0,0,0,0,0,0,0,0,0,0,0],"split_type":[0,0,0,0,0,0,0,0,0,0,0,0,0,0,0,0,0,0,0,0,0,0,0,0,0,0,0,0,0,0,0,0,0,0,0,0,0,0,0],"sum_hessian":[5.63E2,5.55E2,8E0,5.23E2,3.2E1,4E0,4E0,2.1E2,3.13E2,1.6E1,1.6E1,1E0,3E0,9E1,1.2E2,6.9E1,2.44E2,1.1E1,5E0,6E0,1E1,2E0,1E0,7.9E1,1.1E1,1.15E2,5E0,1.6E1,5.3E1,3.7E1,2.07E2,1E0,1E1,2E0,3E0,2E0,4E0,4E0,6E0],"tree_param":{"num_deleted":"0","num_feature":"25","num_nodes":"39","size_leaf_vector":"1"}},{"base_weights":[-6.273658E-3,3.603764E-2,-1.3960077E-1,-2.6895923E-3,3.8914844E-1,-6.980721E-3,-5.0142896E-1,1.8041553E-2,-5.652E-1,2.6562846E-1,1.1685232E-1,-6.928278E-2,1.0013993E0,4.0239863E-2,-5.526167E-1,6.768128E-1,-1.5922993E-3,2.214192E-2,-6.6545105E-1,-7.988653E-3,7.938892E-1,3.6085144E-1,-1.5870252E-1,-5.0839614E-3,9.39389E-2,-6.7825305E-1,6.477009E-2,1.5123082E-2,1.03529565E-1,-5.5940337E-3,1.059674E-2,-4.2563617E-2,-4.144224E-3,1.105478E-2,-3.6660872E-2,7.106208E-2,-2.8703988E-2,-3.7936054E-3,6.893195E-2,1.785512E-2,-1.7073223E-2,-4.347957E-2,-1.172678E-2,4.921562E-2,-1.1871301E-2],"categories":[],"categories_nodes":[],"categories_segments":[],"categories_sizes":[],"default_left":[0,0,0,0,0,0,0,0,0,0,0,0,0,0,0,0,0,0,0,0,0,0,0,0,0,0,0,0,0,0,0,0,0,0,0,0,0,0,0,0,0,0,0,0,0],"id":33,"left_children":[1,3,5,7,9,11,13,15,17,19,-1,21,23,-1,25,27,29,-1,31,33,35,37,39,-1,-1,41,43,-1,-1,-1,-1,-1,-1,-1,-1,-1,-1,-1,-1,-1,-1,-1,-1,-1,-1],"loss_changes":[3.231822E0,5.949673E0,6.6185226E0,4.5931606E0,7.75985E0,6.4774427E0,2.5905008E0,4.91608E0,1.5567818E0,5.9325314E0,0E0,3.7881293E0,3.8097558E0,0E0,2.8363142E0,4.464914E0,6.0589204E0,0E0,2.9168606E-1,3.358412E0,7.5218287E0,5.753695E0,4.7360544E0,0E0,0E0,5.3052807E-1,1.5511675E0,0E0,0E0,0E0,0E0,0E0,0E0,0E0,0E0,0E0,0E0,0E0,0E0,0E0,0E0,0E0,0E0,0E0,0E0],"parents":[2147483647,0,0,1,1,2,2,3,3,4,4,5,5,6,6,7,7,8,8,9,9,11,11,12,12,14,14,15,15,16,16,18,18,19,19,20,20,21,21,22,22,25,25,26,26],"right_children":[2,4,6,8,10,12,14,16,18,20,-1,22,24,-1,26,28,30,-1,32,34,36,38,40,-1,-1,42,44,-1,-1,-1,-1,-1,-1,-1,-1,-1,-1,-1,-1,-1,-1,-1,-1,-1,-1],"split_conditions":[1.7848657E0,1.6623323E0,1.3116535E0,1.7859685E-1,2.1035275E0,1.277746E0,3.381894E0,7.2553694E-1,1.2146964E0,4.517798E0,1.1685232E-1,1.4310276E3,4.662886E0,4.0239863E-2,1.7657283E-1,7.0042753E-1,1.5372589E3,2.214192E-2,7.994207E1,4.359977E0,1.5372589E3,1.4216543E3,-1.1116372E1,-5.0839614E-3,9.39389E-2,1.5687458E3,1.965477E0,1.5123082E-2,1.03529565E-1,-5.5940337E-3,1.059674E-2,-4.2563617E-2,-4.144224E-3,1.105478E-2,-3.6660872E-2,7.106208E-2,-2.8703988E-2,-3.7936054E-3,6.893195E-2,1.785512E-2,-1.7073223E-2,-4.347957E-2,-1.172678E-2,4.921562E-2,-1.1871301E-2],"split_indices":[15,15,0,24,14,0,19,0,15,18,0,8,19,0,24,0,8,0,9,18,8,8,9,0,0,8,15,0,0,0,0,0,0,0,0,0,0,0,0,0,0,0,0,0,0],"split_type":[0,0,0,0,0,0,0,0,0,0,0,0,0,0,0,0,0,0,0,0,0,0,0,0,0,0,0,0,0,0,0,0,0,0,0,0,0,0,0,0,0,0,0,0,0],"sum_hessian":[5.71E2,4.34E2,1.37E2,3.92E2,4.2E1,1.01E2,3.6E1,3.79E2,1.3E1,4E1,2E0,9.6E1,5E0,1E0,3.5E1,1E1,3.69E2,1E0,1.2E1,2.7E1,1.3E1,1.6E1,8E1,2E0,3E0,2.9E1,6E0,8E0,2E0,2.44E2,1.25E2,1.1E1,1E0,2.1E1,6E0,1E1,3E0,1.1E1,5E0,1.7E1,6.3E1,2.6E1,3E0,1E0,5E0],"tree_param":{"num_deleted":"0","num_feature":"25","num_nodes":"45","size_leaf_vector":"1"}},{"base_weights":[-1.1589915E-2,6.9654815E-2,-1.7839327E-2,1.587005E-3,-2.7789402E-1,-1.0953627E-2,5.365217E-1,-4.9225494E-1,-2.6342755E-2,2.2442738E-2,-1.8635459E-1,2.264968E-3,1.070401E0,-6.12993E-1,1.7412993E-1,1.0319752E0,-2.892758E-1,-1.1839217E-4,3.1457335E-2,6.666645E-2,-1.49813965E-2,-2.4521329E-2,1.4903054E-2,6.949993E-2,1.8922325E-2,-1.9835481E-2,-4.359867E-2,2.721604E-2,-1.9928468E-2,8.448585E-2,-2.891761E-3,-3.907553E-2,-4.1760347E-4],"categories":[],"categories_nodes":[],"categories_segments":[],"categories_sizes":[],"default_left":[0,0,0,0,0,0,0,0,0,0,0,0,0,0,0,0,0,0,0,0,0,0,0,0,0,0,0,0,0,0,0,0,0],"id":34,"left_children":[1,-1,3,5,7,9,11,13,15,17,19,21,23,25,27,29,31,-1,-1,-1,-1,-1,-1,-1,-1,-1,-1,-1,-1,-1,-1,-1,-1],"loss_changes":[4.1460695E0,0E0,2.8345618E0,3.51438E0,2.0900204E0,3.0033526E0,3.4203186E0,1.7963586E0,5.585593E0,5.282098E0,7.015802E0,8.095174E-1,3.3038616E-2,3.3749485E-1,7.1661127E-1,1.6929708E0,1.6305639E0,0E0,0E0,0E0,0E0,0E0,0E0,0E0,0E0,0E0,0E0,0E0,0E0,0E0,0E0,0E0,0E0],"parents":[2147483647,0,0,2,2,3,3,4,4,5,5,6,6,7,7,8,8,9,9,10,10,11,11,12,12,13,13,14,14,15,15,16,16],"right_children":[2,-1,4,6,8,10,12,14,16,18,20,22,24,26,28,30,32,-1,-1,-1,-1,-1,-1,-1,-1,-1,-1,-1,-1,-1,-1,-1,-1],"split_conditions":[-1.7525246E0,6.9654815E-2,1.6809183E-1,1.5863349E-1,1.8440226E0,5.0166745E0,1.4747734E0,2.119256E-1,1.965477E0,4.912534E0,1.4751042E3,1.0483407E0,1.7047143E0,1.288636E0,1.8361644E0,1.8768287E0,1.5204147E3,-1.1839217E-4,3.1457335E-2,6.666645E-2,-1.49813965E-2,-2.4521329E-2,1.4903054E-2,6.949993E-2,1.8922325E-2,-1.9835481E-2,-4.359867E-2,2.721604E-2,-1.9928468E-2,8.448585E-2,-2.891761E-3,-3.907553E-2,-4.1760347E-4],"split_indices":[3,0,24,24,15,18,1,23,15,18,8,1,1,15,1,1,7,0,0,0,0,0,0,0,0,0,0,0,0,0,0,0,0],"split_type":[0,0,0,0,0,0,0,0,0,0,0,0,0,0,0,0,0,0,0,0,0,0,0,0,0,0,0,0,0,0,0,0,0],"sum_hessian":[5.62E2,2E0,5.6E2,5.22E2,3.8E1,5.11E2,1.1E1,2E1,1.8E1,4.3E2,8.1E1,6E0,5E0,1.7E1,3E0,3E0,1.5E1,4.11E2,1.9E1,3E0,7.8E1,2E0,4E0,4E0,1E0,6E0,1.1E1,2E0,1E0,2E0,1E0,6E0,9E0],"tree_param":{"num_deleted":"0","num_feature":"25","num_nodes":"33","size_leaf_vector":"1"}},{"base_weights":[4.6410869E-4,2.774796E-1,-2.1860333E-2,1.0081326E0,1.5795657E-1,-9.424688E-2,5.8715675E-2,1.0849206E-2,1.137431E0,-4.906993E-2,4.5862406E-1,-7.001922E-2,-7.607739E-1,9.016228E-1,1.769309E-2,7.925592E-2,1.210281E-2,1.309529E-1,-6.109639E-1,1.7340592E-1,7.625561E-2,-1.409362E-1,1.0507333E-1,-9.001024E-3,-8.9471096E-1,1.0621507E-1,1.679328E0,-2.4306047E-1,8.643163E-2,-2.509616E-2,2.9171297E-2,-4.2350225E-2,-4.0979325E-3,-1.41240945E-2,2.287523E-2,-9.196499E-3,6.90644E-2,2.5207747E-3,5.3179584E-2,-5.773893E-2,-1.2644377E-2,-1.7541185E-2,4.4105418E-2,1.31165525E-2,1.1566499E-1,-4.1136976E-2,-5.1094394E-4,1.0687445E-2,-1.0360484E-2],"categories":[],"categories_nodes":[],"categories_segments":[],"categories_sizes":[],"default_left":[0,0,0,0,0,0,0,0,0,0,0,0,0,0,0,0,0,0,0,0,0,0,0,0,0,0,0,0,0,0,0,0,0,0,0,0,0,0,0,0,0,0,0,0,0,0,0,0,0],"id":35,"left_children":[1,3,5,7,9,11,13,-1,15,17,19,21,23,25,27,-1,-1,29,31,33,-1,35,37,-1,39,41,43,45,47,-1,-1,-1,-1,-1,-1,-1,-1,-1,-1,-1,-1,-1,-1,-1,-1,-1,-1,-1,-1],"loss_changes":[3.6485689E0,3.6832724E0,3.1901433E0,4.3615055E-1,2.450104E0,4.5974674E0,8.939809E0,0E0,5.920758E-1,2.507697E0,3.48655E0,3.4791613E0,6.8380785E-1,7.2447424E0,4.466115E0,0E0,0E0,3.9103181E0,2.6069856E-1,1.1943552E0,0E0,3.3488584E0,3.9533205E0,0E0,1.6711855E-1,1.9694535E0,1.7558231E0,5.3917165E0,4.711103E0,0E0,0E0,0E0,0E0,0E0,0E0,0E0,0E0,0E0,0E0,0E0,0E0,0E0,0E0,0E0,0E0,0E0,0E0,0E0,0E0],"parents":[2147483647,0,0,1,1,2,2,3,3,4,4,5,5,6,6,8,8,9,9,10,10,11,11,12,12,13,13,14,14,17,17,18,18,19,19,21,21,22,22,24,24,25,25,26,26,27,27,28,28],"right_children":[2,4,6,8,10,12,14,-1,16,18,20,22,24,26,28,-1,-1,30,32,34,-1,36,38,-1,40,42,44,46,48,-1,-1,-1,-1,-1,-1,-1,-1,-1,-1,-1,-1,-1,-1,-1,-1,-1,-1,-1,-1],"split_conditions":[3.3958068E0,1.4321193E3,4.3156815E0,1.4321364E3,-3.7750727E-1,4.278747E0,4.371842E0,1.0849206E-2,9.6681565E-1,1.1654642E0,1.5350543E3,1.5325745E3,7.288894E-1,1.4264971E0,1E0,7.925592E-2,1.210281E-2,1.4291713E0,1.4824275E3,1.2494656E0,7.625561E-2,7.3968277E0,4.2098227E0,-9.001024E-3,1.5766445E3,-5.111226E-2,9.8324287E-1,1.1186073E0,1.7590019E0,-2.509616E-2,2.9171297E-2,-4.2350225E-2,-4.0979325E-3,-1.41240945E-2,2.287523E-2,-9.196499E-3,6.90644E-2,2.5207747E-3,5.3179584E-2,-5.773893E-2,-1.2644377E-2,-1.7541185E-2,4.4105418E-2,1.31165525E-2,1.1566499E-1,-4.1136976E-2,-5.1094394E-4,1.0687445E-2,-1.0360484E-2],"split_indices":[18,7,18,8,3,18,18,0,0,0,7,7,0,2,1,0,0,1,8,1,0,19,18,0,8,3,10,14,15,0,0,0,0,0,0,0,0,0,0,0,0,0,0,0,0,0,0,0,0],"split_type":[0,0,0,0,0,0,0,0,0,0,0,0,0,0,0,0,0,0,0,0,0,0,0,0,0,0,0,0,0,0,0,0,0,0,0,0,0,0,0,0,0,0,0,0,0,0,0,0,0],"sum_hessian":[5.88E2,4.3E1,5.45E2,5E0,3.8E1,2.87E2,2.58E2,1E0,4E0,2.3E1,1.5E1,2.78E2,9E0,1.1E1,2.47E2,3E0,1E0,1.8E1,5E0,1.2E1,3E0,1.98E2,8E1,2E0,7E0,6E0,5E0,5.1E1,1.96E2,7E0,1.1E1,4E0,1E0,4E0,8E0,1.97E2,1E0,7.5E1,5E0,6E0,1E0,4E0,2E0,1E0,4E0,1.7E1,3.4E1,1.45E2,5.1E1],"tree_param":{"num_deleted":"0","num_feature":"25","num_nodes":"49","size_leaf_vector":"1"}},{"base_weights":[4.269651E-3,-2.6334044E-1,2.3340784E-2,-3.3290854E-1,2.4672942E-2,-2.5109693E-2,1.6220346E-1,-4.2149568E-1,2.8291336E-1,1.1264896E-2,-2.7704716E-1,4.516432E-1,-2.3584189E-2,-8.141555E-2,-5.172934E-1,7.802538E-1,-1.8523894E-2,-7.277292E-2,1.3024025E-1,5.062705E-1,-4.61343E-1,1.3085872E0,2.2714257E-1,6.404197E-2,-7.651367E-2,-1.9316062E-2,2.5605638E-2,-1.3781611E-2,-3.4853306E-2,1.0365611E-2,5.9857234E-2,1.960109E-2,-7.078062E-3,6.445683E-2,3.5607957E-3,7.245918E-2,-2.619856E-2,-3.1545073E-2,3.178468E-2,1.0485348E-1,6.2099183E-3,-1.7439197E-3,4.3464933E-2,-6.7093363E-3,8.3504505E-2],"categories":[],"categories_nodes":[],"categories_segments":[],"categories_sizes":[],"default_left":[0,0,0,0,0,0,0,0,0,0,0,0,0,0,0,0,0,0,0,0,0,0,0,0,0,0,0,0,0,0,0,0,0,0,0,0,0,0,0,0,0,0,0,0,0],"id":36,"left_children":[1,3,5,7,-1,9,11,13,15,17,19,21,23,25,27,29,-1,31,33,35,37,39,41,-1,43,-1,-1,-1,-1,-1,-1,-1,-1,-1,-1,-1,-1,-1,-1,-1,-1,-1,-1,-1,-1],"loss_changes":[2.9152143E0,1.920146E0,3.590077E0,2.0286329E0,0E0,3.6321132E0,7.43151E0,9.678302E-1,1.7121339E0,3.4789329E0,7.4516745E0,1.0091523E1,4.98986E0,1.1151963E0,3.0553246E-1,2.2379768E-1,0E0,3.7214327E0,9.573654E0,7.140742E0,2.8957157E0,5.638117E0,5.6268873E0,0E0,4.4066763E0,0E0,0E0,0E0,0E0,0E0,0E0,0E0,0E0,0E0,0E0,0E0,0E0,0E0,0E0,0E0,0E0,0E0,0E0,0E0,0E0],"parents":[2147483647,0,0,1,1,2,2,3,3,5,5,6,6,7,7,8,8,9,9,10,10,11,11,12,12,13,13,14,14,15,15,17,17,18,18,19,19,20,20,21,21,22,22,24,24],"right_children":[2,4,6,8,-1,10,12,14,16,18,20,22,24,26,28,30,-1,32,34,36,38,40,42,-1,44,-1,-1,-1,-1,-1,-1,-1,-1,-1,-1,-1,-1,-1,-1,-1,-1,-1,-1,-1,-1],"split_conditions":[9.5406693E-1,2.1342092E0,1.1039579E-1,1.587214E3,2.4672942E-2,8.2398504E-2,4.6837134E0,-1.1303803E0,1.2014719E0,4.278747E0,3.9164836E0,1.153154E0,7.1358E-1,6.59754E-1,9.379903E-1,1.1294495E0,-1.8523894E-2,3.2716227E0,4.371842E0,1.5803171E0,6.043816E0,1.4112628E0,4.1731915E0,6.404197E-2,5.5144897E0,-1.9316062E-2,2.5605638E-2,-1.3781611E-2,-3.4853306E-2,1.0365611E-2,5.9857234E-2,1.960109E-2,-7.078062E-3,6.445683E-2,3.5607957E-3,7.245918E-2,-2.619856E-2,-3.1545073E-2,3.178468E-2,1.0485348E-1,6.2099183E-3,-1.7439197E-3,4.3464933E-2,-6.7093363E-3,8.3504505E-2],"split_indices":[10,15,23,8,0,23,19,3,0,18,18,2,14,0,15,0,0,18,18,2,19,0,19,0,18,0,0,0,0,0,0,0,0,0,0,0,0,0,0,0,0,0,0,0,0],"split_type":[0,0,0,0,0,0,0,0,0,0,0,0,0,0,0,0,0,0,0,0,0,0,0,0,0,0,0,0,0,0,0,0,0,0,0,0,0,0,0,0,0,0,0,0,0],"sum_hessian":[5.69E2,3.7E1,5.32E2,3.4E1,3E0,3.95E2,1.37E2,3E1,4E0,3.46E2,4.9E1,5.3E1,8.4E1,7E0,2.3E1,2E0,2E0,2.03E2,1.43E2,9E0,4E1,1E1,4.3E1,3E0,8.1E1,5E0,2E0,5E0,1.8E1,1E0,1E0,2E1,1.83E2,9E0,1.34E2,5E0,4E0,3.8E1,2E0,7E0,3E0,2.9E1,1.4E1,8E1,1E0],"tree_param":{"num_deleted":"0","num_feature":"25","num_nodes":"45","size_leaf_vector":"1"}},{"base_weights":[-1.8316869E-3,-2.4428946E-1,1.891438E-2,-3.5321516E-1,4.186555E-2,3.056461E-2,-4.8265088E-1,-5.6645566E-1,9.849554E-2,2.2524614E-2,8.461394E-1,-6.375206E-1,-1.3531253E-2,-7.2439563E-1,-2.5651246E-1,3.4683025E-1,-3.6542926E-2,6.1546034E-1,1.3068244E-2,-1.8565607E-3,6.438873E-2,-2.3610453E-1,-4.31089E-2,-3.1705063E-2,1.2297052E-3,1.7905247E-3,-4.623108E-2,7.621418E-3,-2.4972985E-2,-2.4060551E-2,2.7702905E-2,-1.2073583E-2,6.874306E-2,3.4587067E-3,-9.536131E-3,1.602686E-3,-2.2852093E-2,-2.3011493E-3,-5.523062E-4],"categories":[],"categories_nodes":[],"categories_segments":[],"categories_sizes":[],"default_left":[0,0,0,0,0,0,0,0,0,0,0,0,0,0,0,0,0,0,0,0,0,0,0,0,0,0,0,0,0,0,0,0,0,0,0,0,0,0,0],"id":37,"left_children":[1,3,5,7,-1,9,11,13,15,17,19,21,23,25,27,29,-1,31,33,-1,-1,35,-1,37,-1,-1,-1,-1,-1,-1,-1,-1,-1,-1,-1,-1,-1,-1,-1],"loss_changes":[2.8717463E0,4.8640575E0,3.0883543E0,4.005037E0,0E0,3.3579087E0,8.632026E-1,1.1848526E0,2.671146E0,2.8571439E0,1.0287213E0,1.2285519E-1,3.1233507E-3,6.491642E-1,7.2664404E-1,1.130222E0,0E0,3.6949813E0,3.8735263E0,0E0,0E0,1.2431215E-1,0E0,9.566196E-5,0E0,0E0,0E0,0E0,0E0,0E0,0E0,0E0,0E0,0E0,0E0,0E0,0E0,0E0,0E0],"parents":[2147483647,0,0,1,1,2,2,3,3,5,5,6,6,7,7,8,8,9,9,10,10,11,11,12,12,13,13,14,14,15,15,17,17,18,18,21,21,23,23],"right_children":[2,4,6,8,-1,10,12,14,16,18,20,22,24,26,28,30,-1,32,34,-1,-1,36,-1,38,-1,-1,-1,-1,-1,-1,-1,-1,-1,-1,-1,-1,-1,-1,-1],"split_conditions":[3.7349725E0,2.0245674E0,2.2664848E-1,1.0428837E1,4.186555E-2,2.228299E-1,1.9501732E1,1.3945141E0,3.5492308E0,3.7888918E0,6.097576E-1,1.0994014E0,8.873077E-1,4.9822497E-1,1.2086275E0,7.0042753E-1,-3.6542926E-2,9.8541206E-1,1.4831662E0,-1.8565607E-3,6.438873E-2,9.018957E-1,-4.31089E-2,5.6601405E-1,1.2297052E-3,1.7905247E-3,-4.623108E-2,7.621418E-3,-2.4972985E-2,-2.4060551E-2,2.7702905E-2,-1.2073583E-2,6.874306E-2,3.4587067E-3,-9.536131E-3,1.602686E-3,-2.2852093E-2,-2.3011493E-3,-5.523062E-4],"split_indices":[19,14,24,9,0,24,9,14,19,19,0,14,0,14,0,0,0,1,14,0,0,0,0,0,0,0,0,0,0,0,0,0,0,0,0,0,0,0,0],"split_type":[0,0,0,0,0,0,0,0,0,0,0,0,0,0,0,0,0,0,0,0,0,0,0,0,0,0,0,0,0,0,0,0,0,0,0,0,0,0,0],"sum_hessian":[5.69E2,4.4E1,5.25E2,4E1,4E0,5.14E2,1.1E1,2.7E1,1.3E1,5.1E2,4E0,8E0,3E0,1.7E1,1E1,1E1,3E0,7E0,5.03E2,1E0,3E0,2E0,6E0,2E0,1E0,1E0,1.6E1,3E0,7E0,1E0,9E0,3E0,4E0,4E2,1.03E2,1E0,1E0,1E0,1E0],"tree_param":{"num_deleted":"0","num_feature":"25","num_nodes":"39","size_leaf_vector":"1"}},{"base_weights":[9.006255E-3,6.4791374E-2,3.294276E-3,2.4128737E-2,-2.4347956E-1,-6.44816E-2,8.561732E-2,-4.5191354E-1,-9.550582E-2,-1.865328E-2,-4.8477742E-1,1.0671374E-1,-6.271099E-1,2.3842724E-2,-5.252471E-1,3.3888243E-2,-1.7092277E-1,-2.503171E-2,1.4686269E-3,-7.9801325E-3,-4.4251516E-2,3.1357195E-2,4.119266E-3,2.2905706E-3,-4.9358718E-2,-4.2652734E-2,-1.3653087E-2,-2.7946396E-2,-2.8626996E-4],"categories":[],"categories_nodes":[],"categories_segments":[],"categories_sizes":[],"default_left":[0,0,0,0,0,0,0,0,0,0,0,0,0,0,0,0,0,0,0,0,0,0,0,0,0,0,0,0,0],"id":38,"left_children":[1,-1,3,5,7,9,11,13,15,17,19,21,23,-1,25,-1,27,-1,-1,-1,-1,-1,-1,-1,-1,-1,-1,-1,-1],"loss_changes":[3.4584801E0,0E0,2.9056244E0,2.8442016E0,1.313921E0,4.1129074E0,4.6980076E0,1.3297913E0,1.441099E0,3.3449302E0,1.7690268E0,4.7128515E0,1.2021885E0,0E0,7.7768946E-1,0E0,1.2225249E0,0E0,0E0,0E0,0E0,0E0,0E0,0E0,0E0,0E0,0E0,0E0,0E0],"parents":[2147483647,0,0,2,2,3,3,4,4,5,5,6,6,7,7,8,8,9,9,10,10,11,11,12,12,14,14,16,16],"right_children":[2,-1,4,6,8,10,12,14,16,18,20,22,24,-1,26,-1,28,-1,-1,-1,-1,-1,-1,-1,-1,-1,-1,-1,-1],"split_conditions":[-1.7525246E0,6.4791374E-2,2.2719495E0,1.4906498E3,2.5140173E0,1.4858252E3,2.102125E0,1.3297157E0,2.5975955E0,3.7349725E0,1.186566E0,-7.333999E-1,4.889749E0,2.3842724E-2,1.000356E0,3.3888243E-2,1.4803723E3,-2.503171E-2,1.4686269E-3,-7.9801325E-3,-4.4251516E-2,3.1357195E-2,4.119266E-3,2.2905706E-3,-4.9358718E-2,-4.2652734E-2,-1.3653087E-2,-2.7946396E-2,-2.8626996E-4],"split_indices":[3,0,15,7,15,7,1,1,15,19,2,3,19,0,14,0,7,0,0,0,0,0,0,0,0,0,0,0,0],"split_type":[0,0,0,0,0,0,0,0,0,0,0,0,0,0,0,0,0,0,0,0,0,0,0,0,0,0,0,0,0],"sum_hessian":[5.65E2,2E0,5.63E2,5.2E2,4.3E1,2.13E2,3.07E2,1.7E1,2.6E1,1.93E2,2E1,2.99E2,8E0,1E0,1.6E1,2E0,2.4E1,1.8E1,1.75E2,9E0,1.1E1,2.4E1,2.75E2,2E0,6E0,9E0,7E0,8E0,1.6E1],"tree_param":{"num_deleted":"0","num_feature":"25","num_nodes":"29","size_leaf_vector":"1"}},{"base_weights":[1.0985961E-2,7.0744483E-3,6.616033E-2,3.8682297E-2,-1.2896568E-1,5.3704463E-2,-4.39425E-1,-2.3225275E-1,9.659086E-2,6.527736E-1,3.6939338E-2,-5.8990014E-1,1.8537033E-2,3.4769526E-1,-2.990305E-1,-1.2447585E-1,5.7013726E-1,5.902424E-2,-1.53052835E-2,1.1714848E-3,2.7654698E-2,9.424256E-3,-4.0325146E-2,4.3378375E-2,-1.2499539E-2,-4.6689734E-2,-1.1974529E-2,2.1981964E-2,-1.8506609E-2,6.189333E-2,-1.1392547E-2],"categories":[],"categories_nodes":[],