{"learner":{"attributes":{"scikit_learn":"{\"_estimator_type\": \"regressor\"}"},"feature_names":["ShotConv_H","ShotConvRec_H","PointsPerGame_H","xGDiff_H","CornersConv_H","CornersConvRec_H","NumMatches_H","Elo_H","Elo_A","EloDiff","GFvsMid_H","GAvsMid_H","GFvsHigh_H","GAvsHigh_H","GFvsSim_H","GAvsSim_H","Possession_H","PossessionRec_H","CornersFor_H","CornersAgainst_H","Availability_H","AvailabilityDiff","xGpp_H","xGppRec_H","xGCorners_H","xGCornersRec_H"],"feature_types":["float","float","float","float","float","float","float","float","float","float","float","float","float","float","float","float","float","float","float","float","float","float","float","float","float","float"],"gradient_booster":{"model":{"gbtree_model_param":{"num_parallel_tree":"1","num_trees":"220"},"iteration_indptr":[0,1,2,3,4,5,6,7,8,9,10,11,12,13,14,15,16,17,18,19,20,21,22,23,24,25,26,27,28,29,30,31,32,33,34,35,36,37,38,39,40,41,42,43,44,45,46,47,48,49,50,51,52,53,54,55,56,57,58,59,60,61,62,63,64,65,66,67,68,69,70,71,72,73,74,75,76,77,78,79,80,81,82,83,84,85,86,87,88,89,90,91,92,93,94,95,96,97,98,99,100,101,102,103,104,105,106,107,108,109,110,111,112,113,114,115,116,117,118,119,120,121,122,123,124,125,126,127,128,129,130,131,132,133,134,135,136,137,138,139,140,141,142,143,144,145,146,147,148,149,150,151,152,153,154,155,156,157,158,159,160,161,162,163,164,165,166,167,168,169,170,171,172,173,174,175,176,177,178,179,180,181,182,183,184,185,186,187,188,189,190,191,192,193,194,195,196,197,198,199,200,201,202,203,204,205,206,207,208,209,210,211,212,213,214,215,216,217,218,219,220],"tree_info":[0,0,0,0,0,0,0,0,0,0,0,0,0,0,0,0,0,0,0,0,0,0,0,0,0,0,0,0,0,0,0,0,0,0,0,0,0,0,0,0,0,0,0,0,0,0,0,0,0,0,0,0,0,0,0,0,0,0,0,0,0,0,0,0,0,0,0,0,0,0,0,0,0,0,0,0,0,0,0,0,0,0,0,0,0,0,0,0,0,0,0,0,0,0,0,0,0,0,0,0,0,0,0,0,0,0,0,0,0,0,0,0,0,0,0,0,0,0,0,0,0,0,0,0,0,0,0,0,0,0,0,0,0,0,0,0,0,0,0,0,0,0,0,0,0,0,0,0,0,0,0,0,0,0,0,0,0,0,0,0,0,0,0,0,0,0,0,0,0,0,0,0,0,0,0,0,0,0,0,0,0,0,0,0,0,0,0,0,0,0,0,0,0,0,0,0,0,0,0,0,0,0,0,0,0,0,0,0,0,0,0,0,0,0,0,0,0,0,0,0],"trees":[{"base_weights":[-1.0931746E-2,-5.0235856E-1,2.6177695E-2,-6.64745E-1,7.6729554E-1,8.6681806E-2,-3.363953E-1,-3.6338277E-2,-8.4299195E-1,2.0660374E-2,7.377358E-2,9.9775374E-1,5.762821E-2,-6.5246505E-1,-1.1607882E-1,3.8364775E-2,-3.2075477E-1,1.3773583E-2,-8.912183E-1,1.1930333E0,-4.6226416E-2,8.949708E-2,-7.443582E-1,1.5172951E-1,-8.9334387E-1,-3.325664E-1,1.3825995E0,-3.7962265E-2,1.8364778E-2,-6.4420484E-2,-3.8706202E-2,9.6792445E-2,-9.339625E-3,2.9740292E-3,4.7219027E-2,-5.6674533E-2,7.377358E-2,-1.3962266E-2,3.5660375E-2,-6.0977705E-2,1.8364778E-2,4.5279692E-5,-4.8190903E-2,1.3773583E-2,9.4037734E-2],"categories":[],"categories_nodes":[],"categories_segments":[],"categories_sizes":[],"default_left":[0,0,0,0,0,0,0,0,0,0,0,0,0,0,0,0,0,0,0,0,0,0,0,0,0,0,0,0,0,0,0,0,0,0,0,0,0,0,0,0,0,0,0,0,0],"id":0,"left_children":[1,3,5,7,9,11,13,15,17,-1,-1,19,21,23,25,-1,27,-1,29,31,-1,33,35,37,39,41,43,-1,-1,-1,-1,-1,-1,-1,-1,-1,-1,-1,-1,-1,-1,-1,-1,-1,-1],"loss_changes":[1.0389762E1,8.75704E0,1.1655851E1,4.0017843E0,5.542009E-1,1.1986312E1,5.216552E0,1.9348478E0,1.652895E0,0E0,0E0,5.753251E0,1.1363432E1,6.140664E0,1.5384289E1,0E0,1.5624435E0,0E0,5.1981354E-1,7.6180344E0,0E0,1.1825345E1,7.880027E0,1.4995401E0,3.8503609E0,6.4321113E0,9.179821E-1,0E0,0E0,0E0,0E0,0E0,0E0,0E0,0E0,0E0,0E0,0E0,0E0,0E0,0E0,0E0,0E0,0E0,0E0],"parents":[2147483647,0,0,1,1,2,2,3,3,4,4,5,5,6,6,7,7,8,8,11,11,12,12,13,13,14,14,16,16,18,18,19,19,21,21,22,22,23,23,24,24,25,25,26,26],"right_children":[2,4,6,8,10,12,14,16,18,-1,-1,20,22,24,26,-1,28,-1,30,32,-1,34,36,38,40,42,44,-1,-1,-1,-1,-1,-1,-1,-1,-1,-1,-1,-1,-1,-1,-1,-1,-1,-1],"split_conditions":[3.9215853E0,1.587976E3,1.5665059E3,1.4558953E3,1.1023291E0,3.9970596E0,4.061128E0,1.4075779E3,9.731196E-2,2.0660374E-2,7.377358E-2,7.0336795E-1,2.1937239E-1,3.020488E0,2.0359864E0,3.8364775E-2,1.0020546E-1,1.3773583E-2,1.2309059E0,1.4783024E0,-4.6226416E-2,1.8090816E-1,2.2809722E-1,1.1607914E0,6.5629444E0,4.891406E0,7.506585E-1,-3.7962265E-2,1.8364778E-2,-6.4420484E-2,-3.8706202E-2,9.6792445E-2,-9.339625E-3,2.9740292E-3,4.7219027E-2,-5.6674533E-2,7.377358E-2,-1.3962266E-2,3.5660375E-2,-6.0977705E-2,1.8364778E-2,4.5279692E-5,-4.8190903E-2,1.3773583E-2,9.4037734E-2],"split_indices":[18,8,8,8,14,18,19,7,25,0,0,3,25,19,2,0,24,0,14,1,0,24,24,14,18,19,1,0,0,0,0,0,0,0,0,0,0,0,0,0,0,0,0,0,0],"split_type":[0,0,0,0,0,0,0,0,0,0,0,0,0,0,0,0,0,0,0,0,0,0,0,0,0,0,0,0,0,0,0,0,0,0,0,0,0,0,0,0,0,0,0,0,0],"sum_hessian":[5.68E2,3.9E1,5.29E2,3.5E1,4E0,4.54E2,7.5E1,8E0,2.7E1,3E0,1E0,1.3E1,4.41E2,3E1,4.5E1,2E0,6E0,1E0,2.6E1,1.2E1,1E0,4.25E2,1.6E1,7E0,2.3E1,4E1,5E0,4E0,2E0,1.3E1,1.3E1,9E0,3E0,4.03E2,2.2E1,1.5E1,1E0,4E0,3E0,2.1E1,2E0,2.4E1,1.6E1,1E0,4E0],"tree_param":{"num_deleted":"0","num_feature":"26","num_nodes":"45","size_leaf_vector":"1"}},{"base_weights":[1.5272198E-2,1.2945804E-1,-1.8686682E-1,7.4875765E-2,1.0096055E0,-4.7454992E-1,7.836503E-2,-2.0958237E-1,1.9377781E-1,2.3635728E0,4.387675E-1,-5.245286E-1,8.310815E-1,1.2306709E0,-2.2736434E-3,-6.434659E-1,-8.241582E-3,1.11867614E-1,1.0465577E0,-4.7642987E-2,1.8923444E-1,1.3870678E0,-1.18375205E-1,-9.364054E-1,-3.8757387E-1,-1.266702E-2,1.0086981E-1,1.3772224E-2,8.1556216E-2,2.1291442E-1,-6.3119745E-1,-5.468142E-2,1.6447634E-2,2.3229407E-2,-2.7797943E-2,-1.2277946E-4,2.8927635E-2,8.524634E-2,-2.610502E-2,1.3684362E-2,9.439514E-2,3.6191303E-2,-2.7861606E-2,-2.1050205E-3,-6.745865E-2,-8.1201823E-4,-3.4926273E-2,-1.4293803E-2,1.3153771E-2,-5.196877E-2,2.5726309E-2,5.9593704E-2,-4.8477046E-2],"categories":[],"categories_nodes":[],"categories_segments":[],"categories_sizes":[],"default_left":[0,0,0,0,0,0,0,0,0,0,0,0,0,0,0,0,0,0,0,0,0,0,0,0,0,0,0,0,0,0,0,0,0,0,0,0,0,0,0,0,0,0,0,0,0,0,0,0,0,0,0,0,0],"id":1,"left_children":[1,3,5,7,9,11,13,15,17,19,21,23,25,27,29,31,33,35,37,-1,-1,39,41,43,45,47,-1,-1,-1,49,51,-1,-1,-1,-1,-1,-1,-1,-1,-1,-1,-1,-1,-1,-1,-1,-1,-1,-1,-1,-1,-1,-1],"loss_changes":[1.30421095E1,1.726701E1,1.5602942E1,1.1574139E1,1.5193756E1,6.8307953E0,9.945282E0,8.8179E0,1.6717106E1,1.7477829E1,8.617612E0,4.9958763E0,2.890317E0,5.892153E-1,1.3803418E1,8.115911E0,1.2774399E1,9.322266E0,1.2261642E1,0E0,0E0,9.359064E-1,3.026248E0,3.8559113E0,5.303769E0,2.0914891E-1,0E0,0E0,0E0,1.8073542E1,8.267671E0,0E0,0E0,0E0,0E0,0E0,0E0,0E0,0E0,0E0,0E0,0E0,0E0,0E0,0E0,0E0,0E0,0E0,0E0,0E0,0E0,0E0,0E0],"parents":[2147483647,0,0,1,1,2,2,3,3,4,4,5,5,6,6,7,7,8,8,9,9,10,10,11,11,12,12,13,13,14,14,15,15,16,16,17,17,18,18,21,21,22,22,23,23,24,24,25,25,29,29,30,30],"right_children":[2,4,6,8,10,12,14,16,18,20,22,24,26,28,30,32,34,36,38,-1,-1,40,42,44,46,48,-1,-1,-1,50,52,-1,-1,-1,-1,-1,-1,-1,-1,-1,-1,-1,-1,-1,-1,-1,-1,-1,-1,-1,-1,-1,-1],"split_conditions":[1.324682E0,1.5231628E0,1.1870815E0,3.8649347E0,4.2209897E0,2.8953773E-1,-1.3906891E2,1.4487225E0,5.941048E0,1.1597595E0,1.1162184E0,9.271359E-1,1.0695971E0,1.2119576E0,1.7640742E0,6.313046E1,1.56404E3,1.6656444E0,1.4045181E2,-4.7642987E-2,1.8923444E-1,4.3527527E0,1.4196067E3,4.212958E0,1.0562372E0,6.47132E-1,1.0086981E-1,1.3772224E-2,8.1556216E-2,1.2079955E0,1.2019924E0,-5.468142E-2,1.6447634E-2,2.3229407E-2,-2.7797943E-2,-1.2277946E-4,2.8927635E-2,8.524634E-2,-2.610502E-2,1.3684362E-2,9.439514E-2,3.6191303E-2,-2.7861606E-2,-2.1050205E-3,-6.745865E-2,-8.1201823E-4,-3.4926273E-2,-1.4293803E-2,1.3153771E-2,-5.196877E-2,2.5726309E-2,5.9593704E-2,-4.8477046E-2],"split_indices":[15,11,14,19,19,25,9,14,18,0,15,0,0,14,15,9,7,0,9,0,0,19,7,19,0,0,0,0,0,1,14,0,0,0,0,0,0,0,0,0,0,0,0,0,0,0,0,0,0,0,0,0,0],"split_type":[0,0,0,0,0,0,0,0,0,0,0,0,0,0,0,0,0,0,0,0,0,0,0,0,0,0,0,0,0,0,0,0,0,0,0,0,0,0,0,0,0,0,0,0,0,0,0,0,0,0,0,0,0],"sum_hessian":[5.63E2,3.6E2,2.03E2,3.4E2,2E1,9.7E1,1.06E2,1E2,2.4E2,5E0,1.5E1,9.4E1,3E0,6E0,1E2,3.1E1,6.9E1,2.2E2,2E1,1E0,4E0,5E0,1E1,2.2E1,7.2E1,2E0,1E0,1E0,5E0,7.5E1,2.5E1,2.4E1,7E0,3.7E1,3.2E1,1.69E2,5.1E1,1.6E1,4E0,1E0,4E0,3E0,7E0,4E0,1.8E1,2.5E1,4.7E1,1E0,1E0,1.2E1,6.3E1,2E0,2.3E1],"tree_param":{"num_deleted":"0","num_feature":"26","num_nodes":"53","size_leaf_vector":"1"}},{"base_weights":[-7.081912E-3,-1.6140299E-1,1.5680477E-1,-8.568352E-1,-1.0156468E-1,2.1552956E-1,-5.6374884E-1,4.3688044E-2,-9.619763E-1,4.8226988E-1,-1.6575308E-1,1.4962078E0,1.7334828E-1,-5.2882206E-2,-9.4249195E-1,-2.2989664E-2,-1.0693152E0,9.4571096E-1,-8.9567475E-2,4.629991E-1,-2.2395863E-1,3.474603E-2,1.1583912E-1,1.0160023E0,1.3736549E-1,-3.6412925E-2,2.7124375E-1,-7.609192E-2,-4.054187E-1,-2.311716E-2,-7.0826106E-2,7.40843E-2,-9.467931E-3,-4.2448252E-2,3.2467876E-2,-2.1101514E-2,5.948404E-2,-1.5194277E-2,6.654743E-2,-7.447856E-3,9.134183E-2,4.722833E-3,3.957038E-2,-7.3278216E-3,3.5808414E-2,1.45183E-2,-3.4997467E-2],"categories":[],"categories_nodes":[],"categories_segments":[],"categories_sizes":[],"default_left":[0,0,0,0,0,0,0,0,0,0,0,0,0,0,0,0,0,0,0,0,0,0,0,0,0,0,0,0,0,0,0,0,0,0,0,0,0,0,0,0,0,0,0,0,0,0,0],"id":2,"left_children":[1,3,5,7,9,11,13,-1,15,17,19,21,23,25,27,-1,29,31,33,35,37,-1,-1,39,41,-1,43,-1,45,-1,-1,-1,-1,-1,-1,-1,-1,-1,-1,-1,-1,-1,-1,-1,-1,-1,-1],"loss_changes":[1.4340111E1,1.2064116E1,1.1757952E1,4.533289E0,1.01982975E1,1.3515896E1,4.013391E0,0E0,9.571266E-1,7.2400537E0,9.033329E0,2.0694141E0,7.380057E0,1.9602704E0,1.5849886E0,0E0,9.133625E-1,4.9790077E0,5.449076E0,9.388831E0,9.023987E0,0E0,0E0,5.9621696E0,7.267318E0,0E0,9.693652E-1,0E0,8.320573E-1,0E0,0E0,0E0,0E0,0E0,0E0,0E0,0E0,0E0,0E0,0E0,0E0,0E0,0E0,0E0,0E0,0E0,0E0],"parents":[2147483647,0,0,1,1,2,2,3,3,4,4,5,5,6,6,8,8,9,9,10,10,11,11,12,12,13,13,14,14,16,16,17,17,18,18,19,19,20,20,23,23,24,24,26,26,28,28],"right_children":[2,4,6,8,10,12,14,-1,16,18,20,22,24,26,28,-1,30,32,34,36,38,-1,-1,40,42,-1,44,-1,46,-1,-1,-1,-1,-1,-1,-1,-1,-1,-1,-1,-1,-1,-1,-1,-1,-1,-1],"split_conditions":[5.0195713E0,7.873084E-1,2.2286425E0,1.2E0,9.1230667E-1,5.0433908E0,9.8891366E-1,4.3688044E-2,9.69564E-2,1.4758419E0,8.861469E-2,4.0795007E0,6.6386944E-1,1.6402159E0,6.1913037E0,-2.2989664E-2,1.4321364E3,4.597175E0,1.1079538E0,1.1284705E0,2.526296E-1,3.474603E-2,1.1583912E-1,8.73862E-1,2.0384183E0,-3.6412925E-2,1.5070697E3,-7.609192E-2,2.321259E0,-2.311716E-2,-7.0826106E-2,7.40843E-2,-9.467931E-3,-4.2448252E-2,3.2467876E-2,-2.1101514E-2,5.948404E-2,-1.5194277E-2,6.654743E-2,-7.447856E-3,9.134183E-2,4.722833E-3,3.957038E-2,-7.3278216E-3,3.5808414E-2,1.45183E-2,-3.4997467E-2],"split_indices":[18,2,2,1,2,18,15,0,24,15,24,19,14,14,18,0,8,18,14,14,25,0,0,0,2,0,8,0,2,0,0,0,0,0,0,0,0,0,0,0,0,0,0,0,0,0,0],"split_type":[0,0,0,0,0,0,0,0,0,0,0,0,0,0,0,0,0,0,0,0,0,0,0,0,0,0,0,0,0,0,0,0,0,0,0,0,0,0,0,0,0,0,0,0,0,0,0],"sum_hessian":[5.65E2,2.91E2,2.74E2,2.2E1,2.69E2,2.54E2,2E1,1E0,2.1E1,2.6E1,2.43E2,7E0,2.47E2,9E0,1.1E1,4E0,1.7E1,1.4E1,1.2E1,2E1,2.23E2,3E0,4E0,9E0,2.38E2,3E0,6E0,6E0,5E0,3E0,1.4E1,1.1E1,3E0,6E0,6E0,8E0,1.2E1,2.19E2,4E0,3E0,6E0,2.15E2,2.3E1,3E0,3E0,1E0,4E0],"tree_param":{"num_deleted":"0","num_feature":"26","num_nodes":"47","size_leaf_vector":"1"}},{"base_weights":[1.5434555E-2,-1.8890025E-1,9.5376015E-2,1.4187203E-1,-4.6923497E-1,6.244247E-1,3.163584E-2,5.8984095E-1,-2.549268E-1,-5.228378E-1,8.0053496E-1,1.176854E0,2.1255134E-1,7.074799E-2,-5.4332715E-1,7.927822E-1,-2.1955122E-1,-4.9781032E-2,-7.4654734E-1,-6.7996025E-1,-1.9056417E-1,9.5847294E-2,2.4100144E-3,1.4499978E0,5.0146484E-1,-1.5956023E-1,6.9098747E-1,-7.25296E-2,2.0047711E-1,-6.713267E-1,7.201988E-2,3.3683565E-2,1.2591705E-1,7.820468E-3,-3.612173E-2,-2.5864191E-2,2.1614745E-2,-1.9081108E-2,-6.732439E-2,-5.8843218E-2,-2.1993605E-2,4.1561637E-2,-2.420631E-2,-1.31753E-2,1.3392202E-2,9.904684E-2,3.5132475E-2,-4.481202E-2,5.0039876E-2,-4.6060417E-2,6.4270217E-3,5.6809764E-2,-2.3528896E-2,-1.9027179E-3,-6.0408294E-2,3.5803262E-2,4.430294E-5,-5.0367657E-2,2.0230561E-2],"categories":[],"categories_nodes":[],"categories_segments":[],"categories_sizes":[],"default_left":[0,0,0,0,0,0,0,0,0,0,0,0,0,0,0,0,0,0,0,0,0,0,0,0,0,0,0,0,0,0,0,0,0,0,0,0,0,0,0,0,0,0,0,0,0,0,0,0,0,0,0,0,0,0,0,0,0,0,0],"id":3,"left_children":[1,3,5,7,9,11,13,15,17,19,21,23,25,27,29,31,33,35,37,39,41,-1,43,45,47,49,51,53,55,57,-1,-1,-1,-1,-1,-1,-1,-1,-1,-1,-1,-1,-1,-1,-1,-1,-1,-1,-1,-1,-1,-1,-1,-1,-1,-1,-1,-1,-1],"loss_changes":[9.524883E0,1.5273792E1,1.4109618E1,1.3659636E1,6.476183E0,9.988752E0,8.471454E0,6.0873833E0,4.097845E0,4.360281E0,2.5403173E0,2.7779655E0,4.917108E0,6.557261E0,6.1623154E0,7.584387E0,1.1490773E0,4.84545E0,1.574244E0,5.107485E0,5.732126E0,0E0,1.9606014E-1,1.2897835E0,3.5286672E0,2.6769512E0,3.6966376E0,6.374737E0,1.4641431E1,4.183014E0,0E0,0E0,0E0,0E0,0E0,0E0,0E0,0E0,0E0,0E0,0E0,0E0,0E0,0E0,0E0,0E0,0E0,0E0,0E0,0E0,0E0,0E0,0E0,0E0,0E0,0E0,0E0,0E0,0E0],"parents":[2147483647,0,0,1,1,2,2,3,3,4,4,5,5,6,6,7,7,8,8,9,9,10,10,11,11,12,12,13,13,14,14,15,15,16,16,17,17,18,18,19,19,20,20,22,22,23,23,24,24,25,25,26,26,27,27,28,28,29,29],"right_children":[2,4,6,8,10,12,14,16,18,20,22,24,26,28,30,32,34,36,38,40,42,-1,44,46,48,50,52,54,56,58,-1,-1,-1,-1,-1,-1,-1,-1,-1,-1,-1,-1,-1,-1,-1,-1,-1,-1,-1,-1,-1,-1,-1,-1,-1,-1,-1,-1,-1],"split_conditions":[1.1368142E0,1.3064991E0,1.4581505E3,-9.5322895E0,2.8953773E-1,4.891406E0,5.724907E0,1.1490911E-1,3.349759E1,5.0142756E0,1.4783024E0,-1.9760938E-1,1.16407074E-1,4.257855E-1,1.5838081E3,5.002922E0,3.9551294E0,9.4426775E-1,1.0244982E0,-4.7879747E-1,1.4792144E3,9.5847294E-2,1.8359915E0,1.3835956E-1,-1.9364104E-1,7.1269226E-1,1.8100359E-1,2.1914692E-1,1.8212891E0,4.8978267E0,7.201988E-2,3.3683565E-2,1.2591705E-1,7.820468E-3,-3.612173E-2,-2.5864191E-2,2.1614745E-2,-1.9081108E-2,-6.732439E-2,-5.8843218E-2,-2.1993605E-2,4.1561637E-2,-2.420631E-2,-1.31753E-2,1.3392202E-2,9.904684E-2,3.5132475E-2,-4.481202E-2,5.0039876E-2,-4.6060417E-2,6.4270217E-3,5.6809764E-2,-2.3528896E-2,-1.9027179E-3,-6.0408294E-2,3.5803262E-2,4.430294E-5,-5.0367657E-2,2.0230561E-2],"split_indices":[14,15,7,9,25,19,19,25,9,18,1,3,24,3,8,19,18,9,14,3,8,0,1,25,3,2,24,24,2,18,0,0,0,0,0,0,0,0,0,0,0,0,0,0,0,0,0,0,0,0,0,0,0,0,0,0,0,0,0],"split_type":[0,0,0,0,0,0,0,0,0,0,0,0,0,0,0,0,0,0,0,0,0,0,0,0,0,0,0,0,0,0,0,0,0,0,0,0,0,0,0,0,0,0,0,0,0,0,0,0,0,0,0,0,0,0,0,0,0,0,0],"sum_hessian":[5.81E2,1.63E2,4.18E2,7.5E1,8.8E1,4.4E1,3.74E2,3.5E1,4E1,8.5E1,3E0,1.8E1,2.6E1,3.51E2,2.3E1,2.8E1,7E0,2.9E1,1.1E1,5.7E1,2.8E1,1E0,2E0,1.2E1,6E0,1.5E1,1.1E1,1.67E2,1.84E2,2.2E1,1E0,2.5E1,3E0,4E0,3E0,1.5E1,1.4E1,6E0,5E0,2.8E1,2.9E1,5E0,2.3E1,1E0,1E0,9E0,3E0,1E0,5E0,4E0,1.1E1,9E0,2E0,1.61E2,6E0,6.1E1,1.23E2,1.9E1,3E0],"tree_param":{"num_deleted":"0","num_feature":"26","num_nodes":"59","size_leaf_vector":"1"}},{"base_weights":[-4.981688E-5,-4.5120302E-1,3.3493266E-2,-7.7373993E-1,-1.4005695E-2,1.04631E0,1.8171182E-2,3.116114E-1,-8.9194536E-1,3.167636E-1,-4.6706277E-1,9.079756E-3,1.1525458E0,7.604425E-2,-2.0401613E-1,4.1366898E-2,-1.332187E-2,-1.8888708E-2,-1.0092232E0,9.95872E-1,-4.1513878E-1,-9.168022E-1,3.5286225E-2,7.719909E-2,1.04373405E-2,-3.0903308E-2,3.6181644E-1,-2.741721E-1,8.67446E-1,-1.9219106E-2,-6.803794E-2,6.677471E-2,1.2320191E-2,-3.5021182E-2,1.2827968E-2,-2.1038646E-2,-6.673322E-2,1.0443323E-3,-3.619699E-2,-5.3150386E-2,2.7053116E-2,5.0044367E-3,-2.605528E-2,5.7111345E-3,8.537069E-2],"categories":[],"categories_nodes":[],"categories_segments":[],"categories_sizes":[],"default_left":[0,0,0,0,0,0,0,0,0,0,0,0,0,0,0,0,0,0,0,0,0,0,0,0,0,0,0,0,0,0,0,0,0,0,0,0,0,0,0,0,0,0,0,0,0],"id":4,"left_children":[1,3,5,7,9,11,13,15,17,19,21,-1,23,25,27,-1,-1,-1,29,31,33,35,-1,-1,-1,37,39,41,43,-1,-1,-1,-1,-1,-1,-1,-1,-1,-1,-1,-1,-1,-1,-1,-1],"loss_changes":[8.746893E0,5.629654E0,8.329919E0,3.228713E0,2.8453808E0,5.8621883E-1,6.843463E0,7.5796854E-1,1.1036701E0,5.8808775E0,4.335575E0,0E0,6.9482136E-1,1.2908614E1,8.506468E0,0E0,0E0,0E0,1.0976753E0,3.2662344E-1,7.608278E-1,2.7383137E-1,0E0,0E0,0E0,8.527012E0,1.3179049E1,5.989413E0,2.8669543E0,0E0,0E0,0E0,0E0,0E0,0E0,0E0,0E0,0E0,0E0,0E0,0E0,0E0,0E0,0E0,0E0],"parents":[2147483647,0,0,1,1,2,2,3,3,4,4,5,5,6,6,7,7,8,8,9,9,10,10,12,12,13,13,14,14,18,18,19,19,20,20,21,21,25,25,26,26,27,27,28,28],"right_children":[2,4,6,8,10,12,14,16,18,20,22,-1,24,26,28,-1,-1,-1,30,32,34,36,-1,-1,-1,38,40,42,44,-1,-1,-1,-1,-1,-1,-1,-1,-1,-1,-1,-1,-1,-1,-1,-1],"split_conditions":[7.995818E-1,4.8978267E0,1.4169176E3,3.944408E0,4.922307E0,7.4988955E-1,1.5065467E0,8.3083206E-1,-1.4808302E2,1.4511901E3,9.711233E-1,9.079756E-3,1.2410791E0,1.2189839E0,1.9320211E0,4.1366898E-2,-1.332187E-2,-1.8888708E-2,1.4216543E3,8.3083206E-1,9.9547786E-1,-1.2217361E0,3.5286225E-2,7.719909E-2,1.04373405E-2,5.718922E0,-1.18708954E2,1.4980593E3,1.8362758E0,-1.9219106E-2,-6.803794E-2,6.677471E-2,1.2320191E-2,-3.5021182E-2,1.2827968E-2,-2.1038646E-2,-6.673322E-2,1.0443323E-3,-3.619699E-2,-5.3150386E-2,2.7053116E-2,5.0044367E-3,-2.605528E-2,5.7111345E-3,8.537069E-2],"split_indices":[2,18,7,19,19,0,15,0,9,7,0,0,0,1,0,0,0,0,8,0,0,3,0,0,0,19,9,8,2,0,0,0,0,0,0,0,0,0,0,0,0,0,0,0,0],"split_type":[0,0,0,0,0,0,0,0,0,0,0,0,0,0,0,0,0,0,0,0,0,0,0,0,0,0,0,0,0,0,0,0,0,0,0,0,0,0,0,0,0,0,0,0,0],"sum_hessian":[5.76E2,3.9E1,5.37E2,2.2E1,1.7E1,7E0,5.3E2,2E0,2E1,1E1,7E0,1E0,6E0,4.21E2,1.09E2,1E0,1E0,4E0,1.6E1,5E0,5E0,5E0,2E0,5E0,1E0,3.07E2,1.14E2,1.03E2,6E0,3E0,1.3E1,4E0,1E0,4E0,1E0,2E0,3E0,2.84E2,2.3E1,7E0,1.07E2,3.2E1,7.1E1,3E0,3E0],"tree_param":{"num_deleted":"0","num_feature":"26","num_nodes":"45","size_leaf_vector":"1"}},{"base_weights":[-1.068072E-2,-1.3761963E-1,1.2922171E-1,-2.8006452E-1,6.470428E-2,1.189554E0,9.2996195E-2,-7.970668E-1,-2.0957647E-1,-3.0502054E-1,1.8342058E-1,3.3262986E-1,1.0851403E-1,-3.1501022E-1,1.4792505E-1,-8.9536035E-1,3.5064124E-2,2.5684837E-1,-3.2090142E-1,-7.789121E-1,1.310615E-1,3.9646563E-1,-8.838997E-2,3.1699773E-2,-1.3505069E-2,6.589421E-1,-5.19777E-1,-3.0068448E-1,2.3554043E-1,-3.5243932E-2,-7.2389476E-2,4.9466263E-3,1.114286E-1,-1.225163E-2,-4.761413E-2,-3.244285E-2,-6.882992E-2,4.3580927E-2,-2.8727293E-2,7.04997E-2,1.6480222E-2,4.1354947E-2,-1.25309415E-2,-1.6427886E-2,5.4014985E-2,-1.7960483E-2,-7.448469E-2,4.2320736E-2,-2.6148725E-2,3.831225E-2,5.7047005E-3],"categories":[],"categories_nodes":[],"categories_segments":[],"categories_sizes":[],"default_left":[0,0,0,0,0,0,0,0,0,0,0,0,0,0,0,0,0,0,0,0,0,0,0,0,0,0,0,0,0,0,0,0,0,0,0,0,0,0,0,0,0,0,0,0,0,0,0,0,0,0,0],"id":5,"left_children":[1,3,5,7,9,11,13,15,17,19,21,23,-1,25,27,29,-1,31,33,35,37,39,41,-1,-1,43,45,47,49,-1,-1,-1,-1,-1,-1,-1,-1,-1,-1,-1,-1,-1,-1,-1,-1,-1,-1,-1,-1,-1,-1],"loss_changes":[1.0264762E1,8.750584E0,1.0452423E1,6.3197165E0,5.586385E0,4.1724453E0,6.0304213E0,3.3748302E0,8.28653E0,6.508409E0,5.594202E0,6.6464144E-1,0E0,6.7243624E0,9.346827E0,1.207634E0,0E0,8.498953E0,6.8989334E0,6.954689E-1,6.5193763E0,4.7976065E0,4.1719165E0,0E0,0E0,1.5969512E0,3.9233913E0,5.6091537E0,1.114724E1,0E0,0E0,0E0,0E0,0E0,0E0,0E0,0E0,0E0,0E0,0E0,0E0,0E0,0E0,0E0,0E0,0E0,0E0,0E0,0E0,0E0,0E0],"parents":[2147483647,0,0,1,1,2,2,3,3,4,4,5,5,6,6,7,7,8,8,9,9,10,10,11,11,13,13,14,14,15,15,17,17,18,18,19,19,20,20,21,21,22,22,25,25,26,26,27,27,28,28],"right_children":[2,4,6,8,10,12,14,16,18,20,22,24,-1,26,28,30,-1,32,34,36,38,40,42,-1,-1,44,46,48,50,-1,-1,-1,-1,-1,-1,-1,-1,-1,-1,-1,-1,-1,-1,-1,-1,-1,-1,-1,-1,-1,-1],"split_conditions":[5.0195713E0,1.3744688E0,5.0433908E0,-1.25624794E2,3.8649347E0,4.0795007E0,5.1323996E0,2.2254062E0,-6.2498558E1,3.0436028E1,1.3157433E0,6.26942E-1,1.0851403E-1,1.0562372E0,-5.6659077E1,1.06611E0,3.5064124E-2,-6.3469517E1,5.6472473E0,1.8481967E0,1.6919079E0,-4.026195E1,-1.4620534E2,3.1699773E-2,-1.3505069E-2,9.2534316E-1,1.6948323E0,8.315635E-1,-8.622508E0,-3.5243932E-2,-7.2389476E-2,4.9466263E-3,1.114286E-1,-1.225163E-2,-4.761413E-2,-3.244285E-2,-6.882992E-2,4.3580927E-2,-2.8727293E-2,7.04997E-2,1.6480222E-2,4.1354947E-2,-1.25309415E-2,-1.6427886E-2,5.4014985E-2,-1.7960483E-2,-7.448469E-2,4.2320736E-2,-2.6148725E-2,3.831225E-2,5.7047005E-3],"split_indices":[18,0,18,9,19,19,18,15,9,9,15,3,0,0,9,0,0,9,19,0,0,9,9,0,0,1,15,15,9,0,0,0,0,0,0,0,0,0,0,0,0,0,0,0,0,0,0,0,0,0,0],"split_type":[0,0,0,0,0,0,0,0,0,0,0,0,0,0,0,0,0,0,0,0,0,0,0,0,0,0,0,0,0,0,0,0,0,0,0,0,0,0,0,0,0,0,0,0,0,0,0,0,0,0,0],"sum_hessian":[5.76E2,3.02E2,2.74E2,1.77E2,1.25E2,8E0,2.66E2,2E1,1.57E2,3E1,9.5E1,4E0,4E0,3.1E1,2.35E2,1.9E1,1E0,3E1,1.27E2,1.4E1,1.6E1,5.3E1,4.2E1,3E0,1E0,5E0,2.6E1,3.8E1,1.97E2,1.1E1,8E0,2.8E1,2E0,1.03E2,2.4E1,1E1,4E0,8E0,8E0,6E0,4.7E1,5E0,3.7E1,1E0,4E0,2.1E1,5E0,4E0,3.4E1,5E1,1.47E2],"tree_param":{"num_deleted":"0","num_feature":"26","num_nodes":"51","size_leaf_vector":"1"}},{"base_weights":[1.026212E-2,-2.3456572E-2,3.478916E-1,-4.109731E-1,1.6790902E-2,5.957179E-1,-3.8503295E-1,-4.836945E-1,5.3373616E-2,-1.7716202E-1,9.353877E-2,1.5442324E0,2.2807202E-1,3.2390004E-1,-7.0099616E-1,-3.38761E-1,-9.404016E-1,4.8721743E-1,-2.507439E-1,-6.3840665E-2,2.4947615E-1,7.3771197E-1,2.3645144E0,-8.8455516E-1,5.430853E-1,3.1521257E-2,-1.44575E-2,-9.1051674E-1,3.5540663E-2,-4.6637293E-2,-1.0551796E-2,-6.289152E-2,-1.8213777E-2,-2.7595427E-2,1.0960358E-1,1.7423509E-2,-1.9672574E-2,6.384593E-3,-1.895234E-2,4.0323995E-2,5.5414294E-3,5.4283753E-2,1.2806751E-2,1.1756952E-2,1.714601E-1,-6.6468515E-2,1.36489635E-2,5.700468E-2,-2.33796E-2,-1.9815288E-2,-6.1747592E-2],"categories":[],"categories_nodes":[],"categories_segments":[],"categories_sizes":[],"default_left":[0,0,0,0,0,0,0,0,0,0,0,0,0,0,0,0,0,0,0,0,0,0,0,0,0,0,0,0,0,0,0,0,0,0,0,0,0,0,0,0,0,0,0,0,0,0,0,0,0,0,0],"id":6,"left_children":[1,3,5,7,9,11,13,15,-1,17,19,21,23,25,27,29,31,33,35,37,39,41,43,45,47,-1,-1,49,-1,-1,-1,-1,-1,-1,-1,-1,-1,-1,-1,-1,-1,-1,-1,-1,-1,-1,-1,-1,-1,-1,-1],"loss_changes":[6.64528E0,8.288673E0,9.856184E0,5.1591063E0,7.1913695E0,1.3596501E1,3.363007E0,2.8586512E0,0E0,6.8195853E0,8.507229E0,5.532984E0,1.0995159E1,6.9555396E-1,3.2491546E0,2.5778365E0,4.3690395E-1,1.860201E1,5.270857E0,7.4567876E0,1.1491007E1,4.198196E-1,4.7872257E0,1.989871E0,9.481102E0,0E0,0E0,2.7954865E-1,0E0,0E0,0E0,0E0,0E0,0E0,0E0,0E0,0E0,0E0,0E0,0E0,0E0,0E0,0E0,0E0,0E0,0E0,0E0,0E0,0E0,0E0,0E0],"parents":[2147483647,0,0,1,1,2,2,3,3,4,4,5,5,6,6,7,7,9,9,10,10,11,11,12,12,13,13,14,14,15,15,16,16,17,17,18,18,19,19,20,20,21,21,22,22,23,23,24,24,27,27],"right_children":[2,4,6,8,10,12,14,16,-1,18,20,22,24,26,28,30,32,34,36,38,40,42,44,46,48,-1,-1,50,-1,-1,-1,-1,-1,-1,-1,-1,-1,-1,-1,-1,-1,-1,-1,-1,-1,-1,-1,-1,-1,-1,-1],"split_conditions":[1.6681017E-1,1.4382424E3,1.5508193E3,1.6023408E0,-4.4281715E1,-1.6580053E1,1.3835956E-1,1.3907629E-1,5.3373616E-2,8.861469E-2,5.0195713E0,1.5357773E-1,1.1721799E0,1.5218917E3,9.892737E-1,9.0507245E-1,1.2810211E0,1.0690769E0,9.9674803E-1,1.4999047E3,-8.622508E0,1.1904764E0,9.780239E-1,1.5299298E3,9.118227E-1,3.1521257E-2,-1.44575E-2,1.9412322E-1,3.5540663E-2,-4.6637293E-2,-1.0551796E-2,-6.289152E-2,-1.8213777E-2,-2.7595427E-2,1.0960358E-1,1.7423509E-2,-1.9672574E-2,6.384593E-3,-1.895234E-2,4.0323995E-2,5.5414294E-3,5.4283753E-2,1.2806751E-2,1.1756952E-2,1.714601E-1,-6.6468515E-2,1.36489635E-2,5.700468E-2,-2.33796E-2,-1.9815288E-2,-6.1747592E-2],"split_indices":[24,8,8,11,9,9,25,25,0,24,18,25,0,7,3,1,10,14,1,8,9,14,0,7,3,0,0,24,0,0,0,0,0,0,0,0,0,0,0,0,0,0,0,0,0,0,0,0,0,0,0],"split_type":[0,0,0,0,0,0,0,0,0,0,0,0,0,0,0,0,0,0,0,0,0,0,0,0,0,0,0,0,0,0,0,0,0,0,0,0,0,0,0,0,0,0,0,0,0,0,0,0,0,0,0],"sum_hessian":[5.82E2,5.3E2,5.2E1,4.9E1,4.81E2,3.9E1,1.3E1,4.7E1,2E0,1.36E2,3.45E2,1E1,2.9E1,4E0,9E0,3.7E1,1E1,1.3E1,1.23E2,1.72E2,1.73E2,6E0,4E0,6E0,2.3E1,3E0,1E0,8E0,1E0,9E0,2.8E1,8E0,2E0,8E0,5E0,1.5E1,1.08E2,1.03E2,6.9E1,4.6E1,1.27E2,4E0,2E0,1E0,3E0,5E0,1E0,1.6E1,7E0,2E0,6E0],"tree_param":{"num_deleted":"0","num_feature":"26","num_nodes":"51","size_leaf_vector":"1"}},{"base_weights":[1.8439472E-2,7.989839E-2,-2.3240995E-1,1.1359717E-1,-7.171149E-1,1.1182579E0,-2.789889E-1,-2.2671469E-1,1.9646896E-1,-8.8002676E-1,6.645892E-2,8.282669E-2,9.950899E-3,-4.2958134E-1,8.997452E-2,4.18861E-1,-3.871886E-1,1.4861903E-1,7.585247E-1,-9.689784E-1,-3.264513E-1,-5.146138E-1,3.894083E-1,2.719405E-1,-4.6451747E-2,7.1391754E-2,-5.7761602E-2,-3.9624564E-2,-4.2261747E-3,7.932595E-3,8.791291E-2,1.0075135E-1,2.9122321E-2,-6.315622E-2,-1.7016597E-2,1.1404244E-2,-3.3718932E-2,-2.4137374E-2,-7.0247695E-2,-1.3128836E-2,8.8563E-2,-3.1723145E-2,3.0860094E-2],"categories":[],"categories_nodes":[],"categories_segments":[],"categories_sizes":[],"default_left":[0,0,0,0,0,0,0,0,0,0,0,0,0,0,0,0,0,0,0,0,0,0,0,0,0,0,0,0,0,0,0,0,0,0,0,0,0,0,0,0,0,0,0],"id":7,"left_children":[1,3,5,7,9,11,13,15,17,19,-1,-1,-1,21,23,25,27,29,31,33,35,37,39,41,-1,-1,-1,-1,-1,-1,-1,-1,-1,-1,-1,-1,-1,-1,-1,-1,-1,-1,-1],"loss_changes":[8.929557E0,1.2570608E1,7.484025E0,1.265095E1,6.6229944E0,7.6989317E-1,6.2061567E0,9.278809E0,9.569229E0,5.700216E-1,0E0,0E0,0E0,5.702009E0,5.399772E0,2.0318726E1,6.0980587E0,7.0004697E0,6.2264633E0,5.61182E-1,5.934441E-1,4.835762E0,5.6103373E0,5.7060494E0,0E0,0E0,0E0,0E0,0E0,0E0,0E0,0E0,0E0,0E0,0E0,0E0,0E0,0E0,0E0,0E0,0E0,0E0,0E0],"parents":[2147483647,0,0,1,1,2,2,3,3,4,4,5,5,6,6,7,7,8,8,9,9,13,13,14,14,15,15,16,16,17,17,18,18,19,19,20,20,21,21,22,22,23,23],"right_children":[2,4,6,8,10,12,14,16,18,20,-1,-1,-1,22,24,26,28,30,32,34,36,38,40,42,-1,-1,-1,-1,-1,-1,-1,-1,-1,-1,-1,-1,-1,-1,-1,-1,-1,-1,-1],"split_conditions":[5.241005E0,2.1937239E-1,1.0446607E0,3.6103551E0,2.1813348E-1,1.0056726E0,4.872293E0,1.1683288E0,2.1074712E0,2.5816342E-1,6.645892E-2,8.282669E-2,9.950899E-3,5.6728446E-1,2.915008E1,3.292088E0,4.194221E1,2.2809722E-1,1.5229285E0,1.2614002E0,1.4869602E3,1.5003665E3,1.0506036E0,-8.8321075E1,-4.6451747E-2,7.1391754E-2,-5.7761602E-2,-3.9624564E-2,-4.2261747E-3,7.932595E-3,8.791291E-2,1.0075135E-1,2.9122321E-2,-6.315622E-2,-1.7016597E-2,1.1404244E-2,-3.3718932E-2,-2.4137374E-2,-7.0247695E-2,-1.3128836E-2,8.8563E-2,-3.1723145E-2,3.0860094E-2],"split_indices":[19,25,11,19,24,2,18,10,2,25,0,0,0,3,9,19,9,24,14,10,8,7,10,9,0,0,0,0,0,0,0,0,0,0,0,0,0,0,0,0,0,0,0],"split_type":[0,0,0,0,0,0,0,0,0,0,0,0,0,0,0,0,0,0,0,0,0,0,0,0,0,0,0,0,0,0,0,0,0,0,0,0,0,0,0,0,0,0,0],"sum_hessian":[5.77E2,4.64E2,1.13E2,4.46E2,1.8E1,3E0,1.1E2,8.7E1,3.59E2,1.7E1,1E0,2E0,1E0,7.8E1,3.2E1,1.7E1,7E1,3.32E2,2.7E1,1.4E1,3E0,7.1E1,7E0,2.7E1,5E0,1.1E1,6E0,3.7E1,3.3E1,3.29E2,3E0,5E0,2.2E1,1.2E1,2E0,1E0,2E0,6.2E1,9E0,5E0,2E0,6E0,2.1E1],"tree_param":{"num_deleted":"0","num_feature":"26","num_nodes":"43","size_leaf_vector":"1"}},{"base_weights":[-1.1224304E-2,-1.9690043E-1,6.2347226E-2,9.391465E-2,-4.0827638E-1,7.693992E-3,7.2851586E-1,6.0494894E-1,-3.1470016E-1,-4.5468655E-1,7.49624E-1,8.6414605E-2,-1.9322585E-1,4.407458E-1,2.136771E0,-3.0252077E-2,7.4179363E-1,-9.734456E-2,-7.419233E-1,-1.5552913E-1,-5.595261E-1,6.1906695E-2,8.438328E-2,-6.012757E-2,4.6021193E-1,-2.7260312E-1,5.2430356E-1,-7.5207865E-1,8.958383E-1,1.6275573E-1,5.092137E-2,8.4441295E-3,5.198037E-2,-2.2068735E-2,2.3953905E-2,1.3379756E-2,-5.045497E-2,-1.5301773E-2,6.697443E-2,-3.62362E-2,3.5352763E-2,-9.604079E-3,1.5175681E-2,-7.3547773E-3,1.2794901E-2,-4.270348E-2,3.7547264E-2,2.9514514E-2,-2.0811021E-2,5.487952E-2,-2.3248956E-2,-5.9922244E-2,-4.8809766E-4,6.30743E-2,-2.0110467E-2],"categories":[],"categories_nodes":[],"categories_segments":[],"categories_sizes":[],"default_left":[0,0,0,0,0,0,0,0,0,0,0,0,0,0,0,0,0,0,0,0,0,0,0,0,0,0,0,0,0,0,0,0,0,0,0,0,0,0,0,0,0,0,0,0,0,0,0,0,0,0,0,0,0,0,0],"id":8,"left_children":[1,3,5,7,9,11,13,15,17,19,21,23,25,27,29,-1,31,33,35,37,39,41,-1,43,45,47,49,51,53,-1,-1,-1,-1,-1,-1,-1,-1,-1,-1,-1,-1,-1,-1,-1,-1,-1,-1,-1,-1,-1,-1,-1,-1,-1,-1],"loss_changes":[7.798747E0,9.9966955E0,1.4885378E1,1.4598692E1,5.392249E0,6.0111637E0,1.1621092E1,5.079236E0,3.549292E0,2.7670574E0,1.7196071E0,1.4981814E1,6.23717E0,1.5330568E1,1.4063911E0,0E0,1.9741364E0,3.7731545E0,1.4292822E0,3.4482148E0,3.7739334E0,1.6769136E-1,0E0,3.389499E0,1.5386805E1,5.676617E0,4.269539E0,1.4596791E0,4.178337E0,0E0,0E0,0E0,0E0,0E0,0E0,0E0,0E0,0E0,0E0,0E0,0E0,0E0,0E0,0E0,0E0,0E0,0E0,0E0,0E0,0E0,0E0,0E0,0E0,0E0,0E0],"parents":[2147483647,0,0,1,1,2,2,3,3,4,4,5,5,6,6,7,7,8,8,9,9,10,10,11,11,12,12,13,13,14,14,16,16,17,17,18,18,19,19,20,20,21,21,23,23,24,24,25,25,26,26,27,27,28,28],"right_children":[2,4,6,8,10,12,14,16,18,20,22,24,26,28,30,-1,32,34,36,38,40,42,-1,44,46,48,50,52,54,-1,-1,-1,-1,-1,-1,-1,-1,-1,-1,-1,-1,-1,-1,-1,-1,-1,-1,-1,-1,-1,-1,-1,-1,-1,-1],"split_conditions":[1.1368142E0,1.2085241E0,1.5231628E0,-9.5322895E0,2.8953773E-1,4.9601974E0,1.8037624E0,-1.5338171E2,1.3477768E0,4.2278113E0,1.0695971E0,4.4781857E0,1.5218917E3,1.4912165E0,1.5734133E0,-3.0252077E-2,1.5952525E-1,1.5000591E3,2.7092109E0,2.2254062E0,1.9143919E1,6.47132E-1,8.438328E-2,2.1100507E0,5.7336664E-1,3.7961224E-1,5.152087E0,1.4445856E0,5.241005E0,1.6275573E-1,5.092137E-2,8.4441295E-3,5.198037E-2,-2.2068735E-2,2.3953905E-2,1.3379756E-2,-5.045497E-2,-1.5301773E-2,6.697443E-2,-3.62362E-2,3.5352763E-2,-9.604079E-3,1.5175681E-2,-7.3547773E-3,1.2794901E-2,-4.270348E-2,3.7547264E-2,2.9514514E-2,-2.0811021E-2,5.487952E-2,-2.3248956E-2,-5.9922244E-2,-4.8809766E-4,6.30743E-2,-2.0110467E-2],"split_indices":[14,15,11,9,25,19,14,9,2,19,0,19,7,1,0,0,14,7,19,15,9,0,0,2,15,15,18,0,19,0,0,0,0,0,0,0,0,0,0,0,0,0,0,0,0,0,0,0,0,0,0,0,0,0,0],"split_type":[0,0,0,0,0,0,0,0,0,0,0,0,0,0,0,0,0,0,0,0,0,0,0,0,0,0,0,0,0,0,0,0,0,0,0,0,0,0,0,0,0,0,0,0,0,0,0,0,0,0,0,0,0,0,0],"sum_hessian":[5.69E2,1.61E2,4.08E2,6.8E1,9.3E1,3.78E2,3E1,3E1,3.8E1,9E1,3E0,2.72E2,1.06E2,2.6E1,4E0,3E0,2.7E1,2.6E1,1.2E1,2.4E1,6.6E1,2E0,1E0,1.96E2,7.6E1,9.6E1,1E1,7E0,1.9E1,2E0,2E0,5E0,2.2E1,1.7E1,9E0,1E0,1.1E1,2.3E1,1E0,6.4E1,2E0,1E0,1E0,1.6E2,3.6E1,9E0,6.7E1,8E0,8.8E1,7E0,3E0,5E0,2E0,1.7E1,2E0],"tree_param":{"num_deleted":"0","num_feature":"26","num_nodes":"55","size_leaf_vector":"1"}},{"base_weights":[-2.0756532E-2,-4.0359703E-1,1.6903626E-2,-2.6732072E-1,-7.4466157E-1,5.1177226E-2,-4.5851353E-1,-4.1683507E-1,2.726173E-2,-8.480012E-1,-8.308264E-2,-7.307678E-1,6.749713E-2,2.501161E-1,-6.4460367E-1,-5.8402255E-2,-3.2569787E-1,-5.774705E-2,-2.2709344E-2,-1.8346932E-2,1.0869495E-2,-9.6075237E-1,4.017281E-2,1.1115973E-1,-2.5541148E-1,5.739962E-1,-2.886096E-2,-8.511832E-1,-2.4796414E-1,-5.477509E-3,-2.7832454E-2,-6.733267E-2,-1.5825862E-2,5.0775697E-3,4.0002212E-2,-2.266308E-2,2.6331523E-2,5.2367035E-2,1.2384377E-2,-2.2291346E-2,-6.735882E-2,-3.9613914E-2,4.9161753E-3],"categories":[],"categories_nodes":[],"categories_segments":[],"categories_sizes":[],"default_left":[0,0,0,0,0,0,0,0,0,0,0,0,0,0,0,0,0,0,0,0,0,0,0,0,0,0,0,0,0,0,0,0,0,0,0,0,0,0,0,0,0,0,0],"id":9,"left_children":[1,3,5,7,9,11,13,15,-1,17,19,21,23,25,27,-1,29,-1,-1,-1,-1,31,-1,33,35,37,-1,39,41,-1,-1,-1,-1,-1,-1,-1,-1,-1,-1,-1,-1,-1,-1],"loss_changes":[8.21057E0,2.1713667E0,8.4801855E0,4.2896686E0,8.8668776E-1,6.238538E0,4.7766404E0,1.3060513E0,0E0,2.8054905E-1,2.3193395E-1,3.8637776E0,6.7395296E0,2.170494E0,2.08319E0,0E0,8.969443E-1,0E0,0E0,0E0,0E0,7.168131E-1,0E0,6.134614E0,5.005851E0,4.788401E-1,0E0,1.9267015E0,1.5501771E0,0E0,0E0,0E0,0E0,0E0,0E0,0E0,0E0,0E0,0E0,0E0,0E0,0E0,0E0],"parents":[2147483647,0,0,1,1,2,2,3,3,4,4,5,5,6,6,7,7,9,9,10,10,11,11,12,12,13,13,14,14,16,16,21,21,23,23,24,24,25,25,27,27,28,28],"right_children":[2,4,6,8,10,12,14,16,-1,18,20,22,24,26,28,-1,30,-1,-1,-1,-1,32,-1,34,36,38,-1,40,42,-1,-1,-1,-1,-1,-1,-1,-1,-1,-1,-1,-1,-1,-1],"split_conditions":[1.4364987E3,1.5523452E3,1.8359915E0,1.6035967E0,1.2810211E0,5.87055E-1,1.4665352E3,8.056771E-1,2.726173E-2,1.4257617E3,1.9840549E0,1.8582051E0,1.5776957E3,2.1937239E-1,9.865318E-1,-5.8402255E-2,1.2102757E0,-5.774705E-2,-2.2709344E-2,-1.8346932E-2,1.0869495E-2,1.5580712E3,4.017281E-2,1.5231628E0,1.9709044E0,1.0349336E0,-2.886096E-2,-1.056125E2,-1.1845273E2,-5.477509E-3,-2.7832454E-2,-6.733267E-2,-1.5825862E-2,5.0775697E-3,4.0002212E-2,-2.266308E-2,2.6331523E-2,5.2367035E-2,1.2384377E-2,-2.2291346E-2,-6.735882E-2,-3.9613914E-2,4.9161753E-3],"split_indices":[8,7,1,0,10,1,8,0,0,8,0,0,8,25,2,0,2,0,0,0,0,7,0,11,15,0,0,9,9,0,0,0,0,0,0,0,0,0,0,0,0,0,0],"split_type":[0,0,0,0,0,0,0,0,0,0,0,0,0,0,0,0,0,0,0,0,0,0,0,0,0,0,0,0,0,0,0,0,0,0,0,0,0,0,0,0,0,0,0],"sum_hessian":[5.68E2,5E1,5.18E2,3.7E1,1.3E1,4.84E2,3.4E1,3.1E1,6E0,1.1E1,2E0,9E0,4.75E2,7E0,2.7E1,3E0,2.8E1,8E0,3E0,1E0,1E0,8E0,1E0,4.19E2,5.6E1,5E0,2E0,1.7E1,1E1,1.1E1,1.7E1,6E0,2E0,4.01E2,1.8E1,4.8E1,8E0,2E0,3E0,7E0,1E1,4E0,6E0],"tree_param":{"num_deleted":"0","num_feature":"26","num_nodes":"43","size_leaf_vector":"1"}},{"base_weights":[-8.0886325E-3,4.9063157E-2,-2.60656E-1,-1.5163705E-1,1.2719825E-1,-4.0355533E-1,1.0269577E-1,3.939317E-1,-2.8788677E-1,2.785328E-2,4.5631883E-1,-5.349948E-1,1.75394E-1,7.1801536E-2,-1.4017524E-2,-7.554746E-1,6.8950015E-1,-1.3149102E-1,-6.503302E-1,1.0883112E-1,-4.4004077E-1,3.7473974E-1,1.135345E-1,-2.9892963E-1,-7.8470206E-1,-7.8004956E-1,4.79259E-1,-2.6552027E-1,6.7936724E-1,1.2762462E-2,-5.9499156E-2,1.6099334E-1,2.1358008E-2,-4.443855E-2,-3.4215543E-4,1.2489114E-2,-4.6824265E-2,4.3897957E-2,-1.2140885E-4,-5.7580303E-2,-1.6499117E-2,4.4358864E-2,8.8001285E-3,-2.9436626E-2,2.312156E-2,-1.8366627E-2,-5.5023074E-2,-1.1363196E-2,-5.48285E-2,5.2266926E-2,-3.1333957E-2,6.481287E-2,-2.28625E-2,-1.3459096E-2,5.0430637E-2],"categories":[],"categories_nodes":[],"categories_segments":[],"categories_sizes":[],"default_left":[0,0,0,0,0,0,0,0,0,0,0,0,0,0,0,0,0,0,0,0,0,0,0,0,0,0,0,0,0,0,0,0,0,0,0,0,0,0,0,0,0,0,0,0,0,0,0,0,0,0,0,0,0,0,0],"id":10,"left_children":[1,3,5,7,9,11,13,15,17,19,21,23,25,-1,27,29,31,33,35,37,39,41,-1,43,45,47,49,51,53,-1,-1,-1,-1,-1,-1,-1,-1,-1,-1,-1,-1,-1,-1,-1,-1,-1,-1,-1,-1,-1,-1,-1,-1,-1,-1],"loss_changes":[8.370466E0,7.4367456E0,5.597174E0,9.999774E0,1.1136786E1,5.953288E0,3.9749765E0,9.693563E0,5.979741E0,1.0012711E1,8.545065E0,3.479103E0,4.728734E0,0E0,5.237643E0,1.5829122E0,1.3674265E1,5.8192163E0,3.7357693E0,1.5535574E1,3.0810533E0,6.210881E0,0E0,4.648674E0,1.6195164E0,1.429627E-1,5.164216E0,3.8317518E0,1.3535254E0,0E0,0E0,0E0,0E0,0E0,0E0,0E0,0E0,0E0,0E0,0E0,0E0,0E0,0E0,0E0,0E0,0E0,0E0,0E0,0E0,0E0,0E0,0E0,0E0,0E0,0E0],"parents":[2147483647,0,0,1,1,2,2,3,3,4,4,5,5,6,6,7,7,8,8,9,9,10,10,11,11,12,12,14,14,15,15,16,16,17,17,18,18,19,19,20,20,21,21,23,23,24,24,25,25,26,26,27,27,28,28],"right_children":[2,4,6,8,10,12,14,16,18,20,22,24,26,-1,28,30,32,34,36,38,40,42,-1,44,46,48,50,52,54,-1,-1,-1,-1,-1,-1,-1,-1,-1,-1,-1,-1,-1,-1,-1,-1,-1,-1,-1,-1,-1,-1,-1,-1,-1,-1],"split_conditions":[1.6259959E0,3.8649347E0,2.054096E0,1.17411E0,1.6403525E0,1.2614002E0,1.4535344E3,-4.4281715E1,1.5243827E3,1.6616073E0,1.9483134E-1,5.002922E0,4.31484E0,7.1801536E-2,1.596388E3,1.0446607E0,-2.9703161E1,5.242593E-1,2.7803307E0,1.0474725E0,1.7056422E0,1.8134111E0,1.135345E-1,4.804852E0,1.7387099E0,1.1544062E0,5.241005E0,3.8561661E0,7.7143565E-2,1.2762462E-2,-5.9499156E-2,1.6099334E-1,2.1358008E-2,-4.443855E-2,-3.4215543E-4,1.2489114E-2,-4.6824265E-2,4.3897957E-2,-1.2140885E-4,-5.7580303E-2,-1.6499117E-2,4.4358864E-2,8.8001285E-3,-2.9436626E-2,2.312156E-2,-1.8366627E-2,-5.5023074E-2,-1.1363196E-2,-5.48285E-2,5.2266926E-2,-3.1333957E-2,6.481287E-2,-2.28625E-2,-1.3459096E-2,5.0430637E-2],"split_indices":[15,19,15,10,0,10,8,9,8,2,24,19,19,0,8,0,9,15,19,1,2,2,0,19,15,2,19,19,24,0,0,0,0,0,0,0,0,0,0,0,0,0,0,0,0,0,0,0,0,0,0,0,0,0,0],"split_type":[0,0,0,0,0,0,0,0,0,0,0,0,0,0,0,0,0,0,0,0,0,0,0,0,0,0,0,0,0,0,0,0,0,0,0,0,0,0,0,0,0,0,0,0,0,0,0,0,0,0,0,0,0,0,0],"sum_hessian":[5.78E2,4.72E2,1.06E2,1.32E2,3.4E2,7.6E1,3E1,2.6E1,1.06E2,2.62E2,7.8E1,6.2E1,1.4E1,2E0,2.8E1,5E0,2.1E1,7.5E1,3.1E1,2.24E2,3.8E1,7.5E1,3E0,3.3E1,2.9E1,3E0,1.1E1,2.1E1,7E0,1E0,4E0,2E0,1.9E1,1.2E1,6.3E1,4E0,2.7E1,3.3E1,1.91E2,8E0,3E1,2.8E1,4.7E1,2.6E1,7E0,7E0,2.2E1,1E0,2E0,8E0,3E0,1E0,2E1,1E0,6E0],"tree_param":{"num_deleted":"0","num_feature":"26","num_nodes":"55","size_leaf_vector":"1"}},{"base_weights":[1.9019721E-2,-2.2050479E-1,7.174646E-2,-5.3589538E-2,-5.527591E-1,1.0256606E-1,-3.9302158E-1,1.0132687E0,-1.348311E-1,-5.9852004E-2,-7.2781163E-1,6.428611E-2,7.854814E-1,-8.031924E-1,4.666221E-1,1.290366E-2,8.842321E-2,-2.1585557E-1,8.8063353E-1,-3.433756E-2,2.4152155E-1,1.4938073E-2,-7.788844E-1,9.8009996E-2,-4.4145048E-1,1.3351957E0,1.7031036E-1,-1.1499229E-1,-9.178752E-1,9.399526E-2,-4.1927546E-3,-4.6650227E-2,-8.426905E-3,8.4698886E-2,3.3644603E-3,-2.1148022E-2,3.2976624E-2,2.5789402E-3,-5.13332E-2,6.790075E-2,4.5629046E-3,3.921436E-2,-3.0683659E-2,9.114822E-2,-2.0644804E-2,1.9014208E-2,-4.326642E-2,-1.8746901E-2,1.4321276E-2,-6.538808E-2,-3.0994816E-2,1.8102868E-2,-1.4884798E-2],"categories":[],"categories_nodes":[],"categories_segments":[],"categories_sizes":[],"default_left":[0,0,0,0,0,0,0,0,0,0,0,0,0,0,0,0,0,0,0,0,0,0,0,0,0,0,0,0,0,0,0,0,0,0,0,0,0,0,0,0,0,0,0,0,0,0,0,0,0,0,0,0,0],"id":11,"left_children":[1,3,5,7,9,11,13,15,17,19,21,23,25,27,29,-1,-1,31,33,-1,35,-1,37,39,41,43,45,47,49,-1,51,-1,-1,-1,-1,-1,-1,-1,-1,-1,-1,-1,-1,-1,-1,-1,-1,-1,-1,-1,-1,-1,-1],"loss_changes":[7.1387725E0,5.6271267E0,6.672307E0,6.1170735E0,2.8901167E0,1.13212595E1,1.0600208E1,1.52074E0,5.538125E0,1.6825817E0,1.4410887E0,7.0871468E0,7.550473E0,1.4729452E0,5.1853695E0,0E0,0E0,2.4742906E0,2.110108E0,0E0,1.4747286E0,0E0,1.5490522E0,8.7219305E0,2.3255763E0,4.2293644E0,1.7966293E0,3.5392284E-1,6.099148E-1,0E0,6.717042E-1,0E0,0E0,0E0,0E0,0E0,0E0,0E0,0E0,0E0,0E0,0E0,0E0,0E0,0E0,0E0,0E0,0E0,0E0,0E0,0E0,0E0,0E0],"parents":[2147483647,0,0,1,1,2,2,3,3,4,4,5,5,6,6,7,7,8,8,9,9,10,10,11,11,12,12,13,13,14,14,17,17,18,18,20,20,22,22,23,23,24,24,25,25,26,26,27,27,28,28,30,30],"right_children":[2,4,6,8,10,12,14,16,18,20,22,24,26,28,30,-1,-1,32,34,-1,36,-1,38,40,42,44,46,48,50,-1,52,-1,-1,-1,-1,-1,-1,-1,-1,-1,-1,-1,-1,-1,-1,-1,-1,-1,-1,-1,-1,-1,-1],"split_conditions":[1E0,8.2973206E-1,2.2286425E0,9.9674803E-1,1.096466E0,2.1074712E0,1.0577819E0,1.0038038E0,2.253128E0,9.117909E-1,8.379489E-1,1.9614305E0,2.052657E0,6.078214E-1,1.148708E0,1.290366E-2,8.842321E-2,1.0506036E0,-4.9493217E-1,-3.433756E-2,9.8905474E-1,1.4938073E-2,1.2E0,1.0145838E0,1.4535344E3,1.1657591E0,2.794351E0,2.1303823E0,1.6651186E2,9.399526E-2,2.4681163E0,-4.6650227E-2,-8.426905E-3,8.4698886E-2,3.3644603E-3,-2.1148022E-2,3.2976624E-2,2.5789402E-3,-5.13332E-2,6.790075E-2,4.5629046E-3,3.921436E-2,-3.0683659E-2,9.114822E-2,-2.0644804E-2,1.9014208E-2,-4.326642E-2,-1.8746901E-2,1.4321276E-2,-6.538808E-2,-3.0994816E-2,1.8102868E-2,-1.4884798E-2],"split_indices":[14,14,2,1,15,2,1,0,15,14,14,15,0,15,1,0,0,10,3,0,2,0,11,14,8,1,0,0,9,0,0,0,0,0,0,0,0,0,0,0,0,0,0,0,0,0,0,0,0,0,0,0,0],"split_type":[0,0,0,0,0,0,0,0,0,0,0,0,0,0,0,0,0,0,0,0,0,0,0,0,0,0,0,0,0,0,0,0,0,0,0,0,0,0,0,0,0,0,0,0,0,0,0,0,0,0,0,0,0],"sum_hessian":[5.63E2,1.01E2,4.62E2,6.8E1,3.3E1,4.34E2,2.8E1,4E0,6.4E1,9E0,2.4E1,4.12E2,2.2E1,1.9E1,9E0,2E0,2E0,6E1,4E0,3E0,6E0,1E0,2.3E1,3.87E2,2.5E1,1.1E1,1.1E1,3E0,1.6E1,2E0,7E0,6E0,5.4E1,2E0,2E0,2E0,4E0,2E0,2.1E1,7E0,3.8E2,1E0,2.4E1,1E1,1E0,1E1,1E0,2E0,1E0,1E1,6E0,3E0,4E0],"tree_param":{"num_deleted":"0","num_feature":"26","num_nodes":"53","size_leaf_vector":"1"}},{"base_weights":[-6.661649E-3,4.965101E-2,-1.8294975E-1,-4.6551883E-2,2.5725394E-1,-3.3017462E-1,5.8906586E-3,-4.7196868E-1,1.4637939E-2,-3.2904472E-2,4.8675936E-1,-6.75117E-1,-1.6123624E-1,1.0110741E0,-1.8752714E-1,7.269111E-1,-5.9913194E-1,-6.7519045E-1,4.2283103E-2,2.2552894E-1,-5.358981E-1,1.1860975E0,2.4927343E-1,-3.9438605E-1,-9.4637674E-1,7.208065E-1,-2.681325E-1,2.427319E-1,8.897082E-2,2.8588527E-1,-3.871777E-1,1.22315455E-2,6.888202E-2,3.8906425E-2,-3.9395213E-2,-5.336077E-2,3.7566338E-2,5.042524E-3,-2.4906117E-2,-4.590164E-2,2.7118068E-2,3.1934842E-2,-4.0580846E-2,1.7139831E-1,4.165986E-2,-2.5999423E-3,3.823478E-2,2.194098E-2,-2.8858941E-2,-5.9826773E-2,-1.1648369E-2,-1.246635E-2,5.6884605E-2,-3.2719254E-2,3.4121352E-3,-9.085847E-3,2.2747817E-2,-4.3826997E-2,3.459676E-2,-4.4050124E-2,-5.270589E-3],"categories":[],"categories_nodes":[],"categories_segments":[],"categories_sizes":[],"default_left":[0,0,0,0,0,0,0,0,0,0,0,0,0,0,0,0,0,0,0,0,0,0,0,0,0,0,0,0,0,0,0,0,0,0,0,0,0,0,0,0,0,0,0,0,0,0,0,0,0,0,0,0,0,0,0,0,0,0,0,0,0],"id":12,"left_children":[1,3,5,7,9,11,13,15,17,19,21,23,25,27,29,31,33,35,37,39,41,43,45,47,49,51,53,55,-1,57,59,-1,-1,-1,-1,-1,-1,-1,-1,-1,-1,-1,-1,-1,-1,-1,-1,-1,-1,-1,-1,-1,-1,-1,-1,-1,-1,-1,-1,-1,-1],"loss_changes":[5.6179805E0,8.579966E0,3.81082E0,7.6600757E0,9.072655E0,4.3782463E0,1.2049246E1,6.076293E0,4.948717E0,8.050272E0,1.2326641E1,1.5305367E0,5.190486E0,3.2648945E0,5.0255756E0,6.4703894E-1,2.8628502E0,3.3436246E0,4.7907677E0,9.542086E0,3.5104117E0,1.3625353E1,6.6119556E0,1.0973558E0,2.644081E-1,1.4632151E0,4.3551702E0,3.2622772E-1,0E0,5.14881E0,3.778565E0,0E0,0E0,0E0,0E0,0E0,0E0,0E0,0E0,0E0,0E0,0E0,0E0,0E0,0E0,0E0,0E0,0E0,0E0,0E0,0E0,0E0,0E0,0E0,0E0,0E0,0E0,0E0,0E0,0E0,0E0],"parents":[2147483647,0,0,1,1,2,2,3,3,4,4,5,5,6,6,7,7,8,8,9,9,10,10,11,11,12,12,13,13,14,14,15,15,16,16,17,17,18,18,19,19,20,20,21,21,22,22,23,23,24,24,25,25,26,26,27,27,29,29,30,30],"right_children":[2,4,6,8,10,12,14,16,18,20,22,24,26,28,30,32,34,36,38,40,42,44,46,48,50,52,54,56,-1,58,60,-1,-1,-1,-1,-1,-1,-1,-1,-1,-1,-1,-1,-1,-1,-1,-1,-1,-1,-1,-1,-1,-1,-1,-1,-1,-1,-1,-1,-1,-1],"split_conditions":[1.5065467E0,1.2161063E0,5.0035167E0,4.142752E0,1.2806458E0,-5.0273556E-1,5.1046643E0,-8.8321075E1,5.87055E-1,1.2907226E0,1.3904179E0,4.2926035E0,-4.0385485E-1,-4.2153778E1,1.1006627E0,9.8337907E-1,9.232289E-1,1.8582051E0,2.2286425E0,7.873084E-1,6.188077E-2,1.2E0,4.386267E0,1.4216543E3,1.0690769E0,8.992246E-1,1.5226857E3,8.992246E-1,8.897082E-2,5.812224E-1,4.3368597E0,1.22315455E-2,6.888202E-2,3.8906425E-2,-3.9395213E-2,-5.336077E-2,3.7566338E-2,5.042524E-3,-2.4906117E-2,-4.590164E-2,2.7118068E-2,3.1934842E-2,-4.0580846E-2,1.7139831E-1,4.165986E-2,-2.5999423E-3,3.823478E-2,2.194098E-2,-2.8858941E-2,-5.9826773E-2,-1.1648369E-2,-1.246635E-2,5.6884605E-2,-3.2719254E-2,3.4121352E-3,-9.085847E-3,2.2747817E-2,-4.3826997E-2,3.459676E-2,-4.4050124E-2,-5.270589E-3],"split_indices":[15,1,18,18,0,3,18,9,1,14,0,18,3,9,0,1,0,0,2,2,25,10,19,8,14,2,8,2,0,2,19,0,0,0,0,0,0,0,0,0,0,0,0,0,0,0,0,0,0,0,0,0,0,0,0,0,0,0,0,0,0],"split_type":[0,0,0,0,0,0,0,0,0,0,0,0,0,0,0,0,0,0,0,0,0,0,0,0,0,0,0,0,0,0,0,0,0,0,0,0,0,0,0,0,0,0,0,0,0,0,0,0,0,0,0,0,0,0,0,0,0,0,0,0,0],"sum_hessian":[5.64E2,4.28E2,1.36E2,2.93E2,1.35E2,7.6E1,6E1,3.6E1,2.57E2,6E1,7.5E1,2.4E1,5.2E1,9E0,5.1E1,3E0,3.3E1,9E0,2.48E2,4E1,2E1,1.8E1,5.7E1,1.3E1,1.1E1,5E0,4.7E1,4E0,5E0,1.5E1,3.6E1,2E0,1E0,1E0,3.2E1,8E0,1E0,2.28E2,2E1,7E0,3.3E1,2E0,1.8E1,3E0,1.5E1,3.3E1,2.4E1,1E0,1.2E1,1E1,1E0,1E0,4E0,2.5E1,2.2E1,1E0,3E0,3E0,1.2E1,1.6E1,2E1],"tree_param":{"num_deleted":"0","num_feature":"26","num_nodes":"61","size_leaf_vector":"1"}},{"base_weights":[-3.937883E-2,-7.661352E-1,-1.9771796E-2,3.9726615E-2,-9.1544634E-1,-5.4072708E-2,3.0137143E-1,-1.001307E0,-1.6011292E-2,-1.9908441E-2,-3.6456937E-1,7.810264E-1,-2.0721048E-1,-1.1626721E-2,-6.3426144E-2,3.387869E-2,-2.850929E-1,-5.463252E-1,1.9476065E-1,-3.6070663E-2,9.602245E-1,-5.636302E-1,5.682546E-1,5.1533883E-3,-1.9152874E-2,-8.851673E-3,-4.1835807E-2,-4.0645216E-2,4.424029E-2,-2.1210605E-2,6.856175E-2,-1.665638E-2,3.514823E-2,3.9120596E-2,9.4294235E-2,-6.2930104E-3,-5.7960838E-2,9.12317E-2,4.7374843E-3],"categories":[],"categories_nodes":[],"categories_segments":[],"categories_sizes":[],"default_left":[0,0,0,0,0,0,0,0,0,0,0,0,0,0,0,0,0,0,0,0,0,0,0,0,0,0,0,0,0,0,0,0,0,0,0,0,0,0,0],"id":13,"left_children":[1,3,5,-1,7,9,11,13,-1,15,17,19,21,-1,-1,23,25,27,29,31,33,35,37,-1,-1,-1,-1,-1,-1,-1,-1,-1,-1,-1,-1,-1,-1,-1,-1],"loss_changes":[8.135587E0,3.8049202E0,6.162948E0,0E0,5.1243496E-1,5.3497267E0,1.3334806E1,3.358326E-1,0E0,6.513819E0,5.189478E0,4.1344566E0,7.7828445E0,0E0,0E0,7.0060325E0,4.263053E0,6.8942003E0,7.1603813E0,1.0638522E0,3.3091125E0,3.4059334E0,4.0734406E0,0E0,0E0,0E0,0E0,0E0,0E0,0E0,0E0,0E0,0E0,0E0,0E0,0E0,0E0,0E0,0E0],"parents":[2147483647,0,0,1,1,2,2,4,4,5,5,6,6,7,7,9,9,10,10,11,11,12,12,15,15,16,16,17,17,18,18,19,19,20,20,21,21,22,22],"right_children":[2,4,6,-1,8,10,12,14,-1,16,18,20,22,-1,-1,24,26,28,30,32,34,36,38,-1,-1,-1,-1,-1,-1,-1,-1,-1,-1,-1,-1,-1,-1,-1,-1],"split_conditions":[6.743492E-1,1.5009843E3,2.0579364E0,3.9726615E-2,1.5327522E3,1.5532374E3,2.2286425E0,1.5182994E3,-1.6011292E-2,1.7387099E0,4.528744E0,1.4636787E3,1.0577819E0,-1.1626721E-2,-6.3426144E-2,1.5601971E3,1.4886151E3,2.3687866E0,1.9627962E0,2.1888175E0,2.1530852E0,9.685096E-1,1.148708E0,5.1533883E-3,-1.9152874E-2,-8.851673E-3,-4.1835807E-2,-4.0645216E-2,4.424029E-2,-2.1210605E-2,6.856175E-2,-1.665638E-2,3.514823E-2,3.9120596E-2,9.4294235E-2,-6.2930104E-3,-5.7960838E-2,9.12317E-2,4.7374843E-3],"split_indices":[1,7,2,0,8,7,2,7,0,15,19,8,1,0,0,8,7,0,2,2,2,15,1,0,0,0,0,0,0,0,0,0,0,0,0,0,0,0,0],"split_type":[0,0,0,0,0,0,0,0,0,0,0,0,0,0,0,0,0,0,0,0,0,0,0,0,0,0,0,0,0,0,0,0,0,0,0,0,0,0,0],"sum_hessian":[5.71E2,1.4E1,5.57E2,1E0,1.3E1,5.04E2,5.3E1,1.1E1,2E0,4.55E2,4.9E1,2.7E1,2.6E1,1E0,1E1,3.79E2,7.6E1,3.7E1,1.2E1,5E0,2.2E1,1.8E1,8E0,3.31E2,4.8E1,5.8E1,1.8E1,3.4E1,3E0,8E0,4E0,4E0,1E0,1.6E1,6E0,9E0,9E0,2E0,6E0],"tree_param":{"num_deleted":"0","num_feature":"26","num_nodes":"39","size_leaf_vector":"1"}},{"base_weights":[-1.3626828E-2,5.7899666E-1,-2.8471097E-2,2.1465144E-1,1.1060272E-1,-1.3042678E-1,7.844391E-2,4.5453897E-1,-1.009926E-1,-2.6632926E-1,7.695528E-2,-5.2057907E-2,2.7830368E-1,-6.9919513E-3,4.2376444E-2,1.2124431E-2,-1.8182658E-2,-1.7635095E-1,-6.8934745E-1,-7.258579E-2,3.7794757E-1,2.1386903E-2,-6.970381E-1,9.4693327E-1,1.6864681E-1,-5.8427583E-3,-4.5635246E-2,-2.6498875E-2,-6.144556E-2,3.2112382E-2,-1.226437E-2,-1.2521114E-2,4.8844516E-2,-6.7077414E-3,2.874376E-2,-6.630578E-2,-1.8053265E-2,2.7362896E-2,1.6550742E-1,3.425762E-3,5.1558115E-2],"categories":[],"categories_nodes":[],"categories_segments":[],"categories_sizes":[],"default_left":[0,0,0,0,0,0,0,0,0,0,0,0,0,0,0,0,0,0,0,0,0,0,0,0,0,0,0,0,0,0,0,0,0,0,0,0,0,0,0,0,0],"id":14,"left_children":[1,3,5,7,-1,9,11,13,15,17,19,21,23,-1,-1,-1,-1,25,27,29,31,33,35,37,39,-1,-1,-1,-1,-1,-1,-1,-1,-1,-1,-1,-1,-1,-1,-1,-1],"loss_changes":[5.039608E0,6.0537195E0,6.0927615E0,9.545339E-1,0E0,8.081042E0,7.1348925E0,1.0886152E0,4.2864785E-1,6.4632397E0,5.1586547E0,7.8784018E0,7.7588453E0,0E0,0E0,0E0,0E0,6.5698237E0,2.0351982E0,6.2785926E0,9.892065E0,9.196724E0,2.4155807E0,1.2080759E1,7.1929903E0,0E0,0E0,0E0,0E0,0E0,0E0,0E0,0E0,0E0,0E0,0E0,0E0,0E0,0E0,0E0,0E0],"parents":[2147483647,0,0,1,1,2,2,3,3,5,5,6,6,7,7,8,8,9,9,10,10,11,11,12,12,17,17,18,18,19,19,20,20,21,21,22,22,23,23,24,24],"right_children":[2,4,6,8,-1,10,12,14,16,18,20,22,24,-1,-1,-1,-1,26,28,30,32,34,36,38,40,-1,-1,-1,-1,-1,-1,-1,-1,-1,-1,-1,-1,-1,-1,-1,-1],"split_conditions":[8.310421E-2,8.268507E-2,5.0195713E0,3.9407535E0,1.1060272E-1,1.383324E0,4.3686624E0,9.5374316E-1,1.480269E3,1.296906E0,4.235346E1,4.273575E0,4.532983E0,-6.9919513E-3,4.2376444E-2,1.2124431E-2,-1.8182658E-2,3.349759E1,5.4897256E0,-8.338709E1,1.2E0,1.3937134E0,4.3138914E0,1.8645881E0,5.836577E0,-5.8427583E-3,-4.5635246E-2,-2.6498875E-2,-6.144556E-2,3.2112382E-2,-1.226437E-2,-1.2521114E-2,4.8844516E-2,-6.7077414E-3,2.874376E-2,-6.630578E-2,-1.8053265E-2,2.7362896E-2,1.6550742E-1,3.425762E-3,5.1558115E-2],"split_indices":[24,24,18,18,0,0,19,0,8,0,9,19,19,0,0,0,0,9,19,9,10,1,19,0,18,0,0,0,0,0,0,0,0,0,0,0,0,0,0,0,0],"split_type":[0,0,0,0,0,0,0,0,0,0,0,0,0,0,0,0,0,0,0,0,0,0,0,0,0,0,0,0,0,0,0,0,0,0,0,0,0,0,0,0,0],"sum_hessian":[5.7E2,1.3E1,5.57E2,1.1E1,2E0,2.85E2,2.72E2,6E0,5E0,1.72E2,1.13E2,1.65E2,1.07E2,2E0,4E0,2E0,3E0,1.43E2,2.9E1,7.6E1,3.7E1,1.49E2,1.6E1,1.4E1,9.3E1,1.27E2,1.6E1,1.8E1,1.1E1,1.3E1,6.3E1,1.6E1,2.1E1,1.16E2,3.3E1,7E0,9E0,1.2E1,2E0,8.1E1,1.2E1],"tree_param":{"num_deleted":"0","num_feature":"26","num_nodes":"41","size_leaf_vector":"1"}},{"base_weights":[1.20874075E-2,-2.1401714E-1,4.4427693E-2,6.40789E-2,-5.01618E-1,3.555236E-1,-1.8122108E-3,-2.2023876E-1,5.672119E-1,-5.5265796E-1,3.8543366E-2,5.8324605E-1,-4.12711E-2,-3.1487694E-1,3.245809E-2,5.3451484E-1,-4.3565288E-1,7.2027963E-1,-4.2680047E-2,-6.646738E-1,-9.152019E-2,-2.2970976E-1,7.2511953E-1,-3.5944283E-1,6.7977417E-1,-5.2702236E-1,3.6947045E-1,1.3490672E0,1.9177653E-2,4.6282668E-2,-1.9494005E-2,-4.305699E-3,-3.1328436E-2,4.9222935E-2,1.7397188E-2,-4.7176592E-2,-1.1252416E-2,3.9796285E-2,-2.7219757E-2,2.9741013E-3,-2.7093627E-2,8.214145E-2,2.5488542E-2,-3.1677116E-2,3.9545212E-2,-2.5833897E-2,6.729888E-2,-3.8190942E-2,5.4019596E-3,4.9325008E-2,-3.9636303E-4,1.5371632E-2,9.767762E-2,-1.71003E-2,3.4031635E-3],"categories":[],"categories_nodes":[],"categories_segments":[],"categories_sizes":[],"default_left":[0,0,0,0,0,0,0,0,0,0,0,0,0,0,0,0,0,0,0,0,0,0,0,0,0,0,0,0,0,0,0,0,0,0,0,0,0,0,0,0,0,0,0,0,0,0,0,0,0,0,0,0,0,0,0],"id":15,"left_children":[1,3,5,7,9,11,13,15,17,19,-1,21,23,25,27,29,31,33,-1,35,37,39,41,43,45,47,49,51,53,-1,-1,-1,-1,-1,-1,-1,-1,-1,-1,-1,-1,-1,-1,-1,-1,-1,-1,-1,-1,-1,-1,-1,-1,-1,-1],"loss_changes":[4.2652583E0,5.870732E0,7.337016E0,5.560807E0,2.4570637E0,5.987769E0,4.7845464E0,4.2974777E0,3.2522168E0,1.7470856E0,0E0,5.0107155E0,5.9797454E0,6.582691E0,7.0031557E0,1.4720024E0,5.919726E-1,3.2212687E-1,0E0,1.4771233E0,2.487638E0,4.560894E-1,6.379793E0,3.4373343E0,4.407982E0,2.3544645E0,1.877819E0,8.021064E-1,4.5725646E0,0E0,0E0,0E0,0E0,0E0,0E0,0E0,0E0,0E0,0E0,0E0,0E0,0E0,0E0,0E0,0E0,0E0,0E0,0E0,0E0,0E0,0E0,0E0,0E0,0E0,0E0],"parents":[2147483647,0,0,1,1,2,2,3,3,4,4,5,5,6,6,7,7,8,8,9,9,11,11,12,12,13,13,14,14,15,15,16,16,17,17,19,19,20,20,21,21,22,22,23,23,24,24,25,25,26,26,27,27,28,28],"right_children":[2,4,6,8,10,12,14,16,18,20,-1,22,24,26,28,30,32,34,-1,36,38,40,42,44,46,48,50,52,54,-1,-1,-1,-1,-1,-1,-1,-1,-1,-1,-1,-1,-1,-1,-1,-1,-1,-1,-1,-1,-1,-1,-1,-1,-1,-1],"split_conditions":[5.7336664E-1,1.1188947E1,8.15942E-1,1.0245919E-1,1.992232E0,1.5624463E3,-1.1845273E2,4.403024E0,5.574239E0,5.242593E-1,3.8543366E-2,1.4723849E0,5.5641084E0,1.9833046E0,-1.1614011E2,1.2300551E0,-2.5688837E1,1.5080862E3,-4.2680047E-2,1.4944666E3,3.6103551E0,6.687551E-1,4.458181E-1,2.3839777E0,1.878567E0,1.5314897E0,1.3907629E-1,1.0695971E0,1.4424841E3,4.6282668E-2,-1.9494005E-2,-4.305699E-3,-3.1328436E-2,4.9222935E-2,1.7397188E-2,-4.7176592E-2,-1.1252416E-2,3.9796285E-2,-2.7219757E-2,2.9741013E-3,-2.7093627E-2,8.214145E-2,2.5488542E-2,-3.1677116E-2,3.9545212E-2,-2.5833897E-2,6.729888E-2,-3.8190942E-2,5.4019596E-3,4.9325008E-2,-3.9636303E-4,1.5371632E-2,9.767762E-2,-1.71003E-2,3.4031635E-3],"split_indices":[15,9,15,9,0,7,9,19,19,15,0,2,18,15,9,11,9,8,0,8,19,15,3,2,2,0,25,0,8,0,0,0,0,0,0,0,0,0,0,0,0,0,0,0,0,0,0,0,0,0,0,0,0,0,0],"split_type":[0,0,0,0,0,0,0,0,0,0,0,0,0,0,0,0,0,0,0,0,0,0,0,0,0,0,0,0,0,0,0,0,0,0,0,0,0,0,0,0,0,0,0,0,0,0,0,0,0,0,0,0,0,0,0],"sum_hessian":[5.81E2,7.2E1,5.09E2,3.7E1,3.5E1,6.5E1,4.44E2,2.4E1,1.3E1,3.4E1,1E0,4.1E1,2.4E1,4.3E1,4.01E2,5E0,1.9E1,1.2E1,1E0,2.7E1,7E0,6E0,3.5E1,1.7E1,7E0,3.3E1,1E1,3E0,3.98E2,4E0,1E0,4E0,1.5E1,9E0,3E0,2.1E1,6E0,2E0,5E0,3E0,3E0,1E1,2.5E1,1.5E1,2E0,2E0,5E0,2.8E1,5E0,4E0,6E0,1E0,2E0,4.3E1,3.55E2],"tree_param":{"num_deleted":"0","num_feature":"26","num_nodes":"55","size_leaf_vector":"1"}},{"base_weights":[-8.590457E-3,6.423154E-2,-2.2857727E-1,-1.4161721E-1,1.4787957E-1,-2.651172E-1,3.9833617E-1,-4.6561424E-2,-7.203961E-1,5.2991394E-2,4.4366914E-1,2.2367567E-1,-3.1628686E-1,7.894158E-1,-5.166018E-1,-1.5324771E-1,7.9302794E-1,-9.598475E-1,-1.2142718E-1,1.399686E-1,-4.2565477E-1,8.5815334E-1,9.062797E-2,-4.4531578E-1,5.704847E-1,-1.2660745E-1,-4.6668687E-1,1.1160414E-2,6.267711E-2,-8.395186E-3,-3.8098976E-2,-3.9825294E-2,1.8759331E-3,2.2809379E-2,1.6003847E-1,-9.897673E-3,-6.1026804E-2,3.4227207E-2,-3.6598854E-2,5.193323E-2,3.0339556E-3,4.1793484E-2,-2.8748881E-2,3.7880693E-2,8.356959E-2,3.4936525E-2,-1.3659093E-2,-4.955449E-3,-3.9576124E-2,-1.6512044E-2,4.2635728E-2,2.4997757E-3,-2.792777E-2,5.9210914E-3,-3.41645E-2],"categories":[],"categories_nodes":[],"categories_segments":[],"categories_sizes":[],"default_left":[0,0,0,0,0,0,0,0,0,0,0,0,0,0,0,0,0,0,0,0,0,0,0,0,0,0,0,0,0,0,0,0,0,0,0,0,0,0,0,0,0,0,0,0,0,0,0,0,0,0,0,0,0,0,0],"id":16,"left_children":[1,3,5,7,9,11,13,15,17,19,21,23,25,27,29,31,33,35,37,39,41,43,45,47,49,51,53,-1,-1,-1,-1,-1,-1,-1,-1,-1,-1,-1,-1,-1,-1,-1,-1,-1,-1,-1,-1,-1,-1,-1,-1,-1,-1,-1,-1],"loss_changes":[8.889695E0,7.2012E0,3.2668228E0,6.6234283E0,8.31237E0,3.3472347E0,3.2703223E0,9.526661E0,2.3216553E0,9.468254E0,1.0457985E1,3.2702055E0,3.335721E0,7.296431E-1,4.4929504E-2,8.875115E0,8.272049E0,3.784542E-1,2.376091E0,1.2411132E1,2.434834E0,3.1225052E0,6.3918095E0,3.3415788E-1,1.2619629E0,3.0984359E0,3.8891954E0,0E0,0E0,0E0,0E0,0E0,0E0,0E0,0E0,0E0,0E0,0E0,0E0,0E0,0E0,0E0,0E0,0E0,0E0,0E0,0E0,0E0,0E0,0E0,0E0,0E0,0E0,0E0,0E0],"parents":[2147483647,0,0,1,1,2,2,3,3,4,4,5,5,6,6,7,7,8,8,9,9,10,10,11,11,12,12,13,13,14,14,15,15,16,16,17,17,18,18,19,19,20,20,21,21,22,22,23,23,24,24,25,25,26,26],"right_children":[2,4,6,8,10,12,14,16,18,20,22,24,26,28,30,32,34,36,38,40,42,44,46,48,50,52,54,-1,-1,-1,-1,-1,-1,-1,-1,-1,-1,-1,-1,-1,-1,-1,-1,-1,-1,-1,-1,-1,-1,-1,-1,-1,-1,-1,-1],"split_conditions":[1.5065467E0,3.8649347E0,1.9320211E0,3.7789748E0,1.6656444E0,1.4153202E3,1.026616E0,1.3578558E0,5.993412E0,1.669129E0,1.8918623E0,3.8522916E0,1.7387099E0,1.8362758E0,2.1426935E0,1.3322138E0,1.5231628E0,1.4257617E3,1.669129E0,1.0221223E0,2.1755393E-1,1.8616387E0,1.7558628E0,6.723135E-1,1.4059923E3,1.16407074E-1,4.122053E0,1.1160414E-2,6.267711E-2,-8.395186E-3,-3.8098976E-2,-3.9825294E-2,1.8759331E-3,2.2809379E-2,1.6003847E-1,-9.897673E-3,-6.1026804E-2,3.4227207E-2,-3.6598854E-2,5.193323E-2,3.0339556E-3,4.1793484E-2,-2.8748881E-2,3.7880693E-2,8.356959E-2,3.4936525E-2,-1.3659093E-2,-4.955449E-3,-3.9576124E-2,-1.6512044E-2,4.2635728E-2,2.4997757E-3,-2.792777E-2,5.9210914E-3,-3.41645E-2],"split_indices":[15,19,0,19,0,7,3,1,18,2,0,18,15,2,0,0,11,8,2,1,15,0,14,2,8,24,19,0,0,0,0,0,0,0,0,0,0,0,0,0,0,0,0,0,0,0,0,0,0,0,0,0,0,0,0],"split_type":[0,0,0,0,0,0,0,0,0,0,0,0,0,0,0,0,0,0,0,0,0,0,0,0,0,0,0,0,0,0,0,0,0,0,0,0,0,0,0,0,0,0,0,0,0,0,0,0,0,0,0,0,0,0,0],"sum_hessian":[5.53E2,4.16E2,1.37E2,1.2E2,2.96E2,1.3E2,7E0,1.04E2,1.6E1,2.25E2,7.1E1,1.2E1,1.18E2,5E0,2E0,9.3E1,1.1E1,1.1E1,5E0,1.91E2,3.4E1,3.2E1,3.9E1,4E0,8E0,5.3E1,6.5E1,2E0,3E0,1E0,1E0,2.4E1,6.9E1,1E1,1E0,1E0,1E1,2E0,3E0,2E1,1.71E2,1E0,3.3E1,2.4E1,8E0,1.5E1,2.4E1,2E0,2E0,1E0,7E0,3.6E1,1.7E1,1E1,5.5E1],"tree_param":{"num_deleted":"0","num_feature":"26","num_nodes":"55","size_leaf_vector":"1"}},{"base_weights":[2.2297781E-2,-8.3492965E-2,1.0525287E-1,-8.290345E-3,-4.6297228E-1,-4.1452646E-1,1.4555788E-1,-6.1225478E-2,8.6141896E-1,6.476668E-2,-5.2851886E-1,-5.86312E-1,5.556885E-2,4.4269875E-1,3.240849E-2,-4.8195726E-1,2.329194E-2,1.2264794E0,-1.7532188E-1,3.065095E-2,-5.68268E-1,-2.1586797E-1,-7.976723E-1,1.0692909E0,2.0556995E-1,1.21561274E-1,-4.2701748E-1,-3.1805508E-2,3.175047E-2,5.509646E-2,-2.4223926E-3,4.401605E-3,9.272773E-2,-2.2448458E-2,1.2634062E-2,-3.749848E-2,5.049566E-3,8.029752E-3,-2.4781285E-2,-3.329297E-2,-6.450952E-2,8.583404E-2,-7.952446E-3,-1.2314142E-2,3.2874174E-2,1.8367287E-2,-6.164631E-3,-3.021357E-2,3.343706E-2],"categories":[],"categories_nodes":[],"categories_segments":[],"categories_sizes":[],"default_left":[0,0,0,0,0,0,0,0,0,0,0,0,0,0,0,0,0,0,0,0,0,0,0,0,0,0,0,0,0,0,0,0,0,0,0,0,0,0,0,0,0,0,0,0,0,0,0,0,0],"id":17,"left_children":[1,3,5,7,9,11,13,15,17,-1,19,21,-1,23,25,27,29,31,33,-1,35,37,39,41,43,45,47,-1,-1,-1,-1,-1,-1,-1,-1,-1,-1,-1,-1,-1,-1,-1,-1,-1,-1,-1,-1,-1,-1],"loss_changes":[4.949609E0,7.0735464E0,6.680446E0,9.628682E0,4.7156115E0,5.840103E0,9.870316E0,7.0163803E0,4.756706E0,0E0,1.9428596E0,1.4720483E0,0E0,1.18154125E1,8.817156E0,1.8866339E0,9.43864E0,3.197051E0,3.856709E-1,0E0,1.4954805E0,6.757704E-1,2.7923298E-1,9.741867E0,8.550388E0,7.483055E0,2.9175415E0,0E0,0E0,0E0,0E0,0E0,0E0,0E0,0E0,0E0,0E0,0E0,0E0,0E0,0E0,0E0,0E0,0E0,0E0,0E0,0E0,0E0,0E0],"parents":[2147483647,0,0,1,1,2,2,3,3,4,4,5,5,6,6,7,7,8,8,10,10,11,11,13,13,14,14,15,15,16,16,17,17,18,18,20,20,21,21,22,22,23,23,24,24,25,25,26,26],"right_children":[2,4,6,8,10,12,14,16,18,-1,20,22,-1,24,26,28,30,32,34,-1,36,38,40,42,44,46,48,-1,-1,-1,-1,-1,-1,-1,-1,-1,-1,-1,-1,-1,-1,-1,-1,-1,-1,-1,-1,-1,-1],"split_conditions":[1.315873E0,2.1016927E-1,1.1721799E0,9.238181E-2,3.6653707E0,1.9397144E0,1.5484236E0,-1.1845273E2,-1.5907525E1,6.476668E-2,1.1348145E0,4.1607056E0,5.556885E-2,1.0105085E0,5.209807E0,1.2019924E0,-1.0350463E2,1.2E0,1.0517884E0,3.065095E-2,1.2189839E0,1.4051014E0,1.530898E-1,7.0992455E1,1.2037535E0,5.323401E0,5.5841413E0,-3.1805508E-2,3.175047E-2,5.509646E-2,-2.4223926E-3,4.401605E-3,9.272773E-2,-2.2448458E-2,1.2634062E-2,-3.749848E-2,5.049566E-3,8.029752E-3,-2.4781285E-2,-3.329297E-2,-6.450952E-2,8.583404E-2,-7.952446E-3,-1.2314142E-2,3.2874174E-2,1.8367287E-2,-6.164631E-3,-3.021357E-2,3.343706E-2],"split_indices":[14,3,0,3,18,1,14,9,9,0,11,18,0,1,19,14,9,10,1,0,1,14,24,9,15,18,18,0,0,0,0,0,0,0,0,0,0,0,0,0,0,0,0,0,0,0,0,0,0],"split_type":[0,0,0,0,0,0,0,0,0,0,0,0,0,0,0,0,0,0,0,0,0,0,0,0,0,0,0,0,0,0,0,0,0,0,0,0,0,0,0,0,0,0,0,0,0,0,0,0,0],"sum_hessian":[5.62E2,2.47E2,3.15E2,2.07E2,4E1,2.2E1,2.93E2,1.96E2,1.1E1,1E0,3.9E1,2E1,2E0,8E1,2.13E2,3.2E1,1.64E2,8E0,3E0,1E0,3.8E1,8E0,1.2E1,2.1E1,5.9E1,1.79E2,3.4E1,3.1E1,1E0,1E1,1.54E2,2E0,6E0,2E0,1E0,3.5E1,3E0,3E0,5E0,8E0,4E0,1.6E1,5E0,2.7E1,3.2E1,9.8E1,8.1E1,3.2E1,2E0],"tree_param":{"num_deleted":"0","num_feature":"26","num_nodes":"49","size_leaf_vector":"1"}},{"base_weights":[-7.289318E-3,-3.468889E-1,1.8508593E-2,-6.1884683E-1,5.806528E-4,8.576642E-1,5.8786604E-3,-7.1802944E-2,-6.9731325E-1,-3.781962E-1,3.7929946E-1,9.507725E-1,6.1771846E-3,-2.6063204E-1,4.151411E-2,3.913931E-2,-5.306185E-1,-2.211028E-1,-8.025469E-1,-8.612355E-1,3.370029E-2,7.938455E-1,-1.940157E-1,6.920868E-3,6.4247124E-2,-2.9705474E-2,-5.4822934E-1,8.935003E-2,-1.9697997E-1,-7.775416E-3,-3.9980248E-2,-2.4108284E-3,-2.8343761E-2,-5.2348662E-2,-1.2521257E-2,-1.1718729E-2,-5.638024E-2,6.600435E-2,2.194283E-2,-1.6895587E-2,4.6888194E-3,-1.7799864E-2,1.935208E-2,-1.2381953E-2,-4.7503743E-2,2.7558021E-3,3.111935E-2,3.5434376E-2,-1.6905E-2],"categories":[],"categories_nodes":[],"categories_segments":[],"categories_sizes":[],"default_left":[0,0,0,0,0,0,0,0,0,0,0,0,0,0,0,0,0,0,0,0,0,0,0,0,0,0,0,0,0,0,0,0,0,0,0,0,0,0,0,0,0,0,0,0,0,0,0,0,0],"id":18,"left_children":[1,3,5,7,9,11,13,15,17,19,21,23,-1,25,27,-1,29,31,33,35,-1,37,39,-1,-1,41,43,45,47,-1,-1,-1,-1,-1,-1,-1,-1,-1,-1,-1,-1,-1,-1,-1,-1,-1,-1,-1,-1],"loss_changes":[5.0877767E0,3.8747406E0,5.718137E0,9.371958E-1,2.868998E0,4.6427393E-1,5.072843E0,1.675093E0,8.248224E-1,5.0236616E0,2.530674E0,5.7831955E-1,0E0,4.1677876E0,5.3910437E0,0E0,7.693058E-2,2.0834169E-1,4.8238945E-1,1.8209362E-1,0E0,3.843212E-1,1.4118218E-1,0E0,0E0,3.480896E0,2.1674366E0,7.301877E0,5.440505E0,0E0,0E0,0E0,0E0,0E0,0E0,0E0,0E0,0E0,0E0,0E0,0E0,0E0,0E0,0E0,0E0,0E0,0E0,0E0,0E0],"parents":[2147483647,0,0,1,1,2,2,3,3,4,4,5,5,6,6,7,7,8,8,9,9,10,10,11,11,13,13,14,14,16,16,17,17,18,18,19,19,21,21,22,22,25,25,26,26,27,27,28,28],"right_children":[2,4,6,8,10,12,14,16,18,20,22,24,-1,26,28,-1,30,32,34,36,-1,38,40,-1,-1,42,44,46,48,-1,-1,-1,-1,-1,-1,-1,-1,-1,-1,-1,-1,-1,-1,-1,-1,-1,-1,-1,-1],"split_conditions":[7.995818E-1,1.0284793E0,1.4169176E3,3.944408E0,-5.6659077E1,1.2410791E0,5.242593E-1,8.3083206E-1,-1.4808302E2,1.5995806E-1,1.1281945E-1,7.4988955E-1,6.1771846E-3,1.3575878E1,1.5675287E3,3.913931E-2,8.3770394E-1,1.0221223E0,9.7771E-1,1.3686527E0,3.370029E-2,1.7630125E0,9.711233E-1,6.920868E-3,6.4247124E-2,1.0245919E-1,5.351131E-1,1.5498348E3,8.536349E-1,-7.775416E-3,-3.9980248E-2,-2.4108284E-3,-2.8343761E-2,-5.2348662E-2,-1.2521257E-2,-1.1718729E-2,-5.638024E-2,6.600435E-2,2.194283E-2,-1.6895587E-2,4.6888194E-3,-1.7799864E-2,1.935208E-2,-1.2381953E-2,-4.7503743E-2,2.7558021E-3,3.111935E-2,3.5434376E-2,-1.6905E-2],"split_indices":[2,14,7,19,9,0,15,0,9,24,25,0,0,9,8,0,0,0,14,1,0,1,0,0,0,9,3,8,1,0,0,0,0,0,0,0,0,0,0,0,0,0,0,0,0,0,0,0,0],"split_type":[0,0,0,0,0,0,0,0,0,0,0,0,0,0,0,0,0,0,0,0,0,0,0,0,0,0,0,0,0,0,0,0,0,0,0,0,0,0,0,0,0,0,0,0,0,0,0,0,0],"sum_hessian":[5.79E2,4E1,5.39E2,2.2E1,1.8E1,7E0,5.32E2,3E0,1.9E1,9E0,9E0,6E0,1E0,6.2E1,4.7E2,1E0,2E0,4E0,1.5E1,6E0,3E0,5E0,4E0,1E0,5E0,3.5E1,2.7E1,3.92E2,7.8E1,1E0,1E0,3E0,1E0,1.3E1,2E0,1E0,5E0,2E0,3E0,3E0,1E0,2E1,1.5E1,1.2E1,1.5E1,3.57E2,3.5E1,7E0,7.1E1],"tree_param":{"num_deleted":"0","num_feature":"26","num_nodes":"49","size_leaf_vector":"1"}},{"base_weights":[1.3115416E-2,-7.06907E-2,1.0494317E-1,8.301767E-3,-3.2113585E-1,9.8266727E-1,7.43918E-2,-3.9848436E-2,1.052331E0,-6.5866953E-1,-1.0681086E-2,2.4941047E-1,9.1163434E-2,9.893329E-2,-6.2648934E-1,-4.8443767E-1,1.0257745E-2,1.1447073E-1,1.6401368E-1,-9.0966046E-1,3.4674693E-2,-1.8655199E-1,6.7215383E-1,4.2122862E-1,-1.3135864E-2,6.750339E-2,7.2714424E-1,-7.648168E-1,1.4403923E-2,-6.4246175E-3,-4.4247042E-2,1.9656034E-2,-4.547886E-3,-1.571253E-2,4.063168E-2,-1.5949406E-2,-5.912241E-2,-1.6133318E-2,2.3520943E-2,-2.3963666E-2,1.8021394E-2,6.610983E-2,-2.4675041E-2,1.0877433E-2,3.4231283E-2,6.910301E-3,-2.4994882E-2,5.696976E-3,6.1882373E-2,-5.7175945E-2,-2.0308089E-2],"categories":[],"categories_nodes":[],"categories_segments":[],"categories_sizes":[],"default_left":[0,0,0,0,0,0,0,0,0,0,0,0,0,0,0,0,0,0,0,0,0,0,0,0,0,0,0,0,0,0,0,0,0,0,0,0,0,0,0,0,0,0,0,0,0,0,0,0,0,0,0],"id":19,"left_children":[1,3,5,7,9,11,13,15,17,19,21,23,-1,25,27,29,31,-1,33,35,37,39,41,43,-1,45,47,49,-1,-1,-1,-1,-1,-1,-1,-1,-1,-1,-1,-1,-1,-1,-1,-1,-1,-1,-1,-1,-1,-1,-1],"loss_changes":[4.355504E0,5.858517E0,7.1671305E0,1.1403004E1,7.432979E0,3.1630507E0,4.568556E0,4.839006E0,7.286772E0,5.948329E0,4.688842E0,4.9456793E-1,0E0,4.9660454E0,1.2624214E0,2.021534E0,5.3774357E0,0E0,1.4886903E0,9.567356E-1,1.1901648E0,3.33264E0,4.1772375E0,3.985393E-2,0E0,5.655323E0,2.210052E0,3.1908512E-1,0E0,0E0,0E0,0E0,0E0,0E0,0E0,0E0,0E0,0E0,0E0,0E0,0E0,0E0,0E0,0E0,0E0,0E0,0E0,0E0,0E0,0E0,0E0],"parents":[2147483647,0,0,1,1,2,2,3,3,4,4,5,5,6,6,7,7,8,8,9,9,10,10,11,11,13,13,14,14,15,15,16,16,18,18,19,19,20,20,21,21,22,22,23,23,25,25,26,26,27,27],"right_children":[2,4,6,8,10,12,14,16,18,20,22,24,-1,26,28,30,32,-1,34,36,38,40,42,44,-1,46,48,50,-1,-1,-1,-1,-1,-1,-1,-1,-1,-1,-1,-1,-1,-1,-1,-1,-1,-1,-1,-1,-1,-1,-1],"split_conditions":[5.0195713E0,4.8305387E0,5.0433908E0,4.797332E0,4.7432704E0,4.0795007E0,2.1585746E-1,7.873084E-1,1.2222248E0,2E0,1.3744688E0,1.6923573E0,9.1163434E-2,6.7419567E0,5.338077E0,6.723135E-1,1.4604492E3,1.1447073E-1,4.8246174E0,3.7961224E-1,3.8751705E1,1.0245919E-1,1.02066E-1,5.550362E-1,-1.3135864E-2,2.2124474E0,1.060704E0,2.2970946E-1,1.4403923E-2,-6.4246175E-3,-4.4247042E-2,1.9656034E-2,-4.547886E-3,-1.571253E-2,4.063168E-2,-1.5949406E-2,-5.912241E-2,-1.6133318E-2,2.3520943E-2,-2.3963666E-2,1.8021394E-2,6.610983E-2,-2.4675041E-2,1.0877433E-2,3.4231283E-2,6.910301E-3,-2.4994882E-2,5.696976E-3,6.1882373E-2,-5.7175945E-2,-2.0308089E-2],"split_indices":[18,18,18,18,19,19,25,2,1,14,0,2,0,18,19,2,7,0,18,15,9,9,25,3,0,14,1,25,0,0,0,0,0,0,0,0,0,0,0,0,0,0,0,0,0,0,0,0,0,0,0],"split_type":[0,0,0,0,0,0,0,0,0,0,0,0,0,0,0,0,0,0,0,0,0,0,0,0,0,0,0,0,0,0,0,0,0,0,0,0,0,0,0,0,0,0,0,0,0,0,0,0,0,0,0],"sum_hessian":[5.64E2,2.95E2,2.69E2,2.25E2,7E1,8E0,2.61E2,2.16E2,9E0,3.3E1,3.7E1,4E0,4E0,2.53E2,8E0,2.1E1,1.95E2,4E0,5E0,2.4E1,9E0,3E1,7E0,3E0,1E0,2.42E2,1.1E1,7E0,1E0,9E0,1.2E1,4.1E1,1.54E2,3E0,2E0,3E0,2.1E1,5E0,4E0,2.1E1,9E0,5E0,2E0,2E0,1E0,2.21E2,2.1E1,4E0,7E0,4E0,3E0],"tree_param":{"num_deleted":"0","num_feature":"26","num_nodes":"51","size_leaf_vector":"1"}},{"base_weights":[-8.433917E-3,-3.3817473E-1,1.6710706E-2,-4.5618677E-1,3.0019614E-1,-1.4252145E-2,3.4047693E-1,-5.3612417E-1,1.3066238E-1,6.707824E-1,-2.5050778E-2,-2.3024805E-1,2.5762126E-2,8.0612725E-1,-2.253133E-1,-4.0514025E-1,-8.620603E-1,3.8059363E-1,-2.6071878E-2,9.54537E-3,4.553599E-2,8.5877426E-2,-4.5695677E-1,1.927108E-1,-4.099175E-2,1.5439631E-1,6.3251054E-1,1.0040367E-1,-3.954134E-1,3.8157873E-2,-2.8683377E-2,-5.6604315E-2,-8.77937E-3,2.7553594E-2,4.340844E-3,-1.6717758E-2,2.0204294E-2,6.602791E-2,-3.1041797E-2,3.2086685E-2,-3.7748676E-3,-4.6615615E-3,3.0121306E-2,-3.7976973E-2,4.269666E-2,-4.200217E-3,-3.8018227E-2],"categories":[],"categories_nodes":[],"categories_segments":[],"categories_sizes":[],"default_left":[0,0,0,0,0,0,0,0,0,0,0,0,0,0,0,0,0,0,0,0,0,0,0,0,0,0,0,0,0,0,0,0,0,0,0,0,0,0,0,0,0,0,0,0,0,0,0],"id":20,"left_children":[1,3,5,7,9,11,13,15,17,19,-1,21,23,25,27,29,31,33,-1,-1,-1,35,37,39,41,-1,43,-1,45,-1,-1,-1,-1,-1,-1,-1,-1,-1,-1,-1,-1,-1,-1,-1,-1,-1,-1],"loss_changes":[4.7979693E0,3.225699E0,5.398155E0,1.7119436E0,2.1418722E0,4.258248E0,1.256427E1,9.7420883E-1,8.7167764E-1,1.04792595E-1,0E0,5.557709E0,4.6439996E0,6.349327E0,7.7670307E0,2.125945E0,3.277316E-1,6.3729405E-2,0E0,0E0,0E0,3.1113608E0,4.8028717E0,1.043913E1,5.977879E0,0E0,2.9528751E0,0E0,1.5835702E0,0E0,0E0,0E0,0E0,0E0,0E0,0E0,0E0,0E0,0E0,0E0,0E0,0E0,0E0,0E0,0E0,0E0,0E0],"parents":[2147483647,0,0,1,1,2,2,3,3,4,4,5,5,6,6,7,7,8,8,9,9,11,11,12,12,13,13,14,14,15,15,16,16,17,17,21,21,22,22,23,23,24,24,26,26,28,28],"right_children":[2,4,6,8,10,12,14,16,18,20,-1,22,24,26,28,30,32,34,-1,-1,-1,36,38,40,42,-1,44,-1,46,-1,-1,-1,-1,-1,-1,-1,-1,-1,-1,-1,-1,-1,-1,-1,-1,-1,-1],"split_conditions":[7.995818E-1,1.6180879E-1,1.5231628E0,1.2261739E0,1.4721324E-1,3.5798397E0,1.5070697E3,1.1768087E-1,1.8116038E0,1.6816694E0,-2.5050778E-2,3.029383E0,1.0532664E0,3.292088E0,9.013462E-2,3.944408E0,2.3100483E0,8.3083206E-1,-2.6071878E-2,9.54537E-3,4.553599E-2,2.7295682E0,1.0388794E0,1.5574603E0,2.0579364E0,1.5439631E-1,3.5131762E0,1.0040367E-1,9.451094E-1,3.8157873E-2,-2.8683377E-2,-5.6604315E-2,-8.77937E-3,2.7553594E-2,4.340844E-3,-1.6717758E-2,2.0204294E-2,6.602791E-2,-3.1041797E-2,3.2086685E-2,-3.7748676E-3,-4.6615615E-3,3.0121306E-2,-3.7976973E-2,4.269666E-2,-4.200217E-3,-3.8018227E-2],"split_indices":[2,24,11,14,25,19,8,24,1,1,0,19,1,19,25,19,1,0,0,0,0,19,0,14,2,0,19,0,14,0,0,0,0,0,0,0,0,0,0,0,0,0,0,0,0,0,0],"split_type":[0,0,0,0,0,0,0,0,0,0,0,0,0,0,0,0,0,0,0,0,0,0,0,0,0,0,0,0,0,0,0,0,0,0,0,0,0,0,0,0,0,0,0,0,0,0,0],"sum_hessian":[5.77E2,4E1,5.37E2,3.4E1,6E0,4.91E2,4.6E1,3E1,4E0,4E0,2E0,7.6E1,4.15E2,2.5E1,2.1E1,2.3E1,7E0,3E0,1E0,1E0,3E0,3.2E1,4.4E1,1.18E2,2.97E2,1E0,2.4E1,1E0,2E1,1E0,2.2E1,6E0,1E0,2E0,1E0,1.3E1,1.9E1,1E0,4.3E1,5E1,6.8E1,2.79E2,1.8E1,1E0,2.3E1,9E0,1.1E1],"tree_param":{"num_deleted":"0","num_feature":"26","num_nodes":"47","size_leaf_vector":"1"}},{"base_weights":[1.6993266E-2,1.330297E-1,-5.1780365E-2,-1.5120377E-1,2.6839486E-1,-4.3521738E-1,-1.7184883E-2,4.7382385E-2,-2.0512074E-1,3.6731693E-1,-2.765935E-1,-6.000531E-1,1.9210745E-1,-2.0113473E-1,5.8951274E-2,-5.814921E-2,-4.4970694E-1,5.988509E-1,1.266967E-2,-4.7793338E-1,7.9925424E-1,3.6770772E-2,-6.794333E-1,5.389026E-1,-2.6995216E-2,-2.3022503E-1,7.968E-1,3.7066013E-1,-2.4263589E-2,3.9397543E-3,-4.9955934E-2,-3.1322718E-2,3.8592424E-2,-1.0089039E-4,4.9945343E-2,2.8447598E-2,-1.8646352E-2,-6.9324626E-3,-4.9726296E-2,7.1375795E-2,-1.1153187E-2,1.5165767E-3,-4.974741E-2,4.4791047E-2,9.099212E-3,-4.6191475E-5,-2.3646468E-2,-3.9318E-3,7.56438E-2,4.5844324E-2,2.0557472E-3,-2.814374E-2,2.621343E-3],"categories":[],"categories_nodes":[],"categories_segments":[],"categories_sizes":[],"default_left":[0,0,0,0,0,0,0,0,0,0,0,0,0,0,0,0,0,0,0,0,0,0,0,0,0,0,0,0,0,0,0,0,0,0,0,0,0,0,0,0,0,0,0,0,0,0,0,0,0,0,0,0,0],"id":21,"left_children":[1,3,5,7,9,11,13,-1,15,17,19,21,23,25,27,29,31,33,35,37,39,-1,41,43,-1,45,47,49,51,-1,-1,-1,-1,-1,-1,-1,-1,-1,-1,-1,-1,-1,-1,-1,-1,-1,-1,-1,-1,-1,-1,-1,-1],"loss_changes":[4.611491E0,8.312775E0,4.807784E0,3.7131572E0,7.97266E0,3.2174401E0,4.689605E0,0E0,2.3823128E0,1.017441E1,5.364044E0,2.7271137E0,1.8010279E0,3.0284054E0,6.1564913E0,4.1777687E0,2.3122735E0,1.0521442E1,7.6100783E0,2.4470644E0,1.7592986E0,0E0,2.4471846E0,2.887814E-1,0E0,3.6096568E0,1.2827979E0,6.590964E0,5.7028394E0,0E0,0E0,0E0,0E0,0E0,0E0,0E0,0E0,0E0,0E0,0E0,0E0,0E0,0E0,0E0,0E0,0E0,0E0,0E0,0E0,0E0,0E0,0E0,0E0],"parents":[2147483647,0,0,1,1,2,2,3,3,4,4,5,5,6,6,8,8,9,9,10,10,11,11,12,12,13,13,14,14,15,15,16,16,17,17,18,18,19,19,20,20,22,22,23,23,25,25,26,26,27,27,28,28],"right_children":[2,4,6,8,10,12,14,-1,16,18,20,22,24,26,28,30,32,34,36,38,40,-1,42,44,-1,46,48,50,52,-1,-1,-1,-1,-1,-1,-1,-1,-1,-1,-1,-1,-1,-1,-1,-1,-1,-1,-1,-1,-1,-1,-1,-1],"split_conditions":[1.0003047E0,5.6102294E-1,1.0642866E0,1.1771886E0,5.2993627E0,2.1074712E0,1.0940565E0,4.7382385E-2,3.9752635E-1,6.817713E1,9.976553E-1,5.837878E-2,2.262718E0,2.8953773E-1,1.4581505E3,7.4761765E1,1.5523452E3,3.6927054E0,7.622425E-1,8.723106E-1,1.3050327E0,3.6770772E-2,1.105763E0,2.5087278E0,-2.6995216E-2,8.379489E-1,6.47132E-1,4.891406E0,1.467733E3,3.9397543E-3,-4.9955934E-2,-3.1322718E-2,3.8592424E-2,-1.0089039E-4,4.9945343E-2,2.8447598E-2,-1.8646352E-2,-6.9324626E-3,-4.9726296E-2,7.1375795E-2,-1.1153187E-2,1.5165767E-3,-4.974741E-2,4.4791047E-2,9.099212E-3,-4.6191475E-5,-2.3646468E-2,-3.9318E-3,7.56438E-2,4.5844324E-2,2.0557472E-3,-2.814374E-2,2.621343E-3],"split_indices":[15,15,15,2,19,2,14,0,15,9,15,25,2,25,7,9,7,19,15,15,0,0,14,0,0,14,0,19,7,0,0,0,0,0,0,0,0,0,0,0,0,0,0,0,0,0,0,0,0,0,0,0,0],"split_type":[0,0,0,0,0,0,0,0,0,0,0,0,0,0,0,0,0,0,0,0,0,0,0,0,0,0,0,0,0,0,0,0,0,0,0,0,0,0,0,0,0,0,0,0,0,0,0,0,0,0,0,0,0],"sum_hessian":[5.76E2,2.14E2,3.62E2,6.9E1,1.45E2,2.9E1,3.33E2,3E0,6.6E1,1.23E2,2.2E1,2.3E1,6E0,9.7E1,2.36E2,4.2E1,2.4E1,7.4E1,4.9E1,1.9E1,3E0,1E0,2.2E1,4E0,2E0,9.5E1,2E0,4.9E1,1.87E2,3.7E1,5E0,2.3E1,1E0,2.1E1,5.3E1,2E1,2.9E1,1E1,9E0,2E0,1E0,4E0,1.8E1,2E0,2E0,4E1,5.5E1,1E0,1E0,2.2E1,2.7E1,2.4E1,1.63E2],"tree_param":{"num_deleted":"0","num_feature":"26","num_nodes":"53","size_leaf_vector":"1"}},{"base_weights":[-1.927213E-2,-2.0425308E-1,1.7919172E-2,-6.431413E-1,-9.472577E-2,-1.9075567E-2,3.657627E-1,-8.1967807E-1,2.2379112E-1,9.5935024E-2,-3.7179863E-1,3.8141614E-1,-4.14411E-2,1.9358376E-1,1.7389135E0,-8.5832965E-1,-7.1971393E-3,-1.4447739E-2,4.8526544E-2,4.2519635E-1,-1.426779E-1,-4.307839E-1,1.4879414E-1,-9.371609E-2,1.0084597E0,-1.2878684E-2,-3.2146484E-1,8.306287E-1,-5.326347E-3,1.3648118E-1,3.7410166E-2,-7.582569E-3,-5.4095108E-2,8.387922E-3,5.6114957E-2,-2.783129E-3,-5.577917E-2,-2.8425995E-2,5.979302E-3,-1.4133771E-2,2.1326045E-2,-2.7531728E-2,5.6031875E-2,7.958331E-2,-1.0530214E-2,-2.2500905E-3,3.0384395E-2,1.9726679E-2,-2.721958E-2,9.535713E-3,8.8232584E-2,3.0474728E-2,-2.7674546E-2],"categories":[],"categories_nodes":[],"categories_segments":[],"categories_sizes":[],"default_left":[0,0,0,0,0,0,0,0,0,0,0,0,0,0,0,0,0,0,0,0,0,0,0,0,0,0,0,0,0,0,0,0,0,0,0,0,0,0,0,0,0,0,0,0,0,0,0,0,0,0,0,0,0],"id":22,"left_children":[1,3,5,7,9,11,13,15,17,19,21,23,25,27,29,31,-1,-1,-1,33,35,37,39,41,43,45,47,49,51,-1,-1,-1,-1,-1,-1,-1,-1,-1,-1,-1,-1,-1,-1,-1,-1,-1,-1,-1,-1,-1,-1,-1,-1],"loss_changes":[3.945718E0,4.5538216E0,6.1580634E0,3.091301E0,4.156169E0,3.8942785E0,1.0539048E1,3.2976913E-1,1.281854E0,3.7532687E0,1.046732E0,6.946866E0,3.2831016E0,5.32644E0,1.5697613E0,3.6097622E-1,0E0,0E0,0E0,2.780611E0,2.0787096E0,7.0840406E-1,4.0142113E-1,5.6815543E0,3.9969463E0,4.801056E0,3.4155858E0,4.064595E0,7.9560623E0,0E0,0E0,0E0,0E0,0E0,0E0,0E0,0E0,0E0,0E0,0E0,0E0,0E0,0E0,0E0,0E0,0E0,0E0,0E0,0E0,0E0,0E0,0E0,0E0],"parents":[2147483647,0,0,1,1,2,2,3,3,4,4,5,5,6,6,7,7,8,8,9,9,10,10,11,11,12,12,13,13,14,14,15,15,19,19,20,20,21,21,22,22,23,23,24,24,25,25,26,26,27,27,28,28],"right_children":[2,4,6,8,10,12,14,16,18,20,22,24,26,28,30,32,-1,-1,-1,34,36,38,40,42,44,46,48,50,52,-1,-1,-1,-1,-1,-1,-1,-1,-1,-1,-1,-1,-1,-1,-1,-1,-1,-1,-1,-1,-1,-1,-1,-1],"split_conditions":[9.8221487E-1,1.4798066E3,1.5231628E0,1.4850138E3,1.02066E-1,1.0274028E0,1.8037624E0,9.629712E-1,1.17411E0,1.1771886E0,-5.80756E1,4.7432704E0,5.724907E0,3.8940313E0,1.5734133E0,8.589272E-2,-7.1971393E-3,-1.4447739E-2,4.8526544E-2,-2.1079661E-1,8.093228E-1,2.8953773E-1,1.4823828E3,1.1771886E0,1.5508193E3,5.5361853E0,3.6653707E0,1.1419004E0,1.0408812E0,1.3648118E-1,3.7410166E-2,-7.582569E-3,-5.4095108E-2,8.387922E-3,5.6114957E-2,-2.783129E-3,-5.577917E-2,-2.8425995E-2,5.979302E-3,-1.4133771E-2,2.1326045E-2,-2.7531728E-2,5.6031875E-2,7.958331E-2,-1.0530214E-2,-2.2500905E-3,3.0384395E-2,1.9726679E-2,-2.721958E-2,9.535713E-3,8.8232584E-2,3.0474728E-2,-2.7674546E-2],"split_indices":[14,8,11,7,25,14,14,14,0,2,9,19,19,18,0,24,0,0,0,3,14,25,8,2,8,19,18,2,2,0,0,0,0,0,0,0,0,0,0,0,0,0,0,0,0,0,0,0,0,0,0,0,0],"split_type":[0,0,0,0,0,0,0,0,0,0,0,0,0,0,0,0,0,0,0,0,0,0,0,0,0,0,0,0,0,0,0,0,0,0,0,0,0,0,0,0,0,0,0,0,0,0,0,0,0,0,0,0,0],"sum_hessian":[5.72E2,9.5E1,4.77E2,1.8E1,7.7E1,4.32E2,4.5E1,1.5E1,3E0,4.6E1,3.1E1,2.2E1,4.1E2,4.1E1,4E0,1.4E1,1E0,2E0,1E0,1.9E1,2.7E1,2.8E1,3E0,1.3E1,9E0,3.73E2,3.7E1,9E0,3.2E1,2E0,2E0,1E0,1.3E1,1.3E1,6E0,2.5E1,2E0,2.6E1,2E0,1E0,2E0,1E1,3E0,7E0,2E0,3.57E2,1.6E1,6E0,3.1E1,5E0,4E0,1.5E1,1.7E1],"tree_param":{"num_deleted":"0","num_feature":"26","num_nodes":"53","size_leaf_vector":"1"}},{"base_weights":[2.1198068E-3,2.5813615E-2,-2.6731458E-1,4.9994815E-2,-4.2025566E-1,3.9707285E-1,-4.176349E-1,3.608134E-2,7.23973E-1,-5.0359523E-1,5.2397203E-2,-4.0116233E-1,8.9709446E-2,4.3540157E-2,-4.681477E-1,5.174155E-2,-4.978245E-1,-1.5605676E-1,1.336669E0,-5.1919837E-2,-3.247806E-1,-3.8482834E-2,-7.2424845E-3,-5.8555174E-1,-3.782944E-2,1.5659102E-3,3.9948065E-2,-4.2770114E-2,1.3074677E-2,1.0610164E-2,-1.7009338E-2,6.7876447E-3,9.35251E-2,-2.7169362E-2,7.4581117E-3,-2.3599695E-2,-5.4686602E-2,-3.0051755E-2,1.6629852E-2],"categories":[],"categories_nodes":[],"categories_segments":[],"categories_sizes":[],"default_left":[0,0,0,0,0,0,0,0,0,0,0,0,0,0,0,0,0,0,0,0,0,0,0,0,0,0,0,0,0,0,0,0,0,0,0,0,0,0,0],"id":23,"left_children":[1,3,5,7,9,11,13,15,17,19,-1,21,-1,-1,23,25,27,29,31,-1,33,-1,-1,35,37,-1,-1,-1,-1,-1,-1,-1,-1,-1,-1,-1,-1,-1,-1],"loss_changes":[3.6329706E0,5.6623454E0,4.7598944E0,4.634435E0,3.3504715E0,8.488569E0,2.534278E0,4.105964E0,5.600504E0,1.4007301E0,0E0,3.268016E-1,0E0,0E0,1.8471289E0,7.462144E0,2.309808E0,2.6223746E-1,1.4540272E0,0E0,1.1488147E0,0E0,0E0,1.4581804E0,1.4514936E0,0E0,0E0,0E0,0E0,0E0,0E0,0E0,0E0,0E0,0E0,0E0,0E0,0E0,0E0],"parents":[2147483647,0,0,1,1,2,2,3,3,4,4,5,5,6,6,7,7,8,8,9,9,11,11,14,14,15,15,16,16,17,17,18,18,20,20,23,23,24,24],"right_children":[2,4,6,8,10,12,14,16,18,20,-1,22,-1,-1,24,26,28,30,32,-1,34,-1,-1,36,38,-1,-1,-1,-1,-1,-1,-1,-1,-1,-1,-1,-1,-1,-1],"split_conditions":[5.724907E0,2.1937239E-1,-1.0274532E2,2.5723228E0,2.2809722E-1,1.440963E3,1.4290754E3,2.2286425E0,3.620061E0,2.2970946E-1,5.2397203E-2,9.117909E-1,8.9709446E-2,4.3540157E-2,1.4445856E0,2.1100507E0,1.0105085E0,1.569936E3,1.5845023E3,-5.1919837E-2,5.2783403E0,-3.8482834E-2,-7.2424845E-3,1.5229285E0,1.4835752E3,1.5659102E-3,3.9948065E-2,-4.2770114E-2,1.3074677E-2,1.0610164E-2,-1.7009338E-2,6.7876447E-3,9.35251E-2,-2.7169362E-2,7.4581117E-3,-2.3599695E-2,-5.4686602E-2,-3.0051755E-2,1.6629852E-2],"split_indices":[19,25,9,0,24,7,7,2,19,25,0,14,0,0,0,2,1,7,7,0,19,0,0,14,8,0,0,0,0,0,0,0,0,0,0,0,0,0,0],"split_type":[0,0,0,0,0,0,0,0,0,0,0,0,0,0,0,0,0,0,0,0,0,0,0,0,0,0,0,0,0,0,0,0,0,0,0,0,0,0,0],"sum_hessian":[5.67E2,5.22E2,4.5E1,4.96E2,2.6E1,8E0,3.7E1,4.87E2,9E0,2.5E1,1E0,5E0,3E0,1E0,3.6E1,4.74E2,1.3E1,4E0,5E0,7E0,1.8E1,2E0,3E0,2.8E1,8E0,4.56E2,1.8E1,1E1,3E0,1E0,3E0,1E0,4E0,1.4E1,4E0,1.9E1,9E0,3E0,5E0],"tree_param":{"num_deleted":"0","num_feature":"26","num_nodes":"39","size_leaf_vector":"1"}},{"base_weights":[2.257867E-2,-4.1671404E-1,3.577973E-2,-6.167603E-1,-4.2825036E-2,-6.6389585E-1,4.3225657E-2,-7.1143293E-1,9.898961E-3,-1.6318259E-1,1.0322754E-2,-4.6113715E-2,-4.216969E-3,3.4113694E-2,6.665478E-1,-8.214292E-1,-1.0857914E-2,8.761214E-3,-2.7698836E-1,6.188419E-2,-2.8791577E-1,7.9413995E-2,2.2694713E-1,-1.2234074E-2,-5.283112E-2,-1.9837065E-2,-3.4830058E-3,4.865519E-3,-2.626455E-2,7.521395E-3,-3.0359998E-2,2.9277518E-2,-1.1803036E-2],"categories":[],"categories_nodes":[],"categories_segments":[],"categories_sizes":[],"default_left":[0,0,0,0,0,0,0,0,0,0,0,0,0,0,0,0,0,0,0,0,0,0,0,0,0,0,0,0,0,0,0,0,0],"id":24,"left_children":[1,3,5,7,9,11,13,15,-1,17,-1,-1,-1,19,21,23,-1,-1,25,27,29,-1,31,-1,-1,-1,-1,-1,-1,-1,-1,-1,-1],"loss_changes":[3.3784049E0,1.2451043E0,2.9669871E0,9.3147993E-1,2.091043E-1,3.1877017E-1,3.1522067E0,4.3484402E-1,0E0,2.163912E-1,0E0,0E0,0E0,4.954308E0,2.0102274E0,1.1237669E-1,0E0,0E0,2.7773708E-2,4.9202294E0,4.02907E0,0E0,7.5947756E-1,0E0,0E0,0E0,0E0,0E0,0E0,0E0,0E0,0E0,0E0],"parents":[2147483647,0,0,1,1,2,2,3,3,4,4,5,5,6,6,7,7,9,9,13,13,14,14,15,15,18,18,19,19,20,20,22,22],"right_children":[2,4,6,8,10,12,14,16,-1,18,-1,-1,-1,20,22,24,-1,-1,26,28,30,-1,32,-1,-1,-1,-1,-1,-1,-1,-1,-1,-1],"split_conditions":[1.4122561E3,1.6607991E-1,6.8009955E-1,2.503419E0,5.162964E0,1.5301526E3,2.8953773E-1,2.2454323E-1,9.898961E-3,3.6429377E0,1.0322754E-2,-4.6113715E-2,-4.216969E-3,5.724907E0,2.9806927E-1,2.7092109E0,-1.0857914E-2,8.761214E-3,1.4059923E3,2.1585746E-1,-6.3469517E1,7.9413995E-2,1.3188527E0,-1.2234074E-2,-5.283112E-2,-1.9837065E-2,-3.4830058E-3,4.865519E-3,-2.626455E-2,7.521395E-3,-3.0359998E-2,2.9277518E-2,-1.1803036E-2],"split_indices":[8,24,0,14,18,8,25,25,0,18,0,0,0,19,25,19,0,0,8,25,9,0,14,0,0,0,0,0,0,0,0,0,0],"split_type":[0,0,0,0,0,0,0,0,0,0,0,0,0,0,0,0,0,0,0,0,0,0,0,0,0,0,0,0,0,0,0,0,0],"sum_hessian":[5.79E2,1.6E1,5.63E2,1E1,6E0,5E0,5.58E2,9E0,1E0,4E0,2E0,4E0,1E0,5.51E2,7E0,7E0,2E0,1E0,3E0,5.08E2,4.3E1,2E0,5E0,1E0,6E0,2E0,1E0,4.9E2,1.8E1,1.5E1,2.8E1,3E0,2E0],"tree_param":{"num_deleted":"0","num_feature":"26","num_nodes":"33","size_leaf_vector":"1"}},{"base_weights":[-1.5235745E-4,-4.529115E-1,1.44269215E-2,2.8157684E-1,-5.6232107E-1,-2.1373212E-1,4.1777153E-2,4.120601E-3,2.1221315E-2,-7.391617E-2,-7.776037E-1,-7.475057E-1,-1.1723801E-1,3.1820023E-1,-9.293243E-3,-2.9867304E-2,5.1588553E-1,-5.2464694E-2,-1.3678717E-2,-5.0357018E-2,-3.9846537E-4,5.9074353E-2,-5.1763296E-1,1.3829577E-1,8.330084E-1,9.43441E-3,-4.5710865E-1,4.1356657E-2,5.0730407E-3,-5.494345E-3,4.3067105E-2,-8.929426E-3,-4.3442164E-2,1.8077831E-4,6.85694E-2,-5.060465E-3,8.709619E-2,-1.7587529E-3,2.0811712E-2,2.3879578E-2,-3.58593E-2],"categories":[],"categories_nodes":[],"categories_segments":[],"categories_sizes":[],"default_left":[0,0,0,0,0,0,0,0,0,0,0,0,0,0,0,0,0,0,0,0,0,0,0,0,0,0,0,0,0,0,0,0,0,0,0,0,0,0,0,0,0],"id":25,"left_children":[1,3,5,7,9,11,13,-1,-1,15,17,19,21,23,25,-1,27,-1,-1,-1,-1,29,31,33,35,37,39,-1,-1,-1,-1,-1,-1,-1,-1,-1,-1,-1,-1,-1,-1],"loss_changes":[3.8086536E0,1.6048174E0,3.4972026E0,2.1767646E-2,1.6248441E0,3.0027244E0,7.0614753E0,0E0,0E0,1.7568053E0,3.859415E-1,6.063814E-1,3.701497E0,7.1088686E0,3.5518155E0,0E0,1.6609126E-1,0E0,0E0,0E0,0E0,3.7373374E0,1.1102204E0,8.0143795E0,1.1471781E1,5.3314023E0,2.2809474E0,0E0,0E0,0E0,0E0,0E0,0E0,0E0,0E0,0E0,0E0,0E0,0E0,0E0,0E0],"parents":[2147483647,0,0,1,1,2,2,3,3,4,4,5,5,6,6,9,9,10,10,11,11,12,12,13,13,14,14,16,16,21,21,22,22,23,23,24,24,25,25,26,26],"right_children":[2,4,6,8,10,12,14,-1,-1,16,18,20,22,24,26,-1,28,-1,-1,-1,-1,30,32,34,36,38,40,-1,-1,-1,-1,-1,-1,-1,-1,-1,-1,-1,-1,-1,-1],"split_conditions":[7.812292E-1,1.3885977E3,5.242593E-1,6.992262E-1,4.2681637E0,3.4704885E0,8.1812316E-1,4.120601E-3,2.1221315E-2,7.2280216E-1,5.182815E0,2.1772802E0,3.9752635E-1,5.729712E0,2.2286425E0,-2.9867304E-2,7.4335945E-1,-5.2464694E-2,-1.3678717E-2,-5.0357018E-2,-3.9846537E-4,5.2267056E0,4.4404793E0,8.0863047E-1,3.6808677E0,8.015124E-1,1.5806699E3,4.1356657E-2,5.0730407E-3,-5.494345E-3,4.3067105E-2,-8.929426E-3,-4.3442164E-2,1.8077831E-4,6.85694E-2,-5.060465E-3,8.709619E-2,-1.7587529E-3,2.0811712E-2,2.3879578E-2,-3.58593E-2],"split_indices":[0,7,15,0,18,19,15,0,0,0,18,2,15,18,2,0,0,0,0,0,0,18,18,15,19,3,7,0,0,0,0,0,0,0,0,0,0,0,0,0,0],"split_type":[0,0,0,0,0,0,0,0,0,0,0,0,0,0,0,0,0,0,0,0,0,0,0,0,0,0,0,0,0,0,0,0,0,0,0,0,0,0,0,0,0],"sum_hessian":[5.75E2,1.7E1,5.58E2,2E0,1.5E1,5.9E1,4.99E2,1E0,1E0,5E0,1E1,8E0,5.1E1,7.7E1,4.22E2,3E0,2E0,8E0,2E0,7E0,1E0,3.6E1,1.5E1,5.8E1,1.9E1,4.06E2,1.6E1,1E0,1E0,3E1,6E0,6E0,9E0,5.2E1,6E0,8E0,1.1E1,3.65E2,4.1E1,2E0,1.4E1],"tree_param":{"num_deleted":"0","num_feature":"26","num_nodes":"41","size_leaf_vector":"1"}},{"base_weights":[-9.886416E-3,-1.9512662E-1,2.2913057E-2,1.175396E-1,-3.920233E-1,-5.7167844E-3,2.8427947E-1,-3.3656445E-1,2.9447964E-1,6.3895755E-2,-4.4052103E-1,-1.7183142E-2,8.246359E-1,6.6041744E-1,-3.2732215E-2,1.7018072E-2,-5.270685E-1,-3.5946125E-1,4.3615702E-1,-6.718936E-1,-1.4259079E-1,8.711032E-1,-2.7472092E-2,7.9120435E-2,-1.0896015E-1,9.842355E-2,2.756958E-1,-1.6162583E-1,6.3137524E-2,-1.7224051E-2,-4.9882855E-2,9.812879E-3,-4.5759004E-2,3.838858E-2,-3.7529834E-3,-4.2623766E-2,1.2185301E-2,3.9891087E-2,-3.0850552E-2,8.430842E-2,-3.7951373E-2,-2.2213433E-3,3.921516E-2,5.8136987E-3,-1.5620112E-2,4.2425105E-3,7.252401E-2,2.8489804E-2,-2.6130956E-2],"categories":[],"categories_nodes":[],"categories_segments":[],"categories_sizes":[],"default_left":[0,0,0,0,0,0,0,0,0,0,0,0,0,0,0,0,0,0,0,0,0,0,0,0,0,0,0,0,0,0,0,0,0,0,0,0,0,0,0,0,0,0,0,0,0,0,0,0,0],"id":26,"left_children":[1,3,5,7,9,11,13,15,17,-1,19,21,23,25,27,-1,29,31,33,35,37,39,41,-1,43,-1,45,47,-1,-1,-1,-1,-1,-1,-1,-1,-1,-1,-1,-1,-1,-1,-1,-1,-1,-1,-1,-1,-1],"loss_changes":[3.4737418E0,5.3404913E0,3.6383045E0,2.8309836E0,4.2140436E0,4.193942E0,5.745143E0,1.3309991E0,2.4729972E0,0E0,3.4887047E0,3.9904888E0,2.9110746E0,7.8421392E0,3.9461007E0,0E0,3.4561968E-1,1.1790873E0,2.1728415E0,1.1212549E0,7.542655E0,4.903745E0,2.8210492E0,0E0,1.1870916E-1,0E0,3.1659672E0,4.56477E0,0E0,0E0,0E0,0E0,0E0,0E0,0E0,0E0,0E0,0E0,0E0,0E0,0E0,0E0,0E0,0E0,0E0,0E0,0E0,0E0,0E0],"parents":[2147483647,0,0,1,1,2,2,3,3,4,4,5,5,6,6,7,7,8,8,10,10,11,11,12,12,13,13,14,14,16,16,17,17,18,18,19,19,20,20,21,21,22,22,24,24,26,26,27,27],"right_children":[2,4,6,8,10,12,14,16,18,-1,20,22,24,26,28,-1,30,32,34,36,38,40,42,-1,44,-1,46,48,-1,-1,-1,-1,-1,-1,-1,-1,-1,-1,-1,-1,-1,-1,-1,-1,-1,-1,-1,-1,-1],"split_conditions":[3.5798397E0,3.029383E0,5.836577E0,1.1930944E0,1.0388794E0,2.4681163E0,1.1135973E0,1.1957707E0,5.242593E-1,6.3895755E-2,4.194221E1,3.620061E0,2.779995E0,1.3656585E0,7.15434E0,1.7018072E-2,1.1906066E0,1.4581295E3,8.514995E1,1.2614002E0,1.555984E3,1.5010478E0,1.6131533E3,7.9120435E-2,2.794351E0,9.842355E-2,2.1813348E-1,5.9855404E0,6.3137524E-2,-1.7224051E-2,-4.9882855E-2,9.812879E-3,-4.5759004E-2,3.838858E-2,-3.7529834E-3,-4.2623766E-2,1.2185301E-2,3.9891087E-2,-3.0850552E-2,8.430842E-2,-3.7951373E-2,-2.2213433E-3,3.921516E-2,5.8136987E-3,-1.5620112E-2,4.2425105E-3,7.252401E-2,2.8489804E-2,-2.6130956E-2],"split_indices":[19,19,18,0,0,0,15,2,15,0,9,19,0,14,18,0,1,8,9,10,7,0,7,0,0,0,24,18,0,0,0,0,0,0,0,0,0,0,0,0,0,0,0,0,0,0,0,0,0],"split_type":[0,0,0,0,0,0,0,0,0,0,0,0,0,0,0,0,0,0,0,0,0,0,0,0,0,0,0,0,0,0,0,0,0,0,0,0,0,0,0,0,0,0,0,0,0,0,0,0,0],"sum_hessian":[5.7E2,8.5E1,4.85E2,3.3E1,5.2E1,4.38E2,4.7E1,9E0,2.4E1,1E0,5.1E1,4.33E2,5E0,2.1E1,2.6E1,2E0,7E0,4E0,2E1,2.8E1,2.3E1,4E0,4.29E2,3E0,2E0,5E0,1.6E1,2.4E1,2E0,5E0,2E0,2E0,2E0,1.4E1,6E0,2.7E1,1E0,7E0,1.6E1,3E0,1E0,4.24E2,5E0,1E0,1E0,1.4E1,2E0,7E0,1.7E1],"tree_param":{"num_deleted":"0","num_feature":"26","num_nodes":"49","size_leaf_vector":"1"}},{"base_weights":[1.7950756E-2,-2.5867337E-1,3.963349E-2,-8.337001E-2,-5.6866145E-1,-4.550125E-2,1.312142E-1,-3.0040106E-1,4.9675778E-1,-6.453047E-1,-4.698682E-2,8.5476525E-3,-3.331374E-1,9.134602E-1,1.0252849E-1,-9.504841E-3,-6.872066E-1,1.3842876E-2,4.2307336E-2,-6.746525E-1,-8.793937E-3,-1.2324568E-2,8.095754E-3,3.846226E-1,-4.6262037E-2,-7.583268E-1,-9.609092E-3,2.635401E-1,1.3806882E0,7.2385347E-1,7.6321945E-2,2.8017092E-2,-1.1948215E-2,-4.8907038E-2,-1.9412333E-2,-1.0875803E-2,-4.2181652E-2,3.541202E-2,-3.216331E-2,-1.8630644E-2,2.2912961E-3,-5.3583406E-2,-1.2148284E-2,-1.2002893E-2,4.9814694E-2,2.439361E-2,-9.25621E-3,2.2141635E-2,9.24808E-2,-6.5994374E-3,6.5815695E-2,9.6001837E-4,2.0322036E-2],"categories":[],"categories_nodes":[],"categories_segments":[],"categories_sizes":[],"default_left":[0,0,0,0,0,0,0,0,0,0,0,0,0,0,0,0,0,0,0,0,0,0,0,0,0,0,0,0,0,0,0,0,0,0,0,0,0,0,0,0,0,0,0,0,0,0,0,0,0,0,0,0,0],"id":27,"left_children":[1,3,5,7,9,11,13,15,17,19,21,23,25,27,29,31,33,-1,-1,35,-1,-1,-1,37,39,41,43,45,47,49,51,-1,-1,-1,-1,-1,-1,-1,-1,-1,-1,-1,-1,-1,-1,-1,-1,-1,-1,-1,-1,-1,-1],"loss_changes":[3.4650812E0,2.234953E0,4.177205E0,3.6745875E0,5.6942225E-1,4.324752E0,5.695678E0,2.3563943E0,2.8078973E-1,9.1398716E-2,1.1417461E-1,4.861743E0,6.045388E0,2.369082E0,4.0154495E0,1.2675556E0,1.5493011E-1,0E0,0E0,4.0565968E-2,0E0,0E0,0E0,5.994508E0,4.6089306E0,1.2420988E0,4.3245564E0,3.614964E-1,2.4386024E-1,3.231513E0,3.8089151E0,0E0,0E0,0E0,0E0,0E0,0E0,0E0,0E0,0E0,0E0,0E0,0E0,0E0,0E0,0E0,0E0,0E0,0E0,0E0,0E0,0E0,0E0],"parents":[2147483647,0,0,1,1,2,2,3,3,4,4,5,5,6,6,7,7,8,8,9,9,10,10,11,11,12,12,13,13,14,14,15,15,16,16,19,19,23,23,24,24,25,25,26,26,27,27,28,28,29,29,30,30],"right_children":[2,4,6,8,10,12,14,16,18,20,22,24,26,28,30,32,34,-1,-1,36,-1,-1,-1,38,40,42,44,46,48,50,52,-1,-1,-1,-1,-1,-1,-1,-1,-1,-1,-1,-1,-1,-1,-1,-1,-1,-1,-1,-1,-1,-1],"split_conditions":[1.4321364E3,1.5659324E3,5.0195713E0,1.6035967E0,1.6607991E-1,4.9079165E0,5.0433908E0,4.670795E0,1.2810211E0,2.503419E0,2.1426935E0,8.15942E-1,4.735776E0,4.0795007E0,6.6386944E-1,1.2650444E1,1.0020546E-1,1.3842876E-2,4.2307336E-2,9.097601E-2,-8.793937E-3,-1.2324568E-2,8.095754E-3,5.6472473E0,1.0719358E0,2E0,1.5020999E3,1.6923573E0,5.52065E-1,8.73862E-1,1.986119E0,2.8017092E-2,-1.1948215E-2,-4.8907038E-2,-1.9412333E-2,-1.0875803E-2,-4.2181652E-2,3.541202E-2,-3.216331E-2,-1.8630644E-2,2.2912961E-3,-5.3583406E-2,-1.2148284E-2,-1.2002893E-2,4.9814694E-2,2.439361E-2,-9.25621E-3,2.2141635E-2,9.24808E-2,-6.5994374E-3,6.5815695E-2,9.6001837E-4,2.0322036E-2],"split_indices":[8,7,18,0,24,18,18,18,10,14,0,15,19,19,14,9,24,0,0,24,0,0,0,19,15,14,7,2,14,0,0,0,0,0,0,0,0,0,0,0,0,0,0,0,0,0,0,0,0,0,0,0,0],"split_type":[0,0,0,0,0,0,0,0,0,0,0,0,0,0,0,0,0,0,0,0,0,0,0,0,0,0,0,0,0,0,0,0,0,0,0,0,0,0,0,0,0,0,0,0,0,0,0,0,0,0,0,0,0],"sum_hessian":[5.75E2,4.1E1,5.34E2,2.7E1,1.4E1,2.77E2,2.57E2,2E1,7E0,1.2E1,2E0,2.34E2,4.3E1,8E0,2.49E2,1.2E1,8E0,4E0,3E0,1.1E1,1E0,1E0,1E0,2.9E1,2.05E2,1.8E1,2.5E1,4E0,4E0,9E0,2.4E2,3E0,9E0,5E0,3E0,1E0,1E1,2.4E1,5E0,4.9E1,1.56E2,1.4E1,4E0,2.1E1,4E0,3E0,1E0,1E0,3E0,3E0,6E0,1.96E2,4.4E1],"tree_param":{"num_deleted":"0","num_feature":"26","num_nodes":"53","size_leaf_vector":"1"}},{"base_weights":[4.6725883E-3,4.6400856E-2,-1.2637626E-1,1.4069646E-2,8.2532597E-1,-4.2558828E-1,1.184175E-2,-4.2981333E-3,8.3497465E-1,1.5656364E-1,4.134906E-1,-3.9856907E-2,-6.1042905E-1,-1.999809E-2,8.9188404E-2,2.1769535E-2,-6.3617045E-1,-2.1054776E-2,8.918423E-2,7.380696E-1,-3.8328123E-1,3.2227373E-1,-6.367652E-1,1.873646E-2,-6.9034314E-1,-5.854578E-1,5.518329E-2,-7.3646655E-4,1.7711911E-2,-5.5648416E-2,-1.37359835E-2,5.6962036E-2,-8.510811E-3,-3.6782548E-2,1.6072916E-2,-1.9667078E-2,3.8861793E-2,-5.5067666E-2,-1.6008113E-2,-4.4299565E-2,1.6716449E-2,-3.8812894E-2,8.634031E-4,1.584098E-2,-1.5212829E-2],"categories":[],"categories_nodes":[],"categories_segments":[],"categories_sizes":[],"default_left":[0,0,0,0,0,0,0,0,0,0,0,0,0,0,0,0,0,0,0,0,0,0,0,0,0,0,0,0,0,0,0,0,0,0,0,0,0,0,0,0,0,0,0,0,0],"id":28,"left_children":[1,3,5,7,9,11,13,15,17,-1,19,21,23,25,-1,27,29,-1,-1,31,33,35,37,-1,39,41,43,-1,-1,-1,-1,-1,-1,-1,-1,-1,-1,-1,-1,-1,-1,-1,-1,-1,-1],"loss_changes":[3.0791278E0,1.0741782E1,5.6295223E0,6.20073E0,1.141166E1,3.041521E0,4.443218E0,6.6518383E0,7.474296E0,0E0,4.162119E0,3.4475946E0,2.3539495E0,3.9859276E0,0E0,3.615364E0,1.6857429E0,0E0,0E0,2.179833E0,9.1228336E-1,2.327743E0,3.7895393E-1,0E0,1.4610195E0,4.1460323E-1,5.4182096E0,0E0,0E0,0E0,0E0,0E0,0E0,0E0,0E0,0E0,0E0,0E0,0E0,0E0,0E0,0E0,0E0,0E0,0E0],"parents":[2147483647,0,0,1,1,2,2,3,3,4,4,5,5,6,6,7,7,8,8,10,10,11,11,12,12,13,13,15,15,16,16,19,19,20,20,21,21,22,22,24,24,25,25,26,26],"right_children":[2,4,6,8,10,12,14,16,18,-1,20,22,24,26,-1,28,30,-1,-1,32,34,36,38,-1,40,42,44,-1,-1,-1,-1,-1,-1,-1,-1,-1,-1,-1,-1,-1,-1,-1,-1,-1,-1],"split_conditions":[1.8212891E0,1.776827E0,1.9627962E0,7.827212E-1,1.7851309E0,1.4665352E3,1.3937134E0,1.5512506E3,1.2E0,1.5656364E-1,1.21506296E-1,1.8967745E0,9.253123E-2,1.6230297E0,8.9188404E-2,1.5537841E0,5.0195713E0,-2.1054776E-2,8.918423E-2,1.0719358E0,1.2E0,1.5111555E3,7.827212E-1,1.873646E-2,1.9358202E0,2.1772802E0,1.9940256E0,-7.3646655E-4,1.7711911E-2,-5.5648416E-2,-1.37359835E-2,5.6962036E-2,-8.510811E-3,-3.6782548E-2,1.6072916E-2,-1.9667078E-2,3.8861793E-2,-5.5067666E-2,-1.6008113E-2,-4.4299565E-2,1.6716449E-2,-3.8812894E-2,8.634031E-4,1.584098E-2,-1.5212829E-2],"split_indices":[2,2,2,3,2,8,1,7,10,0,24,2,24,0,0,0,18,0,0,15,1,7,3,0,15,2,14,0,0,0,0,0,0,0,0,0,0,0,0,0,0,0,0,0,0],"split_type":[0,0,0,0,0,0,0,0,0,0,0,0,0,0,0,0,0,0,0,0,0,0,0,0,0,0,0,0,0,0,0,0,0,0,0,0,0,0,0,0,0,0,0,0,0],"sum_hessian":[5.61E2,4.26E2,1.35E2,4.1E2,1.6E1,4.2E1,9.3E1,4.02E2,8E0,2E0,1.4E1,1.4E1,2.8E1,9.2E1,1E0,3.87E2,1.5E1,3E0,5E0,1E1,4E0,9E0,5E0,2E0,2.6E1,1E1,8.2E1,3.45E2,4.2E1,8E0,7E0,8E0,2E0,3E0,1E0,3E0,6E0,2E0,3E0,2.5E1,1E0,9E0,1E0,4.9E1,3.3E1],"tree_param":{"num_deleted":"0","num_feature":"26","num_nodes":"45","size_leaf_vector":"1"}},{"base_weights":[3.4960568E-2,2.046473E-2,5.095613E-1,3.1147705E-2,-6.358447E-1,-4.498678E-2,1.3081995E0,1.384642E-2,6.484572E-1,6.8884776E-3,-7.4402726E-1,4.7944993E-2,-2.093021E-1,1.3434272E-1,4.8805213E-1,4.3636315E-2,-3.2940575E-1,9.4021845E-1,-2.3336448E-2,-4.773374E-2,-1.14984475E-2,2.3526058E-1,-5.448873E-1,-9.453753E-3,4.133079E-2,2.044493E-3,5.8430497E-2,-1.16645275E-2,-5.9754193E-2,6.5212026E-2,-2.0187499E-2,-1.459685E-2,2.4942968E-2,1.0938999E-2,-4.3607485E-2],"categories":[],"categories_nodes":[],"categories_segments":[],"categories_sizes":[],"default_left":[0,0,0,0,0,0,0,0,0,0,0,0,0,0,0,0,0,0,0,0,0,0,0,0,0,0,0,0,0,0,0,0,0,0,0],"id":29,"left_children":[1,3,5,7,9,11,13,15,17,-1,19,-1,21,-1,23,25,27,29,-1,-1,-1,31,33,-1,-1,-1,-1,-1,-1,-1,-1,-1,-1,-1,-1],"loss_changes":[3.94542E0,3.939143E0,7.5878663E0,5.875838E0,8.162885E-1,1.6928799E0,4.2512445E0,5.5054393E0,4.905777E0,0E0,7.52759E-2,0E0,1.6200774E0,0E0,7.5671506E-1,4.3693933E0,3.6753182E0,2.61236E0,0E0,0E0,0E0,5.329131E-1,9.2619455E-1,0E0,0E0,0E0,0E0,0E0,0E0,0E0,0E0,0E0,0E0,0E0,0E0],"parents":[2147483647,0,0,1,1,2,2,3,3,4,4,5,5,6,6,7,7,8,8,10,10,12,12,14,14,15,15,16,16,17,17,21,21,22,22],"right_children":[2,4,6,8,10,12,14,16,18,-1,20,-1,22,-1,24,26,28,30,-1,-1,-1,32,34,-1,-1,-1,-1,-1,-1,-1,-1,-1,-1,-1,-1],"split_conditions":[2.1813348E-1,1.9959086E-1,1.6770036E0,1.8090816E-1,3.6429377E0,9.211542E-1,1.5061027E3,1.0487526E2,1.5508193E3,6.8884776E-3,1.916391E0,4.7944993E-2,1.2475067E0,1.3434272E-1,9.1563505E-1,1.6293014E3,1.1686623E0,8.666464E-1,-2.3336448E-2,-4.773374E-2,-1.14984475E-2,1.4059923E3,1.4364987E3,-9.453753E-3,4.133079E-2,2.044493E-3,5.8430497E-2,-1.16645275E-2,-5.9754193E-2,6.5212026E-2,-2.0187499E-2,-1.459685E-2,2.4942968E-2,1.0938999E-2,-4.3607485E-2],"split_indices":[24,24,14,24,18,1,8,9,8,0,0,0,2,0,1,7,15,3,0,0,0,8,8,0,0,0,0,0,0,0,0,0,0,0,0],"split_type":[0,0,0,0,0,0,0,0,0,0,0,0,0,0,0,0,0,0,0,0,0,0,0,0,0,0,0,0,0,0,0,0,0,0,0],"sum_hessian":[5.74E2,5.58E2,1.6E1,5.5E2,8E0,1E1,6E0,5.36E2,1.4E1,1E0,7E0,1E0,9E0,2E0,4E0,4.94E2,4.2E1,1.1E1,3E0,6E0,1E0,4E0,5E0,1E0,3E0,4.9E2,4E0,3.6E1,6E0,1E1,1E0,1E0,3E0,1E0,4E0],"tree_param":{"num_deleted":"0","num_feature":"26","num_nodes":"35","size_leaf_vector":"1"}},{"base_weights":[1.0464852E-2,-6.2023308E-2,9.361376E-2,-7.990935E-2,5.470316E-1,1.0044768E0,6.565725E-2,3.079927E-1,-1.12872705E-1,1.7590438E-1,7.3839076E-2,3.8592184E-1,1.2984253E0,6.265497E-1,4.1108135E-2,6.8752056E-1,-2.9209837E-1,-6.3461095E-1,-9.519434E-2,2.96277E-2,-5.001087E-2,6.2183905E-3,2.6728153E-2,2.1438146E-2,8.666283E-2,-1.5991015E-2,8.54622E-1,8.7906055E-2,-4.5639294E-1,-1.40569415E-2,6.26412E-2,5.2663796E-3,-2.8046364E-2,-2.073089E-2,-4.780709E-2,-2.131799E-3,-1.5261399E-2,1.1512774E-2,-9.507203E-3,6.845513E-2,-5.8966754E-3,1.7949803E-2,2.6333093E-4,-1.1850191E-2,-4.8504002E-2],"categories":[],"categories_nodes":[],"categories_segments":[],"categories_sizes":[],"default_left":[0,0,0,0,0,0,0,0,0,0,0,0,0,0,0,0,0,0,0,0,0,0,0,0,0,0,0,0,0,0,0,0,0,0,0,0,0,0,0,0,0,0,0,0,0],"id":30,"left_children":[1,3,5,7,9,11,13,15,17,19,-1,21,23,25,27,29,31,33,35,-1,37,-1,-1,-1,-1,-1,39,41,43,-1,-1,-1,-1,-1,-1,-1,-1,-1,-1,-1,-1,-1,-1,-1,-1],"loss_changes":[3.5076737E0,3.4316168E0,6.834942E0,3.90909E0,2.0669117E0,9.53495E-1,3.6093686E0,5.666855E0,2.5221632E0,5.2740943E-1,0E0,2.1068275E-2,1.7072773E-1,2.4682922E0,5.953752E0,5.1739297E0,7.0709896E-1,1.4665365E-1,2.573961E0,0E0,1.6155998E-1,0E0,0E0,0E0,0E0,0E0,2.5674376E0,4.1096506E0,1.8452206E0,0E0,0E0,0E0,0E0,0E0,0E0,0E0,0E0,0E0,0E0,0E0,0E0,0E0,0E0,0E0,0E0],"parents":[2147483647,0,0,1,1,2,2,3,3,4,4,5,5,6,6,7,7,8,8,9,9,11,11,12,12,13,13,14,14,15,15,16,16,17,17,18,18,20,20,26,26,27,27,28,28],"right_children":[2,4,6,8,10,12,14,16,18,20,-1,22,24,26,28,30,32,34,36,-1,38,-1,-1,-1,-1,-1,40,42,44,-1,-1,-1,-1,-1,-1,-1,-1,-1,-1,-1,-1,-1,-1,-1,-1],"split_conditions":[5.0195713E0,2.8953773E-1,5.0433908E0,8.861469E-2,1.6607991E-1,4.0795007E0,6.6386944E-1,1.5774817E0,9.214871E-2,1.0388794E0,7.3839076E-2,8.917323E-1,5.52065E-1,8.2337713E-1,1.7387099E0,1.2300551E0,1.324682E0,4.242308E0,5.2570105E0,2.96277E-2,6.442721E-1,6.2183905E-3,2.6728153E-2,2.1438146E-2,8.666283E-2,-1.5991015E-2,1.0020546E-1,-1.5907525E1,-3.9170963E1,-1.40569415E-2,6.26412E-2,5.2663796E-3,-2.8046364E-2,-2.073089E-2,-4.780709E-2,-2.131799E-3,-1.5261399E-2,1.1512774E-2,-9.507203E-3,6.845513E-2,-5.8966754E-3,1.7949803E-2,2.6333093E-4,-1.1850191E-2,-4.8504002E-2],"split_indices":[18,25,18,24,24,19,14,1,24,10,0,1,14,2,15,11,15,18,19,0,14,0,0,0,0,0,24,9,9,0,0,0,0,0,0,0,0,0,0,0,0,0,0,0,0],"split_type":[0,0,0,0,0,0,0,0,0,0,0,0,0,0,0,0,0,0,0,0,0,0,0,0,0,0,0,0,0,0,0,0,0,0,0,0,0,0,0,0,0,0,0,0,0],"sum_hessian":[5.8E2,3.1E2,2.7E2,3.02E2,8E0,7E0,2.63E2,2.3E1,2.79E2,6E0,2E0,3E0,4E0,1E1,2.53E2,1.4E1,9E0,8E0,2.71E2,2E0,4E0,1E0,2E0,1E0,3E0,2E0,8E0,2.32E2,2.1E1,4E0,1E1,3E0,6E0,4E0,4E0,1.98E2,7.3E1,1E0,3E0,6E0,2E0,6.5E1,1.67E2,1.3E1,8E0],"tree_param":{"num_deleted":"0","num_feature":"26","num_nodes":"45","size_leaf_vector":"1"}},{"base_weights":[1.5197009E-2,-1.5218866E-1,4.445097E-2,2.6921383E-1,-2.568796E-1,1.896791E-2,3.7449598E-1,1.664499E0,-2.4833189E-1,-4.7250456E-1,-2.159378E-2,-1.1682536E-2,3.2218006E-1,8.2406706E-1,-1.2085659E-1,3.0765409E-2,1.3568449E-1,2.751417E-1,-5.9529215E-2,-3.1876114E-1,-8.5573566E-1,3.563442E-1,-4.4272482E-1,8.153084E-2,-2.1352129E-2,-2.1845745E-1,5.385061E-1,1.3142776E0,3.480704E-1,2.8586504E-1,-5.59341E-1,6.740217E-2,1.7215222E-3,1.1022651E-2,-2.3184372E-2,-2.1729654E-2,-5.603155E-2,1.24978805E-2,6.458946E-2,-5.461775E-2,-1.0322732E-2,-2.5188904E-3,2.2592075E-2,2.8022988E-2,-2.8248874E-2,4.546555E-2,1.3791847E-4,8.675107E-2,7.850672E-3,3.64427E-2,-3.275261E-2,-1.5331241E-2,2.7189095E-2,-3.940165E-2,6.5845367E-3],"categories":[],"categories_nodes":[],"categories_segments":[],"categories_sizes":[],"default_left":[0,0,0,0,0,0,0,0,0,0,0,0,0,0,0,0,0,0,0,0,0,0,0,0,0,0,0,0,0,0,0,0,0,0,0,0,0,0,0,0,0,0,0,0,0,0,0,0,0,0,0,0,0,0,0],"id":31,"left_children":[1,3,5,7,9,11,13,15,17,19,21,23,25,27,29,-1,-1,31,-1,33,35,37,39,-1,41,43,45,47,49,51,53,-1,-1,-1,-1,-1,-1,-1,-1,-1,-1,-1,-1,-1,-1,-1,-1,-1,-1,-1,-1,-1,-1,-1,-1],"loss_changes":[2.895814E0,3.951454E0,4.223406E0,1.3411579E1,3.591875E0,4.3531632E0,8.116655E0,2.277875E0,5.7241764E0,1.907237E0,5.7284117E0,5.6745644E0,5.146661E0,3.975974E0,3.370036E0,0E0,0E0,1.8491771E0,0E0,1.0227001E0,4.7390938E-2,1.8014541E0,1.9949384E0,0E0,3.4960651E0,2.4687986E0,3.6427784E0,1.2121944E0,2.8814378E0,1.021455E0,6.583035E-1,0E0,0E0,0E0,0E0,0E0,0E0,0E0,0E0,0E0,0E0,0E0,0E0,0E0,0E0,0E0,0E0,0E0,0E0,0E0,0E0,0E0,0E0,0E0,0E0],"parents":[2147483647,0,0,1,1,2,2,3,3,4,4,5,5,6,6,7,7,8,8,9,9,10,10,11,11,12,12,13,13,14,14,17,17,19,19,20,20,21,21,22,22,24,24,25,25,26,26,27,27,28,28,29,29,30,30],"right_children":[2,4,6,8,10,12,14,16,18,20,22,24,26,28,30,-1,-1,32,-1,34,36,38,40,-1,42,44,46,48,50,52,54,-1,-1,-1,-1,-1,-1,-1,-1,-1,-1,-1,-1,-1,-1,-1,-1,-1,-1,-1,-1,-1,-1,-1,-1],"split_conditions":[3.6103551E0,1.1683288E0,2.1074712E0,5.2864556E0,4.194221E1,5.8258734E0,1.6234793E-1,1.3806404E-1,3.2430527E0,3.4165466E0,1.5503887E3,3.620061E0,3.8284152E0,4.9204594E1,1.5826995E3,3.0765409E-2,1.3568449E-1,8.8602805E-1,-5.9529215E-2,1.2475067E0,4.5582113E0,7.4293786E-1,1.383324E0,8.153084E-2,1.7336184E-1,8.701787E-2,1.1932584E0,1.536233E-1,1.4458231E0,1.5669688E3,2.423812E0,6.740217E-2,1.7215222E-3,1.1022651E-2,-2.3184372E-2,-2.1729654E-2,-5.603155E-2,1.24978805E-2,6.458946E-2,-5.461775E-2,-1.0322732E-2,-2.5188904E-3,2.2592075E-2,2.8022988E-2,-2.8248874E-2,4.546555E-2,1.3791847E-4,8.675107E-2,7.850672E-3,3.64427E-2,-3.275261E-2,-1.5331241E-2,2.7189095E-2,-3.940165E-2,6.5845367E-3],"split_indices":[19,10,2,18,9,18,25,25,19,19,7,19,19,9,7,0,0,15,0,2,18,3,0,0,24,25,15,24,3,7,2,0,0,0,0,0,0,0,0,0,0,0,0,0,0,0,0,0,0,0,0,0,0,0,0],"split_type":[0,0,0,0,0,0,0,0,0,0,0,0,0,0,0,0,0,0,0,0,0,0,0,0,0,0,0,0,0,0,0,0,0,0,0,0,0,0,0,0,0,0,0,0,0,0,0,0,0,0,0,0,0,0,0],"sum_hessian":[5.89E2,8.7E1,5.02E2,1.7E1,7E1,4.67E2,3.5E1,4E0,1.3E1,3.6E1,3.4E1,4.25E2,4.2E1,1.8E1,1.7E1,2E0,2E0,8E0,5E0,2.7E1,9E0,1.8E1,1.6E1,2E0,4.23E2,1.2E1,3E1,8E0,1E1,9E0,8E0,1E0,7E0,3E0,2.4E1,2E0,7E0,1.6E1,2E0,5E0,1.1E1,4.03E2,2E1,3E0,9E0,2.1E1,9E0,7E0,1E0,8E0,2E0,2E0,7E0,7E0,1E0],"tree_param":{"num_deleted":"0","num_feature":"26","num_nodes":"55","size_leaf_vector":"1"}},{"base_weights":[2.1972079E-2,4.377997E-2,-2.8104714E-1,-4.384174E-2,1.1553923E-1,-4.3092743E-1,5.9013563E-1,3.0984633E-4,-5.527631E-1,-3.9445844E-1,1.5073928E-1,-2.2341001E-1,-8.858765E-1,-9.010029E-2,5.716672E-2,5.1514383E-2,-3.676157E-1,-6.367184E-1,2.8752958E-2,-5.6864756E-1,4.3445963E-2,6.8219584E-1,1.0585307E-1,-8.646159E-2,-7.265217E-1,-9.6941197E-1,-4.0217005E-3,1.2038122E-2,-2.0147149E-2,3.250374E-2,7.9875713E-4,9.457169E-3,-3.1511314E-2,3.2743358E-3,-4.359243E-2,-8.116186E-3,-3.9111126E-2,1.1543862E-1,1.0433439E-2,-1.7983994E-2,8.873861E-3,-1.5995037E-2,1.3022696E-2,-1.929646E-2,-5.3355705E-2,-6.33309E-2,-8.417608E-3],"categories":[],"categories_nodes":[],"categories_segments":[],"categories_sizes":[],"default_left":[0,0,0,0,0,0,0,0,0,0,0,0,0,0,0,0,0,0,0,0,0,0,0,0,0,0,0,0,0,0,0,0,0,0,0,0,0,0,0,0,0,0,0,0,0,0,0],"id":32,"left_children":[1,3,5,7,9,11,13,15,17,19,21,23,25,27,-1,29,31,33,-1,35,-1,37,39,41,43,45,-1,-1,-1,-1,-1,-1,-1,-1,-1,-1,-1,-1,-1,-1,-1,-1,-1,-1,-1,-1,-1],"loss_changes":[3.739334E0,3.318667E0,5.2160835E0,5.347956E0,5.265526E0,2.9176106E0,1.5659428E0,4.163618E0,1.9512873E0,4.1137285E0,6.416367E0,1.5907921E0,6.19051E-1,2.8165913E-1,0E0,3.6258383E0,2.3173764E0,1.1573257E0,0E0,5.248275E-1,0E0,1.2920715E1,4.341615E0,1.1512269E0,4.3485165E-2,4.9442577E-1,0E0,0E0,0E0,0E0,0E0,0E0,0E0,0E0,0E0,0E0,0E0,0E0,0E0,0E0,0E0,0E0,0E0,0E0,0E0,0E0,0E0],"parents":[2147483647,0,0,1,1,2,2,3,3,4,4,5,5,6,6,7,7,8,8,9,9,10,10,11,11,12,12,13,13,15,15,16,16,17,17,19,19,21,21,22,22,23,23,24,24,25,25],"right_children":[2,4,6,8,10,12,14,16,18,20,22,24,26,28,-1,30,32,34,-1,36,-1,38,40,42,44,46,-1,-1,-1,-1,-1,-1,-1,-1,-1,-1,-1,-1,-1,-1,-1,-1,-1,-1,-1,-1,-1],"split_conditions":[2.3755412E0,1.315873E0,6.944255E0,1.5325745E3,1.1597595E0,4.6719656E0,3.620061E0,1.8116038E0,2.0549433E0,1.9397144E0,1.4051014E0,1.3427474E0,1.4412104E0,2.3217576E0,5.716672E-2,9.357893E-2,1.4600492E3,1.4289732E0,2.8752958E-2,3.9077487E0,4.3445963E-2,1.0105085E0,-6.319541E1,4.012574E0,1.8108712E0,5.7460895E0,-4.0217005E-3,1.2038122E-2,-2.0147149E-2,3.250374E-2,7.9875713E-4,9.457169E-3,-3.1511314E-2,3.2743358E-3,-4.359243E-2,-8.116186E-3,-3.9111126E-2,1.1543862E-1,1.0433439E-2,-1.7983994E-2,8.873861E-3,-1.5995037E-2,1.3022696E-2,-1.929646E-2,-5.3355705E-2,-6.33309E-2,-8.417608E-3],"split_indices":[14,14,18,7,0,19,19,1,2,1,14,1,1,0,0,24,8,2,0,18,0,1,9,19,0,19,0,0,0,0,0,0,0,0,0,0,0,0,0,0,0,0,0,0,0,0,0],"split_type":[0,0,0,0,0,0,0,0,0,0,0,0,0,0,0,0,0,0,0,0,0,0,0,0,0,0,0,0,0,0,0,0,0,0,0,0,0,0,0,0,0,0,0,0,0,0,0],"sum_hessian":[5.63E2,5.26E2,3.7E1,2.37E2,2.89E2,3.2E1,5E0,2.19E2,1.8E1,1.8E1,2.71E2,2.3E1,9E0,2E0,3E0,1.93E2,2.6E1,1.7E1,1E0,1.6E1,2E0,2E1,2.51E2,1.9E1,4E0,8E0,1E0,1E0,1E0,1.3E1,1.8E2,6E0,2E1,2E0,1.5E1,3E0,1.3E1,5E0,1.5E1,2.3E1,2.28E2,1.2E1,7E0,2E0,2E0,7E0,1E0],"tree_param":{"num_deleted":"0","num_feature":"26","num_nodes":"47","size_leaf_vector":"1"}},{"base_weights":[-2.0695676E-3,4.8695505E-2,-1.0520036E-1,5.2061263E-3,5.4374534E-1,3.4634018E-1,-1.6068645E-1,-7.250454E-1,1.9880133E-2,1.5304501E0,1.921877E-1,1.005379E0,-1.3655895E-1,-4.5337528E-1,-6.939231E-2,-5.8676578E-2,-6.1867554E-2,3.7161505E-1,-1.205797E-2,1.1217462E-1,2.0522775E-2,4.5903605E-1,-3.9888856E-1,1.3812647E0,1.9020557E-1,-3.7826374E-1,6.178952E-2,3.0911347E-2,-5.7541287E-1,7.6890457E-1,-1.0907542E-1,-1.3173559E-2,7.6054786E-3,2.9070894E-3,5.8846842E-2,1.2785682E-3,-1.9428961E-2,3.9738957E-2,-2.2032151E-2,-3.0290762E-2,1.0284415E-2,1.24985175E-2,9.445165E-2,-8.175097E-3,2.0666512E-2,-3.371954E-5,-3.4018446E-2,1.5717437E-2,-2.154855E-2,2.7455088E-2,-2.4116663E-2,-4.1239116E-2,1.443901E-3,-1.1968742E-2,6.0148623E-2,4.9590585E-3,-1.6260162E-2],"categories":[],"categories_nodes":[],"categories_segments":[],"categories_sizes":[],"default_left":[0,0,0,0,0,0,0,0,0,0,0,0,0,0,0,0,0,0,0,0,0,0,0,0,0,0,0,0,0,0,0,0,0,0,0,0,0,0,0,0,0,0,0,