{"learner":{"attributes":{"scikit_learn":"{\"_estimator_type\": \"regressor\"}"},"feature_names":["ShotConv_H","ShotConvRec_H","PointsPerGame_H","xGDiff_H","CornersConv_H","CornersConvRec_H","NumMatches_H","Elo_H","Elo_A","EloDiff","GFvsMid_H","GAvsMid_H","GFvsHigh_H","GAvsHigh_H","GFvsSim_H","GAvsSim_H","Possession_H","PossessionRec_H","CornersFor_H","CornersAgainst_H","Availability_H","AvailabilityDiff","xGpp_H","xGppRec_H","xGCorners_H","xGCornersRec_H"],"feature_types":["float","float","float","float","float","float","float","float","float","float","float","float","float","float","float","float","float","float","float","float","float","float","float","float","float","float"],"gradient_booster":{"model":{"gbtree_model_param":{"num_parallel_tree":"1","num_trees":"220"},"iteration_indptr":[0,1,2,3,4,5,6,7,8,9,10,11,12,13,14,15,16,17,18,19,20,21,22,23,24,25,26,27,28,29,30,31,32,33,34,35,36,37,38,39,40,41,42,43,44,45,46,47,48,49,50,51,52,53,54,55,56,57,58,59,60,61,62,63,64,65,66,67,68,69,70,71,72,73,74,75,76,77,78,79,80,81,82,83,84,85,86,87,88,89,90,91,92,93,94,95,96,97,98,99,100,101,102,103,104,105,106,107,108,109,110,111,112,113,114,115,116,117,118,119,120,121,122,123,124,125,126,127,128,129,130,131,132,133,134,135,136,137,138,139,140,141,142,143,144,145,146,147,148,149,150,151,152,153,154,155,156,157,158,159,160,161,162,163,164,165,166,167,168,169,170,171,172,173,174,175,176,177,178,179,180,181,182,183,184,185,186,187,188,189,190,191,192,193,194,195,196,197,198,199,200,201,202,203,204,205,206,207,208,209,210,211,212,213,214,215,216,217,218,219,220],"tree_info":[0,0,0,0,0,0,0,0,0,0,0,0,0,0,0,0,0,0,0,0,0,0,0,0,0,0,0,0,0,0,0,0,0,0,0,0,0,0,0,0,0,0,0,0,0,0,0,0,0,0,0,0,0,0,0,0,0,0,0,0,0,0,0,0,0,0,0,0,0,0,0,0,0,0,0,0,0,0,0,0,0,0,0,0,0,0,0,0,0,0,0,0,0,0,0,0,0,0,0,0,0,0,0,0,0,0,0,0,0,0,0,0,0,0,0,0,0,0,0,0,0,0,0,0,0,0,0,0,0,0,0,0,0,0,0,0,0,0,0,0,0,0,0,0,0,0,0,0,0,0,0,0,0,0,0,0,0,0,0,0,0,0,0,0,0,0,0,0,0,0,0,0,0,0,0,0,0,0,0,0,0,0,0,0,0,0,0,0,0,0,0,0,0,0,0,0,0,0,0,0,0,0,0,0,0,0,0,0,0,0,0,0,0,0,0,0,0,0,0,0],"trees":[{"base_weights":[7.021301E-3,-2.4521798E-1,1.17477946E-1,-9.9826497E-1,-1.4582735E-1,8.600495E-2,1.4577637E0,-1.138626E0,1.059937E-2,1.5814623E-1,-3.817397E-1,1.5505803E-1,-3.9348483E-1,2.3059936E-1,2.2712933E-1,-3.5280753E-2,-1.2539432E0,5.7559437E-1,-4.5876518E-1,2.0748496E-1,-5.72364E-1,-2.8718528E-1,2.3618639E-1,-5.631265E-1,1.2119874E0,9.059936E-2,-5.880126E-1,-8.0425866E-2,-2.940063E-2,5.8799084E-2,-2.2247026E-2,-5.342947E-2,4.3911673E-2,3.2610875E-2,-4.6750788E-2,8.309149E-3,-4.122198E-2,3.6271866E-2,-3.05172E-2,2.291035E-2,-1.9038777E-3,1.4132492E-2,-4.453065E-2,8.6924285E-2,7.949527E-3,-6.940062E-2,1.059937E-2],"categories":[],"categories_nodes":[],"categories_segments":[],"categories_sizes":[],"default_left":[0,0,0,0,0,0,0,0,0,0,0,0,0,0,0,0,0,0,0,0,0,0,0,0,0,0,0,0,0,0,0,0,0,0,0,0,0,0,0,0,0,0,0,0,0,0,0],"id":0,"left_children":[1,3,5,7,9,11,13,15,-1,17,19,21,23,-1,25,-1,27,29,31,33,35,37,39,41,43,-1,45,-1,-1,-1,-1,-1,-1,-1,-1,-1,-1,-1,-1,-1,-1,-1,-1,-1,-1,-1,-1],"loss_changes":[1.5826282E1,1.2802751E1,1.6536837E1,3.4994087E0,1.1103886E1,1.2874678E1,2.5548826E1,4.055786E-1,0E0,1.7776003E1,9.890641E0,1.223063E1,1.4027899E1,0E0,8.207884E0,0E0,2.681675E-1,1.6054317E1,1.5044397E1,7.717565E0,5.474968E0,1.0772697E1,1.1211704E1,6.6099176E0,1.0859098E0,0E0,2.3785343E0,0E0,0E0,0E0,0E0,0E0,0E0,0E0,0E0,0E0,0E0,0E0,0E0,0E0,0E0,0E0,0E0,0E0,0E0,0E0,0E0],"parents":[2147483647,0,0,1,1,2,2,3,3,4,4,5,5,6,6,7,7,9,9,10,10,11,11,12,12,14,14,16,16,17,17,18,18,19,19,20,20,21,21,22,22,23,23,24,24,26,26],"right_children":[2,4,6,8,10,12,14,16,-1,18,20,22,24,-1,26,-1,28,30,32,34,36,38,40,42,44,-1,46,-1,-1,-1,-1,-1,-1,-1,-1,-1,-1,-1,-1,-1,-1,-1,-1,-1,-1,-1,-1],"split_conditions":[1.4712499E3,4.3381104E0,5.8203654E0,1.7764221E0,1.49171E3,2.8677223E0,8.748273E-1,-5.364621E-1,1.059937E-2,1.4530544E3,3.4207296E0,1.0388794E0,1.2677681E0,2.3059936E-1,1.4898761E3,-3.5280753E-2,1.7087953E0,1.3029603E0,-5.1662322E-2,2.7002926E0,1.4020344E3,3.999408E0,1.5527078E3,1.4792175E3,1.5629534E0,9.059936E-2,1.5309188E3,-8.0425866E-2,-2.940063E-2,5.8799084E-2,-2.2247026E-2,-5.342947E-2,4.3911673E-2,3.2610875E-2,-4.6750788E-2,8.309149E-3,-4.122198E-2,3.6271866E-2,-3.05172E-2,2.291035E-2,-1.9038777E-3,1.4132492E-2,-4.453065E-2,8.6924285E-2,7.949527E-3,-6.940062E-2,1.059937E-2],"split_indices":[8,18,19,14,7,14,2,3,0,8,19,0,1,0,8,0,14,2,3,0,8,19,8,8,1,0,8,0,0,0,0,0,0,0,0,0,0,0,0,0,0,0,0,0,0,0,0],"split_type":[0,0,0,0,0,0,0,0,0,0,0,0,0,0,0,0,0,0,0,0,0,0,0,0,0,0,0,0,0,0,0,0,0,0,0,0,0,0,0,0,0,0,0,0,0,0,0],"sum_hessian":[5.66E2,1.72E2,3.94E2,1.9E1,1.53E2,3.86E2,8E0,1.7E1,2E0,6.7E1,8.6E1,3.38E2,4.8E1,2E0,6E0,4E0,1.3E1,4E1,2.7E1,2.1E1,6.5E1,5.2E1,2.86E2,4.4E1,4E0,2E0,4E0,1.1E1,2E0,2.8E1,1.2E1,2E1,7E0,1.6E1,5E0,9E0,5.6E1,1E1,4.2E1,1.85E2,1.01E2,8E0,3.6E1,3E0,1E0,2E0,2E0],"tree_param":{"num_deleted":"0","num_feature":"26","num_nodes":"47","size_leaf_vector":"1"}},{"base_weights":[-3.67885E-3,1.2206516E-1,-3.7297118E-1,1.0223431E-1,2.1589146E0,-2.7410808E-1,-1.0895972E0,1.6106464E-1,-5.0632215E-1,1.6602546E-1,1.0031547E-2,-1.9549683E-1,-1.085327E0,-1.3294026E0,-4.283869E-1,1.0893161E-1,1.0495864E0,-7.826855E-1,2.1805364E-1,-4.209121E-1,6.6260576E-2,-1.2342253E0,-3.0971924E-2,-8.7277606E-2,-2.8131248E-2,7.631546E-3,-3.3896472E-2,-2.8347969E-2,1.1217622E-2,-2.7263451E-2,7.39089E-2,3.0675527E-2,-5.4399084E-2,2.4939097E-2,-5.2737784E-2,2.9794697E-2,-3.266795E-2,-9.362331E-3,3.1912692E-2,-2.7619405E-2,-8.492832E-2],"categories":[],"categories_nodes":[],"categories_segments":[],"categories_sizes":[],"default_left":[0,0,0,0,0,0,0,0,0,0,0,0,0,0,0,0,0,0,0,0,0,0,0,0,0,0,0,0,0,0,0,0,0,0,0,0,0,0,0,0,0],"id":1,"left_children":[1,3,5,7,9,11,13,15,17,-1,-1,19,21,23,25,27,29,31,33,35,37,39,-1,-1,-1,-1,-1,-1,-1,-1,-1,-1,-1,-1,-1,-1,-1,-1,-1,-1,-1],"loss_changes":[2.6142727E1,1.674411E1,9.832575E0,1.5010805E1,4.382637E0,7.8867292E0,2.126051E0,1.7534096E1,7.577734E0,0E0,0E0,6.93137E0,2.950592E-1,6.1113167E-1,5.270568E-1,1.6465366E1,6.315151E0,4.794468E0,2.7497935E0,7.412011E0,5.775853E0,4.7056198E-1,0E0,0E0,0E0,0E0,0E0,0E0,0E0,0E0,0E0,0E0,0E0,0E0,0E0,0E0,0E0,0E0,0E0,0E0,0E0],"parents":[2147483647,0,0,1,1,2,2,3,3,4,4,5,5,6,6,7,7,8,8,11,11,12,12,13,13,14,14,15,15,16,16,17,17,18,18,19,19,20,20,21,21],"right_children":[2,4,6,8,10,12,14,16,18,-1,-1,20,22,24,26,28,30,32,34,36,38,40,-1,-1,-1,-1,-1,-1,-1,-1,-1,-1,-1,-1,-1,-1,-1,-1,-1,-1,-1],"split_conditions":[5.3608383E1,4.7923145E0,4.717933E0,1.9765775E0,-1.3640085E2,2.554984E0,9.632555E1,1.8443869E0,5.294313E0,1.6602546E-1,1.0031547E-2,6.489305E0,3.3933392E0,1.2726678E0,1.6177046E0,1.0025014E0,1.3803256E3,-1.9936745E2,1.5233406E0,1.5095333E3,1.3035595E0,6.046995E0,-3.0971924E-2,-8.7277606E-2,-2.8131248E-2,7.631546E-3,-3.3896472E-2,-2.8347969E-2,1.1217622E-2,-2.7263451E-2,7.39089E-2,3.0675527E-2,-5.4399084E-2,2.4939097E-2,-5.2737784E-2,2.9794697E-2,-3.266795E-2,-9.362331E-3,3.1912692E-2,-2.7619405E-2,-8.492832E-2],"split_indices":[9,15,19,1,9,2,9,1,18,0,0,18,14,15,0,0,7,9,2,7,10,18,0,0,0,0,0,0,0,0,0,0,0,0,0,0,0,0,0,0,0],"split_type":[0,0,0,0,0,0,0,0,0,0,0,0,0,0,0,0,0,0,0,0,0,0,0,0,0,0,0,0,0,0,0,0,0,0,0,0,0,0,0,0,0],"sum_hessian":[5.61E2,4.19E2,1.42E2,4.16E2,3E0,1.26E2,1.6E1,3.8E2,3.6E1,2E0,1E0,1.16E2,1E1,1.1E1,5E0,3.6E2,2E1,2.6E1,1E1,6.2E1,5.4E1,7E0,3E0,9E0,2E0,1E0,4E0,4.2E1,3.18E2,2E0,1.8E1,2E0,2.4E1,9E0,1E0,7E0,5.5E1,3.7E1,1.7E1,2E0,5E0],"tree_param":{"num_deleted":"0","num_feature":"26","num_nodes":"41","size_leaf_vector":"1"}},{"base_weights":[-8.789372E-3,-4.0112033E-2,8.4519255E-1,6.476456E-2,-2.2718701E-1,2.3558924E0,4.400166E-1,-1.03713855E-1,3.4721103E-1,-4.0566078E-1,9.9860944E-2,1.8198432E-1,9.7306E-3,-5.3365618E-2,6.765709E-1,1.1064608E-1,-4.2047563E-1,6.532187E-2,6.901042E-1,9.011196E-2,-4.4819614E-1,8.6890787E-1,-1.2567745E-1,1.2004871E0,-3.093848E-1,-2.8029218E-2,1.801281E-2,-4.980712E-3,-4.7768228E-2,3.7668027E-2,-1.3379406E-2,-4.387323E-2,5.188833E-2,6.3481187E-3,-3.4853205E-2,2.8307727E-2,1.1653778E-1,-1.4500517E-2,8.482283E-2,1.1706665E-1,2.2493169E-2,2.825319E-2,-4.9034525E-2],"categories":[],"categories_nodes":[],"categories_segments":[],"categories_sizes":[],"default_left":[0,0,0,0,0,0,0,0,0,0,0,0,0,0,0,0,0,0,0,0,0,0,0,0,0,0,0,0,0,0,0,0,0,0,0,0,0,0,0,0,0,0,0],"id":2,"left_children":[1,3,5,7,9,11,13,15,17,19,21,-1,-1,-1,23,25,27,29,31,-1,33,35,37,39,41,-1,-1,-1,-1,-1,-1,-1,-1,-1,-1,-1,-1,-1,-1,-1,-1,-1,-1],"loss_changes":[1.5120331E1,1.0707498E1,1.1205353E1,1.6691156E1,1.1480927E1,5.450266E0,5.9480143E0,1.4984751E1,1.2617103E1,1.0977573E1,1.2250675E1,0E0,0E0,0E0,8.119787E0,1.4598472E1,1.1216634E1,1.1978354E1,1.528249E1,0E0,9.2502575E0,5.9037294E0,1.0162795E1,5.4657125E0,2.7624273E0,0E0,0E0,0E0,0E0,0E0,0E0,0E0,0E0,0E0,0E0,0E0,0E0,0E0,0E0,0E0,0E0,0E0,0E0],"parents":[2147483647,0,0,1,1,2,2,3,3,4,4,5,5,6,6,7,7,8,8,9,9,10,10,14,14,15,15,16,16,17,17,18,18,20,20,21,21,22,22,23,23,24,24],"right_children":[2,4,6,8,10,12,14,16,18,20,22,-1,-1,-1,24,26,28,30,32,-1,34,36,38,40,42,-1,-1,-1,-1,-1,-1,-1,-1,-1,-1,-1,-1,-1,-1,-1,-1,-1,-1],"split_conditions":[2.721047E0,3.1849361E1,1.061601E0,-1.4820482E1,6.489305E0,5.104907E0,1.1771991E0,1.264264E0,1.4178017E0,7.466274E-2,6.7529955E0,1.8198432E-1,9.7306E-3,-5.3365618E-2,2.0056174E0,4.538713E0,-2.4809912E-1,6.807928E-1,9.905738E-1,9.011196E-2,1.2475067E0,1.3733841E-1,4.1688685E0,1.000347E-1,1.6212817E0,-2.8029218E-2,1.801281E-2,-4.980712E-3,-4.7768228E-2,3.7668027E-2,-1.3379406E-2,-4.387323E-2,5.188833E-2,6.3481187E-3,-3.4853205E-2,2.8307727E-2,1.1653778E-1,-1.4500517E-2,8.482283E-2,1.1706665E-1,2.2493169E-2,2.825319E-2,-4.9034525E-2],"split_indices":[15,9,0,9,18,15,0,11,15,25,18,0,0,0,14,18,3,15,0,0,2,25,19,24,0,0,0,0,0,0,0,0,0,0,0,0,0,0,0,0,0,0,0],"split_type":[0,0,0,0,0,0,0,0,0,0,0,0,0,0,0,0,0,0,0,0,0,0,0,0,0,0,0,0,0,0,0,0,0,0,0,0,0,0,0,0,0,0,0],"sum_hessian":[5.63E2,5.44E2,1.9E1,3.49E2,1.95E2,3E0,1.6E1,2.19E2,1.3E2,1.26E2,6.9E1,2E0,1E0,2E0,1.4E1,1.31E2,8.8E1,7.2E1,5.8E1,2E0,1.24E2,1.5E1,5.4E1,9E0,5E0,3.2E1,9.9E1,4.7E1,4.1E1,2.4E1,4.8E1,6E0,5.2E1,2.4E1,1E2,1.2E1,3E0,5.1E1,3E0,4E0,5E0,2E0,3E0],"tree_param":{"num_deleted":"0","num_feature":"26","num_nodes":"43","size_leaf_vector":"1"}},{"base_weights":[-1.9817568E-2,1.6783582E-2,-6.4713675E-1,-2.475986E-2,7.117598E-1,-1.16974935E-1,-9.593851E-1,6.492517E-3,-8.048313E-1,4.62124E-1,2.2812705E0,-5.998156E-1,5.4630846E-1,-1.0418922E0,-1.4454775E-1,1.1366598E-1,-1.830213E-1,-9.2430776E-1,1.0818276E-2,-4.6081666E-2,6.4046335E-1,3.7222423E-2,1.576867E-1,1.4195251E-2,-9.180479E-1,5.0618213E-2,1.1204102E-2,-5.7274795E-1,-1.1782748E0,6.6634654E-3,-1.9672763E-2,-6.2707616E-3,1.8120525E-2,-1.3066694E-2,8.456506E-2,-1.7176462E-2,-7.316809E-2,2.1947533E-2,8.695739E-2,-3.0260954E-2,-6.9817804E-2,5.8387686E-3,-4.3573357E-2,-2.791541E-2,-7.593709E-2],"categories":[],"categories_nodes":[],"categories_segments":[],"categories_sizes":[],"default_left":[0,0,0,0,0,0,0,0,0,0,0,0,0,0,0,0,0,0,0,0,0,0,0,0,0,0,0,0,0,0,0,0,0,0,0,0,0,0,0,0,0,0,0,0,0],"id":3,"left_children":[1,3,5,7,9,11,13,15,17,19,21,23,25,27,29,31,33,35,-1,-1,37,-1,-1,-1,39,-1,-1,41,43,-1,-1,-1,-1,-1,-1,-1,-1,-1,-1,-1,-1,-1,-1,-1,-1],"loss_changes":[1.33280115E1,1.5868188E1,5.1851254E0,1.2657971E1,1.1091759E1,4.491067E0,1.1939926E0,1.01762295E1,2.520669E0,6.6346574E0,6.7385864E-1,2.3465629E0,4.8393178E-1,4.7683907E-1,1.7699528E-1,1.3181124E1,1.0324982E1,3.040697E0,0E0,0E0,5.0238934E0,0E0,0E0,0E0,2.2706032E-2,0E0,0E0,6.87695E-1,2.2076988E-1,0E0,0E0,0E0,0E0,0E0,0E0,0E0,0E0,0E0,0E0,0E0,0E0,0E0,0E0,0E0,0E0],"parents":[2147483647,0,0,1,1,2,2,3,3,4,4,5,5,6,6,7,7,8,8,9,9,10,10,11,11,12,12,13,13,14,14,15,15,16,16,17,17,20,20,24,24,27,27,28,28],"right_children":[2,4,6,8,10,12,14,16,18,20,22,24,26,28,30,32,34,36,-1,-1,38,-1,-1,-1,40,-1,-1,42,44,-1,-1,-1,-1,-1,-1,-1,-1,-1,-1,-1,-1,-1,-1,-1,-1],"split_conditions":[2.0327182E0,1.8531973E0,-9.9143776E1,3.9780605E0,1.5643158E3,9.485713E-1,1.3405782E0,3.1849361E1,1.5197162E3,1.3954747E3,1.9115111E0,4.5764327E-1,1.5075041E-1,1.4452534E3,2.0451586E0,-3.491924E1,2.4214665E2,9.211542E-1,1.0818276E-2,-4.6081666E-2,5.540539E0,3.7222423E-2,1.576867E-1,1.4195251E-2,2.3554208E0,5.0618213E-2,1.1204102E-2,1.4178017E0,9.290505E-2,6.6634654E-3,-1.9672763E-2,-6.2707616E-3,1.8120525E-2,-1.3066694E-2,8.456506E-2,-1.7176462E-2,-7.316809E-2,2.1947533E-2,8.695739E-2,-3.0260954E-2,-6.9817804E-2,5.8387686E-3,-4.3573357E-2,-2.791541E-2,-7.593709E-2],"split_indices":[1,1,9,14,8,2,10,9,8,7,1,2,25,8,1,9,9,1,0,0,18,0,0,0,1,0,0,15,24,0,0,0,0,0,0,0,0,0,0,0,0,0,0,0,0],"split_type":[0,0,0,0,0,0,0,0,0,0,0,0,0,0,0,0,0,0,0,0,0,0,0,0,0,0,0,0,0,0,0,0,0,0,0,0,0,0,0,0,0,0,0,0,0],"sum_hessian":[5.79E2,5.48E2,3.1E1,5.18E2,3E1,1.2E1,1.9E1,4.99E2,1.9E1,2.7E1,3E0,7E0,5E0,1.7E1,2E0,3.19E2,1.8E2,1.7E1,2E0,3E0,2.4E1,1E0,2E0,2E0,5E0,2E0,3E0,5E0,1.2E1,1E0,1E0,1.48E2,1.71E2,1.77E2,3E0,6E0,1.1E1,1.9E1,5E0,3E0,2E0,1E0,4E0,2E0,1E1],"tree_param":{"num_deleted":"0","num_feature":"26","num_nodes":"45","size_leaf_vector":"1"}},{"base_weights":[-2.8839305E-2,-5.4313324E-2,9.258117E-1,4.274343E-2,-2.324666E-1,-1.6569601E-1,1.4881351E0,-3.5862923E-1,1.328415E-1,-2.6178733E-1,9.516718E-1,-6.3355364E-2,6.45903E-2,2.3270893E0,1.1025791E-2,9.7006895E-2,-5.835404E-1,-8.2395965E-1,1.6548915E-1,1.9802636E-1,-3.3731425E-1,1.0424607E-1,-1.5131497E-1,1.5300934E-1,3.6352716E-2,-4.6200328E-2,4.9390238E-2,4.9812738E-2,-4.0116213E-2,8.324018E-3,-5.678042E-2,8.429614E-3,7.926189E-2,6.046616E-2,-7.1926177E-3,-1.6701726E-2,-5.770164E-2,5.1501347E-3,-1.8768482E-2],"categories":[],"categories_nodes":[],"categories_segments":[],"categories_sizes":[],"default_left":[0,0,0,0,0,0,0,0,0,0,0,0,0,0,0,0,0,0,0,0,0,0,0,0,0,0,0,0,0,0,0,0,0,0,0,0,0,0,0],"id":4,"left_children":[1,3,5,7,9,11,13,15,17,19,21,-1,-1,23,-1,25,27,29,31,33,35,-1,37,-1,-1,-1,-1,-1,-1,-1,-1,-1,-1,-1,-1,-1,-1,-1,-1],"loss_changes":[1.4033593E1,9.7101755E0,9.453283E0,1.3210937E1,7.123661E0,7.7717495E0,1.0515453E1,6.9226103E0,9.445072E0,6.8040886E0,4.5963297E0,0E0,0E0,7.5857925E-1,0E0,1.5114485E1,5.9667063E0,1.3094411E0,8.161721E0,7.3285685E0,5.879326E0,0E0,1.4174455E-1,0E0,0E0,0E0,0E0,0E0,0E0,0E0,0E0,0E0,0E0,0E0,0E0,0E0,0E0,0E0,0E0],"parents":[2147483647,0,0,1,1,2,2,3,3,4,4,5,5,6,6,7,7,8,8,9,9,10,10,13,13,15,15,16,16,17,17,18,18,19,19,20,20,22,22],"right_children":[2,4,6,8,10,12,14,16,18,20,22,-1,-1,24,-1,26,28,30,32,34,36,-1,38,-1,-1,-1,-1,-1,-1,-1,-1,-1,-1,-1,-1,-1,-1,-1,-1],"split_conditions":[3E0,3.1849361E1,5.010408E0,1.0446607E0,2.4214665E2,1.6770474E3,1.4907292E-1,-8.428918E-1,3.8727646E0,5.547661E-1,2.142787E0,-6.3355364E-2,6.45903E-2,1.41366E0,1.1025791E-2,-8.696251E1,1.17411E0,1.3762617E0,2.9239496E1,9.3047434E-1,2.4947402E0,1.0424607E-1,2.606481E0,1.5300934E-1,3.6352716E-2,-4.6200328E-2,4.9390238E-2,4.9812738E-2,-4.0116213E-2,8.324018E-3,-5.678042E-2,8.429614E-3,7.926189E-2,6.046616E-2,-7.1926177E-3,-1.6701726E-2,-5.770164E-2,5.1501347E-3,-1.8768482E-2],"split_indices":[15,9,19,0,9,8,25,3,18,15,0,0,0,0,0,9,11,1,9,3,2,0,0,0,0,0,0,0,0,0,0,0,0,0,0,0,0,0,0],"split_type":[0,0,0,0,0,0,0,0,0,0,0,0,0,0,0,0,0,0,0,0,0,0,0,0,0,0,0,0,0,0,0,0,0,0,0,0,0,0,0],"sum_hessian":[5.74E2,5.6E2,1.4E1,3.63E2,1.97E2,5E0,9E0,6.6E1,2.97E2,1.93E2,4E0,3E0,2E0,5E0,4E0,2.2E1,4.4E1,9E0,2.88E2,2.7E1,1.66E2,2E0,2E0,4E0,1E0,1E1,1.2E1,2E0,4.2E1,1E0,8E0,2.83E2,5E0,7E0,2E1,1.53E2,1.3E1,1E0,1E0],"tree_param":{"num_deleted":"0","num_feature":"26","num_nodes":"39","size_leaf_vector":"1"}},{"base_weights":[-2.3920968E-2,8.652587E-2,-2.298595E-1,1.3673596E-1,-5.1724744E-1,1.159452E0,-2.5676548E-1,5.0105102E-2,4.6121198E-1,4.5358908E-1,-6.0596085E-1,8.769822E-2,7.586907E-3,-3.9685518E-1,-6.0966443E-3,-5.1511335E-1,1.4569253E-1,5.97382E-1,-7.1984226E-1,3.54123E-2,5.4107164E-3,-1.1032146E0,-4.1135433E-1,-2.8951114E-1,-7.8370315E-1,3.035765E-1,-4.4975826E-1,5.8979545E-2,-4.2532492E-2,5.8671743E-2,4.3497384E-3,1.0509886E-1,2.716568E-2,9.7391545E-4,-6.988399E-2,-2.7520124E-2,-7.615795E-2,1.0155521E-2,-3.620247E-2,8.852666E-4,-3.1478498E-2,3.9382897E-2,-5.1860187E-2,-7.4664797E-3,4.5474112E-2,-6.956028E-2,-5.426763E-3],"categories":[],"categories_nodes":[],"categories_segments":[],"categories_sizes":[],"default_left":[0,0,0,0,0,0,0,0,0,0,0,0,0,0,0,0,0,0,0,0,0,0,0,0,0,0,0,0,0,0,0,0,0,0,0,0,0,0,0,0,0,0,0,0,0,0,0],"id":5,"left_children":[1,3,5,7,9,11,13,15,17,19,21,-1,-1,23,25,27,29,31,33,-1,-1,35,37,39,41,43,45,-1,-1,-1,-1,-1,-1,-1,-1,-1,-1,-1,-1,-1,-1,-1,-1,-1,-1,-1,-1],"loss_changes":[1.3098413E1,1.1439042E1,7.811249E0,9.730936E0,2.7725182E0,1.0638118E0,6.950573E0,1.4932686E1,1.2170185E1,9.571916E-2,2.158946E0,0E0,0E0,5.0468903E0,1.0028623E1,1.2307828E1,1.4304399E1,1.022435E1,2.6386871E0,0E0,0E0,1.6715622E-1,2.443405E0,7.2334948E0,3.7025414E0,8.456067E0,7.5439634E0,0E0,0E0,0E0,0E0,0E0,0E0,0E0,0E0,0E0,0E0,0E0,0E0,0E0,0E0,0E0,0E0,0E0,0E0,0E0,0E0],"parents":[2147483647,0,0,1,1,2,2,3,3,4,4,5,5,6,6,7,7,8,8,9,9,10,10,13,13,14,14,15,15,16,16,17,17,18,18,21,21,22,22,23,23,24,24,25,25,26,26],"right_children":[2,4,6,8,10,12,14,16,18,20,22,-1,-1,24,26,28,30,32,34,-1,-1,36,38,40,42,44,46,-1,-1,-1,-1,-1,-1,-1,-1,-1,-1,-1,-1,-1,-1,-1,-1,-1,-1,-1,-1],"split_conditions":[3.1849361E1,2.0327182E0,7.466274E-2,1.6703408E0,1.4447678E3,2.30035E0,6.489305E0,1.0446607E0,1.7653046E0,9.905738E-1,1.7182826E0,8.769822E-2,7.586907E-3,1.0971551E2,1.4792175E3,3.8665695E0,1.17411E0,1.709203E0,1.4879777E3,3.54123E-2,5.4107164E-3,4.7597466E0,2.1150796E0,4.219509E0,-2.0022514E-1,9.4821566E-1,1.17411E0,5.8979545E-2,-4.2532492E-2,5.8671743E-2,4.3497384E-3,1.0509886E-1,2.716568E-2,9.7391545E-4,-6.988399E-2,-2.7520124E-2,-7.615795E-2,1.0155521E-2,-3.620247E-2,8.852666E-4,-3.1478498E-2,3.9382897E-2,-5.1860187E-2,-7.4664797E-3,4.5474112E-2,-6.956028E-2,-5.426763E-3],"split_indices":[9,1,25,1,8,0,18,0,11,0,15,0,0,9,8,19,0,1,8,0,0,18,1,19,3,1,11,0,0,0,0,0,0,0,0,0,0,0,0,0,0,0,0,0,0,0,0],"split_type":[0,0,0,0,0,0,0,0,0,0,0,0,0,0,0,0,0,0,0,0,0,0,0,0,0,0,0,0,0,0,0,0,0,0,0,0,0,0,0,0,0,0,0,0,0,0,0],"sum_hessian":[5.74E2,3.74E2,2E2,3.46E2,2.8E1,3E0,1.97E2,2.74E2,7.2E1,2E0,2.6E1,2E0,1E0,1.26E2,7.1E1,3.9E1,2.35E2,6.5E1,7E0,1E0,1E0,6E0,2E1,1E2,2.6E1,4.2E1,2.9E1,4E0,3.5E1,1.8E1,2.17E2,6E0,5.9E1,3E0,4E0,2E0,4E0,5E0,1.5E1,4.4E1,5.6E1,1E0,2.5E1,2.2E1,2E1,9E0,2E1],"tree_param":{"num_deleted":"0","num_feature":"26","num_nodes":"47","size_leaf_vector":"1"}},{"base_weights":[3.3187117E-2,6.552653E-2,-5.058288E-1,1.9088211E0,4.849534E-2,-7.4808574E-1,1.2617064E-1,7.4431547E-3,1.3944E-1,7.409842E-2,-7.052226E-1,-3.1680027E-1,-1.0335182E0,4.5245108E-1,-4.763628E-1,-5.6959486E-1,1.0056193E-1,-8.242329E-1,9.874373E-3,-9.2543733E-1,2.7118325E-2,-2.4383683E-2,-1.1041725E0,6.5725255E-1,8.072211E-3,-4.1435704E-2,4.9900208E-3,-6.35044E-2,4.436332E-3,6.8342746E-3,-6.2085442E-2,-1.51503E-2,-6.852114E-2,-1.5973652E-2,-6.338588E-2,2.480381E-2,-1.7239688E-2,-7.18143E-2,-2.5620397E-2,4.7310233E-2,7.904952E-3],"categories":[],"categories_nodes":[],"categories_segments":[],"categories_sizes":[],"default_left":[0,0,0,0,0,0,0,0,0,0,0,0,0,0,0,0,0,0,0,0,0,0,0,0,0,0,0,0,0,0,0,0,0,0,0,0,0,0,0,0,0],"id":6,"left_children":[1,3,5,7,9,11,13,-1,-1,15,17,19,21,23,25,27,29,31,-1,33,35,-1,37,39,-1,-1,-1,-1,-1,-1,-1,-1,-1,-1,-1,-1,-1,-1,-1,-1,-1],"loss_changes":[1.0160823E1,1.7142466E1,5.1468925E0,3.4166946E0,1.0569395E1,2.6270494E0,2.1814795E0,0E0,0E0,9.051433E0,1.99891E0,2.3276339E0,1.7159653E-1,3.6734045E-1,5.3691214E-1,6.684163E0,7.8131337E0,2.6186304E0,0E0,6.415939E-2,1.0904919E0,0E0,2.4245644E-1,1.7200732E-1,0E0,0E0,0E0,0E0,0E0,0E0,0E0,0E0,0E0,0E0,0E0,0E0,0E0,0E0,0E0,0E0,0E0],"parents":[2147483647,0,0,1,1,2,2,3,3,4,4,5,5,6,6,9,9,10,10,11,11,12,12,13,13,14,14,15,15,16,16,17,17,19,19,20,20,22,22,23,23],"right_children":[2,4,6,8,10,12,14,-1,-1,16,18,20,22,24,26,28,30,32,-1,34,36,-1,38,40,-1,-1,-1,-1,-1,-1,-1,-1,-1,-1,-1,-1,-1,-1,-1,-1,-1],"split_conditions":[2.0327182E0,-1.034491E0,5.294313E0,-1.1760722E0,3.9780605E0,-9.62588E1,1.9483272E0,7.4431547E-3,1.3944E-1,1.0338465E0,1.5197162E3,1.0420784E0,9.290505E-2,-6.657282E1,-5.1662322E-2,1.5390035E3,1.9751372E0,9.211542E-1,9.874373E-3,7.932263E-1,-1.4137999E2,-2.4383683E-2,1.6919079E0,2.1579323E0,8.072211E-3,-4.1435704E-2,4.9900208E-3,-6.35044E-2,4.436332E-3,6.8342746E-3,-6.2085442E-2,-1.51503E-2,-6.852114E-2,-1.5973652E-2,-6.338588E-2,2.480381E-2,-1.7239688E-2,-7.18143E-2,-2.5620397E-2,4.7310233E-2,7.904952E-3],"split_indices":[1,3,18,3,14,9,0,0,0,10,8,14,24,9,3,8,11,1,0,0,9,0,0,1,0,0,0,0,0,0,0,0,0,0,0,0,0,0,0,0,0],"split_type":[0,0,0,0,0,0,0,0,0,0,0,0,0,0,0,0,0,0,0,0,0,0,0,0,0,0,0,0,0,0,0,0,0,0,0,0,0,0,0,0,0],"sum_hessian":[5.8E2,5.48E2,3.2E1,4E0,5.44E2,2.3E1,9E0,1E0,3E0,5.27E2,1.7E1,1E1,1.3E1,6E0,3E0,2E1,5.07E2,1.5E1,2E0,3E0,7E0,2E0,1.1E1,3E0,3E0,2E0,1E0,1.1E1,9E0,5.02E2,5E0,6E0,9E0,1E0,2E0,3E0,4E0,9E0,2E0,2E0,1E0],"tree_param":{"num_deleted":"0","num_feature":"26","num_nodes":"41","size_leaf_vector":"1"}},{"base_weights":[1.6872832E-3,9.9726416E-2,-1.7094472E-1,-1.8616045E-1,2.4052994E-1,1.9614239E-1,-2.9067627E-1,1.2345082E-1,-3.562457E-1,2.914492E-1,-5.6645095E-1,4.211209E-1,-9.2554617E-1,2.1469063E-1,-3.827919E-1,7.3171544E-1,-2.8663117E-1,-1.4939633E-1,-8.853829E-1,1.0651257E-1,6.720878E-1,-9.032019E-2,-6.586185E-2,8.552566E-1,8.767094E-2,-2.9484488E-2,-7.04745E-2,-2.0082718E-1,1.5639682E0,-5.4173183E-1,1.407582E-1,1.8506896E-2,9.16105E-2,-5.7044573E-2,1.3762026E-2,-7.311903E-2,-1.5511614E-4,-6.3834615E-2,-2.1050232E-2,-5.0029386E-2,1.3548001E-2,3.0155964E-2,9.204855E-2,-2.5535576E-2,2.6110137E-2,-2.0891339E-2,6.615987E-2,-1.6551433E-2,6.68279E-2,1.8853864E-2,-5.191544E-2,1.199477E-1,-1.8354986E-2,1.28762685E-2,-3.6985803E-2,9.6410476E-2,-3.978833E-3],"categories":[],"categories_nodes":[],"categories_segments":[],"categories_sizes":[],"default_left":[0,0,0,0,0,0,0,0,0,0,0,0,0,0,0,0,0,0,0,0,0,0,0,0,0,0,0,0,0,0,0,0,0,0,0,0,0,0,0,0,0,0,0,0,0,0,0,0,0,0,0,0,0,0,0,0,0],"id":7,"left_children":[1,3,5,7,9,11,13,15,17,19,21,23,25,27,29,31,33,35,37,39,41,43,-1,45,47,-1,-1,49,51,53,55,-1,-1,-1,-1,-1,-1,-1,-1,-1,-1,-1,-1,-1,-1,-1,-1,-1,-1,-1,-1,-1,-1,-1,-1,-1,-1],"loss_changes":[9.76567E0,1.4858204E1,9.242962E0,6.4685373E0,1.0314535E1,1.351227E1,7.4374294E0,1.11850195E1,8.514411E0,1.6330221E1,3.6949978E0,6.2945704E0,3.9582014E-1,1.4330309E1,1.1226797E1,5.5869627E0,9.470444E0,9.101591E0,1.7262211E0,1.7911177E1,1.0333168E1,1.7708445E0,0E0,6.041032E0,1.000593E1,0E0,0E0,7.116296E0,5.493761E0,5.951477E0,9.821272E0,0E0,0E0,0E0,0E0,0E0,0E0,0E0,0E0,0E0,0E0,0E0,0E0,0E0,0E0,0E0,0E0,0E0,0E0,0E0,0E0,0E0,0E0,0E0,0E0,0E0,0E0],"parents":[2147483647,0,0,1,1,2,2,3,3,4,4,5,5,6,6,7,7,8,8,9,9,10,10,11,11,12,12,13,13,14,14,15,15,16,16,17,17,18,18,19,19,20,20,21,21,23,23,24,24,27,27,28,28,29,29,30,30],"right_children":[2,4,6,8,10,12,14,16,18,20,22,24,26,28,30,32,34,36,38,40,42,44,-1,46,48,-1,-1,50,52,54,56,-1,-1,-1,-1,-1,-1,-1,-1,-1,-1,-1,-1,-1,-1,-1,-1,-1,-1,-1,-1,-1,-1,-1,-1,-1,-1],"split_conditions":[2.662758E1,1.2E0,3.390125E0,1.264264E0,2.9731925E0,3.1735034E0,1.2475067E0,-5.4115604E1,1.4237853E0,-8.846878E0,5.8220673E0,2.8107197E0,1.4560358E3,1.2108049E0,6.489305E0,-7.257559E1,1.496689E0,8.7512016E-1,-2.0791122E1,1.4853599E3,5.0154543E0,-7.174468E0,-6.586185E-2,2.137247E0,3.2338257E0,-2.9484488E-2,-7.04745E-2,4.245943E0,1.601122E0,1.2733371E0,5.5346406E-1,1.8506896E-2,9.16105E-2,-5.7044573E-2,1.3762026E-2,-7.311903E-2,-1.5511614E-4,-6.3834615E-2,-2.1050232E-2,-5.0029386E-2,1.3548001E-2,3.0155964E-2,9.204855E-2,-2.5535576E-2,2.6110137E-2,-2.0891339E-2,6.615987E-2,-1.6551433E-2,6.68279E-2,1.8853864E-2,-5.191544E-2,1.199477E-1,-1.8354986E-2,1.28762685E-2,-3.6985803E-2,9.6410476E-2,-3.978833E-3],"split_indices":[9,10,19,11,14,0,2,9,2,9,9,19,8,2,18,9,14,14,9,8,19,9,0,0,19,0,0,19,0,14,3,0,0,0,0,0,0,0,0,0,0,0,0,0,0,0,0,0,0,0,0,0,0,0,0,0,0],"split_type":[0,0,0,0,0,0,0,0,0,0,0,0,0,0,0,0,0,0,0,0,0,0,0,0,0,0,0,0,0,0,0,0,0,0,0,0,0,0,0,0,0,0,0,0,0,0,0,0,0,0,0,0,0,0,0,0,0],"sum_hessian":[5.75E2,3.67E2,2.08E2,1.21E2,2.46E2,5.1E1,1.57E2,4.3E1,7.8E1,2.32E2,1.4E1,4.3E1,8E0,2.4E1,1.33E2,1.7E1,2.6E1,5.7E1,2.1E1,1.57E2,7.5E1,8E0,6E0,1.8E1,2.5E1,4E0,4E0,1.9E1,5E0,1.02E2,3.1E1,1.2E1,5E0,1.1E1,1.5E1,6E0,5.1E1,1.5E1,6E0,1.7E1,1.4E2,6.4E1,1.1E1,5E0,3E0,3E0,1.5E1,1.9E1,6E0,1.1E1,8E0,4E0,1E0,9E0,9.3E1,3E0,2.8E1],"tree_param":{"num_deleted":"0","num_feature":"26","num_nodes":"57","size_leaf_vector":"1"}},{"base_weights":[8.275993E-3,-1.456979E-2,8.530182E-1,1.1225386E-2,-7.847495E-1,-1.5362518E-1,1.3717024E0,-9.941107E-1,2.8275952E-2,-9.0389514E-1,-1.4176589E-1,-5.9247084E-2,6.0561087E-2,2.1701198E0,8.355665E-3,-1.1483061E0,7.183571E-3,3.963082E-2,-9.6998775E-1,-3.213179E-1,-1.163052E0,8.1704445E-3,-1.6788233E-2,1.4168704E-1,3.640397E-2,-2.5610195E-2,-7.905939E-2,1.818562E-3,7.477036E-2,-2.1127021E-2,-7.145363E-2,1.1474133E-2,-2.7724542E-2,-2.3370644E-2,-7.84649E-2],"categories":[],"categories_nodes":[],"categories_segments":[],"categories_sizes":[],"default_left":[0,0,0,0,0,0,0,0,0,0,0,0,0,0,0,0,0,0,0,0,0,0,0,0,0,0,0,0,0,0,0,0,0,0,0],"id":8,"left_children":[1,3,5,7,9,11,13,15,17,19,21,-1,-1,23,-1,25,-1,27,29,31,33,-1,-1,-1,-1,-1,-1,-1,-1,-1,-1,-1,-1,-1,-1],"loss_changes":[1.0993444E1,1.103495E1,8.042678E0,9.250263E0,1.2508144E0,6.8150086E0,9.537813E0,1.683218E0,6.046073E0,1.890974E0,1.9156718E-1,0E0,0E0,3.619728E-1,0E0,4.150257E-1,0E0,5.866759E0,3.9961433E-1,5.212407E-1,6.0990524E-1,0E0,0E0,0E0,0E0,0E0,0E0,0E0,0E0,0E0,0E0,0E0,0E0,0E0,0E0],"parents":[2147483647,0,0,1,1,2,2,3,3,4,4,5,5,6,6,7,7,8,8,9,9,10,10,13,13,15,15,17,17,18,18,19,19,20,20],"right_children":[2,4,6,8,10,12,14,16,18,20,22,-1,-1,24,-1,26,-1,28,30,32,34,-1,-1,-1,-1,-1,-1,-1,-1,-1,-1,-1,-1,-1,-1],"split_conditions":[3E0,3.9780605E0,5.010408E0,3.734728E0,1.0420878E0,1.2446431E0,1.4907292E-1,5.8726315E0,2.0399966E0,9.211542E-1,1.7211426E0,-5.9247084E-2,6.0561087E-2,1.41366E0,8.355665E-3,3.627524E0,7.183571E-3,2.4214665E2,1.8792021E0,2.1315467E0,1.5E3,8.1704445E-3,-1.6788233E-2,1.4168704E-1,3.640397E-2,-2.5610195E-2,-7.905939E-2,1.818562E-3,7.477036E-2,-2.1127021E-2,-7.145363E-2,1.1474133E-2,-2.7724542E-2,-2.3370644E-2,-7.84649E-2],"split_indices":[15,14,19,18,15,10,25,19,11,1,0,0,0,0,0,18,0,9,0,0,7,0,0,0,0,0,0,0,0,0,0,0,0,0,0],"split_type":[0,0,0,0,0,0,0,0,0,0,0,0,0,0,0,0,0,0,0,0,0,0,0,0,0,0,0,0,0,0,0,0,0,0,0],"sum_hessian":[5.68E2,5.54E2,1.4E1,5.37E2,1.7E1,5E0,9E0,8E0,5.29E2,1.4E1,3E0,3E0,2E0,5E0,4E0,7E0,1E0,5.24E2,5E0,5E0,9E0,1E0,2E0,4E0,1E0,2E0,5E0,5.21E2,3E0,2E0,3E0,1E0,4E0,2E0,7E0],"tree_param":{"num_deleted":"0","num_feature":"26","num_nodes":"35","size_leaf_vector":"1"}},{"base_weights":[9.6200975E-3,-1.072799E-1,2.0587848E-1,-3.9847806E-2,-5.497622E-1,-4.1448578E-1,2.910314E-1,-1.3957293E-1,2.8008062E-1,-7.781616E-1,2.684686E-1,-8.694616E-1,4.004217E-1,1.155401E0,2.0893288E-1,-9.642773E-2,-1.0172447E0,1.4576429E-1,1.8663543E-1,-9.3560994E-1,-9.045996E-2,-4.9263187E-2,4.5952606E-1,-9.9793625E-1,3.5583973E-2,-4.230482E-2,7.649323E-1,1.3633444E0,-2.0013559E-1,3.1713334E-1,-4.1085175E-1,1.5539843E-2,-1.159105E-2,-6.633799E-2,-2.4779858E-2,5.100227E-2,3.9554853E-3,-3.5205536E-2,-7.472062E-2,-2.3735141E-2,3.2996688E-2,4.4185154E-2,-8.395112E-3,-6.4990796E-2,8.421606E-3,5.1298555E-2,4.0387986E-3,3.17377E-2,1.0608701E-1,3.7079286E-3,-2.1720132E-2,3.068407E-2,-1.614571E-3,3.1217035E-2,-3.0607492E-2],"categories":[],"categories_nodes":[],"categories_segments":[],"categories_sizes":[],"default_left":[0,0,0,0,0,0,0,0,0,0,0,0,0,0,0,0,0,0,0,0,0,0,0,0,0,0,0,0,0,0,0,0,0,0,0,0,0,0,0,0,0,0,0,0,0,0,0,0,0,0,0,0,0,0,0],"id":9,"left_children":[1,3,5,7,9,11,13,15,17,19,21,23,25,27,29,31,33,-1,35,37,39,-1,41,43,-1,-1,45,47,49,51,53,-1,-1,-1,-1,-1,-1,-1,-1,-1,-1,-1,-1,-1,-1,-1,-1,-1,-1,-1,-1,-1,-1,-1,-1],"loss_changes":[1.3030543E1,1.06002445E1,1.1319701E1,9.929612E0,8.992432E0,9.987995E0,1.3028765E1,8.876466E0,1.4409046E1,3.9216328E0,2.6670694E0,3.7861042E0,4.5690107E0,4.782854E0,1.16647835E1,7.856488E0,1.3087082E-1,0E0,5.7097034E0,2.5108109E0,1.7807822E0,0E0,1.7628601E0,1.7045584E0,0E0,0E0,4.4497824E-1,3.793026E0,1.4956662E-1,9.838724E0,2.668765E0,0E0,0E0,0E0,0E0,0E0,0E0,0E0,0E0,0E0,0E0,0E0,0E0,0E0,0E0,0E0,0E0,0E0,0E0,0E0,0E0,0E0,0E0,0E0,0E0],"parents":[2147483647,0,0,1,1,2,2,3,3,4,4,5,5,6,6,7,7,8,8,9,9,10,10,11,11,12,12,13,13,14,14,15,15,16,16,18,18,19,19,20,20,22,22,23,23,26,26,27,27,28,28,29,29,30,30],"right_children":[2,4,6,8,10,12,14,16,18,20,22,24,26,28,30,32,34,-1,36,38,40,-1,42,44,-1,-1,46,48,50,52,54,-1,-1,-1,-1,-1,-1,-1,-1,-1,-1,-1,-1,-1,-1,-1,-1,-1,-1,-1,-1,-1,-1,-1,-1],"split_conditions":[1.5329367E0,1.4593278E-1,-1.4449864E2,1.5203226E3,1.4193289E2,4.7352524E0,-1.2416002E2,1.5138911E3,1.5232152E3,1.6236293E0,9.019012E-1,2.0833993E0,1.3854952E3,1.5627548E3,1.9862974E0,5.547661E-1,1.5195333E3,1.4576429E-1,6.807928E-1,1.264264E0,1.2443193E0,-4.9263187E-2,9.002458E-1,2.6265028E0,3.5583973E-2,-4.230482E-2,1.6850282E3,1.2E0,1.9418836E0,1.5232152E3,1.3780939E3,1.5539843E-2,-1.159105E-2,-6.633799E-2,-2.4779858E-2,5.100227E-2,3.9554853E-3,-3.5205536E-2,-7.472062E-2,-2.3735141E-2,3.2996688E-2,4.4185154E-2,-8.395112E-3,-6.4990796E-2,8.421606E-3,5.1298555E-2,4.0387986E-3,3.17377E-2,1.0608701E-1,3.7079286E-3,-2.1720132E-2,3.068407E-2,-1.614571E-3,3.1217035E-2,-3.0607492E-2],"split_indices":[15,25,9,8,9,19,9,8,8,1,1,0,7,7,1,15,8,0,15,11,0,0,15,15,0,0,8,10,0,8,7,0,0,0,0,0,0,0,0,0,0,0,0,0,0,0,0,0,0,0,0,0,0,0,0],"split_type":[0,0,0,0,0,0,0,0,0,0,0,0,0,0,0,0,0,0,0,0,0,0,0,0,0,0,0,0,0,0,0,0,0,0,0,0,0,0,0,0,0,0,0,0,0,0,0,0,0,0,0,0,0,0,0],"sum_hessian":[5.66E2,3.55E2,2.11E2,3.09E2,4.6E1,2.5E1,1.86E2,2.36E2,7.3E1,3.6E1,1E1,1.6E1,9E0,1.5E1,1.71E2,2.26E2,1E1,2E0,7.1E1,2.9E1,7E0,1E0,9E0,1.5E1,1E0,2E0,7E0,1.3E1,2E0,1.46E2,2.5E1,4.8E1,1.78E2,8E0,2E0,1E1,6.1E1,1.5E1,1.4E1,5E0,2E0,6E0,3E0,1.4E1,1E0,6E0,1E0,5E0,8E0,1E0,1E0,9.3E1,5.3E1,2E0,2.3E1],"tree_param":{"num_deleted":"0","num_feature":"26","num_nodes":"55","size_leaf_vector":"1"}},{"base_weights":[-1.32016875E-2,6.2005006E-2,-2.4188498E-1,4.638544E-2,1.3960105E0,-2.982917E-1,1.3745992E0,-1.7078178E-1,1.3666037E-1,9.98664E-2,9.6687805E-3,1.109426E0,-3.2694033E-1,1.1783108E-1,3.2714716E-1,-3.4595287E-1,2.1886417E-1,1.15139745E-1,1.7273021E0,9.190435E-2,7.943988E-3,-2.4884091E-1,-8.294397E-1,2.9088985E-2,3.54259E-4,2.6560346E-2,-3.246081E-2,-1.4061545E-2,5.0750062E-2,1.1350398E-2,-1.8712675E-2,6.8208147E-3,1.3363695E-1,-4.222371E-2,-8.372543E-3,-6.1203904E-2,-1.6690684E-2],"categories":[],"categories_nodes":[],"categories_segments":[],"categories_sizes":[],"default_left":[0,0,0,0,0,0,0,0,0,0,0,0,0,0,0,0,0,0,0,0,0,0,0,0,0,0,0,0,0,0,0,0,0,0,0,0,0],"id":10,"left_children":[1,3,5,7,9,11,13,15,17,-1,-1,19,21,-1,23,25,27,29,31,-1,-1,33,35,-1,-1,-1,-1,-1,-1,-1,-1,-1,-1,-1,-1,-1,-1],"loss_changes":[9.93854E0,8.999161E0,1.3448855E1,8.472988E0,1.3891516E0,5.9684725E0,2.4435978E0,8.744065E0,1.02417555E1,0E0,0E0,1.0350313E0,5.1701517E0,0E0,1.4908785E-1,1.3776506E1,1.15645275E1,9.6063175E0,2.9739199E0,0E0,0E0,5.868025E0,1.6077604E0,0E0,0E0,0E0,0E0,0E0,0E0,0E0,0E0,0E0,0E0,0E0,0E0,0E0,0E0],"parents":[2147483647,0,0,1,1,2,2,3,3,4,4,5,5,6,6,7,7,8,8,11,11,12,12,14,14,15,15,16,16,17,17,18,18,21,21,22,22],"right_children":[2,4,6,8,10,12,14,16,18,-1,-1,20,22,-1,24,26,28,30,32,-1,-1,34,36,-1,-1,-1,-1,-1,-1,-1,-1,-1,-1,-1,-1,-1,-1],"split_conditions":[5.3608383E1,5.1343727E1,1.7047607E3,1.2E0,1.5219517E0,7.466274E-2,2.6652217E0,1.0532516E-1,4.7923145E0,9.98664E-2,9.6687805E-3,2.230826E0,4.717933E0,1.1783108E-1,2.0127978E0,1.4552512E3,1.5230784E3,7.3049414E-1,1.5297491E3,9.190435E-2,7.943988E-3,1.1348145E0,9.632555E1,2.9088985E-2,3.54259E-4,2.6560346E-2,-3.246081E-2,-1.4061545E-2,5.0750062E-2,1.1350398E-2,-1.8712675E-2,6.8208147E-3,1.3363695E-1,-4.222371E-2,-8.372543E-3,-6.1203904E-2,-1.6690684E-2],"split_indices":[9,9,7,10,1,25,19,24,15,0,0,0,19,0,0,8,8,3,8,0,0,11,9,0,0,0,0,0,0,0,0,0,0,0,0,0,0],"split_type":[0,0,0,0,0,0,0,0,0,0,0,0,0,0,0,0,0,0,0,0,0,0,0,0,0,0,0,0,0,0,0,0,0,0,0,0,0],"sum_hessian":[5.76E2,4.34E2,1.42E2,4.3E2,4E0,1.38E2,4E0,1.26E2,3.04E2,3E0,1E0,2E0,1.36E2,2E0,2E0,8.7E1,3.9E1,3.01E2,3E0,1E0,1E0,1.19E2,1.7E1,1E0,1E0,1.7E1,7E1,2.3E1,1.6E1,2.57E2,4.4E1,1E0,2E0,2.2E1,9.7E1,1.2E1,5E0],"tree_param":{"num_deleted":"0","num_feature":"26","num_nodes":"37","size_leaf_vector":"1"}},{"base_weights":[2.5980683E-2,4.508864E-3,9.3240523E-1,-4.0848792E-1,5.8774337E-2,1.4406384E0,-1.6889541E-1,3.3477643E-1,-5.8644843E-1,2.5431845E-1,-6.1854742E-2,1.9256054E0,-1.711642E-1,8.421021E-3,-4.217635E-2,7.849784E-1,-5.2465353E-2,2.1828261E-1,-7.164796E-1,4.2751727E-1,-3.1435767E-1,-4.5548314E-1,1.4324969E-2,3.0123E-2,1.2475138E-1,3.4050815E-2,-4.945559E-2,-3.4699915E-3,6.9266714E-2,6.6942185E-2,-3.259862E-2,-4.611332E-2,1.6125986E-2,-4.613978E-2,2.9131945E-2,-2.5639066E-2,8.2312204E-2,-4.3735955E-2,3.3572356E-3,8.390806E-3,-1.5929991E-2],"categories":[],"categories_nodes":[],"categories_segments":[],"categories_sizes":[],"default_left":[0,0,0,0,0,0,0,0,0,0,0,0,0,0,0,0,0,0,0,0,0,0,0,0,0,0,0,0,0,0,0,0,0,0,0,0,0,0,0,0,0],"id":11,"left_children":[1,3,5,7,9,11,13,15,17,19,21,23,25,-1,-1,27,-1,29,31,33,35,37,39,-1,-1,-1,-1,-1,-1,-1,-1,-1,-1,-1,-1,-1,-1,-1,-1,-1,-1],"loss_changes":[1.0933768E1,1.2350313E1,7.519643E0,8.66172E0,1.1503237E1,7.3646336E0,9.2441165E-1,7.763391E0,5.597677E0,1.845428E1,9.062447E0,4.8659515E-1,1.9150605E0,0E0,0E0,3.180675E0,0E0,6.0739264E0,2.515396E0,1.0299856E1,8.967191E0,6.893545E0,8.958655E0,0E0,0E0,0E0,0E0,0E0,0E0,0E0,0E0,0E0,0E0,0E0,0E0,0E0,0E0,0E0,0E0,0E0,0E0],"parents":[2147483647,0,0,1,1,2,2,3,3,4,4,5,5,6,6,7,7,8,8,9,9,10,10,11,11,12,12,15,15,17,17,18,18,19,19,20,20,21,21,22,22],"right_children":[2,4,6,8,10,12,14,16,18,20,22,24,26,-1,-1,28,-1,30,32,34,36,38,40,-1,-1,-1,-1,-1,-1,-1,-1,-1,-1,-1,-1,-1,-1,-1,-1,-1,-1],"split_conditions":[3E0,1.0308381E0,1.4907292E-1,1.4503478E3,1.5936373E0,2.0056174E0,2.043172E0,1.4589785E3,9.731659E-2,1.3035595E0,1.734075E0,-2.2105872E2,1.5642803E0,8.421021E-3,-4.217635E-2,1.3798141E3,-5.2465353E-2,1.0239779E0,1.6662983E3,1.4149774E3,1.5864811E0,1.6307908E0,2.8794208E0,3.0123E-2,1.2475138E-1,3.4050815E-2,-4.945559E-2,-3.4699915E-3,6.9266714E-2,6.6942185E-2,-3.259862E-2,-4.611332E-2,1.6125986E-2,-4.613978E-2,2.9131945E-2,-2.5639066E-2,8.2312204E-2,-4.3735955E-2,3.3572356E-3,8.390806E-3,-1.5929991E-2],"split_indices":[15,0,25,8,14,14,1,7,25,11,14,9,0,0,0,8,0,1,8,8,14,1,14,0,0,0,0,0,0,0,0,0,0,0,0,0,0,0,0,0,0],"split_type":[0,0,0,0,0,0,0,0,0,0,0,0,0,0,0,0,0,0,0,0,0,0,0,0,0,0,0,0,0,0,0,0,0,0,0,0,0,0,0,0,0],"sum_hessian":[5.61E2,5.49E2,1.2E1,6.3E1,4.86E2,8E0,4E0,1.2E1,5.1E1,1.85E2,3.01E2,6E0,2E0,3E0,1E0,9E0,3E0,7E0,4.4E1,1.42E2,4.3E1,4.8E1,2.53E2,1E0,5E0,1E0,1E0,3E0,6E0,3E0,4E0,4.2E1,2E0,6E0,1.36E2,4.1E1,2E0,3.1E1,1.7E1,1.75E2,7.8E1],"tree_param":{"num_deleted":"0","num_feature":"26","num_nodes":"41","size_leaf_vector":"1"}},{"base_weights":[-1.9238979E-2,-3.8611073E-2,7.445655E-1,2.337905E-3,-3.2002243E-1,1.4359157E-1,2.703615E-1,4.5735363E-2,-4.2011598E-1,-4.083806E-1,5.3354114E-1,-5.003454E-1,6.7467555E-2,-3.198401E-1,1.1614331E-1,-2.1005215E-1,-8.262401E-1,5.1757854E-1,-4.465983E-1,8.7121326E-1,-2.0709284E-1,6.994262E-2,-5.6732822E-2,2.3220304E-2,-2.6523644E-2,-2.0270975E-2,1.03523E-2,-4.5388E-2,7.6979497E-3,-5.8181647E-2,3.5463475E-2,8.845943E-3,3.7736125E-2,-9.298378E-3,-3.8367238E-2,6.744417E-2,1.9677162E-2,-2.301341E-2,4.375055E-3,-1.3274717E-3,6.4803907E-3],"categories":[],"categories_nodes":[],"categories_segments":[],"categories_sizes":[],"default_left":[0,0,0,0,0,0,0,0,0,0,0,0,0,0,0,0,0,0,0,0,0,0,0,0,0,0,0,0,0,0,0,0,0,0,0,0,0,0,0,0,0],"id":12,"left_children":[1,3,5,7,9,-1,11,13,15,17,19,21,-1,23,25,27,29,31,33,35,37,39,-1,-1,-1,-1,-1,-1,-1,-1,-1,-1,-1,-1,-1,-1,-1,-1,-1,-1,-1],"loss_changes":[8.373969E0,6.350201E0,1.0297972E1,8.855925E0,5.497239E0,0E0,8.461727E0,1.1311012E1,3.6654868E0,2.4959831E0,1.9310621E0,1.8433864E0,0E0,6.3048453E0,9.480173E0,5.828336E0,3.6229E0,3.0929506E-2,3.3878813E0,3.1819248E-1,1.7620333E-1,1.6407328E-2,0E0,0E0,0E0,0E0,0E0,0E0,0E0,0E0,0E0,0E0,0E0,0E0,0E0,0E0,0E0,0E0,0E0,0E0,0E0],"parents":[2147483647,0,0,1,1,2,2,3,3,4,4,6,6,7,7,8,8,9,9,10,10,11,11,13,13,14,14,15,15,16,16,17,17,18,18,19,19,20,20,21,21],"right_children":[2,4,6,8,10,-1,12,14,16,18,20,22,-1,24,26,28,30,32,34,36,38,40,-1,-1,-1,-1,-1,-1,-1,-1,-1,-1,-1,-1,-1,-1,-1,-1,-1,-1,-1],"split_conditions":[3E0,2.8794208E0,1.061601E0,1.6187419E-1,1.2542075E-1,1.4359157E-1,4.7443566E0,1.0446607E0,1.7796017E0,-3.2914127E1,1.0499048E0,4.290332E0,6.7467555E-2,3.999408E0,1.4418391E3,1.3677633E0,2.7943428E0,1.7211426E0,8.9095336E-1,2.3427692E2,2.137247E0,1.3151808E0,-5.6732822E-2,2.3220304E-2,-2.6523644E-2,-2.0270975E-2,1.03523E-2,-4.5388E-2,7.6979497E-3,-5.8181647E-2,3.5463475E-2,8.845943E-3,3.7736125E-2,-9.298378E-3,-3.8367238E-2,6.744417E-2,1.9677162E-2,-2.301341E-2,4.375055E-3,-1.3274717E-3,6.4803907E-3],"split_indices":[15,14,0,25,25,0,18,0,0,9,1,18,0,19,8,14,14,0,1,9,0,0,0,0,0,0,0,0,0,0,0,0,0,0,0,0,0,0,0,0,0],"split_type":[0,0,0,0,0,0,0,0,0,0,0,0,0,0,0,0,0,0,0,0,0,0,0,0,0,0,0,0,0,0,0,0,0,0,0,0,0,0,0,0,0],"sum_hessian":[5.63E2,5.5E2,1.3E1,4.81E2,6.9E1,2E0,1.1E1,4.37E2,4.4E1,6.3E1,6E0,6E0,5E0,7E1,3.67E2,3E1,1.4E1,2E0,6.1E1,4E0,2E0,3E0,3E0,1E1,6E1,4E1,3.27E2,1.1E1,1.9E1,1.3E1,1E0,1E0,1E0,2.5E1,3.6E1,2E0,2E0,1E0,1E0,1E0,2E0],"tree_param":{"num_deleted":"0","num_feature":"26","num_nodes":"41","size_leaf_vector":"1"}},{"base_weights":[7.427294E-3,-1.1509307E-1,1.5499072E-1,-8.7766215E-2,-8.5487634E-1,-1.9205572E-1,3.028733E-1,9.669717E-1,-1.4239573E-1,-9.508503E-1,-1.691974E-2,-5.1549226E-1,1.2809631E-1,9.8443255E-2,6.2855506E-1,1.2578735E0,-3.69556E-2,-2.0128228E-1,1.6383703E-1,-1.39404945E-2,-6.0697272E-2,-2.3769595E-1,-1.297332E0,7.230888E-1,-3.4311938E-1,1.22873954E-1,4.4868376E-2,2.2233696E0,4.982122E-1,-5.103788E-2,9.026809E-2,-9.9105835E-3,-4.4200376E-2,7.404489E-2,-1.3730198E-3,-3.45983E-2,2.4010299E-2,-2.15627E-2,-8.169709E-2,7.2534524E-2,6.1767385E-3,-4.047251E-2,3.0646859E-2,-2.7227437E-2,1.0821385E-2,1.6305897E-1,7.387515E-3,-1.2716807E-2,4.1609086E-2],"categories":[],"categories_nodes":[],"categories_segments":[],"categories_sizes":[],"default_left":[0,0,0,0,0,0,0,0,0,0,0,0,0,0,0,0,0,0,0,0,0,0,0,0,0,0,0,0,0,0,0,0,0,0,0,0,0,0,0,0,0,0,0,0,0,0,0,0,0],"id":13,"left_children":[1,3,5,7,9,11,13,15,17,19,-1,21,23,25,27,29,-1,31,33,-1,-1,35,37,39,41,-1,43,45,47,-1,-1,-1,-1,-1,-1,-1,-1,-1,-1,-1,-1,-1,-1,-1,-1,-1,-1,-1,-1],"loss_changes":[1.0323167E1,6.2323465E0,1.3350599E1,1.753888E1,3.366623E-1,8.142845E0,1.2055525E1,7.681779E0,5.2264786E0,1.57938E-1,0E0,8.162127E0,1.1462899E1,1.1710043E1,1.3443378E1,8.039047E0,0E0,4.556362E0,9.420569E0,0E0,0E0,6.716766E0,1.13637924E-1,5.2985497E0,6.853585E0,0E0,7.5812635E0,4.8559284E0,9.299501E0,0E0,0E0,0E0,0E0,0E0,0E0,0E0,0E0,0E0,0E0,0E0,0E0,0E0,0E0,0E0,0E0,0E0,0E0,0E0,0E0],"parents":[2147483647,0,0,1,1,2,2,3,3,4,4,5,5,6,6,7,7,8,8,9,9,11,11,12,12,13,13,14,14,15,15,17,17,18,18,21,21,22,22,23,23,24,24,26,26,27,27,28,28],"right_children":[2,4,6,8,10,12,14,16,18,20,-1,22,24,26,28,30,-1,32,34,-1,-1,36,38,40,42,-1,44,46,48,-1,-1,-1,-1,-1,-1,-1,-1,-1,-1,-1,-1,-1,-1,-1,-1,-1,-1,-1,-1],"split_conditions":[1.4178017E0,2.5793893E0,4.7351437E0,2.6652217E0,1.9917329E-1,1.6703408E0,1.8140403E0,3.1735034E0,1.5406534E3,1.4287795E3,-1.691974E-2,1.5666347E0,1.8887777E0,1.4188032E0,1.8664622E0,1.5670844E3,-3.69556E-2,1.6005774E-1,6.807928E-1,-1.39404945E-2,-6.0697272E-2,1.3798126E0,3.627524E0,2E0,3E0,1.22873954E-1,-4.826599E-1,1.3405782E0,4.107331E0,-5.103788E-2,9.026809E-2,-9.9105835E-3,-4.4200376E-2,7.404489E-2,-1.3730198E-3,-3.45983E-2,2.4010299E-2,-2.15627E-2,-8.169709E-2,7.2534524E-2,6.1767385E-3,-4.047251E-2,3.0646859E-2,-2.7227437E-2,1.0821385E-2,1.6305897E-1,7.387515E-3,-1.2716807E-2,4.1609086E-2],"split_indices":[15,2,18,19,24,1,15,0,8,8,0,1,1,15,15,7,0,25,15,0,0,1,18,15,15,0,3,10,19,0,0,0,0,0,0,0,0,0,0,0,0,0,0,0,0,0,0,0,0],"split_type":[0,0,0,0,0,0,0,0,0,0,0,0,0,0,0,0,0,0,0,0,0,0,0,0,0,0,0,0,0,0,0,0,0,0,0,0,0,0,0,0,0,0,0,0,0,0,0,0,0],"sum_hessian":[5.69E2,3.11E2,2.58E2,3.01E2,1E1,7.7E1,1.81E2,1.4E1,2.87E2,8E0,2E0,3.8E1,3.9E1,1.12E2,6.9E1,1.2E1,2E0,2.41E2,4.6E1,1E0,7E0,2.9E1,9E0,1.7E1,2.2E1,2E0,1.1E2,4E0,6.5E1,1E0,1.1E1,2.27E2,1.4E1,6E0,4E1,1.9E1,1E1,1E0,8E0,9E0,8E0,1.6E1,6E0,2.3E1,8.7E1,3E0,1E0,1.4E1,5.1E1],"tree_param":{"num_deleted":"0","num_feature":"26","num_nodes":"49","size_leaf_vector":"1"}},{"base_weights":[5.533635E-3,-5.94278E-2,2.0885107E-1,1.5602604E-1,-1.3623755E-1,-5.5469674E-1,3.2800573E-1,1.2798545E0,9.273248E-2,-3.9805898E-1,-5.9675526E-2,-8.911782E-1,3.228761E-1,1.4672931E0,2.3352721E-1,8.709441E-2,1.2637768E-2,-6.2299916E-3,7.133127E-1,-6.126989E-1,5.674995E-2,-8.403857E-2,1.1411761E0,-1.0427185E0,3.2365378E-2,-4.240887E-1,4.814284E-2,3.4169238E-2,1.8718758E0,-1.7809227E-1,5.3389966E-1,-5.485111E-3,5.5897355E-2,7.4606486E-2,-3.5737984E-2,1.6424369E-2,-4.3179113E-2,-4.0727336E-2,2.0378405E-2,-2.3734476E-3,-4.0539913E-2,7.7006468E-3,8.1737876E-2,-2.4084548E-2,-8.360164E-2,1.9605015E-3,-4.012848E-2,-2.2070503E-3,5.2822814E-3,5.4106233E-3,1.2922776E-1,9.9455446E-2,-2.0238388E-2,-1.9306643E-2,4.4022545E-2],"categories":[],"categories_nodes":[],"categories_segments":[],"categories_sizes":[],"default_left":[0,0,0,0,0,0,0,0,0,0,0,0,0,0,0,0,0,0,0,0,0,0,0,0,0,0,0,0,0,0,0,0,0,0,0,0,0,0,0,0,0,0,0,0,0,0,0,0,0,0,0,0,0,0,0],"id":14,"left_children":[1,3,5,7,9,11,13,15,17,19,21,23,25,27,29,-1,-1,31,33,35,37,39,41,43,-1,45,-1,47,49,51,53,-1,-1,-1,-1,-1,-1,-1,-1,-1,-1,-1,-1,-1,-1,-1,-1,-1,-1,-1,-1,-1,-1,-1,-1],"loss_changes":[7.5276456E0,7.1704044E0,1.2737221E1,7.9902616E0,6.3707857E0,5.8981934E0,1.2573926E1,7.9589367E-1,6.6985865E0,7.063422E0,7.3514905E0,3.597578E0,2.4893186E0,5.1543922E0,1.3942667E1,0E0,0E0,7.675124E0,1.1149281E1,4.842552E0,5.2243843E0,6.3944283E0,9.4495296E-1,2.3640032E0,0E0,3.5719013E-1,0E0,1.4704929E-2,3.3218555E0,1.4587923E1,1.1349297E1,0E0,0E0,0E0,0E0,0E0,0E0,0E0,0E0,0E0,0E0,0E0,0E0,0E0,0E0,0E0,0E0,0E0,0E0,0E0,0E0,0E0,0E0,0E0,0E0],"parents":[2147483647,0,0,1,1,2,2,3,3,4,4,5,5,6,6,7,7,8,8,9,9,10,10,11,11,12,12,13,13,14,14,17,17,18,18,19,19,20,20,21,21,22,22,23,23,25,25,27,27,28,28,29,29,30,30],"right_children":[2,4,6,8,10,12,14,16,18,20,22,24,26,28,30,-1,-1,32,34,36,38,40,42,44,-1,46,-1,48,50,52,54,-1,-1,-1,-1,-1,-1,-1,-1,-1,-1,-1,-1,-1,-1,-1,-1,-1,-1,-1,-1,-1,-1,-1,-1],"split_conditions":[1.7558442E0,8.202469E-1,-1.4449864E2,4.3203144E0,1.0653746E0,4.7352524E0,-1.3065384E2,1.1728941E0,7.629576E-1,6.469783E0,2.5586193E0,2.0833993E0,1.1515716E0,1.5664124E3,4.7443566E0,8.709441E-2,1.2637768E-2,1.5410836E3,2.3782685E0,1.1632959E0,9.04397E-1,6.740336E0,1.4717032E3,-6.844824E-1,3.2365378E-2,1.1122955E0,4.814284E-2,1.3151808E0,1.2E0,3.9053614E0,1.2E0,-5.485111E-3,5.5897355E-2,7.4606486E-2,-3.5737984E-2,1.6424369E-2,-4.3179113E-2,-4.0727336E-2,2.0378405E-2,-2.3734476E-3,-4.0539913E-2,7.7006468E-3,8.1737876E-2,-2.4084548E-2,-8.360164E-2,1.9605015E-3,-4.012848E-2,-2.2070503E-3,5.2822814E-3,5.4106233E-3,1.2922776E-1,9.9455446E-2,-2.0238388E-2,-1.9306643E-2,4.4022545E-2],"split_indices":[15,15,9,18,15,19,9,1,15,18,0,0,0,8,18,0,0,8,2,0,1,18,8,3,0,0,0,0,10,19,10,0,0,0,0,0,0,0,0,0,0,0,0,0,0,0,0,0,0,0,0,0,0,0,0],"split_type":[0,0,0,0,0,0,0,0,0,0,0,0,0,0,0,0,0,0,0,0,0,0,0,0,0,0,0,0,0,0,0,0,0,0,0,0,0,0,0,0,0,0,0,0,0,0,0,0,0,0,0,0,0,0,0],"sum_hessian":[5.68E2,4.31E2,1.37E2,1.13E2,3.18E2,1.8E1,1.19E2,5E0,1.08E2,7.1E1,2.47E2,1.3E1,5E0,8E0,1.11E2,4E0,1E0,9.4E1,1.4E1,4.8E1,2.3E1,2.43E2,4E0,1.2E1,1E0,2E0,3E0,2E0,6E0,4.7E1,6.4E1,8.7E1,7E0,1E1,4E0,5E0,4.3E1,6E0,1.7E1,2.27E2,1.6E1,1E0,3E0,5E0,7E0,1E0,1E0,1E0,1E0,1E0,5E0,3E0,4.4E1,1.2E1,5.2E1],"tree_param":{"num_deleted":"0","num_feature":"26","num_nodes":"55","size_leaf_vector":"1"}},{"base_weights":[2.1419398E-2,-8.13416E-2,1.5643817E-1,-4.894377E-1,-1.183646E-2,1.1790869E0,9.1053486E-2,4.96808E-1,-7.2977155E-1,1.854351E-2,-8.43064E-1,2.1990767E0,2.5475192E-1,2.8821236E-1,-1.1362411E-1,-7.694403E-1,1.1494058E0,3.6188554E-2,-7.807204E-1,-5.8728024E-2,3.5756862E-1,-1.6711786E-2,-5.6962878E-2,1.4350848E-1,3.1280644E-2,-4.4221896E-1,9.007724E-1,-2.66497E-1,5.080585E-1,-6.224671E-1,1.0231721E-1,-1.418806E-2,-5.2096516E-2,8.9658365E-2,1.14862155E-2,-2.0664973E-2,-5.6743067E-2,1.1538076E-2,-1.1031069E-2,2.6661385E-2,-3.1785034E-2,-3.9076533E-2,1.1820223E-2,4.5384155E-3,6.528872E-2,-2.5038926E-2,8.888031E-2,6.228748E-2,1.35076055E-2,9.1517554E-4,-5.2689914E-2,8.171545E-2,2.2834735E-3],"categories":[],"categories_nodes":[],"categories_segments":[],"categories_sizes":[],"default_left":[0,0,0,0,0,0,0,0,0,0,0,0,0,0,0,0,0,0,0,0,0,0,0,0,0,0,0,0,0,0,0,0,0,0,0,0,0,0,0,0,0,0,0,0,0,0,0,0,0,0,0,0,0],"id":15,"left_children":[1,3,5,7,9,11,13,15,17,19,21,23,25,27,29,31,33,-1,35,37,39,-1,-1,-1,-1,41,43,45,47,49,51,-1,-1,-1,-1,-1,-1,-1,-1,-1,-1,-1,-1,-1,-1,-1,-1,-1,-1,-1,-1,-1,-1],"loss_changes":[8.060029E0,9.354583E0,1.6675896E1,1.1739911E1,7.1621385E0,1.35819645E1,9.596646E0,9.147909E0,3.1193924E0,7.198974E0,3.3576632E-1,1.0165062E0,4.4506555E0,1.4891433E1,1.2919676E1,5.386114E-3,2.02676E0,0E0,2.4098644E0,7.0710993E0,4.162831E0,0E0,0E0,0E0,0E0,7.9647243E-1,6.907296E-1,9.84439E0,1.28139E1,5.7206287E0,6.666311E0,0E0,0E0,0E0,0E0,0E0,0E0,0E0,0E0,0E0,0E0,0E0,0E0,0E0,0E0,0E0,0E0,0E0,0E0,0E0,0E0,0E0,0E0],"parents":[2147483647,0,0,1,1,2,2,3,3,4,4,5,5,6,6,7,7,8,8,9,9,10,10,11,11,12,12,13,13,14,14,15,15,16,16,18,18,19,19,20,20,25,25,26,26,27,27,28,28,29,29,30,30],"right_children":[2,4,6,8,10,12,14,16,18,20,22,24,26,28,30,32,34,-1,36,38,40,-1,-1,-1,-1,42,44,46,48,50,52,-1,-1,-1,-1,-1,-1,-1,-1,-1,-1,-1,-1,-1,-1,-1,-1,-1,-1,-1,-1,-1,-1],"split_conditions":[1.3928205E0,-3.637562E-2,1.4266388E0,1.0672504E0,2.5793893E0,4.8287992E0,1.264264E0,4.628409E0,9.275927E-2,1.2810211E0,1.4287795E3,1.5481216E0,1.4912214E3,4.570242E0,1.6236293E0,9.624986E-1,1.5421708E3,3.6188554E-2,9.454333E-1,1.4893622E0,1.9379445E0,-1.6711786E-2,-5.6962878E-2,1.4350848E-1,3.1280644E-2,1.4945484E0,4.9501266E0,4.7923145E0,1.0704298E0,1.4485719E3,3.9053614E0,-1.418806E-2,-5.2096516E-2,8.9658365E-2,1.14862155E-2,-2.0664973E-2,-5.6743067E-2,1.1538076E-2,-1.1031069E-2,2.6661385E-2,-3.1785034E-2,-3.9076533E-2,1.1820223E-2,4.5384155E-3,6.528872E-2,-2.5038926E-2,8.888031E-2,6.228748E-2,1.35076055E-2,9.1517554E-4,-5.2689914E-2,8.171545E-2,2.2834735E-3],"split_indices":[1,3,1,1,2,18,11,18,24,10,8,0,8,18,1,2,8,0,2,0,3,0,0,0,0,0,18,15,2,8,19,0,0,0,0,0,0,0,0,0,0,0,0,0,0,0,0,0,0,0,0,0,0],"split_type":[0,0,0,0,0,0,0,0,0,0,0,0,0,0,0,0,0,0,0,0,0,0,0,0,0,0,0,0,0,0,0,0,0,0,0,0,0,0,0,0,0,0,0,0,0,0,0,0,0,0,0,0,0],"sum_hessian":[5.79E2,3.29E2,2.5E2,4.7E1,2.82E2,1.4E1,2.36E2,9E0,3.8E1,2.73E2,9E0,6E0,8E0,1.2E2,1.16E2,3E0,6E0,1E0,3.7E1,2.23E2,5E1,2E0,7E0,5E0,1E0,4E0,4E0,3.4E1,8.6E1,3.4E1,8.2E1,1E0,2E0,4E0,2E0,1.1E1,2.6E1,7.4E1,1.49E2,4.6E1,4E0,3E0,1E0,1E0,3E0,3.2E1,2E0,2.9E1,5.7E1,1E1,2.4E1,3E0,7.9E1],"tree_param":{"num_deleted":"0","num_feature":"26","num_nodes":"53","size_leaf_vector":"1"}},{"base_weights":[7.501683E-3,-5.2965526E-2,2.3276836E-1,-2.8274475E-2,-7.952047E-1,-2.825493E-1,5.9534514E-1,-3.4180748E-1,2.3484467E-2,5.6333326E-2,-1.0008187E0,7.620361E-1,-5.049571E-1,1.7047296E-1,4.85898E-1,-2.1869515E-1,-1.1147007E0,3.159994E-1,-4.600546E-2,-1.1821029E0,-2.9740345E-1,-1.4063583E-1,1.925535E0,-5.5360787E-2,-8.211144E-1,2.0335773E-1,1.095112E0,8.7158696E-4,-4.037932E-2,-7.261709E-2,-1.3368358E-2,2.4227126E-2,-4.126097E-2,3.7181877E-2,-5.184188E-3,-7.5358704E-2,-1.5516708E-2,6.404954E-3,-2.8062245E-2,2.4598675E-2,-3.1106228E-2,1.3527027E-2,1.4502478E-1,1.7312644E-2,-4.7475666E-2,-5.4854278E-2,-7.616222E-3,-6.853096E-2,2.13052E-2,1.2825312E-1,4.3445617E-2],"categories":[],"categories_nodes":[],"categories_segments":[],"categories_sizes":[],"default_left":[0,0,0,0,0,0,0,0,0,0,0,0,0,0,0,0,0,0,0,0,0,0,0,0,0,0,0,0,0,0,0,0,0,0,0,0,0,0,0,0,0,0,0,0,0,0,0,0,0,0,0],"id":16,"left_children":[1,3,5,7,9,11,13,15,17,-1,19,21,23,-1,25,27,29,31,33,35,37,39,41,43,45,47,49,-1,-1,-1,-1,-1,-1,-1,-1,-1,-1,-1,-1,-1,-1,-1,-1,-1,-1,-1,-1,-1,-1,-1,-1],"loss_changes":[7.5312567E0,7.9679413E0,2.2028751E1,6.8725286E0,5.9314127E0,1.1768667E1,1.5579948E1,5.4653816E0,7.4135075E0,0E0,1.3061733E0,9.723119E0,5.7824125E0,0E0,1.1309841E1,5.6251826E0,4.1234875E-1,6.4453273E0,7.986943E0,3.5742378E-1,3.252369E-1,1.4606835E0,2.797738E0,4.783748E0,1.4354115E0,1.0000973E1,6.5742626E0,0E0,0E0,0E0,0E0,0E0,0E0,0E0,0E0,0E0,0E0,0E0,0E0,0E0,0E0,0E0,0E0,0E0,0E0,0E0,0E0,0E0,0E0,0E0,0E0],"parents":[2147483647,0,0,1,1,2,2,3,3,4,4,5,5,6,6,7,7,8,8,10,10,11,11,12,12,14,14,15,15,16,16,17,17,18,18,19,19,20,20,21,21,22,22,23,23,24,24,25,25,26,26],"right_children":[2,4,6,8,10,12,14,16,18,-1,20,22,24,-1,26,28,30,32,34,36,38,40,42,44,46,48,50,-1,-1,-1,-1,-1,-1,-1,-1,-1,-1,-1,-1,-1,-1,-1,-1,-1,-1,-1,-1,-1,-1,-1,-1],"split_conditions":[1.8250498E0,5.5702243E0,4.7411013E0,9.4821566E-1,-8.5386187E-1,9.6627784E-1,1.8664622E0,9.211542E-1,3.8224428E0,5.6333326E-2,1.5547671E3,1.2295964E0,2.1022377E0,1.7047296E-1,4.9253716E0,1.00158714E-1,7.667688E0,2.5168452E0,1.0239779E0,-1.6580053E1,1.4087918E0,4.5764327E-1,1.718032E0,1.2487955E0,5.868601E0,6.3868076E-1,1.0025014E0,8.7158696E-4,-4.037932E-2,-7.261709E-2,-1.3368358E-2,2.4227126E-2,-4.126097E-2,3.7181877E-2,-5.184188E-3,-7.5358704E-2,-1.5516708E-2,6.404954E-3,-2.8062245E-2,2.4598675E-2,-3.1106228E-2,1.3527027E-2,1.4502478E-1,1.7312644E-2,-4.7475666E-2,-5.4854278E-2,-7.616222E-3,-6.853096E-2,2.13052E-2,1.2825312E-1,4.3445617E-2],"split_indices":[15,19,18,1,3,0,15,1,19,0,8,14,15,0,19,25,18,2,1,9,0,2,1,2,19,14,2,0,0,0,0,0,0,0,0,0,0,0,0,0,0,0,0,0,0,0,0,0,0,0,0],"split_type":[0,0,0,0,0,0,0,0,0,0,0,0,0,0,0,0,0,0,0,0,0,0,0,0,0,0,0,0,0,0,0,0,0,0,0,0,0,0,0,0,0,0,0,0,0,0,0,0,0,0,0],"sum_hessian":[5.51E2,4.35E2,1.16E2,4.22E2,1.3E1,4.8E1,6.8E1,5.9E1,3.63E2,1E0,1.2E1,8E0,4E1,2E0,6.6E1,5.2E1,7E0,6.9E1,2.94E2,9E0,3E0,5E0,3E0,1.7E1,2.3E1,4.6E1,2E1,3.5E1,1.7E1,6E0,1E0,6.4E1,5E0,1.6E1,2.78E2,8E0,1E0,1E0,2E0,2E0,3E0,1E0,2E0,1.2E1,5E0,2E1,3E0,4E0,4.2E1,4E0,1.6E1],"tree_param":{"num_deleted":"0","num_feature":"26","num_nodes":"51","size_leaf_vector":"1"}},{"base_weights":[1.6399438E-2,3.698568E-1,-1.588968E-2,-2.0213223E-1,6.442933E-1,8.269738E-3,-4.7059068E-1,4.5574883E-1,-6.424357E-1,1.06753565E-1,1.1123134E0,-5.0643273E-2,2.8956872E-1,-7.3365964E-2,-6.765705E-1,8.380889E-3,4.9836684E-2,4.1245624E-2,-8.6657906E-1,-5.0279415E-1,7.7915055E-1,-3.4523454E-2,1.2537569E0,-3.541106E-3,-5.829332E-1,4.0474895E-1,-5.220754E-1,3.201085E-2,-2.917753E-1,-8.471117E-1,-9.7849086E-2,-6.404991E-2,-2.0913314E-2,-5.544907E-2,1.5296396E-2,1.2455975E-1,1.7838966E-2,-1.98462E-4,8.02669E-2,-4.6088668E-3,1.8292004E-2,-6.119363E-2,-2.0916425E-2,-1.7505055E-3,4.1680798E-2,-6.027151E-2,6.595794E-2,-2.522058E-2,1.8245969E-2,-2.9813522E-2,-6.457892E-2,3.2628034E-3,-2.1202968E-2],"categories":[],"categories_nodes":[],"categories_segments":[],"categories_sizes":[],"default_left":[0,0,0,0,0,0,0,0,0,0,0,0,0,0,0,0,0,0,0,0,0,0,0,0,0,0,0,0,0,0,0,0,0,0,0,0,0,0,0,0,0,0,0,0,0,0,0,0,0,0,0,0,0],"id":17,"left_children":[1,3,5,7,9,11,13,15,17,19,21,23,25,27,29,-1,-1,-1,31,33,35,-1,37,39,41,43,45,-1,47,49,51,-1,-1,-1,-1,-1,-1,-1,-1,-1,-1,-1,-1,-1,-1,-1,-1,-1,-1,-1,-1,-1,-1],"loss_changes":[6.408473E0,7.508042E0,5.661327E0,4.9274664E0,7.931797E0,8.135028E0,2.0776896E0,7.1335185E-1,3.576509E0,6.9494815E0,4.7795506E0,1.0177172E1,8.157564E0,1.481149E0,1.5949411E0,0E0,0E0,0E0,5.646467E-1,3.1090925E0,4.381692E0,0E0,1.694418E0,8.475098E0,3.0233698E0,9.455869E0,9.708824E0,0E0,7.4070823E-1,5.087185E-1,2.1371537E-1,0E0,0E0,0E0,0E0,0E0,0E0,0E0,0E0,0E0,0E0,0E0,0E0,0E0,0E0,0E0,0E0,0E0,0E0,0E0,0E0,0E0,0E0],"parents":[2147483647,0,0,1,1,2,2,3,3,4,4,5,5,6,6,7,7,8,8,9,9,10,10,11,11,12,12,13,13,14,14,18,18,19,19,20,20,22,22,23,23,24,24,25,25,26,26,28,28,29,29,30,30],"right_children":[2,4,6,8,10,12,14,16,18,20,22,24,26,28,30,-1,-1,-1,32,34,36,-1,38,40,42,44,46,-1,48,50,52,-1,-1,-1,-1,-1,-1,-1,-1,-1,-1,-1,-1,-1,-1,-1,-1,-1,-1,-1,-1,-1,-1],"split_conditions":[-1.2416002E2,4.107331E0,2.0327182E0,3.7561336E0,-3.9573684E-1,1.6456809E0,-6.657282E1,1.2446431E0,1.5329367E0,1.1990389E0,3.7065349E0,1.5629534E0,1.8146327E0,1.4767479E3,1.3405782E0,8.380889E-3,4.9836684E-2,4.1245624E-2,1.6703408E0,1.1515716E0,8.973967E-1,-3.4523454E-2,2.7886766E-1,1.5759945E0,1.3786049E0,1.4557482E0,2.0707297E0,3.201085E-2,2.69776E0,1.4638608E3,2.0555677E0,-6.404991E-2,-2.0913314E-2,-5.544907E-2,1.5296396E-2,1.2455975E-1,1.7838966E-2,-1.98462E-4,8.02669E-2,-4.6088668E-3,1.8292004E-2,-6.119363E-2,-2.0916425E-2,-1.7505055E-3,4.1680798E-2,-6.027151E-2,6.595794E-2,-2.522058E-2,1.8245969E-2,-2.9813522E-2,-6.457892E-2,3.2628034E-3,-2.1202968E-2],"split_indices":[9,19,1,19,3,1,9,10,15,14,18,1,0,8,10,0,0,0,1,0,0,0,15,15,0,14,0,0,1,8,0,0,0,0,0,0,0,0,0,0,0,0,0,0,0,0,0,0,0,0,0,0,0],"split_type":[0,0,0,0,0,0,0,0,0,0,0,0,0,0,0,0,0,0,0,0,0,0,0,0,0,0,0,0,0,0,0,0,0,0,0,0,0,0,0,0,0,0,0,0,0,0,0,0,0,0,0,0,0],"sum_hessian":[5.6E2,4.6E1,5.14E2,1.5E1,3.1E1,4.89E2,2.5E1,6E0,9E0,1.5E1,1.6E1,4.05E2,8.4E1,9E0,1.6E1,4E0,2E0,1E0,8E0,8E0,7E0,1E0,1.5E1,3.73E2,3.2E1,7.4E1,1E1,2E0,7E0,1.2E1,4E0,5E0,3E0,5E0,3E0,1E0,6E0,1E0,1.4E1,3.02E2,7.1E1,1E1,2.2E1,3E1,4.4E1,8E0,2E0,6E0,1E0,6E0,6E0,3E0,1E0],"tree_param":{"num_deleted":"0","num_feature":"26","num_nodes":"53","size_leaf_vector":"1"}},{"base_weights":[6.672132E-3,-1.0838412E-2,8.334893E-1,1.1387767E-2,-3.827882E-1,1.2227E0,4.4054292E-2,1.2458516E-1,-7.540953E-2,-4.7031823E-1,3.7206482E-2,-2.7242545E-2,1.5270978E0,-5.631876E-4,4.9686166E-3,-3.9584614E-2,4.7786325E-1,2.1792346E-1,-1.4994137E-1,3.2578653E-1,-6.053261E-1,2.1387054E-2,9.9767834E-2,7.699426E-3,-3.279107E-2,5.366963E-2,3.5772722E-3,-7.070987E-5,5.087491E-2,-2.5601216E-2,-4.5620888E-3,3.189711E-2,-1.4926239E-2,-4.4049684E-2,-3.210895E-3],"categories":[],"categories_nodes":[],"categories_segments":[],"categories_sizes":[],"default_left":[0,0,0,0,0,0,0,0,0,0,0,0,0,0,0,0,0,0,0,0,0,0,0,0,0,0,0,0,0,0,0,0,0,0,0],"id":18,"left_children":[1,3,5,7,9,11,13,15,17,19,-1,-1,21,-1,-1,23,25,27,29,31,33,-1,-1,-1,-1,-1,-1,-1,-1,-1,-1,-1,-1,-1,-1],"loss_changes":[8.377328E0,4.691761E0,3.633213E0,5.2757173E0,3.1007214E0,4.7765417E0,1.1133042E-2,1.3532352E1,6.6789203E0,3.42162E0,0E0,0E0,5.192871E-1,0E0,0E0,1.3689064E1,1.2841352E1,8.55901E0,4.9377112E0,7.235622E-1,1.809123E0,0E0,0E0,0E0,0E0,0E0,0E0,0E0,0E0,0E0,0E0,0E0,0E0,0E0,0E0],"parents":[2147483647,0,0,1,1,2,2,3,3,4,4,5,5,6,6,7,7,8,8,9,9,12,12,15,15,16,16,17,17,18,18,19,19,20,20],"right_children":[2,4,6,8,10,12,14,16,18,20,-1,-1,22,-1,-1,24,26,28,30,32,34,-1,-1,-1,-1,-1,-1,-1,-1,-1,-1,-1,-1,-1,-1],"split_conditions":[3E0,2.0327182E0,1.4907292E-1,1.4893643E3,1.5902579E3,1.479018E3,1.3151808E0,0E0,5.547661E-1,1.3881187E3,3.7206482E-2,-2.7242545E-2,-2.2105872E2,-5.631876E-4,4.9686166E-3,-1.547862E-1,1.570298E0,4.425202E-1,1.5536754E0,9.905738E-1,1.3424236E0,2.1387054E-2,9.9767834E-2,7.699426E-3,-3.279107E-2,5.366963E-2,3.5772722E-3,-7.070987E-5,5.087491E-2,-2.5601216E-2,-4.5620888E-3,3.189711E-2,-1.4926239E-2,-4.4049684E-2,-3.210895E-3],"split_indices":[15,1,25,7,8,8,0,3,15,7,0,0,9,0,0,3,0,15,0,0,10,0,0,0,0,0,0,0,0,0,0,0,0,0,0],"split_type":[0,0,0,0,0,0,0,0,0,0,0,0,0,0,0,0,0,0,0,0,0,0,0,0,0,0,0,0,0,0,0,0,0,0,0],"sum_hessian":[5.77E2,5.66E2,1.1E1,5.35E2,3.1E1,7E0,4E0,2.32E2,3.03E2,2.9E1,2E0,1E0,6E0,2E0,2E0,1.59E2,7.3E1,6.1E1,2.42E2,4E0,2.5E1,1E0,5E0,1.2E2,3.9E1,3.6E1,3.7E1,4.6E1,1.5E1,5E1,1.92E2,3E0,1E0,2E1,5E0],"tree_param":{"num_deleted":"0","num_feature":"26","num_nodes":"35","size_leaf_vector":"1"}},{"base_weights":[1.7147107E-2,8.308625E-3,1.2502478E0,2.6149128E-2,-5.303415E-1,1.0043646E-1,-6.249547E-4,-1.1746252E-1,9.6506216E-2,1.8153355E-1,-7.4670106E-1,-4.0799778E-2,-8.0090153E-1,-8.382598E-3,3.1340563E-1,2.018325E-2,-1.3136469E-2,-1.3047802E-1,-9.029002E-1,5.35242E-3,-3.0905245E-2,-5.777525E-2,4.1378796E-4,1.8593328E-2,-5.2025286E-3,-2.2566736E-2,3.0047353E-2,1.3761048E-2,-1.9612275E-2,-6.206316E-2,-1.2448559E-2],"categories":[],"categories_nodes":[],"categories_segments":[],"categories_sizes":[],"default_left":[0,0,0,0,0,0,0,0,0,0,0,0,0,0,0,0,0,0,0,0,0,0,0,0,0,0,0,0,0,0,0],"id":19,"left_children":[1,3,5,7,9,-1,-1,11,13,15,17,19,21,23,25,-1,-1,27,29,-1,-1,-1,-1,-1,-1,-1,-1,-1,-1,-1,-1],"loss_changes":[6.1256022E0,5.39535E0,2.1539745E0,5.497861E0,2.9079285E0,0E0,0E0,9.345904E0,8.306494E0,3.837245E-1,1.2297406E0,1.0034968E1,2.362461E0,6.184332E0,1.5563673E1,0E0,0E0,3.576399E-1,7.9121304E-1,0E0,0E0,0E0,0E0,0E0,0E0,0E0,0E0,0E0,0E0,0E0,0E0],"parents":[2147483647,0,0,1,1,2,2,3,3,4,4,7,7,8,8,9,9,10,10,11,11,12,12,13,13,14,14,17,17,18,18],"right_children":[2,4,6,8,10,-1,-1,12,14,16,18,20,22,24,26,-1,-1,28,30,-1,-1,-1,-1,-1,-1,-1,-1,-1,-1,-1,-1],"split_conditions":[4.7923145E0,3.9780605E0,-1.3640085E2,-3.491924E1,5.8220673E0,1.0043646E-1,-6.249547E-4,-4.4394474E1,1.4113266E0,4.516622E0,9.211542E-1,1.4893643E3,2.2395343E-1,5.547661E-1,1.4570276E3,2.018325E-2,-1.3136469E-2,2.1315467E0,1.1762416E0,5.35242E-3,-3.0905245E-2,-5.777525E-2,4.1378796E-4,1.8593328E-2,-5.2025286E-3,-2.2566736E-2,3.0047353E-2,1.3761048E-2,-1.9612275E-2,-6.206316E-2,-1.2448559E-2],"split_indices":[15,14,9,9,9,0,0,9,15,14,1,7,3,15,7,0,0,0,1,0,0,0,0,0,0,0,0,0,0,0,0],"split_type":[0,0,0,0,0,0,0,0,0,0,0,0,0,0,0,0,0,0,0,0,0,0,0,0,0,0,0,0,0,0,0],"sum_hessian":[5.62E2,5.59E2,3E0,5.42E2,1.7E1,2E0,1E0,1.78E2,3.64E2,4E0,1.3E1,1.61E2,1.7E1,2.46E2,1.18E2,3E0,1E0,3E0,1E1,1.27E2,3.4E1,1.4E1,3E0,4.8E1,1.98E2,2.5E1,9.3E1,1E0,2E0,8E0,2E0],"tree_param":{"num_deleted":"0","num_feature":"26","num_nodes":"31","size_leaf_vector":"1"}},{"base_weights":[-2.4864633E-4,2.5896577E-2,-4.304489E-1,-6.6721596E-2,2.161907E-1,-7.1561255E-2,-6.066399E-1,-3.8297933E-2,-6.14118E-1,1.2592508E-1,8.505322E-1,2.1324117E-1,-4.1668586E-2,-7.1031094E-1,-1.1209629E-1,-1.836348E-2,-8.8570863E-1,-7.2415274E-1,1.0646391E-2,8.789166E-3,5.0558776E-1,1.9870646E0,3.9937174E-1,-1.4834027E-2,3.8012457E-1,-3.1887507E-1,-8.3633435E-1,2.2787654E-3,-2.1371974E-2,-1.9135417E-3,6.796802E-2,3.9616704E-2,-7.205336E-2,-4.9122483E-2,-1.4148585E-2,4.0651965E-3,-5.7669748E-2,-2.0479593E-2,4.505935E-2,1.511018E-1,3.6978703E-2,4.286733E-2,-2.9983215E-2,3.417725E-2,5.7358285E-3,1.0451078E-3,-2.9482586E-2,-8.158328E-3,-5.3002007E-2],"categories":[],"categories_nodes":[],"categories_segments":[],"categories_sizes":[],"default_left":[0,0,0,0,0,0,0,0,0,0,0,0,0,0,0,0,0,0,0,0,0,0,0,0,0,0,0,0,0,0,0,0,0,0,0,0,0,0,0,0,0,0,0,0,0,0,0,0,0],"id":20,"left_children":[1,3,5,7,9,11,13,15,17,19,21,23,-1,25,27,29,31,33,-1,35,37,39,41,-1,43,45,47,-1,-1,-1,-1,-1,-1,-1,-1,-1,-1,-1,-1,-1,-1,-1,-1,-1,-1,-1,-1,-1,-1],"loss_changes":[6.478564E0,9.584633E0,2.0432696E0,5.6710777E0,1.0085037E1,2.276984E0,1.0483131E0,5.8792768E0,1.6962733E0,6.977681E0,1.0487107E1,7.855902E-1,0E0,6.212559E-1,1.9669813E-1,5.3624225E0,4.691045E0,5.457468E-1,0E0,6.9853954E0,7.94619E0,2.8175793E0,5.172946E0,0E0,3.2296407E-1,3.5662568E-1,3.0810356E-1,0E0,0E0,0E0,0E0,0E0,0E0,0E0,0E0,0E0,0E0,0E0,0E0,0E0,0E0,0E0,0E0,0E0,0E0,0E0,0E0,0E0,0E0],"parents":[2147483647,0,0,1,1,2,2,3,3,4,4,5,5,6,6,7,7,8,8,9,9,10,10,11,11,13,13,14,14,15,15,16,16,17,17,19,19,20,20,21,21,22,22,24,24,25,25,26,26],"right_children":[2,4,6,8,10,12,14,16,18,20,22,24,-1,26,28,30,32,34,-1,36,38,40,42,-1,44,46,48,-1,-1,-1,-1,-1,-1,-1,-1,-1,-1,-1,-1,-1,-1,-1,-1,-1,-1,-1,-1,-1,-1],"split_conditions":[2.0327182E0,1.5329367E0,-1.000799E2,3.9780605E0,1.3353296E1,2.2933953E0,1.3405782E0,1.5144308E0,1.5197162E3,5.054294E0,1.6324598E1,2.026335E0,-4.1668586E-2,1.4452534E3,2.0555677E0,2.4214665E2,8.9892685E-1,1.0045515E0,1.0646391E-2,4.9785285E0,1.1683288E0,1.570298E0,2.0658271E0,-1.4834027E-2,1.5075041E-1,1.0058628E-1,9.0094104E-2,2.2787654E-3,-2.1371974E-2,-1.9135417E-3,6.796802E-2,3.9616704E-2,-7.205336E-2,-4.9122483E-2,-1.4148585E-2,4.0651965E-3,-5.7669748E-2,-2.0479593E-2,4.505935E-2,1.511018E-1,3.6978703E-2,4.286733E-2,-2.9983215E-2,3.417725E-2,5.7358285E-3,1.0451078E-3,-2.9482586E-2,-8.158328E-3,-5.3002007E-2],"split_indices":[1,15,9,14,9,1,10,15,8,19,9,15,0,8,0,9,0,15,0,19,10,0,15,0,25,24,24,0,0,0,0,0,0,0,0,0,0,0,0,0,0,0,0,0,0,0,0,0,0],"split_type":[0,0,0,0,0,0,0,0,0,0,0,0,0,0,0,0,0,0,0,0,0,0,0,0,0,0,0,0,0,0,0,0,0,0,0,0,0,0,0,0,0,0,0,0,0,0,0,0,0],"sum_hessian":[5.74E2,5.42E2,3.2E1,3.65E2,1.77E2,1.1E1,2.1E1,3.48E2,1.7E1,1.56E2,2.1E1,8E0,3E0,1.7E1,4E0,3.41E2,7E0,1.5E1,2E0,1.2E2,3.6E1,5E0,1.6E1,2E0,6E0,5E0,1.2E1,3E0,1E0,3.38E2,3E0,1E0,6E0,1.2E1,3E0,1.14E2,6E0,8E0,2.8E1,3E0,2E0,1.2E1,4E0,3E0,3E0,2E0,3E0,1E0,1.1E1],"tree_param":{"num_deleted":"0","num_feature":"26","num_nodes":"49","size_leaf_vector":"1"}},{"base_weights":[5.3282077E-3,2.1997742E-2,-7.170007E-1,8.270466E-1,2.963926E-3,-8.3143455E-1,-1.50999585E-2,1.6000932E0,1.4388074E-1,-1.7155924E-1,7.865849E-2,-1.7137777E-2,-9.321821E-1,-4.934281E-2,1.3494383E-1,-3.3281744E-1,4.9646312E-1,-7.1867156E-1,-9.646597E-2,1.3199817E-1,-2.5073835E-1,-6.111237E-2,-9.830392E-3,-2.7820753E-2,1.7930388E-3,4.94549E-2,-2.4440335E-2,-5.0835617E-2,1.7545078E-2,2.8081845E-2,-1.1924605E-2,9.021744E-3,-5.3451166E-2,-1.9144615E-2,6.1042584E-2],"categories":[],"categories_nodes":[],"categories_segments":[],"categories_sizes":[],"default_left":[0,0,0,0,0,0,0,0,0,0,0,0,0,0,0,0,0,0,0,0,0,0,0,0,0,0,0,0,0,0,0,0,0,0,0],"id":21,"left_children":[1,3,5,7,9,11,-1,13,15,17,19,-1,21,-1,-1,23,25,27,29,31,33,-1,-1,-1,-1,-1,-1,-1,-1,-1,-1,-1,-1,-1,-1],"loss_changes":[6.939282E0,8.624483E0,4.8300743E-1,6.6353254E0,7.2924557E0,2.836256E-1,0E0,1.1282273E1,1.5098348E0,6.7917776E0,6.7975163E0,0E0,3.6393976E-1,0E0,0E0,2.037116E-1,1.8170133E0,2.8480482E0,8.637842E0,6.3702E0,5.004325E0,0E0,0E0,0E0,0E0,0E0,0E0,0E0,0E0,0E0,0E0,0E0,0E0,0E0,0E0],"parents":[2147483647,0,0,1,1,2,2,3,3,4,4,5,5,7,7,8,8,9,9,10,10,12,12,15,15,16,16,17,17,18,18,19,19,20,20],"right_children":[2,4,6,8,10,12,-1,14,16,18,20,-1,22,-1,-1,24,26,28,30,32,34,-1,-1,-1,-1,-1,-1,-1,-1,-1,-1,-1,-1,-1,-1],"split_conditions":[2.554984E0,2.621535E0,1.8869118E2,6.920398E0,1.4712499E3,1.6329834E3,-1.50999585E-2,1.5670844E3,1.4635687E3,4.3381104E0,2.7233796E0,-1.7137777E-2,3.3933392E0,-4.934281E-2,1.3494383E-1,1.6724933E3,2.5105827E0,1.7764221E0,4.858132E0,2.0399966E0,2.4345374E0,-6.111237E-2,-9.830392E-3,-2.7820753E-2,1.7930388E-3,4.94549E-2,-2.4440335E-2,-5.0835617E-2,1.7545078E-2,2.8081845E-2,-1.1924605E-2,9.021744E-3,-5.3451166E-2,-1.9144615E-2,6.1042584E-2],"split_indices":[2,19,9,18,8,7,0,7,8,18,14,0,14,0,0,7,0,14,18,11,2,0,0,0,0,0,0,0,0,0,0,0,0,0,0],"split_type":[0,0,0,0,0,0,0,0,0,0,0,0,0,0,0,0,0,0,0,0,0,0,0,0,0,0,0,0,0,0,0,0,0,0,0],"sum_hessian":[5.74E2,5.62E2,1.2E1,1.2E1,5.5E2,9E0,3E0,5E0,7E0,1.66E2,3.84E2,2E0,7E0,1E0,4E0,3E0,4E0,1.9E1,1.47E2,3.31E2,5.3E1,6E0,1E0,2E0,1E0,3E0,1E0,1.7E1,2E0,2.2E1,1.25E2,3.26E2,5E0,5.1E1,2E0],"tree_param":{"num_deleted":"0","num_feature":"26","num_nodes":"35","size_leaf_vector":"1"}},{"base_weights":[-2.960067E-2,-3.791849E-1,-4.668458E-3,-4.849475E-1,4.1583768E-1,-2.189878E-2,1.8226794E0,-1.1456239E-1,-7.384889E-1,3.204803E-2,9.535735E-3,-2.6600713E-1,2.5326425E-2,-2.2838248E-2,1.4812008E-1,2.5100708E-1,-2.7031556E-1,-8.973108E-1,4.6060526E-1,3.0424842E-1,-3.8111582E-1,1.0515561E0,-1.04479855E-2,2.1135237E-2,3.9654705E-3,-2.8790466E-2,-7.905801E-3,4.367162E-3,-5.751941E-2,6.16863E-3,3.528584E-2,-2.064703E-2,4.648364E-2,-2.6903257E-2,5.2476108E-2,5.5096257E-3,1.485507E-1,-5.7157567E-3,1.03354985E-2],"categories":[],"categories_nodes":[],"categories_segments":[],"categories_sizes":[],"default_left":[0,0,0,0,0,0,0,0,0,0,0,0,0,0,0,0,0,0,0,0,0,0,0,0,0,0,0,0,0,0,0,0,0,0,0,0,0,0,0],"id":22,"left_children":[1,3,5,7,9,11,13,15,17,-1,-1,19,21,-1,-1,23,25,27,29,31,33,35,37,-1,-1,-1,-1,-1,-1,-1,-1,-1,-1,-1,-1,-1,-1,-1,-1],"loss_changes":[4.9750137E0,3.3968377E0,1.6853329E1,3.1082673E0,6.7067325E-2,6.116612E0,8.056255E0,9.2193025E-1,4.2221546E0,0E0,0E0,5.7611127E0,1.6348167E1,0E0,0E0,7.0329905E-2,2.5610703E-1,1.1409855E0,7.638544E-2,4.8422327E0,6.4743185E0,2.027662E1,6.6952577E0,0E0,0E0,0E0,0E0,0E0,0E0,0E0,0E0,0E0,0E0,0E0,0E0,0E0,0E0,0E0,0E0],"parents":[2147483647,0,0,1,1,2,2,3,3,4,4,5,5,6,6,7,7,8,8,11,11,12,12,15,15,16,16,17,17,18,18,19,19,20,20,21,21,22,22],"right_children":[2,4,6,8,10,12,14,16,18,-1,-1,20,22,-1,-1,24,26,28,30,32,34,36,38,-1,-1,-1,-1,-1,-1,-1,-1,-1,-1,-1,-1,-1,-1,-1,-1],"split_conditions":[4.170213E0,2.0898595E0,5.868601E0,1.1136255E0,1.4660432E0,-3.5943276E-1,7.980971E-1,-9.9143776E1,1.634733E0,3.204803E-2,9.535735E-3,7.44477E-1,1.0025014E0,-2.2838248E-2,1.4812008E-1,9.6627784E-1,-8.5553635E1,1.080781E0,1.5619178E0,-1.1429058E0,1.251787E0,3.3994262E0,1.5197162E3,2.1135237E-2,3.9654705E-3,-2.8790466E-2,-7.905801E-3,4.367162E-3,-5.751941E-2,6.16863E-3,3.528584E-2,-2.064703E-2,4.648364E-2,-2.6903257E-2,5.2476108E-2,5.5096257E-3,1.485507E-1,-5.7157567E-3,1.03354985E-2],"split_indices":[18,14,19,2,2,3,2,9,2,0,0,2,2,0,0,0,9,14,0,3,2,9,8,0,0,0,0,0,0,0,0,0,0,0,0,0,0,0,0],"split_type":[0,0,0,0,0,0,0,0,0,0,0,0,0,0,0,0,0,0,0,0,0,0,0,0,0,0,0,0,0,0,0,0,0,0,0,0,0,0,0],"sum_hessian":[5.7E2,3.7E1,5.33E2,3.3E1,4E0,5.29E2,4E0,1.4E1,1.9E1,2E0,2E0,8.5E1,4.44E2,1E0,3E0,4E0,1E1,1.7E1,2E0,1.4E1,7.1E1,1.4E1,4.3E2,2E0,2E0,3E0,7E0,1E0,1.6E1,1E0,1E0,6E0,8E0,6.8E1,3E0,9E0,5E0,2.94E2,1.36E2],"tree_param":{"num_deleted":"0","num_feature":"26","num_nodes":"39","size_leaf_vector":"1"}},{"base_weights":[2.916391E-2,1.3609952E-1,-5.3468145E-2,1.6423985E-2,4.780401E-1,-4.653836E-1,7.038999E-3,-2.711556E-1,2.1235166E-1,8.495535E-1,7.997817E-2,-7.6889557E-1,-7.3480465E-2,3.387441E-1,-7.189984E-2,3.7347358E-1,-4.252258E-1,-1.3584948E-2,6.407996E-1,-3.0622202E-1,1.2957286E0,1.1657447E0,-1.1676508E-1,-3.3670986E-1,-6.4526714E-2,8.588005E-2,-5.712179E-2,1.2879884E-1,1.3741595E0,-9.176166E-2,1.0583375E0,5.091423E-2,-4.4786062E-2,2.0657199E-2,-3.092594E-2,2.140672E-2,-2.073685E-2,-4.653149E-2,4.4461597E-2,4.6126734E-2,-5.2605737E-2,1.12848006E-1,1.7312905E-2,1.0169885E-2,1.0640458E-1,2.6891375E-2,-3.0521285E-2,-3.0405706E-2,1.7140953E-2,-7.900378E-3,3.8060512E-2,7.596499E-2,-2.4464661E-3,4.342686E-3,9.167009E-2,-2.9802432E-2,-1.4486987E-3,8.370965E-2,1.4360117E-3],"categories":[],"categories_nodes":[],"categories_segments":[],"categories_sizes":[],"default_left":[0,0,0,0,0,0,0,0,0,0,0,0,0,0,0,0,0,0,0,0,0,0,0,0,0,0,0,0,0,0,0,0,0,0,0,0,0,0,0,0,0,0,0,0,0,0,0,0,0,0,0,0,0,0,0,0,0,0,0],"id":23,"left_children":[1,3,5,7,9,11,13,15,17,19,21,23,25,27,29,31,33,35,37,39,41,43,45,47,-1,49,-1,51,53,55,57,-1,-1,-1,-1,-1,-1,-1,-1,-1,-1,-1,-1,-1,-1,-1,-1,-1,-1,-1,-1,-1,-1,-1,-1,-1,-1,-1,-1],"loss_changes":[5.008628E0,1.0099864E1,7.9789004E0,1.0425024E1,9.396718E0,4.82034E0,7.3559923E0,7.6076703E0,1.0656935E1,1.7414162E1,6.97187E0,2.6850758E0,2.741876E0,1.156156E1,5.1929426E0,8.614375E0,4.4117765E0,9.10023E0,5.968936E0,6.8073497E0,1.3599838E1,2.7263327E0,6.427713E0,1.3090023E0,0E0,2.1119576E0,0E0,8.922863E0,1.6898842E0,6.1213684E0,1.3602552E0,0E0,0E0,0E0,0E0,0E0,0E0,0E0,0E0,0E0,0E0,0E0,0E0,0E0,0E0,0E0,0E0,0E0,0E0,0E0,0E0,0E0,0E0,0E0,0E0,0E0,0E0,0E0,0E0],"parents":[2147483647,0,0,1,1,2,2,3,3,4,4,5,5,6,6,7,7,8,8,9,9,10,10,11,11,12,12,13,13,14,14,15,15,16,16,17,17,18,18,19,19,20,20,21,21,22,22,23,23,25,25,27,27,28,28,29,29,30,30],"right_children":[2,4,6,8,10,12,14,16,18,20,22,24,26,28,30,32,34,36,38,40,42,44,46,48,-1,50,-1,52,54,56,58,-1,-1,-1,-1,-1,-1,-1,-1,-1,-1,-1,-1,-1,-1,-1,-1,-1,-1,-1,-1,-1,-1,-1,-1,-1,-1,-1,-1],"split_conditions":[1.3569684E0,5.0119557E0,1.4424152E0,1.4843596E3,1.5352497E0,1.2814766E0,1.5186481E0,1.4370621E3,1.438927E0,1.0446607E0,8.973967E-1,1.061657E0,1.4394351E0,1.4588886E0,2.4214665E2,1.601122E0,1.4124904E3,1.608212E0,1.1477132E0,1.2097545E0,1.2475067E0,1.7810978E0,5.384615E0,2.9239496E1,-6.4526714E-2,1.9862188E0,-5.712179E-2,5.547661E-1,1.2593164E0,1.2E0,2.142787E0,5.091423E-2,-4.4786062E-2,2.0657199E-2,-3.092594E-2,2.140672E-2,-2.073685E-2,-4.653149E-2,4.4461597E-2,4.6126734E-2,-5.2605737E-2,1.12848006E-1,1.7312905E-2,1.0169885E-2,1.0640458E-1,2.6891375E-2,-3.0521285E-2,-3.0405706E-2,1.7140953E-2,-7.900378E-3,3.8060512E-2,7.596499E-2,-2.4464661E-3,4.342686E-3,9.167009E-2,-2.9802432E-2,-1.4486987E-3,8.370965E-2,1.4360117E-3],"split_indices":[2,19,2,8,1,1,14,8,14,0,0,1,2,14,9,0,7,15,15,1,2,1,19,9,0,14,0,15,0,10,0,0,0,0,0,0,0,0,0,0,0,0,0,0,0,0,0,0,0,0,0,0,0,0,0,0,0,0,0],"split_type":[0,0,0,0,0,0,0,0,0,0,0,0,0,0,0,0,0,0,0,0,0,0,0,0,0,0,0,0,0,0,0,0,0,0,0,0,0,0,0,0,0,0,0,0,0,0,0,0,0,0,0,0,0,0,0,0,0,0,0],"sum_hessian":[5.65E2,2.46E2,3.19E2,1.83E2,6.3E1,4E1,2.79E2,7.4E1,1.09E2,3.2E1,3.1E1,2.2E1,1.8E1,5.3E1,2.26E2,1.4E1,6E1,7.2E1,3.7E1,9E0,2.3E1,4E0,2.7E1,1E1,1.2E1,1.6E1,2E0,4.5E1,8E0,2.23E2,3E0,1E1,4E0,6E0,5.4E1,3.4E1,3.8E1,2E0,3.5E1,3E0,6E0,1.4E1,9E0,2E0,2E0,1.1E1,1.6E1,8E0,2E0,1.2E1,4E0,5E0,4E1,1E0,7E0,3.1E1,1.92E2,2E0,1E0],"tree_param":{"num_deleted":"0","num_feature":"26","num_nodes":"59","size_leaf_vector":"1"}},{"base_weights":[-4.587547E-3,-6.6965866E-1,7.088416E-3,-7.57831E-1,3.716762E-3,6.0525335E-2,-1.6063097E-1,-3.9914447E-1,-5.7897076E-2,7.308857E-2,-8.457399E-1,-4.5211148E-1,3.7965886E-2,-3.192511E-2,-7.9893395E-3,6.288859E-2,8.9827366E-2,-1.3038178E-2,-9.2796665E-1,3.3691707E-1,-5.5353326E-1,8.744056E-1,-5.057995E-2,5.5739633E-3,-2.4143334E-2,-6.290143E-2,-1.339213E-2,3.0128337E-2,-1.9632429E-2,2.2269057E-2,-3.8520545E-2,1.1929684E-1,1.0304024E-2,1.4806207E-3,-3.6814086E-2],"categories":[],"categories_nodes":[],"categories_segments":[],"categories_sizes":[],"default_left":[0,0,0,0,0,0,0,0,0,0,0,0,0,0,0,0,0,0,0,0,0,0,0,0,0,0,0,0,0,0,0,0,0,0,0],"id":24,"left_children":[1,3,5,7,-1,9,11,13,-1,15,17,19,21,-1,-1,23,-1,-1,25,27,29,31,33,-1,-1,-1,-1,-1,-1,-1,-1,-1,-1,-1,-1],"loss_changes":[4.5008817E0,6.920171E-1,5.1182947E0,2.8346634E-1,0E0,4.99179E0,8.005586E0,1.05953515E-1,0E0,6.1225996E0,1.0839605E-1,4.6678762E0,6.1914773E0,0E0,0E0,5.9857674E0,0E0,0E0,1.9023943E-1,9.3239844E-1,4.3288918E0,5.9200563E0,3.2351682E0,0E0,0E0,0E0,0E0,0E0,0E0,0E0,0E0,0E0,0E0,0E0,0E0],"parents":[2147483647,0,0,1,1,2,2,3,3,5,5,6,6,7,7,9,9,10,10,11,11,12,12,15,15,18,18,19,19,20,20,21,21,22,22],"right_children":[2,4,6,8,-1,10,12,14,-1,16,18,20,22,-1,-1,24,-1,-1,26,28,30,32,34,-1,-1,-1,-1,-1,-1,-1,-1,-1,-1,-1,-1],"split_conditions":[3.734728E0,5.8726315E0,5.936163E1,1.4693633E3,3.716762E-3,2.0399966E0,1.0791448E0,1.00158714E-1,-5.7897076E-2,4.7923145E0,2.1201384E0,5.620891E-1,1.1327558E0,-3.192511E-2,-7.9893395E-3,5.5268583E0,8.9827366E-2,-1.3038178E-2,2.0127978E0,9.3047434E-1,4.5058274E0,2.621535E0,3.1735034E0,5.5739633E-3,-2.4143334E-2,-6.290143E-2,-1.339213E-2,3.0128337E-2,-1.9632429E-2,2.2269057E-2,-3.8520545E-2,1.1929684E-1,1.0304024E-2,1.4806207E-3,-3.6814086E-2],"split_indices":[18,19,9,7,0,11,3,25,0,15,11,15,3,0,0,19,0,0,0,3,18,19,0,0,0,0,0,0,0,0,0,0,0,0,0],"split_type":[0,0,0,0,0,0,0,0,0,0,0,0,0,0,0,0,0,0,0,0,0,0,0,0,0,0,0,0,0,0,0,0,0,0,0],"sum_hessian":[5.78E2,9E0,5.69E2,8E0,1E0,4.32E2,1.37E2,4E0,4E0,4.27E2,5E0,5.5E1,8.2E1,2E0,2E0,4.25E2,2E0,1E0,4E0,6E0,4.9E1,7E0,7.5E1,4E2,2.5E1,3E0,1E0,5E0,1E0,4E0,4.5E1,2E0,5E0,6.7E1,8E0],"tree_param":{"num_deleted":"0","num_feature":"26","num_nodes":"35","size_leaf_vector":"1"}},{"base_weights":[-1.5842122E-3,-7.7372015E-2,8.770212E-2,-1.0612516E-2,-5.167489E-1,6.356882E-2,9.8428465E-2,-1.0465226E-1,2.6620895E-1,6.289967E-2,-5.8208406E-1,4.150546E-1,-3.447146E-2,-1.6004893E-1,5.527994E-1,1.2076491E0,-1.7666088E-2,-7.4208635E-1,-1.4690477E-1,1.2529184E0,2.9191536E-1,-3.424925E-1,4.462216E-2,-1.4798929E-2,1.0627882E-2,-1.6796552E-2,7.389554E-2,8.385658E-2,-4.883022E-3,3.258967E-2,-1.4837765E-2,-5.2835163E-2,5.929779E-3,-3.0249111E-2,2.7244292E-2,1.662845E-2,9.526807E-2,-4.337751E-2,2.8188206E-2,9.315892E-2,-2.5595095E-2,5.6933E-2,2.566523E-4],"categories":[],"categories_nodes":[],"categories_segments":[],"categories_sizes":[],"default_left":[0,0,0,0,0,0,0,0,0,0,0,0,0,0,0,0,0,0,0,0,0,0,0,0,0,0,0,0,0,0,0,0,0,0,0,0,0,0,0,0,0,0,0],"id":25,"left_children":[1,3,5,7,9,11,-1,13,15,-1,17,19,21,23,25,27,29,31,33,35,37,39,41,-1,-1,-1,-1,-1,-1,-1,-1,-1,-1,-1,-1,-1,-1,-1,-1,-1,-1,-1,-1],"loss_changes":[3.8909376E0,9.116949E0,9.788727E0,7.082591E0,4.8026495E0,9.008306E0,0E0,7.481864E0,1.8461678E1,0E0,2.6761703E0,5.5151663E0,5.0095954E0,5.533247E0,9.388925E0,4.0315933E0,7.088592E0,3.4645605E0,2.8052855E0,1.847353E0,9.546883E0,7.355752E0,5.9790015E0,0E0,0E0,0E0,0E0,0E0,0E0,0E0,0E0,0E0,0E0,0E0,0E0,0E0,0E0,0E0,0E0,0E0,0E0,0E0,0E0],"parents":[2147483647,0,0,1,1,2,2,3,3,4,4,5,5,7,7,8,8,10,10,11,11,12,12,13,13,14,14,15,15,16,16,17,17,18,18,19,19,20,20,21,21,22,22],"right_children":[2,4,6,8,10,12,-1,14,16,-1,18,20,22,24,26,28,30,32,34,36,38,40,42,-1,-1,-1,-1,-1,-1,-1,-1,-1,-1,-1,-1,-1,-1,-1,-1,-1,-1,-1,-1],"split_conditions":[5.415751E0,1.810258E0,5.6550155E0,1.7560534E0,3.3389776E0,5.740457E0,9.8428465E-2,1.6621536E0,1.8378428E0,6.289967E-2,2.774119E0,8.9892685E-1,1.2E0,1.12003945E-1,1.0408762E0,1.3405782E0,1.4751706E0,1.544102E-1,1.5188375E3,7.3561007E-1,1.0975851E0,2.621535E0,1.4020344E3,-1.4798929E-2,1.0627882E-2,-1.6796552E-2,7.389554E-2,8.385658E-2,-4.883022E-3,3.258967E-2,-1.4837765E-2,-5.2835163E-2,5.929779E-3,-3.0249111E-2,2.7244292E-2,1.662845E-2,9.526807E-2,-4.337751E-2,2.8188206E-2,9.315892E-2,-2.5595095E-2,5.6933E-2,2.566523E-4],"split_indices":[18,0,19,14,19,18,0,2,14,0,14,0,10,24,15,10,0,24,8,0,0,19,8,0,0,0,0,0,0,0,0,0,0,0,0,0,0,0,0,0,0,0,0],"split_type":[0,0,0,0,0,0,0,0,0,0,0,0,0,0,0,0,0,0,0,0,0,0,0,0,0,0,0,0,0,0,0,0,0,0,0,0,0,0,0,0,0,0,0],"sum_hessian":[5.73E2,3.1E2,2.63E2,2.7E2,4E1,2.6E2,3E0,2.02E2,6.8E1,1E0,3.9E1,5.6E1,2.04E2,1.87E2,1.5E1,1.5E1,5.3E1,2.8E1,1.1E1,6E0,5E1,4.1E1,1.63E2,1.49E2,3.8E1,7E0,8E0,1.3E1,2E0,1.5E1,3.8E1,2.4E1,4E0,7E0,4E0,2E0,4E0,7E0,4.3E1,1E0,4E1,6E0,1.57E2],"tree_param":{"num_deleted":"0","num_feature":"26","num_nodes":"43","size_leaf_vector":"1"}},{"base_weights":[2.3642182E-2,-4.8387596E-1,4.590737E-2,3.9679053E-1,-5.819725E-1,6.235238E-2,-6.9109154E-1,5.430146E-3,3.0281002E-2,-8.917551E-1,-1.9112124E-1,7.591983E-1,4.4911943E-2,-7.735638E-1,-1.114921E-2,-2.077562E-2,-1.0351133E0,-6.765413E-1,5.2669114E-1,1.4480622E0,1.4765067E-1,1.0218724E-1,-1.6380538E-1,-8.2905674E-1,-8.223824E-3,-9.513988E-3,-6.749165E-2,-4.683671E-2,-1.5635347E-3,1.1268252E-2,5.6467164E-2,-4.769971E-2,1.2334035E-1,-1.7742656E-2,2.836859E-2,2.9950084E-2,3.6243536E-3,-1.8626075E-2,5.487545E-3,-1.6638068E-2,-5.6825202E-2],"categories":[],"categories_nodes":[],"categories_segments":[],"categories_sizes":[],"default_left":[0,0,0,0,0,0,0,0,0,0,0,0,0,0,0,0,0,0,0,0,0,0,0,0,0,0,0,0,0,0,0,0,0,0,0,0,0,0,0,0,0],"id":26,"left_children":[1,3,5,7,9,11,13,-1,-1,15,17,19,21,23,-1,-1,25,27,29,31,33,35,37,39,-1,-1,-1,-1,-1,-1,-1,-1,-1,-1,-1,-1,-1,-1,-1,-1,-1],"loss_changes":[6.451906E0,2.3042893E0,6.660586E0,5.3463787E-2,2.4933019E0,6.4679184E0,3.5630703E-1,0E0,0E0,5.7999516E-1,4.189174E0,5.262742E0,6.268862E0,2.3957872E-1,0E0,0E0,5.296459E-1,4.5353055E-1,5.254755E-1,9.811681E0,1.2931197E0,6.786855E0,4.257894E0,3.234849E-1,0E0,0E0,0E0,0E0,0E0,0E0,0E0,0E0,0E0,0E0,0E0,0E0,0E0,0E0,0E0,0E0,0E0],"parents":[2147483647,0,0,1,1,2,2,3,3,4,4,5,5,6,6,9,9,10,10,11,11,12,12,13,13,16,16,17,17,18,18,19,19,20,20,21,21,22,22,23,23],"right_children":[2,4,6,8,10,12,14,-1,-1,16,18,20,22,24,-1,-1,26,28,30,32,34,36,38,40,-1,-1,-1,-1,-1,-1,-1,-1,-1,-1,-1,-1,-1,-1,-1,-1,-1],"split_conditions":[1.0338465E0,7.44477E-1,2.554984E0,8.315194E-1,1.5230784E3,2.621535E0,1.8869118E2,5.430146E-3,3.0281002E-2,1.0532516E-1,-1.4971877E2,6.920398E0,5.936163E1,3.3933392E0,-1.114921E-2,-2.077562E-2,8.8062495E-1,1.327967E0,1.2097545E0,1.0221223E0,1.4635687E3,1.4509175E3,6.489305E0,1.6329834E3,-8.223824E-3,-9.513988E-3,-6.749165E-2,-4.683671E-2,-1.5635347E-3,1.1268252E-2,5.6467164E-2,-4.769971E-2,1.2334035E-1,-1.7742656E-2,2.836859E-2,2.9950084E-2,3.6243536E-3,-1.8626075E-2,5.487545E-3,-1.6638068E-2,-5.6825202E-2],"split_indices":[10,2,2,0,8,19,9,0,0,24,9,18,9,14,0,0,1,14,1,1,8,8,18,7,0,0,0,0,0,0,0,0,0,0,0,0,0,0,0,0,0],"split_type":[0,0,0,0,0,0,0,0,0,0,0,0,0,0,0,0,0,0,0,0,0,0,0,0,0,0,0,0,0,0,0,0,0,0,0,0,0,0,0,0,0],"sum_hessian":[5.68E2,2.3E1,5.45E2,2E0,2.1E1,5.34E2,1.1E1,1E0,1E0,1.1E1,1E1,1.2E1,5.22E2,9E0,2E0,3E0,8E0,6E0,4E0,5E0,7E0,4.1E2,1.12E2,8E0,1E0,1E0,7E0,5E0,1E0,3E0,1E0,1E0,4E0,3E0,4E0,3.8E1,3.72E2,7.1E1,4.1E1,2E0,6E0],"tree_param":{"num_deleted":"0","num_feature":"26","num_nodes":"41","size_leaf_vector":"1"}},{"base_weights":[2.0032937E-2,8.000513E-3,9.935163E-1,-3.1301513E-1,2.4600212E-2,-2.5500897E-1,1.5439283E0,-5.608869E-1,6.422115E-2,6.2828994E-1,1.320642E-2,-1.9515391E-2,-3.4354161E-3,1.4786418E-1,6.528649E-3,-6.8725234E-1,2.579027E-1,-5.3398174E-1,5.6779206E-1,-1.8305251E-1,1.0021585E0,-2.4487962E-1,3.930768E-2,-4.6179052E-2,1.3989798E-2,-6.161327E-3,2.937257E-2,-1.5166282E-3,-3.784003E-2,-3.2686186E-3,6.288678E-2,1.3841557E-2,-2.3871904E-2,8.414113E-2,3.369663E-2,-2.486071E-2,4.986635E-2,-2.0318563E-4,1.5493522E-2],"categories":[],"categories_nodes":[],"categories_segments":[],"categories_sizes":[],"default_left":[0,0,0,0,0,0,0,0,0,0,0,0,0,0,0,0,0,0,0,0,0,0,0,0,0,0,0,0,0,0,0,0,0,0,0,0,0,0,0],"id":27,"left_children":[1,3,5,7,9,11,13,15,17,19,21,-1,-1,-1,-1,23,25,27,29,31,33,35,37,-1,-1,-1,-1,-1,-1,-1,-1,-1,-1,-1,-1,-1,-1,-1,-1],"loss_changes":[6.715523E0,3.0344377E0,5.204138E0,2.6541953E0,3.7128713E0,2.3051605E-2,6.336791E0,1.9361787E0,3.9180412E0,3.216802E0,3.5933747E0,0E0,0E0,0E0,0E0,1.3170676E0,3.0085295E-1,2.791649E-1,2.14932E0,4.472952E-1,4.4655657E-1,9.279145E0,4.5245786E0,0E0,0E0,0E0,0E0,0E0,0E0,0E0,0E0,0E0,0E0,0E0,0E0,0E0,0E0,0E0,0E0],"parents":[2147483647,0,0,1,1,2,2,3,3,4,4,5,5,6,6,7,7,8,8,9,9,10,10,15,15,16,16,17,17,18,18,19,19,20,20,21,21,22,22],"right_children":[2,4,6,8,10,12,14,16,18,20,22,-1,-1,-1,-1,24,26,28,30,32,34,36,38,-1,-1,-1,-1,-1,-1,-1,-1,-1,-1,-1,-1,-1,-1,-1,-1],"split_conditions":[5.8726315E0,1.0338465E0,8.370393E-1,1.061601E0,1.4124904E3,9.061112E-1,1.061601E0,2.0451586E0,5.404734E0,1.1541446E0,1.4447295E3,-1.9515391E-2,-3.4354161E-3,1.4786418E-1,6.528649E-3,1.5114755E3,7.932263E-1,1.1122955E0,1.327967E0,7.3561007E-1,9.2267925E-1,1.2738582E0,1.6456809E0,-4.6179052E-2,1.3989798E-2,-6.161327E-3,2.937257E-2,-1.5166282E-3,-3.784003E-2,-3.2686186E-3,6.288678E-2,1.3841557E-2,-2.3871904E-2,8.414113E-2,3.369663E-2,-2.486071E-2,4.986635E-2,-2.0318563E-4,1.5493522E-2],"split_indices":[19,10,14,0,7,0,0,1,18,14,7,0,0,0,0,7,0,0,14,0,0,2,1,0,0,0,0,0,0,0,0,0,0,0,0,0,0,0,0],"split_type":[0,0,0,0,0,0,0,0,0,0,0,0,0,0,0,0,0,0,0,0,0,0,0,0,0,0,0,0,0,0,0,0,0,0,0,0,0,0,0],"sum_hessian":[5.73E2,5.67E2,6E0,2.7E1,5.4E2,2E0,4E0,1.6E1,1.1E1,9E0,5.31E2,1E0,1E0,2E0,2E0,1.4E1,2E0,5E0,6E0,3E0,6E0,4.8E1,4.83E2,1.3E1,1E0,1E0,1E0,1E0,4E0,3E0,3E0,1E0,2E0,2E0,4E0,4.2E1,6E0,4.05E2,7.8E1],"tree_param":{"num_deleted":"0","num_feature":"26","num_nodes":"39","size_leaf_vector":"1"}},{"base_weights":[-2.2857824E-2,-1.0578637E-1,8.815435E-2,-7.2493084E-2,-8.8900477E-1,9.435137E-1,3.8997218E-2,-4.9368914E-2,-7.589689E-1,-2.1065118E-2,-1.0890707E0,-8.886405E-2,1.5998578E0,2.5134268E-1,-1.5085655E-1,-7.6085635E-2,5.463068E-1,-9.4099224E-1,2.6377236E-2,-2.8542764E-2,-7.1781404E-2,-3.8391944E-2,6.754263E-1,1.2212631E-1,5.5885296E-2,4.834056E-1,-4.8806917E-2,-5.454669E-1,3.3208227E-3,-2.8168613E-3,-5.2885544E-2,-1.7232345E-2,5.692011E-2,-5.9283976E-2,-1.6932005E-2,5.1458772E-2,9.329592E-3,1.6030079E-2,8.064671E-2,-3.0365113E-2,9.262141E-3,1.1315691E-2,-4.9036376E-2,-1.9393036E-2,1.3503457E-2],"categories":[],"categories_nodes":[],"categories_segments":[],"categories_sizes":[],"default_left":[0,0,0,0,0,0,0,0,0,0,0,0,0,0,0,0,0,0,0,0,0,0,0,0,0,0,0,0,0,0,0,0,0,0,0,0,0,0,0,0,0,0,0,0,0],"id":28,"left_children":[1,3,5,7,9,11,13,15,17,-1,19,21,23,25,27,29,31,33,-1,-1,-1,-1,35,-1,-1,37,39,41,43,-1,-1,-1,-1,-1,-1,-1,-1,-1,-1,-1,-1,-1,-1,-1,-1],"loss_changes":[5.1647296E0,8.3059225E0,1.0054488E1,4.8676534E0,1.0166941E0,8.950906E0,9.229642E0,4.815916E0,2.5953922E0,0E0,2.3121834E-2,2.9589338E0,4.3341064E-1,7.546181E0,7.363451E0,6.7168145E0,4.63232E0,2.7513504E-4,0E0,0E0,0E0,0E0,1.5086854E-1,0E0,0E0,1.0994035E1,4.5377054E0,6.937895E0,6.444428E0,0E0,0E0,0E0,0E0,0E0,0E0,0E0,0E0,0E0,0E0,0E0,0E0,0E0,0E0,0E0,0E0],"parents":[2147483647,0,0,1,1,2,2,3,3,4,4,5,5,6,6,7,7,8,8,10,10,11,11,12,12,13,13,14,14,15,15,16,16,17,17,22,22,25,25,26,26,27,27,28,28],"right_children":[2,4,6,8,10,12,14,16,18,-1,20,22,24,26,28,30,32,34,-1,-1,-1,-1,36,-1,-1,38,40,42,44,-1,-1,-1,-1,-1,-1,-1,-1,-1,-1,-1,-1,-1,-1,-1,-1],"split_conditions":[1.3928205E0,1.3762617E0,1.4266388E0,2.14922E0,1.4522994E3,1.4912214E3,1.264264E0,1.7865568E-1,2.176828E0,-2.1065118E-2,1.2E0,1.4945484E0,4.7411013E0,1.5781697E0,1.6145618E0,1.624996E-1,1.4646843E3,2.0833993E0,2.6377236E-2,-2.8542764E-2,-7.1781404E-2,-3.8391944E-2,1.5481216E0,1.2212631E-1,5.5885296E-2,1.4928055E0,-8.520795E-2,1.4485719E3,1.4787468E0,-2.8168613E-3,-5.2885544E-2,-1.7232345E-2,5.692011E-2,-5.9283976E-2,-1.6932005E-2,5.1458772E-2,9.329592E-3,1.6030079E-2,8.064671E-2,-3.0365113E-2,9.262141E-3,1.1315691E-2,-4.9036376E-2,-1.9393036E-2,1.3503457E-2],"split_indices":[1,1,1,15,8,8,11,25,0,0,11,0,18,14,1,25,8,0,0,0,0,0,0,0,0,14,3,8,14,0,0,0,0,0,0,0,0,0,0,0,0,0,0,0,0],"split_type":[0,0,0,0,0,0,0,0,0,0,0,0,0,0,0,0,0,0,0,0,0,0,0,0,0,0,0,0,0,0,0,0,0,0,0,0,0,0,0,0,0,0,0,0,0],"sum_hessian":[5.59E2,3.2E2,2.39E2,3.08E2,1.2E1,1.2E1,2.27E2,2.99E2,9E0,4E0,8E0,5E0,7E0,1.07E2,1.2E2,2.87E2,1.2E1,8E0,1E0,2E0,6E0,3E0,2E0,3E0,4E0,6E1,4.7E1,3.3E1,8.7E1,2.78E2,9E0,4E0,8E0,7E0,1E0,1E0,1E0,4.9E1,1.1E1,1.4E1,3.3E1,9E0,2.4E1,3.5E1,5.2E1],"tree_param":{"num_deleted":"0","num_feature":"26","num_nodes":"45","size_leaf_vector":"1"}},{"base_weights":[-2.6285673E-2,-3.29398E-2,7.493871E-2,-5.0285317E-2,3.8252234E-1,-1.2590052E-1,4.336228E-2,9.751943E-2,2.52153E-1,-8.477397E-2,-8.152268E-1,-7.350896E-2,4.5056075E-1,4.2822146E-1,-2.8873312E-1,-1.1628385E-3,-3.0868992E-2,-5.7812594E-3,-5.4279167E-2,-9.064239E-3,1.35001335E-2,8.273499E-2,1.7186886E-2,1.1411382E-2,6.925664E-2,7.1839103E-3,-4.422652E-2],"categories":[],"categories_nodes":[],"categories_segments":[],"categories_sizes":[],"default_left":[0,0,0,0,0,0,0,0,0,0,0,0,0,0,0,0,0,0,0,0,0,0,0,0,0,0,0],"id":29,"left_children":[1,3,-1,5,7,9,11,-1,13,15,17,19,21,23,25,-1,-1,-1,-1,-1,-1,-1,-1,-1,-1,-1,-1],"loss_changes":[4.903488E0,4.1340933E0,0E0,3.8930285E0,3.316703E0,8.549172E0,1.174021E1,0E0,2.2187676E0,8.082865E0,1.0056934E0,4.479373E0,7.9845324E0,2.7184823E0,1.1871297E0,0E0,0E0,0E0,0E0,0E0,0E0,0E0,0E0,0E0,0E0,0E0,0E0],"parents":[2147483647,0,0,1,1,3,3,4,4,5,5,6,6,8,8,9,9,10,10,11,11,12,12,13,13,14,14],"right_children":[2,4,-1,6,8,10,12,-1,14,16,18,20,22,24,26,-1,-1,-1,-1,-1,-1,-1,-1,-1,-1,-1,-1],"split_conditions":[1.704942E3,2.6516314E0,7.493871E-2,5.4764366E0,8.973967E-1,5.597317E0,1.5587362E0,9.751943E-2,2.0056174E0,1.810258E0,-8.763697E1,1.3737687E0,5.710417E0,1.6784716E0,1.6212817E0,-1.1628385E-3,-3.0868992E-2,-5.7812594E-3,-5.4279167E-2,-9.064239E-3,1.35001335E-2,8.273499E-2,1.7186886E-2,1.1411382E-2,6.925664E-2,7.1839103E-3,-4.422652E-2],"split_indices":[7,15,0,18,0,19,15,0,14,0,9,11,18,14,0,0,0,0,0,0,0,0,0,0,0,0,0],"split_type":[0,0,0,0,0,0,0,0,0,0,0,0,0,0,0,0,0,0,0,0,0,0,0,0,0,0,0],"sum_hessian":[5.72E2,5.7E2,2E0,5.48E2,2.2E1,3.03E2,2.45E2,1E0,2.1E1,2.87E2,1.6E1,1.91E2,5.4E1,1.6E1,5E0,2.5E2,3.7E1,2E0,1.4E1,1.52E2,3.9E1,7E0,4.7E1,1.3E1,3E0,3E0,2E0],"tree_param":{"num_deleted":"0","num_feature":"26","num_nodes":"27","size_leaf_vector":"1"}},{"base_weights":[-1.8333303E-2,8.121815E-2,-1.02024734E-1,-6.2088527E-2,4.5194334E-1,-4.7841173E-1,-5.3267747E-2,5.2219186E-2,-4.7157365E-1,9.499122E-2,3.470244E-1,-6.126805E-1,2.9504555E-1,9.9722415E-1,-6.8245E-2,-4.0399346E-1,1.7344072E-1,-5.937989E-1,8.380153E-1,1.802697E-1,1.0514855E0,-3.805744E-1,-1.0620459E0,4.747056E-2,-2.7888607E-2,7.510317E-2,7.012138E-3,-1.8193887E-1,5.2691806E-2,2.1604951E-2,-4.3118127E-2,-4.677885E-3,2.831843E-2,-4.4374317E-3,-4.932602E-2,9.1036424E-2,-3.599281E-2,5.4430272E-2,1.5045758E-3,1.0146444E-2,8.549183E-2,-7.5753727E-3,-5.4450322E-2,-1.648581E-2,-6.713954E-2,-4.5215874E-3,-5.241248E-2,1.06947515E-2,-1.6349526E-2],"categories":[],"categories_nodes":[],"categories_segments":[],"categories_sizes":[],"default_left":[0,0,0,0,0,0,0,0,0,0,0,0,0,0,0,0,0,0,0,0,0,0,0,0,0,0,0,0,0,0,0,0,0,0,0,0,0,0,0,0,0,0,0,0,0,0,0,0,0],"id":30,"left_children":[1,3,5,7,9,11,13,15,17,-1,19,21,23,25,27,29,31,33,35,37,39,41,43,-1,-1,-1,-1,45,47,-1,-1,-1,-1,-1,-1,-1,-1,-1,-1,-1,-1,-1,-1,-1,-1,-1,-1,-1,-1],"loss_changes":[4.832285E0,1.4106819E1,5.7552376E0,9.011628E0,8.233573E0,3.9194107E0,4.4734316E0,8.420791E0,7.220334E0,0E0,7.916032E0,2.8291264E0,2.6296716E0,7.498982E-1,3.818274E0,7.951901E0,9.043141E0,4.567746E0,4.8169928E0,6.4074407E0,4.042036E0,2.833601E0,1.4087105E-1,0E0,0E0,0E0,0E0,1.0474751E1,5.560372E0,0E0,0E0,0E0,0E0,0E0,0E0,0E0,0E0,0E0,0E0,0E0,0E0,0E0,0E0,0E0,0E0,0E0,0E0,0E0,0E0],"parents":[2147483647,0,0,1,1,2,2,3,3,4,4,5,5,6,6,7,7,8,8,10,10,11,11,12,12,13,13,14,14,15,15,16,16,17,17,18,18,19,19,20,20,21,21,22,22,27,27,28,28],"right_children":[2,4,6,8,10,12,14,16,18,-1,20,22,24,26,28,30,32,34,36,38,40,42,44,-1,-1,-1,-1,46,48,-1,-1,-1,-1,-1,-1,-1,-1,-1,-1,-1,-1,-1,-1,-1,-1,-1,-1,-1,-1],"split_conditions":[1.4893643E3,0E0,-5.5029305E1,-1.4283255E-1,9.8589456E-1,1.9148499E0,7.777679E-2,7.199139E-1,5.1343727E1,9.499122E-2,1.4839695E3,-7.6789925E1,1.5696389E3,1.5917227E3,1.1797522E0,3.999408E0,1.4487655E3,4.2283273E0,1.5219517E0,1.2379464E0,1.5738045E0,4.7407594E-1,7.708235E-2,4.747056E-2,-2.7888607E-2,7.510317E-2,7.012138E-3,1.1421602E0,1.2634698E-1,2.1604951E-2,-4.3118127E-2,-4.677885E-3,2.831843E-2,-4.4374317E-3,-4.932602E-2,9.1036424E-2,-3.599281E-2,5.4430272E-2,1.5045758E-3,1.0146444E-2,8.549183E-2,-7.5753727E-3,-5.4450322E-2,-1.648581E-2,-6.713954E-2,-4.5215874E-3,-5.241248E-2,1.06947515E-2,-1.6349526E-2],"split_indices":[7,3,9,3,14,2,25,14,9,0,7,9,7,7,1,19,7,19,1,2,14,3,25,0,0,0,0,1,25,0,0,0,0,0,0,0,0,0,0,0,0,0,0,0,0,0,0,0,0],"split_type":[0,0,0,0,0,0,0,0,0,0,0,0,0,0,0,0,0,0,0,0,0,0,0,0,0,0,0,0,0,0,0,0,0,0,0,0,0,0,0,0,0,0,0,0,0,0,0,0,0],"sum_hessian":[5.78E2,2.64E2,3.14E2,1.91E2,7.3E1,3.5E1,2.79E2,1.5E2,4.1E1,5E0,6.8E1,3E1,5E0,3E0,2.76E2,3.1E1,1.19E2,3.8E1,3E0,5.6E1,1.2E1,2.1E1,9E0,3E0,2E0,2E0,1E0,1.42E2,1.34E2,9E0,2.2E1,6.5E1,5.4E1,1.2E1,2.6E1,2E0,1E0,9E0,4.7E1,4E0,8E0,1.5E1,6E0,1E0,8E0,1.24E2,1.8E1,9.7E1,3.7E1],"tree_param":{"num_deleted":"0","num_feature":"26","num_nodes":"49","size_leaf_vector":"1"}},{"base_weights":[1.2152227E-2,6.7933616E-3,9.473418E-2,2.7426577E-1,-2.5316268E-2,1.290584E0,1.8348853E-1,-2.9011378E-1,9.475054E-3,3.276561E-2,9.629279E-2,-3.8658985E-1,2.8049278E-1,-3.5840324E-1,5.464086E-1,1.1695346E-1,-1.0275888E-1,-3.2963865E-2,2.7476205E-2,-1.802863E-2,2.3734083E-2,-3.2447472E-2,-5.105206E-3,7.292738E-2,4.5169545E-3,2.082572E-3,3.139159E-2,-1.4536238E-2,4.1342196E-3],"categories":[],"categories_nodes":[],"categories_segments":[],"categories_sizes":[],"default_left":[0,0,0,0,0,0,0,0,0,0,0,0,0,0,0,0,0,0,0,0,0,0,0,0,0,0,0,0,0],"id":31,"left_children":[1,3,-1,5,7,9,11,13,15,-1,-1,17,19,21,23,25,27,-1,-1,-1,-1,-1,-1,-1,-1,-1,-1,-1,-1],"loss_changes":[4.926125E0,5.048358E0,0E0,5.575482E0,4.8393927E0,2.935362E-1,3.3711371E0,3.6804996E0,5.621185E0,0E0,0E0,1.4890499E0,3.5284786E0,2.795415E0,1.4845263E0,7.9335985E0,5.4770527E0,0E0,0E0,0E0,0E0,0E0,0E0,0E0,0E0,0E0,0E0,0E0,0E0],"parents":[2147483647,0,0,1,1,3,3,4,4,5,5,6,6,7,7,8,8,11,11,12,12,13,13,14,14,15,15,16,16],"right_children":[2,4,-1,6,8,10,12,14,16,-1,-1,18,20,22,24,26,28,-1,-1,-1,-1,-1,-1,-1,-1,-1,-1,-1,-1],"split_conditions":[4.7923145E0,5.547661E-1,9.473418E-2,4.3203144E0,4.342911E0,1.4260147E0,4.928902E0,2.6516314E0,1.4915852E3,3.276561E-2,9.629279E-2,5.268812E0,-5.8176694E0,-3.637562E-2,9.454333E-1,1.0866621E1,1.55682E3,-3.2963865E-2,2.7476205E-2,-1.802863E-2,2.3734083E-2,-3.2447472E-2,-5.105206E-3,7.292738E-2,4.5169545E-3,2.082572E-3,3.139159E-2,-1.4536238E-2,4.1342196E-3],"split_indices":[15,15,0,18,18,0,18,15,7,0,0,19,9,3,2,9,7,0,0,0,0,0,0,0,0,0,0,0,0],"split_type":[0,0,0,0,0,0,0,0,0,0,0,0,0,0,0,0,0,0,0,0,0,0,0,0,0,0,0,0,0],"sum_hessian":[5.87E2,5.86E2,1E0,6.2E1,5.24E2,4E0,5.8E1,6E1,4.64E2,2E0,2E0,8E0,5E1,5.6E1,4E0,2.37E2,2.27E2,7E0,1E0,8E0,4.2E1,3.3E1,2.3E1,1E0,3E0,1.98E2,3.9E1,1.25E2,1.02E2],"tree_param":{"num_deleted":"0","num_feature":"26","num_nodes":"29","size_leaf_vector":"1"}},{"base_weights":[-2.9513398E-3,-2.828468E-1,3.4149166E-2,3.8722634E-2,-6.700209E-1,5.88019E-1,2.3935859E-3,-6.102134E-1,3.3674222E-1,-7.702967E-1,-1.45825865E-2,2.1834886E0,2.976066E-1,2.0158382E-1,-4.8334945E-2,-2.0439604E-1,-7.8757256E-1,-2.2495171E-1,5.5552167E-1,-2.8561842E-1,-9.3382984E-1,-1.8488063E-2,8.150337E-3,-1.12789245E-2,1.8219836E-1,-3.8186675E-1,5.998525E-1,1.21856466E-1,8.2631074E-2,-2.5461467E-2,-8.070832E-1,2.0448624E-3,-1.6352134E-2,-1.1456615E-2,-5.0731655E-2,-3.1756904E-2,1.2701924E-2,4.083074E-3,5.4231547E-2,-3.7965808E-2,-3.86657E-3,-6.58354E-2,-2.3811737E-2,1.5620692E-2,-3.8359683E-2,6.0852062E-2,4.1611254E-4,3.4093194E-2,-2.295497E-4,-6.817984E-3,8.054967E-3,-5.5302434E-2,-1.1650989E-2],"categories":[],"categories_nodes":[],"categories_segments":[],"categories_sizes":[],"default_left":[0,0,0,0,0,0,0,0,0,0,0,0,0,0,0,0,0,0,0,0,0,0,0,0,0,0,0,0,0,0,0,0,0,0,0,0,0,0,0,0,0,0,0,0,0,0,0,0,0,0,0,0,0],"id":32,"left_children":[1,3,5,7,9,11,13,15,17,19,21,23,25,27,29,31,33,35,37,39,41,-1,-1,-1,-1,43,45,47,-1,49,51,-1,-1,-1,-1,-1,-1,-1,-1,-1,-1,-1,-1,-1,-1,-1,-1,-1,-1,-1,-1,-1,-1],"loss_changes":[5.856E0,8.243166E0,8.757646E0,7.3611236E0,1.9605045E0,1.1860472E1,4.7791276E0,7.027283E-1,3.3200295E0,1.7940645E0,2.6263922E-1,8.663723E0,5.1578965E0,8.830025E0,6.5223646E0,9.053688E-2,1.1517334E-1,1.175135E0,3.1647716E0,5.73463E-1,1.231884E0,0E0,0E0,0E0,0E0,1.4892031E0,4.1694307E0,5.1072726E0,0E0,5.1833367E0,5.9380436E-1,0E0,0E0,0E0,0E0,0E0,0E0,0E0,0E0,0E0,0E0,0E0,0E0,0E0,0E0,0E0,0E0,0E0,0E0,0E0,0E0,0E0,0E0],"parents":[2147483647,0,0,1,1,2,2,3,3,4,4,5,5,6,6,7,7,8,8,9,9,10,10,11,11,12,12,13,13,14,14,15,15,16,16,17,17,18,18,19,19,20,20,25,25,26,26,27,27,29,29,30,30],"right_children":[2,4,6,8,10,12,14,16,18,20,22,24,26,28,30,32,34,36,38,40,42,-1,-1,-1,-1,44,46,48,-1,50,52,-1,-1,-1,-1,-1,-1,-1,-1,-1,-1,-1,-1,-1,-1,-1,-1,-1,-1,-1,-1,-1,-1],"split_conditions":[9.293356E-1,1.2E0,1.0221223E0,-1.0561802E2,5.9308925E0,1.4509175E3,1.3072956E0,4.0867643E0,7.6983523E-1,4.410711E0,1.2913424E0,1.1448091E0,1.4094119E0,1.2295964E0,5.5702243E0,6.9016534E-1,1.5060079E3,1.467333E3,1.2520899E0,1.6145618E0,-1.2081757E1,-1.8488063E-2,8.150337E-3,-1.12789245E-2,1.8219836E-1,1.4400157E3,5.1860795E0,1.0672504E0,8.2631074E-2,1.4178017E0,-1.6580053E1,2.0448624E-3,-1.6352134E-2,-1.1456615E-2,-5.0731655E-2,-3.1756904E-2,1.2701924E-2,4.083074E-3,5.4231547E-2,-3.7965808E-2,-3.86657E-3,-6.58354E-2,-2.3811737E-2,1.5620692E-2,-3.8359683E-2,6.0852062E-2,4.1611254E-4,3.4093194E-2,-2.295497E-4,-6.817984E-3,8.054967E-3,-5.5302434E-2,-1.1650989E-2],"split_indices":[2,10,2,9,18,8,14,19,0,18,1,0,1,14,19,0,8,8,14,1,9,0,0,0,0,7,18,1,0,15,9,0,0,0,0,0,0,0,0,0,0,0,0,0,0,0,0,0,0,0,0,0,0],"split_type":[0,0,0,0,0,0,0,0,0,0,0,0,0,0,0,0,0,0,0,0,0,0,0,0,0,0,0,0,0,0,0,0,0,0,0,0,0,0,0,0,0,0,0,0,0,0,0,0,0,0,0,0,0],"sum_hessian":[5.62E2,6.5E1,4.97E2,3.6E1,2.9E1,2.6E1,4.71E2,1.1E1,2.5E1,2.5E1,4E0,3E0,2.3E1,9.5E1,3.76E2,4E0,7E0,7E0,1.8E1,7E0,1.8E1,1E0,3E0,1E0,2E0,7E0,1.6E1,9E1,5E0,3.66E2,1E1,1E0,3E0,1E0,6E0,4E0,3E0,8E0,1E1,2E0,5E0,1.3E1,5E0,2E0,5E0,9E0,7E0,1.9E1,7.1E1,2.36E2,1.3E2,8E0,2E0],"tree_param":{"num_deleted":"0","num_feature":"26","num_nodes":"53","size_leaf_vector":"1"}},{"base_weights":[2.0333238E-2,4.786984E-2,-3.032147E-1,6.669792E-3,3.2184303E-1,-8.085231E-1,-7.266682E-2,-9.336749E-1,2.1153808E-2,4.874835E-1,-3.0632813E-2,-1.1206415E0,-3.3631313E-1,8.6589813E-1,-1.9961831E-1,-6.452697E-2,-2.3169538E-2,7.149905E-2,-2.4694872E-1,6.290815E-1,-4.1151673E-1,5.3972192E-2,-1.6205545E-1,-1.083478E-2,-7.374833E-2,7.2500966E-3,-4.3264362E-1,-1.1944227E-2,7.723467E-2,-5.1019436E-1,2.828807E-1,4.8782636E-4,2.158526E-2,4.74378E-2,-2.225109E-2,2.4069818E-2,6.878716E-2,-4.6270594E-2,1.9505315E-2,1.9658763E-2,-3.8221475E-2,-2.819097E-2,-7.398423E-3,-4.625101E-2,8.375533E-3,-2.6738413E-3,5.6934662E-2],"categories":[],"categories_nodes":[],"categories_segments":[],"categories_sizes":[],"default_left":[0,0,0,0,0,0,0,0,0,0,0,0,0,0,0,0,0,0,0,0,0,0,0,0,0,0,0,0,0,0,0,0,0,0,0,0,0,0,0,0,0,0,0,0,0,0,0],"id":33,"left_children":[1,3,5,7,9,11,13,15,17,19,21,23,25,27,29,-1,-1,31,33,35,37,-1,39,-1,-1,-1,41,-1,-1,43,45,-1,-1,-1,-1,-1,-1,-1,-1,-1,-1,-1,-1,-1,-1,-1,-1],"loss_changes":[5.1106973E0,5.957763E0,5.1836467E0,6.2849355E0,4.043446E0,1.6865101E0,3.9857202E0,1.2807178E-1,6.1456065E0,6.2418213E0,2.9574165E0,5.93997E-1,3.6053956E-1,2.0511348E0,4.4900503E0,0E0,0E0,6.9930806E0,9.549447E0,4.3747272E0,2.1051922E0,0E0,5.0931735E0,0E0,0E0,0E0,1.1119127E-2,0E0,0E0,3.1562757E0,2.659345E0,0E0,0E0,0E0,0E0,0E0,0E0,0E0,0E0,0E0,0E0,0E0,0E0,0E0,0E0,0E0,0E0],"parents":[2147483647,0,0,1,1,2,2,3,3,4,4,5,5,6,6,7,7,8,8,9,9,10,10,11,11,12,12,13,13,14,14,17,17,18,18,19,19,20,20,22,22,26,26,29,29,30,30],"right_children":[2,4,6,8,10,12,14,16,18,20,22,24,26,28,30,-1,-1,32,34,36,38,-1,40,-1,-1,-1,42,-1,-1,44,46,-1,-1,-1,-1,-1,-1,-1,-1,-1,-1,-1,-1,-1,-1,-1,-1],"split_conditions":[1.598756E3,1.55682E3,6.889914E0,7.8648E-1,2.8995411E0,2.4196088E0,6.9437623E0,1.9443514E0,1.810258E0,1.6732827E3,1.5627548E3,1.6000182E3,2.4673648E0,1.7796017E0,2.0841995E2,-6.452697E-2,-2.3169538E-2,1.5030243E0,3.390125E0,1.5309188E3,1.2319783E0,5.3972192E-2,8.5559255E-1,-1.083478E-2,-7.374833E-2,7.2500966E-3,3.067829E0,-1.1944227E-2,7.723467E-2,1.5687559E3,1.4646843E3,4.8782636E-4,2.158526E-2,4.74378E-2,-2.225109E-2,2.4069818E-2,6.878716E-2,-4.6270594E-2,1.9505315E-2,1.9658763E-2,-3.8221475E-2,-2.819097E-2,-7.398423E-3,-4.625101E-2,8.375533E-3,-2.6738413E-3,5.6934662E-2],"split_indices":[7,7,18,1,14,2,18,2,0,8,7,7,0,0,9,0,0,2,19,8,1,0,1,0,0,0,0,0,0,8,8,0,0,0,0,0,0,0,0,0,0,0,0,0,0,0,0],"split_type":[0,0,0,0,0,0,0,0,0,0,0,0,0,0,0,0,0,0,0,0,0,0,0,0,0,0,0,0,0,0,0,0,0,0,0,0,0,0,0,0,0,0,0,0,0,0,0],"sum_hessian":[5.71E2,5.27E2,4.4E1,4.59E2,6.8E1,1.3E1,3.1E1,6E0,4.53E2,4.6E1,2.2E1,7E0,6E0,3E0,2.8E1,4E0,2E0,3.82E2,7.1E1,4E1,6E0,2E0,2E1,1E0,6E0,1E0,5E0,1E0,2E0,1.7E1,1.1E1,3.14E2,6.8E1,7E0,6.4E1,2.9E1,1.1E1,4E0,2E0,1E1,1E1,4E0,1E0,1.2E1,5E0,8E0,3E0],"tree_param":{"num_deleted":"0","num_feature":"26","num_nodes":"47","size_leaf_vector":"1"}},{"base_weights":[5.5081113E-3,-4.4780582E-2,1.6928561E-1,-2.8856605E-2,-5.533531E-1,-4.5209903E-1,2.6507378E-1,-6.1965443E-2,2.8557104E-1,4.6171952E-2,-7.277212E-1,-5.864844E-1,5.497356E-2,1.9199085E-1,1.3652115E0,-1.2715106E-1,1.02779485E-1,-6.2574935E-1,4.978435E-1,-8.8158375E-1,-1.9960022E-1,-8.4900784E-1,-2.58796E-1,8.874018E-2,1.541121E-1,1.16546564E-1,-5.1911194E-2,-5.3410947E-2,-6.395596E-3,2.1111121E-2,-1.225829E-2,-5.771259E-2,-2.9491817E-3,5.2194837E-2,5.7892874E-3,-5.7580158E-2,-7.7069807E-3,3.8436018E-3,-1.8530417E-2,-1.8790718E-2,-5.7441726E-2,-2.8465675E-2,1.983663E-2,5.1056523E-2,4.8860656E-3,-7.7458117E-3,3.0738043E-3],"categories":[],"categories_nodes":[],"categories_segments":[],"categories_sizes":[],"default_left":[0,0,0,0,0,0,0,0,0,0,0,0,0,0,0,0,0,0,0,0,0,0,0,0,0,0,0,0,0,0,0,0,0,0,0,0,0,0,0,0,0,0,0,0,0,0,0],"id":34,"left_children":[1,3,5,7,9,11,13,15,17,-1,19,21,-1,23,25,27,29,31,33,35,37,39,41,-1,43,-1,45,-1,-1,-1,-1,-1,-1,-1,-1,-1,-1,-1,-1,-1,-1,-1,-1,-1,-1,-1,-1],"loss_changes":[4.628065E0,3.4663854E0,7.9766498E0,4.369215E0,3.5587041E0,3.8472435E0,8.984039E0,4.083149E0,8.049455E0,0E0,7.991319E-1,1.2427206E0,0E0,5.085863E0,5.826888E0,4.171769E0,8.332403E0,1.5031984E0,4.844035E0,4.0601063E-1,1.3499342E-1,2.227087E-1,1.3007047E0,0E0,5.3496103E0,0E0,3.0496728E-2,0E0,0E0,0E0,0E0,0E0,0E0,0E0,0E0,0E0,0E0,0E0,0E0,0E0,0E0,0E0,0E0,0E0,0E0,0E0,0E0],"parents":[2147483647,0,0,1,1,2,2,3,3,4,4,5,5,6,6,7,7,8,8,10,10,11,11,13,13,14,14,15,15,16,16,17,17,18,18,19,19,20,20,21,21,22,22,24,24,26,26],"right_children":[2,4,6,8,10,12,14,16,18,-1,20,22,-1,24,26,28,30,32,34,36,38,40,42,-1,44,-1,46,-1,-1,-1,-1,-1,-1,-1,-1,-1,-1,-1,-1,-1,-1,-1,-1,-1,-1,-1,-1],"split_conditions":[1.7558442E0,5.5702243E0,7.199139E-1,5.115776E0,7.44477E-1,1.4839197E3,5.808106E0,1.55682E3,1.4393956E3,4.6171952E-2,1.5547671E3,5E0,5.497356E-2,1.7592467E0,1.4907292E-1,7.8648E-1,1.598756E3,1.3711363E0,1.3468598E0,-1.6580053E1,1.3216088E0,1.4727715E3,1.5748884E3,8.874018E-2,1.4509175E3,1.16546564E-1,1.931082E0,-5.3410947E-2,-6.395596E-3,2.1111121E-2,-1.225829E-2,-5.771259E-2,-2.9491817E-3,5.2194837E-2,5.7892874E-3,-5.7580158E-2,-7.7069807E-3,3.8436018E-3,-1.8530417E-2,-1.8790718E-2,-5.7441726E-2,-2.8465675E-2,1.983663E-2,5.1056523E-2,4.8860656E-3,-7.7458117E-3,3.0738043E-3],"split_indices":[15,19,14,19,2,7,19,7,8,0,8,19,0,15,25,1,7,2,2,9,2,8,8,0,8,0,1,0,0,0,0,0,0,0,0,0,0,0,0,0,0,0,0,0,0,0,0],"split_type":[0,0,0,0,0,0,0,0,0,0,0,0,0,0,0,0,0,0,0,0,0,0,0,0,0,0,0,0,0,0,0,0,0,0,0,0,0,0,0,0,0,0,0,0,0,0,0],"sum_hessian":[5.6E2,4.29E2,1.31E2,4.17E2,1.2E1,1.7E1,1.14E2,3.78E2,3.9E1,1E0,1.1E1,1.6E1,1E0,1.08E2,6E0,2.71E2,1.07E2,7E0,3.2E1,8E0,3E0,8E0,8E0,2E0,1.06E2,4E0,2E0,6E0,2.65E2,5.9E1,4.8E1,4E0,3E0,1.6E1,1.6E1,7E0,1E0,1E0,2E0,2E0,6E0,6E0,2E0,9E0,9.7E1,1E0,1E0],"tree_param":{"num_deleted":"0","num_feature":"26","num_nodes":"47","size_leaf_vector":"1"}},{"base_weights":[1.5817486E-3,-3.662656E-1,1.997129E-2,-5.7356316E-1,-4.2071894E-2,2.1013124E-1,-1.3557865E-2,2.4151194E-1,-6.9834065E-1,8.026893E-1,-4.1284665E-1,-1.849183E-1,6.289617E-1,-6.932721E-1,5.4740547E-3,-6.0001337E-3,2.7736207E-2,4.031274E-3,-7.5782037E-1,1.4643005E-2,5.445314E-2,-1.1031484E-2,-4.392555E-2,9.5330876E-1,-2.9145464E-1,4.4700676E-1,1.1097816E-1,-9.129225E-1,5.8275983E-2,-2.4346854E-1,4.0154383E-2,-7.3449896E-3,-4.783686E-2,5.0783623E-3,-3.3665423E-3,7.147297E-2,7.1875905E-3,-2.250454E-2,5.3566206E-2,5.7103638E-2,-4.8744283E-3,-6.0168605E-2,2.2752534E-3,8.032273E-2,-1.773764E-2,3.8836446E-2,4.365633E-4],"categories":[],"categories_nodes":[],"categories_segments":[],"categories_sizes":[],"default_left":[0,0,0,0,0,0,0,0,0,0,0,0,0,0,0,0,0,0,0,0,0,0,0,0,0,0,0,0,0,0,0,0,0,0,0,0,0,0,0,0,0,0,0,0,0,0,0],"id":35,"left_children":[1,3,5,7,9,11,13,15,17,19,21,23,25,27,29,-1,-1,-1,31,-1,-1,33,-1,35,37,39,-1,41,-1,43,45,-1,-1,-1,-1,-1,-1,-1,-1,-1,-1,-1,-1,-1,-1,-1,-1],"loss_changes":[3.9781024E0,1.8575974E0,3.5733547E0,1.8976083E0,4.0899806E0,1.4014845E1,6.1743946E0,2.724042E-1,7.339177E-1,1.28343105E-2,1.1464242E0,5.613398E0,8.2796135E0,5.639706E0,4.024312E0,0E0,0E0,0E0,2.534275E-1,0E0,0E0,2.6312076E-2,0E0,6.504984E-1,4.394925E0,9.942159E0,0E0,1.0636568E0,0E0,5.099665E0,8.159371E0,0E0,0E0,0E0,0E0,0E0,0E0,0E0,0E0,0E0,0E0,0E0,0E0,0E0,0E0,0E0,0E0],"parents":[2147483647,0,0,1,1,2,2,3,3,4,4,5,5,6,6,7,7,8,8,9,9,10,10,11,11,12,12,13,13,14,14,18,18,21,21,23,23,24,24,25,25,27,27,29,29,30,30],"right_children":[2,4,6,8,10,12,14,16,18,20,22,24,26,28,30,-1,-1,-1,32,-1,-1,34,-1,36,38,40,-1,42,-1,44,46,-1,-1,-1,-1,-1,-1,-1,-1,-1,-1,-1,-1,-1,-1,-1,-1],"split_conditions":[1.0338465E0,1.5390035E3,1.17411E0,1.3780939E3,1.5507694E3,9.0818465E-1,1.1919148E0,9.6627784E-1,1.376623E3,9.2267925E-1,1.5902579E3,1.0239779E0,5.4544473E0,2.9239496E1,1.4447415E3,-6.0001337E-3,2.7736207E-2,4.031274E-3,8.8062495E-1,1.4643005E-2,5.445314E-2,1.1570817E0,-4.392555E-2,8.4329486E-1,1.4820891E3,4.6784043E0,1.1097816E-1,1.6145618E0,5.8275983E-2,1.0388794E0,1.4509175E3,-7.3449896E-3,-4.783686E-2,5.0783623E-3,-3.3665423E-3,7.147297E-2,7.1875905E-3,-2.250454E-2,5.3566206E-2,5.7103638E-2,-4.8744283E-3,-6.0168605E-2,2.2752534E-3,8.032273E-2,-1.773764E-2,3.8836446E-2,4.365633E-4],"split_indices":[10,8,0,7,8,14,0,0,8,0,8,1,19,9,8,0,0,0,1,0,0,1,0,0,7,19,0,1,0,10,8,0,0,0,0,0,0,0,0,0,0,0,0,0,0,0,0],"split_type":[0,0,0,0,0,0,0,0,0,0,0,0,0,0,0,0,0,0,0,0,0,0,0,0,0,0,0,0,0,0,0,0,0,0,0,0,0,0,0,0,0,0,0,0,0,0,0],"sum_hessian":[5.86E2,2.7E1,5.59E2,1.6E1,1.1E1,8.3E1,4.76E2,2E0,1.4E1,3E0,8E0,4.3E1,4E1,1.2E1,4.64E2,1E0,1E0,1E0,1.3E1,1E0,2E0,4E0,4E0,3E0,4E1,3.6E1,4E0,1.1E1,1E0,5.6E1,4.08E2,1E0,1.2E1,1E0,3E0,2E0,1E0,3.8E1,2E0,1.8E1,1.8E1,1E1,1E0,1E0,5.5E1,2E1,3.88E2],"tree_param":{"num_deleted":"0","num_feature":"26","num_nodes":"47","size_leaf_vector":"1"}},{"base_weights":[6.285847E-3,1.5845161E-2,-7.6345414E-1,-2.4253953E-1,4.317247E-2,-3.5189975E-3,-5.226879E-2,-5.124261E-1,2.6370347E-2,1.071921E-1,-8.779126E-2,-7.572136E-1,-8.7533884E-2,-7.268562E-1,2.2171769E-1,1.8970178E-2,3.2755333E-1,1.487651E-1,-2.5416654E-1,-4.676945E-3,-5.0555136E-2,7.5539765E-3,-4.191938E-2,-4.910336E-2,-8.075706E-3,7.8204565E-2,3.3979379E-3,3.431398E-2,-1.7897788E-3,-2.1794462E-3,2.93173E-2,-8.734342E-3,3.2764047E-2,-3.8766786E-2,-5.4297536E-3],"categories":[],"categories_nodes":[],"categories_segments":[],"categories_sizes":[],"default_left":[0,0,0,0,0,0,0,0,0,0,0,0,0,0,0,0,0,0,0,0,0,0,0,0,0,0,0,0,0,0,0,0,0,0,0],"id":36,"left_children":[1,3,5,7,9,-1,-1,11,13,15,17,19,21,23,25,27,29,31,33,-1,-1,-1,-1,-1,-1,-1,-1,-1,-1,-1,-1,-1,-1,-1,-1],"loss_changes":[4.1989055E0,3.9857905E0,4.8022175E-1,3.9325714E0,4.285378E0,0E0,0E0,2.7419424E0,4.281099E0,6.6619434E0,6.649809E0,9.201546E-1,1.5227348E0,2.1511817E-1,4.033329E0,6.6548433E0,5.761446E0,8.265361E0,6.2923946E0,0E0,0E0,0E0,0E0,0E0,